~o
<STREAMINFO> 1 39
<VECSIZE> 39<NULLD><MFCC_D_A_0><DIAGC>
~h "b"
<BEGINHMM>
<NUMSTATES> 5
<STATE> 2
<MEAN> 39
 -1.263810e+00 -1.761364e+00 4.619419e+00 -2.311639e+00 -3.564541e+00 -3.413928e+00 -5.219587e+00 -5.763598e+00 -5.164004e+00 -1.110862e+00 -1.388468e+00 -3.182554e+00 6.103164e+01 -1.039950e-02 7.224122e-01 4.960572e-01 6.713356e-01 3.849333e-01 3.993280e-01 1.787166e-01 -4.198008e-01 -1.405988e-01 -3.031925e-01 -3.493088e-02 -2.611076e-02 -8.091848e-01 -7.892893e-02 -1.556163e-01 -3.103831e-02 -2.562758e-01 -1.027352e-01 -3.822635e-02 3.927154e-02 1.869946e-01 9.190764e-02 -1.875079e-02 -3.630963e-02 2.412495e-02 2.335620e-01
<VARIANCE> 39
 2.568908e+01 2.296194e+01 2.882801e+01 5.439389e+01 3.926551e+01 5.774266e+01 5.127936e+01 5.660322e+01 5.285286e+01 3.904564e+01 4.122176e+01 3.715289e+01 3.569741e+01 8.725847e-01 1.221928e+00 1.378581e+00 2.521117e+00 2.143317e+00 2.292765e+00 2.321954e+00 2.394397e+00 2.364322e+00 2.180793e+00 2.064355e+00 2.046066e+00 1.417766e+00 1.292703e-01 2.227091e-01 2.397908e-01 4.299597e-01 3.914616e-01 3.841193e-01 4.221289e-01 4.860404e-01 4.498216e-01 4.187201e-01 3.804072e-01 3.654951e-01 2.423069e-01
<GCONST> 1.133449e+02
<STATE> 3
<MEAN> 39
 -6.134391e-01 -3.181338e-02 5.782052e+00 -1.593218e+00 -3.009711e+00 -3.212970e+00 -5.487747e+00 -6.908029e+00 -5.922403e+00 -2.161730e+00 -2.130589e+00 -3.938583e+00 6.013278e+01 -2.067940e-01 3.007518e-01 4.481171e-01 4.403719e-02 1.451479e-01 2.575336e-01 2.479751e-01 1.207773e-01 1.969677e-01 -2.208913e-01 -2.265659e-02 7.148176e-02 -3.005472e-01 -9.040137e-02 -5.573776e-01 -1.519672e-01 -6.739217e-01 -4.172399e-01 -2.930733e-01 -5.155191e-02 3.880497e-01 1.324606e-01 1.933732e-01 6.439516e-03 9.926398e-02 6.957780e-01
<VARIANCE> 39
 1.486074e+01 2.269085e+01 2.905187e+01 5.378005e+01 3.280773e+01 4.800911e+01 4.283673e+01 4.829010e+01 4.126713e+01 3.644656e+01 3.785605e+01 2.997023e+01 2.692495e+01 1.006212e+00 1.260174e+00 1.572159e+00 2.862588e+00 2.403276e+00 2.645719e+00 2.377820e+00 2.823371e+00 2.690919e+00 2.209164e+00 2.111765e+00 2.171153e+00 1.520586e+00 1.716513e-01 3.035429e-01 4.988510e-01 7.201126e-01 6.156862e-01 5.493330e-01 5.675564e-01 6.421332e-01 6.151896e-01 5.140648e-01 5.047370e-01 4.628774e-01 3.789875e-01
<GCONST> 1.170642e+02
<STATE> 4
<MEAN> 39
 -1.379961e+00 -2.786057e-01 6.386711e+00 -2.246376e+00 -2.877050e+00 -2.711824e+00 -5.154092e+00 -6.255170e+00 -4.762883e+00 -2.110025e+00 -2.107402e+00 -3.443756e+00 6.029813e+01 -1.662108e-01 -1.199681e+00 -2.455597e-01 -1.790666e+00 -1.072396e+00 -6.627375e-01 -1.245084e-01 9.570778e-01 4.601174e-01 4.727843e-01 1.044330e-01 2.565770e-01 1.619662e+00 3.626692e-02 -5.973188e-01 -1.954368e-01 -7.852516e-01 -5.963575e-01 -2.877962e-01 -1.002334e-01 2.395416e-01 -4.438616e-02 2.136578e-01 -6.482409e-02 3.793110e-02 8.212777e-01
<VARIANCE> 39
 1.613466e+01 2.531719e+01 3.538007e+01 6.226444e+01 3.894279e+01 4.620616e+01 4.102983e+01 4.234301e+01 3.452456e+01 3.130506e+01 3.415517e+01 2.591349e+01 3.180607e+01 1.363281e+00 2.395734e+00 4.964693e+00 6.328291e+00 4.053374e+00 3.979774e+00 3.901932e+00 4.736560e+00 4.309304e+00 3.310132e+00 3.038115e+00 2.918621e+00 2.962939e+00 2.430426e-01 4.977133e-01 7.391664e-01 1.048507e+00 9.397973e-01 7.671660e-01 6.748899e-01 8.229251e-01 7.152504e-01 6.157070e-01 6.398105e-01 5.957288e-01 5.262145e-01
<GCONST> 1.281190e+02
<TRANSP> 5
 0.000000e+00 1.000000e+00 0.000000e+00 0.000000e+00 0.000000e+00
 0.000000e+00 5.640767e-01 4.359233e-01 0.000000e+00 0.000000e+00
 0.000000e+00 0.000000e+00 3.715077e-01 6.284923e-01 0.000000e+00
 0.000000e+00 0.000000e+00 0.000000e+00 5.316057e-01 4.683943e-01
 0.000000e+00 0.000000e+00 0.000000e+00 0.000000e+00 0.000000e+00
<ENDHMM>
~h "d"
<BEGINHMM>
<NUMSTATES> 5
<STATE> 2
<MEAN> 39
 -4.071877e+00 3.713131e-02 6.201263e+00 -1.114273e+00 -3.409700e+00 -5.505771e+00 -5.121842e+00 -3.710445e+00 -2.121594e+00 -2.759097e+00 -3.814854e+00 -2.503661e+00 6.097505e+01 -2.013465e-01 -1.443134e-01 2.358126e-01 -2.748734e-01 -3.574874e-01 -6.231421e-01 -1.535105e-01 1.818658e-01 -2.174715e-01 -8.883571e-02 1.840380e-01 1.380596e-01 8.045316e-01 -1.803663e-03 -4.564103e-01 -1.982998e-01 -6.674759e-01 -6.420067e-01 -2.789324e-01 -1.107467e-02 1.822989e-01 -2.459319e-02 1.824583e-01 1.294595e-01 1.260612e-01 7.311964e-01
<VARIANCE> 39
 1.763239e+01 2.592958e+01 3.216405e+01 5.328382e+01 5.001893e+01 5.889787e+01 4.797091e+01 3.993018e+01 3.460736e+01 3.834438e+01 3.581678e+01 3.435326e+01 5.141359e+01 2.262231e+00 3.106844e+00 3.055435e+00 6.342142e+00 6.436221e+00 5.947280e+00 4.599823e+00 4.317841e+00 3.574057e+00 3.213552e+00 3.550310e+00 3.246781e+00 6.185368e+00 3.244236e-01 3.948239e-01 4.882835e-01 8.667156e-01 1.121353e+00 1.040201e+00 8.165934e-01 7.299922e-01 6.484421e-01 5.989104e-01 5.863473e-01 5.743495e-01 7.596717e-01
<GCONST> 1.317087e+02
<STATE> 3
<MEAN> 39
 -4.471210e+00 -3.047590e+00 4.884256e+00 -5.922455e+00 -7.494179e+00 -9.843296e+00 -6.418679e+00 -2.129734e+00 -2.157900e+00 -1.913307e+00 -2.553268e+00 -9.493335e-01 6.778535e+01 -1.927255e-03 -1.268596e+00 -1.150385e-01 -1.865473e+00 -2.110586e+00 -1.220315e+00 -1.448853e-01 5.690543e-01 -1.314628e-01 5.445079e-01 4.673037e-01 4.065552e-01 2.231219e+00 1.473756e-01 -7.414111e-02 9.622253e-02 -2.187569e-01 -3.392373e-01 2.091528e-01 1.085207e-01 -1.155309e-01 -1.079568e-01 1.174540e-01 -9.975240e-02 -1.461833e-01 3.346365e-03
<VARIANCE> 39
 1.551447e+01 2.478642e+01 3.360804e+01 6.309354e+01 6.417506e+01 5.835569e+01 5.492921e+01 4.655862e+01 3.944659e+01 4.160119e+01 3.925935e+01 3.356199e+01 3.847714e+01 1.712560e+00 2.773242e+00 4.081350e+00 6.676270e+00 7.399209e+00 5.586759e+00 5.390480e+00 5.046752e+00 4.434253e+00 4.225085e+00 3.777636e+00 3.315964e+00 4.644815e+00 3.303154e-01 4.533363e-01 5.204716e-01 1.025288e+00 1.262845e+00 9.884207e-01 8.456308e-01 7.977794e-01 6.567730e-01 6.077254e-01 6.209538e-01 6.104082e-01 8.364185e-01
<GCONST> 1.337165e+02
<STATE> 4
<MEAN> 39
 -3.663812e+00 -5.246799e+00 4.642253e+00 -9.402326e+00 -1.208235e+01 -1.086089e+01 -6.881514e+00 -1.746964e+00 -2.522911e+00 -9.255502e-01 -2.360283e+00 -1.225536e+00 7.109592e+01 7.077691e-02 -6.780202e-01 2.878011e-01 -1.130335e+00 -1.455192e+00 -1.663328e-01 1.571667e-01 1.345866e-01 -3.222422e-01 3.913271e-01 1.703850e-01 -4.261635e-03 1.023557e+00 1.807284e-02 2.172005e-01 1.066180e-01 2.494244e-01 3.083141e-01 3.919577e-01 9.003105e-02 -1.749937e-01 -6.840654e-02 -3.860245e-02 -1.113794e-01 -1.186704e-01 -4.289029e-01
<VARIANCE> 39
 1.437633e+01 2.663761e+01 5.139355e+01 7.242394e+01 7.080283e+01 6.215604e+01 6.442105e+01 6.553740e+01 5.002869e+01 5.767545e+01 4.941961e+01 3.878593e+01 2.536959e+01 1.205850e+00 2.328668e+00 3.379191e+00 5.117931e+00 6.503237e+00 4.091141e+00 4.625465e+00 4.511167e+00 3.692733e+00 3.553047e+00 3.020328e+00 2.804787e+00 3.199372e+00 2.121533e-01 3.519642e-01 4.434456e-01 7.931966e-01 9.614921e-01 7.081981e-01 7.762401e-01 7.471505e-01 6.110290e-01 6.152166e-01 5.547085e-01 5.176274e-01 5.177243e-01
<GCONST> 1.299670e+02
<TRANSP> 5
 0.000000e+00 1.000000e+00 0.000000e+00 0.000000e+00 0.000000e+00
 0.000000e+00 5.900110e-01 4.099890e-01 0.000000e+00 0.000000e+00
 0.000000e+00 0.000000e+00 3.608862e-01 6.391138e-01 0.000000e+00
 0.000000e+00 0.000000e+00 0.000000e+00 4.008554e-01 5.991446e-01
 0.000000e+00 0.000000e+00 0.000000e+00 0.000000e+00 0.000000e+00
<ENDHMM>
~h "f"
<BEGINHMM>
<NUMSTATES> 5
<STATE> 2
<MEAN> 39
 -1.219135e+01 -3.167687e+00 3.535149e+00 -3.875103e-01 5.973910e-01 9.724998e-01 1.797211e-02 1.846752e+00 2.620336e-01 5.430217e-01 7.331078e-01 1.256681e+00 6.140765e+01 -2.248861e+00 -2.450745e-01 2.428088e-02 8.701371e-01 8.442264e-01 7.519594e-01 7.298179e-01 1.065235e+00 1.161093e+00 7.596871e-01 8.904791e-01 8.994274e-01 -5.872474e-01 3.243548e-01 -2.733171e-01 -1.437661e-01 -4.834959e-01 -4.397910e-01 -2.959201e-01 -1.881082e-01 -1.477806e-01 -1.499291e-01 -6.491136e-03 -6.712332e-02 -6.701140e-02 3.715532e-01
<VARIANCE> 39
 3.701902e+01 1.515557e+01 2.134087e+01 2.049663e+01 2.061653e+01 2.275587e+01 2.234368e+01 2.399150e+01 2.568879e+01 2.371438e+01 2.421152e+01 2.063044e+01 2.448276e+01 4.254792e+00 2.243820e+00 2.792874e+00 3.623521e+00 3.379164e+00 3.132564e+00 2.713695e+00 3.332017e+00 3.250544e+00 2.603391e+00 2.793059e+00 2.347172e+00 1.735810e+00 6.373018e-01 3.834686e-01 4.083035e-01 5.407162e-01 5.250126e-01 4.862428e-01 4.833725e-01 6.072583e-01 5.605120e-01 5.060433e-01 4.771957e-01 4.335651e-01 2.233849e-01
<GCONST> 1.162011e+02
<STATE> 3
<MEAN> 39
 -1.691437e+01 -5.941176e+00 2.193970e+00 -5.417135e-01 9.691141e-01 1.300311e+00 9.722850e-01 3.840077e+00 2.569281e+00 2.507257e+00 2.869687e+00 3.441571e+00 6.241469e+01 8.153945e-01 -2.678031e-01 -2.325405e-01 -7.638434e-01 -6.062500e-01 -4.878225e-01 -2.530299e-01 -3.281101e-01 -4.269735e-01 -2.360640e-01 -2.236497e-01 -2.262862e-01 5.635728e-01 9.006402e-01 1.536735e-01 6.212705e-02 -4.786481e-01 -4.399580e-01 -3.041621e-01 -2.844674e-01 -4.248348e-01 -4.878398e-01 -2.346348e-01 -3.034573e-01 -3.284728e-01 2.122694e-01
<VARIANCE> 39
 1.449448e+01 1.319032e+01 1.706791e+01 1.336240e+01 1.404858e+01 1.623522e+01 1.609277e+01 1.688378e+01 1.682983e+01 1.648047e+01 1.572504e+01 1.369871e+01 1.588225e+01 4.820878e+00 1.589746e+00 1.886146e+00 2.805545e+00 2.379531e+00 2.254983e+00 1.987590e+00 2.426584e+00 2.706922e+00 2.221487e+00 2.203607e+00 1.949736e+00 1.217371e+00 4.024526e-01 3.221112e-01 3.910431e-01 5.840417e-01 4.934691e-01 4.617846e-01 4.658435e-01 5.295210e-01 4.934294e-01 4.568032e-01 4.773622e-01 3.671910e-01 2.410946e-01
<GCONST> 1.065100e+02
<STATE> 4
<MEAN> 39
 -7.164080e+00 -5.046583e+00 1.194434e+00 -6.504131e+00 -3.886805e+00 -2.063474e+00 -1.578837e+00 -1.488819e-02 -2.015093e+00 -4.576176e-01 9.676261e-02 3.731940e-01 6.538658e+01 4.003488e+00 5.611561e-02 -1.787507e-01 -3.003390e+00 -2.588475e+00 -1.525629e+00 -1.349123e+00 -1.731167e+00 -2.018640e+00 -5.640305e-01 -9.629386e-01 -1.262856e+00 1.457885e+00 -2.239331e-01 -1.755080e-01 1.237266e-01 -6.715935e-02 -7.164809e-02 2.858109e-02 -1.650158e-01 -1.244415e-03 1.156042e-01 3.058206e-01 8.386991e-02 7.925760e-03 1.581356e-01
<VARIANCE> 39
 6.857215e+01 1.803347e+01 4.540272e+01 6.658183e+01 3.944789e+01 4.209380e+01 3.272855e+01 3.507401e+01 3.354192e+01 2.368203e+01 2.541656e+01 1.924080e+01 1.839689e+01 3.650808e+00 3.547503e+00 5.850895e+00 7.599464e+00 4.858470e+00 5.010210e+00 4.240601e+00 5.014014e+00 4.680074e+00 3.881839e+00 4.898055e+00 2.870997e+00 1.817011e+00 1.144707e+00 5.040128e-01 4.486664e-01 1.166326e+00 8.815025e-01 7.012203e-01 7.067109e-01 7.589301e-01 8.067916e-01 6.332924e-01 6.628185e-01 4.640118e-01 2.648743e-01
<GCONST> 1.303186e+02
<TRANSP> 5
 0.000000e+00 1.000000e+00 0.000000e+00 0.000000e+00 0.000000e+00
 0.000000e+00 7.471379e-01 2.528622e-01 0.000000e+00 0.000000e+00
 0.000000e+00 0.000000e+00 7.797087e-01 2.202914e-01 0.000000e+00
 0.000000e+00 0.000000e+00 0.000000e+00 4.804303e-01 5.195697e-01
 0.000000e+00 0.000000e+00 0.000000e+00 0.000000e+00 0.000000e+00
<ENDHMM>
~h "g"
<BEGINHMM>
<NUMSTATES> 5
<STATE> 2
<MEAN> 39
 -1.374787e+00 -4.589585e+00 2.969462e+00 -7.779223e+00 -8.175534e+00 -5.874194e+00 -5.518412e+00 -2.724204e+00 -4.732780e+00 4.509987e-01 -2.305377e+00 -1.548525e+00 6.634995e+01 3.593521e-01 3.268028e-01 1.951348e-02 -2.653176e-01 -3.931310e-01 -1.404024e-01 -1.272260e-01 -2.705906e-01 -4.270812e-01 1.526528e-01 1.119318e-01 4.316854e-02 -5.471326e-02 -4.774393e-02 -8.972163e-02 -4.107212e-02 -1.710327e-02 -2.351577e-02 6.713407e-02 6.006756e-02 1.013042e-01 5.155417e-02 -5.392340e-02 1.104330e-02 -7.855257e-02 7.348000e-02
<VARIANCE> 39
 2.121063e+01 4.281416e+01 4.835749e+01 7.560619e+01 7.475102e+01 7.444914e+01 6.625428e+01 7.417732e+01 6.032177e+01 5.429251e+01 6.443523e+01 3.938624e+01 4.528601e+01 8.969136e-01 2.264001e+00 2.302212e+00 4.701469e+00 3.958449e+00 3.478652e+00 3.352528e+00 3.484454e+00 3.166647e+00 3.226694e+00 2.713498e+00 2.707360e+00 3.286263e+00 1.566235e-01 3.298514e-01 3.269380e-01 6.041396e-01 7.223406e-01 5.951260e-01 6.860508e-01 6.038455e-01 5.992954e-01 5.922902e-01 4.880297e-01 4.636106e-01 3.853823e-01
<GCONST> 1.274560e+02
<STATE> 3
<MEAN> 39
 -5.876120e-01 -3.450603e+00 3.179783e+00 -8.666646e+00 -9.721985e+00 -6.061755e+00 -5.748402e+00 -3.116108e+00 -5.915229e+00 9.191857e-01 -2.067323e+00 -1.715669e+00 6.632559e+01 1.203213e-01 1.807644e-01 -8.292510e-02 -7.356656e-02 -1.782754e-01 4.263333e-02 6.331754e-02 2.497787e-02 -1.103439e-01 9.292021e-03 1.763552e-01 -7.789394e-02 -1.046311e-01 -5.583967e-02 -1.758598e-01 -8.744030e-02 -2.155190e-02 9.006870e-02 3.201274e-02 4.634626e-03 1.431744e-01 1.276786e-01 -6.769477e-02 -8.940028e-03 -8.234492e-02 1.324477e-01
<VARIANCE> 39
 1.907379e+01 3.873315e+01 5.018755e+01 7.906246e+01 6.856551e+01 7.403590e+01 5.904238e+01 7.424365e+01 5.949770e+01 5.504394e+01 6.685960e+01 4.390585e+01 3.750130e+01 5.281752e-01 1.659841e+00 1.666274e+00 3.610191e+00 3.195797e+00 2.706976e+00 2.843402e+00 2.939888e+00 2.797906e+00 2.796200e+00 2.336690e+00 2.344154e+00 2.004131e+00 1.040929e-01 2.990054e-01 2.827952e-01 5.728424e-01 6.099845e-01 4.916332e-01 5.482321e-01 5.523772e-01 5.608023e-01 5.360709e-01 4.459234e-01 4.681657e-01 3.562488e-01
<GCONST> 1.220966e+02
<STATE> 4
<MEAN> 39
 -5.960836e-01 -3.448925e+00 2.243164e+00 -8.801568e+00 -9.344568e+00 -4.461547e+00 -5.294762e+00 -1.080780e+00 -4.812655e+00 -8.500591e-02 -1.142929e-01 -2.074847e+00 6.536882e+01 1.581270e-03 -1.883696e-01 -1.718356e-01 -3.476076e-03 1.258993e-01 2.155678e-02 1.204639e-02 1.617530e-01 1.442900e-01 -5.463665e-02 8.505781e-02 -6.479457e-02 9.415847e-02 -2.983889e-02 -1.396939e-01 -4.278021e-02 -7.453525e-03 1.221820e-01 7.120615e-03 -5.691132e-02 3.273252e-02 6.953351e-02 -1.311085e-02 -4.077740e-02 -1.101932e-02 9.101187e-02
<VARIANCE> 39
 2.442371e+01 3.991947e+01 4.628455e+01 9.222133e+01 6.888396e+01 7.726450e+01 5.836702e+01 7.618819e+01 5.898660e+01 4.875174e+01 6.736254e+01 5.128388e+01 4.983918e+01 5.381666e-01 1.400509e+00 1.483484e+00 2.889917e+00 2.942925e+00 2.377772e+00 2.573140e+00 2.833143e+00 2.761155e+00 2.429168e+00 2.262385e+00 2.291628e+00 1.580935e+00 9.607343e-02 2.727054e-01 2.628016e-01 4.970261e-01 5.183252e-01 4.436529e-01 4.773978e-01 5.486742e-01 4.814480e-01 4.461805e-01 4.087635e-01 4.266341e-01 3.371790e-01
<GCONST> 1.201719e+02
<TRANSP> 5
 0.000000e+00 1.000000e+00 0.000000e+00 0.000000e+00 0.000000e+00
 0.000000e+00 3.972607e-01 6.027393e-01 0.000000e+00 0.000000e+00
 0.000000e+00 0.000000e+00 4.314320e-01 5.685681e-01 0.000000e+00
 0.000000e+00 0.000000e+00 0.000000e+00 6.273979e-01 3.726021e-01
 0.000000e+00 0.000000e+00 0.000000e+00 0.000000e+00 0.000000e+00
<ENDHMM>
~h "k"
<BEGINHMM>
<NUMSTATES> 5
<STATE> 2
<MEAN> 39
 -7.652562e+00 -3.325007e+00 5.044881e+00 -8.444359e-01 -1.656839e+00 -1.357413e+00 4.502606e-01 5.903810e-01 2.152386e-01 1.841291e+00 7.876890e-01 1.344613e+00 5.693505e+01 -1.036101e+00 -2.515425e-01 -2.940201e-01 1.033866e+00 1.342845e+00 1.279521e+00 1.008201e+00 7.181880e-01 1.263265e+00 6.287449e-01 8.947415e-01 7.881401e-01 -1.738513e+00 2.668722e-02 -3.736025e-01 -3.938854e-01 -6.374841e-01 -2.550340e-01 -1.617316e-01 -1.561693e-01 4.063451e-02 -1.828035e-01 2.579130e-02 -8.600088e-02 -3.162771e-04 7.585826e-01
<VARIANCE> 39
 2.064830e+01 1.728578e+01 3.156233e+01 4.495776e+01 4.803564e+01 5.635827e+01 4.079391e+01 4.224791e+01 4.518824e+01 3.503152e+01 3.860913e+01 2.766178e+01 4.333985e+01 1.878643e+00 2.901093e+00 3.762815e+00 6.070301e+00 4.802732e+00 4.562986e+00 3.936829e+00 4.270454e+00 4.830104e+00 3.319031e+00 3.976117e+00 2.613745e+00 5.526923e+00 3.247530e-01 4.702723e-01 6.155494e-01 8.799234e-01 7.958518e-01 8.685482e-01 7.290477e-01 7.785392e-01 9.661717e-01 6.771911e-01 7.104538e-01 4.949805e-01 7.671102e-01
<GCONST> 1.306743e+02
<STATE> 3
<MEAN> 39
 -1.062382e+01 -6.105719e+00 1.478150e+00 -1.514788e+00 1.587067e+00 1.456067e+00 2.419238e+00 2.703750e+00 2.151518e+00 4.355670e+00 2.985600e+00 4.084105e+00 5.627490e+01 -1.282236e-01 -7.942134e-01 -1.642460e+00 -1.568095e+00 1.124293e-01 -2.717430e-01 -2.861980e-01 2.332920e-01 -6.990582e-01 3.239279e-01 -2.701240e-01 2.409324e-01 1.845415e+00 5.664223e-01 2.820289e-01 5.674878e-02 -5.902333e-01 -6.494780e-01 -5.475147e-01 -4.671528e-01 -3.545762e-01 -6.127971e-01 -3.505514e-01 -4.214376e-01 -4.358295e-01 7.811234e-01
<VARIANCE> 39
 1.640363e+01 2.111042e+01 4.032856e+01 4.021466e+01 3.818612e+01 3.889165e+01 3.002757e+01 3.061544e+01 3.239951e+01 2.944835e+01 2.526680e+01 2.086193e+01 3.561828e+01 2.754074e+00 3.117360e+00 5.408380e+00 6.060044e+00 5.596978e+00 5.795918e+00 4.242524e+00 4.533138e+00 5.208288e+00 3.904739e+00 3.844216e+00 2.965796e+00 5.628560e+00 4.417037e-01 5.927343e-01 9.605951e-01 9.056476e-01 9.382617e-01 8.596933e-01 7.223960e-01 8.109375e-01 8.269183e-01 7.162531e-01 6.918858e-01 5.595859e-01 7.844222e-01
<GCONST> 1.310488e+02
<STATE> 4
<MEAN> 39
 -6.936352e+00 -5.936352e+00 -2.217044e+00 -8.979525e+00 -2.223515e+00 -2.214784e+00 -1.336038e+00 9.430169e-01 -3.166810e+00 2.953861e+00 1.325028e-01 1.658953e+00 6.506914e+01 1.848969e+00 4.823158e-01 1.653613e-01 -1.956165e+00 -2.185282e+00 -1.344793e+00 -1.094776e+00 -8.592405e-01 -1.323057e+00 -9.376950e-01 -8.821552e-01 -1.278883e+00 2.072452e+00 1.935663e-01 2.437642e-02 4.327282e-01 2.438863e-01 -2.115014e-01 7.738935e-02 4.613785e-02 -8.541667e-02 1.983741e-01 -2.132417e-01 6.607534e-02 -2.088180e-01 -2.939808e-01
<VARIANCE> 39
 4.295379e+01 3.269268e+01 6.805162e+01 7.669534e+01 8.115592e+01 6.810939e+01 5.193781e+01 6.106304e+01 5.127554e+01 4.676254e+01 4.559627e+01 3.461054e+01 3.815825e+01 3.873799e+00 3.310908e+00 5.145096e+00 6.751795e+00 7.270919e+00 5.710272e+00 5.370591e+00 5.717392e+00 5.544864e+00 4.522884e+00 4.629095e+00 4.177097e+00 3.895896e+00 6.752377e-01 7.462249e-01 1.043468e+00 1.085238e+00 1.505631e+00 1.142966e+00 9.855203e-01 1.101107e+00 9.978303e-01 8.994349e-01 7.674165e-01 7.738881e-01 5.584666e-01
<GCONST> 1.425976e+02
<TRANSP> 5
 0.000000e+00 1.000000e+00 0.000000e+00 0.000000e+00 0.000000e+00
 0.000000e+00 7.033455e-01 2.966546e-01 0.000000e+00 0.000000e+00
 0.000000e+00 0.000000e+00 6.275122e-01 3.724878e-01 0.000000e+00
 0.000000e+00 0.000000e+00 0.000000e+00 6.433045e-01 3.566954e-01
 0.000000e+00 0.000000e+00 0.000000e+00 0.000000e+00 0.000000e+00
<ENDHMM>
~h "l"
<BEGINHMM>
<NUMSTATES> 5
<STATE> 2
<MEAN> 39
 -4.373311e+00 -4.214118e+00 6.450184e+00 -5.193816e+00 -6.442422e+00 -5.328674e+00 -8.777369e+00 -2.763712e+00 9.717813e-02 -1.328640e+00 -1.929934e+00 -3.246814e-01 6.449809e+01 -3.722280e-01 6.300011e-01 6.168363e-01 3.038459e-01 5.034097e-01 5.102570e-01 -3.275910e-01 -4.782516e-01 1.953880e-01 3.519569e-02 1.246790e-02 3.178407e-01 -7.133710e-01 3.045187e-02 -3.030969e-01 -3.175869e-01 -2.197424e-01 -1.130203e-01 7.708337e-02 3.730620e-01 2.987980e-01 -1.022019e-01 8.592547e-02 2.981201e-02 -1.119531e-01 2.244416e-01
<VARIANCE> 39
 2.916021e+01 2.586236e+01 3.968417e+01 5.542261e+01 6.413163e+01 6.529169e+01 9.100306e+01 6.300239e+01 4.654608e+01 5.036155e+01 5.102265e+01 4.685060e+01 5.074206e+01 1.317764e+00 1.993051e+00 2.571923e+00 2.890530e+00 2.985140e+00 3.566032e+00 5.312578e+00 4.665417e+00 3.200827e+00 3.092179e+00 2.810319e+00 2.548662e+00 1.864158e+00 2.164591e-01 3.892713e-01 4.676044e-01 5.689103e-01 6.195397e-01 7.251383e-01 9.436817e-01 8.839623e-01 6.408393e-01 6.262529e-01 5.833741e-01 5.195033e-01 2.597169e-01
<GCONST> 1.276548e+02
<STATE> 3
<MEAN> 39
 -4.680793e+00 -3.800725e+00 7.104096e+00 -5.332135e+00 -6.159425e+00 -4.647715e+00 -8.988510e+00 -3.229079e+00 2.324883e-01 -1.108090e+00 -2.150504e+00 -1.046575e-01 6.395063e+01 -1.655161e-01 -3.813293e-02 -4.644586e-02 -4.648764e-02 1.610414e-01 3.409716e-01 2.902337e-01 1.849300e-01 4.201311e-02 1.950851e-01 1.286197e-01 3.031269e-02 -1.937772e-01 1.019910e-01 -3.562706e-01 -3.906086e-01 -1.768213e-01 -1.785545e-01 -6.911637e-02 3.985410e-01 3.532825e-01 -1.204067e-01 6.441760e-02 2.833243e-02 -1.449042e-01 2.943866e-01
<VARIANCE> 39
 2.804624e+01 2.557536e+01 3.782577e+01 5.525098e+01 6.151341e+01 6.336404e+01 9.749429e+01 6.418652e+01 4.588846e+01 4.868142e+01 5.525649e+01 4.681578e+01 5.055571e+01 1.002750e+00 1.560213e+00 2.090414e+00 2.378502e+00 2.369519e+00 2.946129e+00 3.723420e+00 3.791006e+00 2.793762e+00 2.606856e+00 2.445457e+00 2.244968e+00 1.426583e+00 1.783005e-01 3.845093e-01 4.665832e-01 5.205148e-01 5.678386e-01 6.852611e-01 1.073677e+00 8.857790e-01 6.163141e-01 6.067328e-01 5.882636e-01 5.129992e-01 2.631698e-01
<GCONST> 1.244796e+02
<STATE> 4
<MEAN> 39
 -1.028639e+01 -5.819251e+00 5.261631e+00 -1.344727e+00 -2.127862e-02 1.670320e+00 9.509078e-01 2.069095e+00 2.364183e+00 1.260113e+00 2.893797e+00 3.304775e+00 5.580094e+01 5.784923e-02 -5.072374e-02 -8.727537e-02 -4.267991e-02 -7.487243e-02 1.510221e-02 1.000259e-01 5.133644e-02 -5.013131e-02 2.889662e-02 -4.043027e-02 -8.427327e-02 4.756297e-02 6.725777e-02 -3.229069e-02 -6.302856e-02 -7.550950e-02 -7.168485e-02 -7.818817e-02 -1.400454e-02 1.023756e-02 -6.150900e-02 -2.698317e-02 -5.311226e-02 -5.969077e-02 1.373046e-01
<VARIANCE> 39
 2.011141e+01 1.707139e+01 1.676383e+01 2.817378e+01 3.351122e+01 3.846776e+01 5.188492e+01 3.628477e+01 2.780770e+01 2.660182e+01 3.200616e+01 2.447866e+01 4.233250e+01 6.548516e-01 1.017508e+00 1.221023e+00 1.450080e+00 1.670623e+00 2.009202e+00 2.404508e+00 2.382615e+00 1.979875e+00 1.947472e+00 1.812151e+00 1.613123e+00 8.666332e-01 1.244287e-01 1.917796e-01 2.297842e-01 2.938264e-01 3.389128e-01 3.983584e-01 4.965810e-01 4.289697e-01 3.935305e-01 3.919276e-01 3.572659e-01 3.152218e-01 1.739485e-01
<GCONST> 1.050105e+02
<TRANSP> 5
 0.000000e+00 1.000000e+00 0.000000e+00 0.000000e+00 0.000000e+00
 0.000000e+00 3.810750e-01 6.189249e-01 0.000000e+00 0.000000e+00
 0.000000e+00 0.000000e+00 3.032380e-01 6.967620e-01 0.000000e+00
 0.000000e+00 0.000000e+00 0.000000e+00 8.179564e-01 1.820436e-01
 0.000000e+00 0.000000e+00 0.000000e+00 0.000000e+00 0.000000e+00
<ENDHMM>
~h "m"
<BEGINHMM>
<NUMSTATES> 5
<STATE> 2
<MEAN> 39
 8.623898e-01 -3.044705e+00 2.189836e+00 -3.788737e+00 -4.959905e+00 -5.500139e+00 -7.006632e+00 -7.809769e+00 -7.702699e+00 -1.556662e+00 -2.174529e+00 -4.889616e+00 6.497778e+01 8.457086e-02 1.137308e+00 8.190941e-01 1.965987e+00 7.048281e-01 -8.487305e-02 -2.781006e-01 -2.036225e+00 -1.426235e+00 1.689128e-01 1.911478e-01 -4.858685e-01 -9.927137e-01 -1.888346e-01 -2.985913e-01 -2.879120e-03 -4.501539e-01 -2.030451e-01 8.990224e-02 1.503514e-01 3.900895e-01 1.191479e-01 -8.896404e-02 -6.532317e-02 9.190137e-02 3.579164e-01
<VARIANCE> 39
 1.125273e+01 2.289879e+01 3.102490e+01 4.851249e+01 4.419697e+01 5.680231e+01 5.290622e+01 6.094848e+01 4.710390e+01 4.576810e+01 4.429666e+01 3.422928e+01 2.043087e+01 1.192242e+00 2.012974e+00 3.322046e+00 3.965081e+00 3.183792e+00 3.850279e+00 4.581087e+00 4.555730e+00 4.455324e+00 4.497987e+00 3.177196e+00 2.979042e+00 1.490585e+00 1.564807e-01 2.721399e-01 4.688363e-01 5.869371e-01 4.811150e-01 5.017444e-01 6.287936e-01 7.873788e-01 7.188675e-01 6.205736e-01 4.959224e-01 4.770426e-01 1.751560e-01
<GCONST> 1.225502e+02
<STATE> 3
<MEAN> 39
 6.963532e-01 -2.212110e+00 3.656988e+00 -1.532559e+00 -4.372567e+00 -5.201649e+00 -7.170663e+00 -1.042643e+01 -1.047708e+01 -1.744936e+00 -1.920215e+00 -5.705149e+00 6.438563e+01 -5.100323e-02 -1.543197e-01 -3.399489e-02 -2.909369e-01 -5.145297e-02 8.837746e-02 9.546760e-02 2.893971e-01 3.255659e-02 -1.953866e-01 -9.574978e-02 -1.490301e-01 1.974155e-01 -4.630995e-02 -4.050715e-01 -2.949322e-01 -8.267564e-01 -2.615611e-01 9.776281e-02 1.558274e-01 7.776765e-01 5.384114e-01 -1.059932e-01 -7.036079e-02 1.866006e-01 3.715356e-01
<VARIANCE> 39
 6.322067e+00 1.911695e+01 2.281995e+01 3.994588e+01 4.352007e+01 6.487637e+01 5.865863e+01 6.136963e+01 4.593439e+01 5.463609e+01 4.681504e+01 3.814042e+01 1.287373e+01 4.643781e-01 1.155241e+00 1.595645e+00 2.830802e+00 1.607064e+00 2.271065e+00 2.167909e+00 3.207557e+00 2.894433e+00 2.494824e+00 1.959068e+00 1.929327e+00 9.451272e-01 1.303781e-01 2.246316e-01 4.462949e-01 4.620915e-01 4.033957e-01 5.199494e-01 6.709291e-01 6.818908e-01 7.246358e-01 7.516693e-01 5.149329e-01 5.310554e-01 1.396247e-01
<GCONST> 1.133350e+02
<STATE> 4
<MEAN> 39
 7.996257e-01 -3.588032e+00 1.162221e+00 -6.986302e+00 -6.138945e+00 -4.130491e+00 -5.847929e+00 -5.640495e+00 -7.609035e+00 -3.510234e+00 -2.791974e+00 -5.852792e+00 6.673599e+01 -1.751123e-01 -9.369559e-01 -5.846356e-01 -2.090417e+00 -6.293848e-01 2.545814e-01 3.414144e-01 1.801619e+00 1.123527e+00 -2.531935e-01 -8.624519e-02 4.008137e-01 9.697964e-01 -1.524691e-01 -8.925076e-02 1.110174e-01 -1.296217e-01 -4.194706e-02 1.486581e-01 7.185444e-02 2.949366e-02 7.171191e-03 4.552487e-02 3.810659e-02 1.712855e-01 7.459475e-02
<VARIANCE> 39
 8.358391e+00 2.591108e+01 4.419239e+01 6.575371e+01 5.152800e+01 6.584100e+01 5.342437e+01 6.225124e+01 5.314473e+01 5.419772e+01 4.582889e+01 3.362051e+01 2.169530e+01 8.851868e-01 2.081916e+00 4.240211e+00 4.164727e+00 3.770647e+00 3.870411e+00 4.646639e+00 4.986577e+00 5.220293e+00 4.737453e+00 3.446481e+00 3.288116e+00 1.585921e+00 1.130977e-01 2.677207e-01 4.679562e-01 7.271520e-01 5.570197e-01 5.610030e-01 6.393663e-01 7.877507e-01 7.674973e-01 6.487313e-01 5.338594e-01 4.809930e-01 1.406785e-01
<GCONST> 1.246117e+02
<TRANSP> 5
 0.000000e+00 1.000000e+00 0.000000e+00 0.000000e+00 0.000000e+00
 0.000000e+00 5.842807e-01 4.157193e-01 0.000000e+00 0.000000e+00
 0.000000e+00 0.000000e+00 6.446212e-01 3.553788e-01 0.000000e+00
 0.000000e+00 0.000000e+00 0.000000e+00 5.937739e-01 4.062260e-01
 0.000000e+00 0.000000e+00 0.000000e+00 0.000000e+00 0.000000e+00
<ENDHMM>
~h "n"
<BEGINHMM>
<NUMSTATES> 5
<STATE> 2
<MEAN> 39
 -5.724608e-01 -3.007990e+00 3.574290e+00 -6.417357e+00 -9.500969e+00 -7.163353e+00 -4.764322e+00 -3.850174e+00 -6.333622e+00 -2.157870e+00 -4.996449e+00 -3.646831e+00 6.638198e+01 4.179876e-01 1.184745e+00 6.108385e-01 1.544802e+00 -1.111033e-01 -7.335057e-01 1.044601e-01 -1.133633e+00 -4.024903e-01 9.410985e-02 -7.952715e-01 1.742232e-02 -1.076535e+00 -1.275425e-01 -9.167159e-02 -7.212313e-03 -2.457120e-01 4.439457e-02 1.871215e-01 -2.264972e-03 9.805235e-02 5.926459e-02 -4.000627e-02 1.083674e-01 4.081234e-02 1.348463e-01
<VARIANCE> 39
 1.292897e+01 2.540367e+01 4.011408e+01 6.701525e+01 6.740904e+01 6.505761e+01 5.264938e+01 7.271989e+01 5.249578e+01 5.792291e+01 5.869078e+01 4.837134e+01 2.805803e+01 9.924113e-01 1.696693e+00 3.101526e+00 3.314139e+00 4.060221e+00 3.811003e+00 4.024654e+00 4.165439e+00 3.749854e+00 3.757857e+00 3.323382e+00 2.971562e+00 1.623463e+00 1.565332e-01 2.903744e-01 3.696069e-01 5.395682e-01 5.427946e-01 6.057720e-01 5.738338e-01 7.195116e-01 6.066455e-01 5.845093e-01 5.521320e-01 4.400025e-01 1.998478e-01
<GCONST> 1.243774e+02
<STATE> 3
<MEAN> 39
 2.590617e-01 -4.989607e-01 4.943315e+00 -3.559647e+00 -9.893671e+00 -8.607806e+00 -4.698353e+00 -6.310478e+00 -7.192997e+00 -1.998488e+00 -6.600957e+00 -3.288718e+00 6.449842e+01 -1.149600e-01 4.723043e-01 3.303729e-01 4.434018e-01 3.224188e-01 1.626003e-01 -1.057501e-01 -1.205527e-01 -2.718385e-02 -2.033030e-01 -2.721076e-02 4.396491e-02 -4.801710e-01 -3.076296e-01 -3.836153e-01 -1.321449e-01 -4.621645e-01 2.488463e-01 4.138311e-01 -4.310282e-02 5.080580e-01 2.142672e-01 -7.233026e-02 3.612916e-01 1.997783e-02 2.701521e-01
<VARIANCE> 39
 7.490782e+00 1.915914e+01 2.990184e+01 4.641586e+01 5.097858e+01 5.636037e+01 4.691834e+01 6.229044e+01 4.654862e+01 6.017737e+01 5.333261e+01 5.263420e+01 1.502665e+01 7.775377e-01 1.830448e+00 1.854624e+00 2.821317e+00 2.889375e+00 2.933577e+00 2.806244e+00 3.660678e+00 2.909020e+00 2.691932e+00 2.612341e+00 2.104429e+00 1.630970e+00 1.845993e-01 3.294966e-01 4.311341e-01 5.733231e-01 6.117002e-01 6.235881e-01 6.564830e-01 6.927659e-01 6.638043e-01 6.586189e-01 5.537590e-01 5.305999e-01 2.262350e-01
<GCONST> 1.196488e+02
<STATE> 4
<MEAN> 39
 -1.041965e+00 -1.964574e-01 5.425198e+00 -3.232522e+00 -7.584167e+00 -5.743999e+00 -5.031041e+00 -4.629046e+00 -6.131982e+00 -3.158088e+00 -4.991085e+00 -2.995160e+00 6.301374e+01 -8.665675e-01 -4.749319e-01 -2.031978e-02 -2.663401e-01 1.065887e+00 9.873658e-01 3.779076e-02 9.781201e-01 6.339451e-01 -2.790015e-02 7.547050e-01 1.232692e-01 -1.083540e-01 -2.284884e-01 -3.492199e-01 -2.222548e-01 -2.836322e-01 7.134807e-02 1.946064e-01 1.487020e-01 2.567345e-01 2.180296e-01 1.726730e-01 2.095154e-01 1.026048e-01 2.008795e-01
<VARIANCE> 39
 1.238855e+01 2.782588e+01 3.008479e+01 4.733847e+01 5.248477e+01 5.049920e+01 4.488654e+01 5.692660e+01 4.199330e+01 4.957351e+01 4.547890e+01 3.967909e+01 3.097237e+01 1.395653e+00 2.447559e+00 2.503000e+00 4.114509e+00 3.773755e+00 3.422614e+00 3.750106e+00 3.929729e+00 3.669370e+00 3.515164e+00 3.075806e+00 2.754586e+00 2.483424e+00 2.187957e-01 3.532892e-01 3.677202e-01 4.867644e-01 5.559970e-01 5.351580e-01 5.617043e-01 6.320361e-01 5.784137e-01 5.696856e-01 4.994257e-01 4.493130e-01 2.345975e-01
<GCONST> 1.229120e+02
<TRANSP> 5
 0.000000e+00 1.000000e+00 0.000000e+00 0.000000e+00 0.000000e+00
 0.000000e+00 5.398328e-01 4.601672e-01 0.000000e+00 0.000000e+00
 0.000000e+00 0.000000e+00 5.528165e-01 4.471835e-01 0.000000e+00
 0.000000e+00 0.000000e+00 0.000000e+00 5.798609e-01 4.201391e-01
 0.000000e+00 0.000000e+00 0.000000e+00 0.000000e+00 0.000000e+00
<ENDHMM>
~h "p"
<BEGINHMM>
<NUMSTATES> 5
<STATE> 2
<MEAN> 39
 -7.892464e+00 -2.926071e+00 4.949890e+00 4.811418e-01 9.757571e-01 2.270280e+00 1.685184e+00 6.303342e-01 2.211609e+00 1.595903e+00 1.454883e+00 9.446106e-01 5.354164e+01 -1.049650e+00 -2.258876e-01 1.371914e-01 6.009215e-01 4.780929e-01 5.865437e-01 7.892413e-01 6.589950e-01 9.029125e-01 5.238526e-01 5.952376e-01 7.061517e-01 -1.041600e+00 2.039055e-01 -2.300891e-01 -2.915464e-01 -5.740561e-01 -3.617480e-01 -3.487491e-01 -3.269669e-01 -7.756540e-02 -2.335281e-01 -8.201093e-02 -1.024973e-01 -8.934901e-02 8.016207e-01
<VARIANCE> 39
 1.827418e+01 1.226045e+01 1.546325e+01 1.688574e+01 1.716558e+01 2.241046e+01 2.434164e+01 2.486926e+01 2.662931e+01 2.594534e+01 2.655914e+01 2.572593e+01 1.710685e+01 1.660519e+00 1.585258e+00 2.000917e+00 3.428596e+00 2.215585e+00 2.466538e+00 2.716086e+00 2.562574e+00 2.944342e+00 2.578945e+00 2.619535e+00 2.206027e+00 3.631038e+00 2.998053e-01 3.396038e-01 3.647001e-01 5.449767e-01 4.059335e-01 4.617332e-01 4.980557e-01 5.305092e-01 5.597990e-01 5.601913e-01 5.292279e-01 4.779647e-01 4.210973e-01
<GCONST> 1.122151e+02
<STATE> 3
<MEAN> 39
 -1.044006e+01 -4.317279e+00 4.003355e+00 -3.744750e-01 1.038435e+00 2.303032e+00 2.134590e+00 2.006909e+00 3.533071e+00 2.768529e+00 2.940199e+00 2.720865e+00 5.467962e+01 1.013033e+00 -4.892722e-01 -9.126264e-01 -1.955513e+00 -1.198918e+00 -1.603115e+00 -1.430493e+00 -3.238368e-01 -9.113955e-01 -6.030973e-01 -6.869497e-01 -6.184966e-01 3.237084e+00 9.790803e-01 -1.393157e-01 -2.977664e-01 -8.577304e-01 -7.024542e-01 -5.137200e-01 -5.705678e-01 -3.899874e-01 -6.120803e-01 -2.586843e-01 -4.291801e-01 -4.727525e-01 1.007553e+00
<VARIANCE> 39
 7.753608e+00 8.176738e+00 1.044351e+01 1.393126e+01 1.366617e+01 1.884134e+01 1.921911e+01 1.706879e+01 1.847699e+01 1.890217e+01 1.675999e+01 1.600779e+01 2.872542e+01 3.383298e+00 1.807470e+00 2.758046e+00 4.307126e+00 3.159472e+00 4.048865e+00 3.319825e+00 2.949692e+00 3.372988e+00 2.863976e+00 3.025088e+00 2.698510e+00 3.834259e+00 3.185251e-01 4.464878e-01 5.432099e-01 7.445330e-01 5.916352e-01 7.628758e-01 6.474158e-01 6.103696e-01 6.213293e-01 6.058130e-01 6.369032e-01 5.037076e-01 6.964632e-01
<GCONST> 1.147289e+02
<STATE> 4
<MEAN> 39
 -3.905673e+00 -5.399295e+00 2.491127e-01 -8.691240e+00 -4.458478e+00 -2.926349e+00 -3.269943e+00 -6.309773e-01 -8.153976e-01 1.291341e-01 -1.792842e-01 -5.967886e-01 6.595866e+01 2.773469e+00 -1.012273e+00 -1.280728e+00 -3.012052e+00 -2.327991e+00 -1.450915e+00 -1.695892e+00 -9.102719e-01 -1.484098e+00 -4.228850e-01 -9.311620e-01 -1.178701e+00 3.388718e+00 -1.376227e-01 -1.287998e-01 2.119771e-01 3.992517e-01 8.350258e-02 3.332796e-01 2.183536e-01 3.750731e-02 1.566062e-01 1.954495e-01 1.119675e-01 7.341763e-02 -5.892360e-01
<VARIANCE> 39
 4.134936e+01 2.436083e+01 4.013525e+01 7.692149e+01 4.144337e+01 5.135604e+01 4.176107e+01 3.426775e+01 3.426511e+01 3.049166e+01 3.051356e+01 2.479956e+01 3.396922e+01 3.463410e+00 4.237157e+00 5.814557e+00 9.556358e+00 6.364203e+00 7.508151e+00 5.963777e+00 4.988373e+00 5.250690e+00 4.537209e+00 5.266851e+00 3.889359e+00 5.928123e+00 8.802937e-01 5.330971e-01 5.926247e-01 1.612358e+00 1.006715e+00 9.614546e-01 8.619310e-01 8.441322e-01 8.750950e-01 7.649283e-01 7.105168e-01 5.923747e-01 6.711702e-01
<GCONST> 1.377777e+02
<TRANSP> 5
 0.000000e+00 1.000000e+00 0.000000e+00 0.000000e+00 0.000000e+00
 0.000000e+00 7.880448e-01 2.119552e-01 0.000000e+00 0.000000e+00
 0.000000e+00 0.000000e+00 5.207796e-01 4.792205e-01 0.000000e+00
 0.000000e+00 0.000000e+00 0.000000e+00 5.505933e-01 4.494067e-01
 0.000000e+00 0.000000e+00 0.000000e+00 0.000000e+00 0.000000e+00
<ENDHMM>
~h "s"
<BEGINHMM>
<NUMSTATES> 5
<STATE> 2
<MEAN> 39
 -1.335000e+01 2.508959e+00 2.571788e+00 -2.521289e+00 -3.784568e-01 -4.453192e+00 -1.589819e+00 5.346891e-01 -1.789959e+00 -2.015296e+00 -8.382605e-01 -2.589374e-01 6.630929e+01 -4.075476e+00 1.018306e+00 -2.282854e-01 1.282601e+00 2.025850e+00 1.736004e+00 1.536261e+00 1.436657e+00 1.088550e+00 9.122430e-01 1.288366e+00 1.010306e+00 -7.391328e-01 1.470860e-01 -6.052756e-01 -2.862373e-01 -4.861956e-01 -4.236010e-01 5.217794e-02 -6.948254e-02 1.236787e-01 1.244000e-01 2.964588e-01 1.222190e-01 1.230749e-01 1.072736e-01
<VARIANCE> 39
 5.085822e+01 2.431631e+01 2.720910e+01 3.609116e+01 4.990321e+01 5.342217e+01 4.392359e+01 3.936232e+01 3.421582e+01 3.531941e+01 2.838297e+01 2.324513e+01 2.289023e+01 3.222323e+00 3.396030e+00 3.618008e+00 4.244774e+00 4.116391e+00 4.692417e+00 4.534251e+00 4.298564e+00 3.588460e+00 4.075691e+00 3.494122e+00 3.016472e+00 1.325482e+00 9.192646e-01 4.686285e-01 4.349341e-01 5.279197e-01 6.310131e-01 7.694738e-01 7.042184e-01 6.949856e-01 5.759768e-01 6.222069e-01 5.135835e-01 5.021085e-01 1.827611e-01
<GCONST> 1.262936e+02
<STATE> 3
<MEAN> 39
 -2.288592e+01 2.502301e+00 -1.861384e-01 -1.743251e+00 2.045099e+00 -3.978248e-01 1.800862e+00 4.410008e+00 1.454572e+00 1.556938e+00 3.242128e+00 3.241015e+00 6.477113e+01 -7.984391e-01 -2.868751e-01 -2.965544e-01 -4.914938e-02 9.078027e-02 3.987936e-01 2.947865e-01 4.068933e-01 3.955933e-01 4.655144e-01 4.916844e-01 4.682575e-01 -3.746743e-01 9.642457e-01 -1.955224e-01 2.341722e-01 -1.813287e-01 -3.973920e-01 -3.916776e-01 -2.985353e-01 -3.701624e-01 -2.789249e-01 -2.593377e-01 -3.348417e-01 -2.709683e-01 7.708963e-02
<VARIANCE> 39
 2.297961e+01 1.966094e+01 2.578658e+01 3.230241e+01 3.644745e+01 3.398892e+01 3.459571e+01 2.954716e+01 2.497952e+01 2.219484e+01 2.092444e+01 1.816297e+01 1.906690e+01 2.835423e+00 1.431457e+00 1.507299e+00 1.577569e+00 1.848558e+00 2.336974e+00 2.127635e+00 2.268736e+00 2.256132e+00 2.352894e+00 2.059877e+00 1.818362e+00 1.305886e+00 4.151873e-01 2.872638e-01 3.199869e-01 3.908618e-01 4.260488e-01 5.190681e-01 5.062597e-01 5.034184e-01 4.574617e-01 5.009908e-01 4.475861e-01 3.764862e-01 1.939653e-01
<GCONST> 1.103593e+02
<STATE> 4
<MEAN> 39
 -1.833600e+01 -8.359019e-01 1.877736e+00 -1.534939e+00 1.098792e+00 5.666111e-01 2.009092e+00 3.664875e+00 1.747560e+00 1.906451e+00 3.134662e+00 3.164798e+00 6.092859e+01 1.529700e+00 -4.438334e-01 4.414165e-01 -2.343980e-01 -7.220314e-01 -4.919746e-01 -3.988079e-01 -6.133713e-01 -3.679395e-01 -2.641906e-01 -4.703441e-01 -4.078330e-01 -7.076713e-02 4.050305e-01 -2.660958e-02 4.609410e-02 -1.538647e-01 -2.445346e-01 -2.006233e-01 -2.129257e-01 -1.936682e-01 -1.523348e-01 -9.855115e-02 -1.713699e-01 -1.386310e-01 1.741007e-01
<VARIANCE> 39
 4.055698e+01 1.980606e+01 2.409584e+01 2.869091e+01 3.147911e+01 3.769809e+01 3.399362e+01 2.794157e+01 2.535336e+01 2.305815e+01 2.183455e+01 1.842447e+01 4.474887e+01 4.501535e+00 1.331593e+00 1.828578e+00 2.274996e+00 2.889680e+00 3.247710e+00 3.078698e+00 2.795268e+00 2.379453e+00 2.283345e+00 2.470444e+00 1.960336e+00 1.784947e+00 4.989068e-01 2.351675e-01 3.051137e-01 3.745866e-01 4.491481e-01 5.065970e-01 5.491223e-01 4.964640e-01 4.367525e-01 4.358472e-01 4.576159e-01 3.539245e-01 2.490680e-01
<GCONST> 1.145050e+02
<TRANSP> 5
 0.000000e+00 1.000000e+00 0.000000e+00 0.000000e+00 0.000000e+00
 0.000000e+00 6.314143e-01 3.685857e-01 0.000000e+00 0.000000e+00
 0.000000e+00 0.000000e+00 7.081561e-01 2.918439e-01 0.000000e+00
 0.000000e+00 0.000000e+00 0.000000e+00 8.142772e-01 1.857228e-01
 0.000000e+00 0.000000e+00 0.000000e+00 0.000000e+00 0.000000e+00
<ENDHMM>
~h "t"
<BEGINHMM>
<NUMSTATES> 5
<STATE> 2
<MEAN> 39
 -8.887941e+00 -2.096088e+00 5.670555e+00 1.318081e+00 7.428896e-01 1.603171e+00 1.590142e+00 8.187674e-01 2.004872e+00 1.636903e+00 1.544158e+00 1.268242e+00 5.353181e+01 -9.288602e-01 -6.440814e-01 -1.724570e-01 2.802334e-01 7.138407e-01 1.115921e+00 1.008005e+00 6.387526e-01 8.645897e-01 5.704246e-01 7.773836e-01 7.250975e-01 -1.062415e+00 4.198512e-02 -1.914229e-01 -2.424361e-01 -5.715027e-01 -4.261487e-01 -4.244308e-01 -2.803272e-01 -4.569379e-02 -2.172175e-01 -8.774738e-02 -8.429635e-02 -2.873819e-02 8.702948e-01
<VARIANCE> 39
 1.355915e+01 1.288449e+01 1.595474e+01 1.688416e+01 1.984926e+01 2.717933e+01 2.474102e+01 2.369978e+01 2.550478e+01 2.469346e+01 2.481485e+01 2.387741e+01 1.675487e+01 1.533990e+00 1.583436e+00 1.917542e+00 2.963770e+00 2.858655e+00 3.071729e+00 2.867299e+00 2.528832e+00 2.788358e+00 2.487703e+00 2.607308e+00 2.154605e+00 3.291762e+00 2.286133e-01 3.394821e-01 3.526194e-01 4.986509e-01 5.043606e-01 5.382643e-01 4.762360e-01 4.551458e-01 4.880716e-01 4.907584e-01 4.645860e-01 4.166716e-01 5.377356e-01
<GCONST> 1.115636e+02
<STATE> 3
<MEAN> 39
 -1.189763e+01 -4.265581e+00 3.963068e+00 -2.273514e-01 1.338943e+00 2.919247e+00 3.032505e+00 2.546776e+00 3.442705e+00 3.176227e+00 3.672538e+00 3.545671e+00 5.419321e+01 -5.738634e-01 -7.099483e-01 -9.034863e-01 -1.866027e+00 -8.971225e-01 -1.273686e+00 -6.439376e-01 2.535212e-01 -4.866449e-01 -3.931333e-01 -1.463198e-01 -6.649655e-02 3.348835e+00 6.852679e-01 1.891109e-01 -5.168325e-02 -5.542586e-01 -7.993020e-01 -9.641132e-01 -7.362316e-01 -3.716593e-01 -5.394533e-01 -4.379612e-01 -6.400868e-01 -5.553783e-01 1.245404e+00
<VARIANCE> 39
 1.025131e+01 8.988463e+00 1.288063e+01 1.780731e+01 1.598323e+01 1.791058e+01 1.716725e+01 1.800175e+01 1.851961e+01 1.919098e+01 1.592325e+01 1.568670e+01 2.742075e+01 1.927212e+00 1.550585e+00 2.246672e+00 2.678859e+00 3.275680e+00 3.709945e+00 3.158800e+00 2.839825e+00 2.904680e+00 2.991404e+00 2.869134e+00 2.654984e+00 4.491318e+00 4.121113e-01 3.276097e-01 5.442561e-01 5.393115e-01 6.298045e-01 5.885412e-01 5.919635e-01 6.264107e-01 5.853433e-01 6.024880e-01 5.736127e-01 4.850813e-01 6.179456e-01
<GCONST> 1.129916e+02
<STATE> 4
<MEAN> 39
 -1.080582e+01 -4.980012e+00 9.729120e-01 -7.066596e+00 -3.537103e+00 -4.525646e+00 -1.754440e+00 1.902076e+00 5.408933e-01 2.656644e-01 6.050366e-01 9.471127e-01 6.818111e+01 2.469815e+00 -2.647715e-01 -6.139549e-01 -2.289389e+00 -2.635450e+00 -2.811764e+00 -2.359921e+00 -9.164535e-01 -1.097970e+00 -8.609093e-01 -1.714577e+00 -1.576015e+00 3.797199e+00 6.317207e-01 -3.501964e-02 2.806383e-01 2.261318e-01 -6.689218e-02 3.592959e-01 -2.319770e-02 -2.378778e-01 -3.169435e-02 1.270442e-01 -9.380028e-02 -1.734044e-01 -8.392749e-01
<VARIANCE> 39
 3.108312e+01 1.899099e+01 2.691907e+01 3.409316e+01 4.056013e+01 4.652687e+01 4.474318e+01 2.933186e+01 2.555646e+01 2.896318e+01 3.328801e+01 2.570889e+01 2.646538e+01 3.074532e+00 2.899641e+00 5.279913e+00 4.857033e+00 5.704223e+00 5.557573e+00 5.634723e+00 5.311019e+00 4.705367e+00 4.833834e+00 5.067663e+00 3.755700e+00 4.830351e+00 7.180615e-01 4.850975e-01 6.843168e-01 6.444898e-01 9.040828e-01 1.241002e+00 1.088869e+00 8.563914e-01 6.653669e-01 6.995216e-01 8.768986e-01 7.130578e-01 6.131387e-01
<GCONST> 1.326180e+02
<TRANSP> 5
 0.000000e+00 1.000000e+00 0.000000e+00 0.000000e+00 0.000000e+00
 0.000000e+00 7.545609e-01 2.454391e-01 0.000000e+00 0.000000e+00
 0.000000e+00 0.000000e+00 5.497580e-01 4.502420e-01 0.000000e+00
 0.000000e+00 0.000000e+00 0.000000e+00 5.814242e-01 4.185757e-01
 0.000000e+00 0.000000e+00 0.000000e+00 0.000000e+00 0.000000e+00
<ENDHMM>
~h "w"
<BEGINHMM>
<NUMSTATES> 5
<STATE> 2
<MEAN> 39
 2.256552e+00 -1.572509e+00 -3.018197e+00 -1.707952e+01 -7.988337e+00 -1.720054e+00 -4.266756e+00 -2.681161e+00 -6.625058e+00 -3.994220e-01 -7.695589e-01 -6.854329e-01 6.537375e+01 1.724946e+00 -4.922785e-01 -1.172830e+00 -2.347243e+00 -3.466456e-01 -5.430204e-02 -1.415158e+00 -1.476394e+00 -1.466998e+00 8.659103e-01 3.162103e-01 -4.181731e-01 1.617117e+00 -6.939906e-01 -6.521978e-01 2.333504e-01 8.553215e-01 5.472902e-01 -7.701523e-02 -8.914126e-02 2.569545e-01 7.200259e-01 4.956629e-01 2.178480e-02 -1.537569e-01 2.295197e-02
<VARIANCE> 39
 1.996574e+01 2.463417e+01 3.137216e+01 7.208432e+01 5.335767e+01 4.258607e+01 4.771470e+01 5.214378e+01 5.138928e+01 4.518269e+01 4.571618e+01 3.075599e+01 2.229284e+01 3.626350e+00 3.889419e+00 3.038319e+00 6.790173e+00 5.725711e+00 5.546785e+00 5.306296e+00 5.444694e+00 6.326482e+00 6.270128e+00 6.150069e+00 3.846566e+00 2.519830e+00 5.511001e-01 4.888283e-01 4.679480e-01 1.283289e+00 9.246899e-01 8.689555e-01 8.902259e-01 1.050240e+00 1.310409e+00 1.017738e+00 8.150795e-01 6.334740e-01 2.587858e-01
<GCONST> 1.356808e+02
<STATE> 3
<MEAN> 39
 2.727012e+00 -6.208714e+00 -5.251095e+00 -1.864809e+01 -4.934471e+00 -1.391168e+00 -8.660786e+00 -5.949187e+00 -7.113797e+00 5.157771e+00 1.174953e+00 -2.895676e+00 6.982462e+01 -2.754833e-01 -1.749646e+00 -4.743849e-02 8.031730e-01 6.683017e-01 -1.192468e+00 -1.540710e+00 1.395088e-01 1.515558e+00 1.328712e+00 -7.803267e-01 -1.360979e+00 1.291201e+00 -6.292691e-01 -4.937334e-02 6.667342e-01 1.041175e+00 -2.272562e-01 -5.217354e-01 5.189648e-01 8.912128e-01 7.020516e-01 -6.847488e-01 -5.703294e-01 5.092749e-02 -2.730390e-01
<VARIANCE> 39
 9.715510e+00 2.449125e+01 3.783530e+01 6.061766e+01 5.395470e+01 6.410021e+01 5.813927e+01 5.408692e+01 6.639381e+01 6.959978e+01 8.720833e+01 4.099827e+01 1.512694e+01 1.591864e+00 3.576450e+00 2.492292e+00 5.790028e+00 4.493599e+00 6.191068e+00 5.375237e+00 4.985652e+00 6.583733e+00 5.493195e+00 5.885180e+00 3.698963e+00 1.995690e+00 3.928176e-01 3.796991e-01 4.312884e-01 8.293658e-01 9.899347e-01 9.642093e-01 1.100113e+00 9.850633e-01 1.235093e+00 1.173018e+00 1.070631e+00 7.983600e-01 1.808867e-01
<GCONST> 1.344150e+02
<STATE> 4
<MEAN> 39
 5.913992e-01 -1.046263e+01 -2.714404e+00 -1.330258e+01 -5.987880e+00 -7.604970e+00 -1.041355e+01 -1.234514e+00 -8.643883e-01 3.500405e+00 -4.785639e+00 -5.281109e+00 7.225343e+01 -8.180828e-01 -7.049147e-01 1.522126e+00 1.556889e+00 -1.151934e+00 -1.814040e+00 8.222964e-01 1.599547e+00 7.090986e-01 -1.430537e+00 -1.054191e+00 2.445241e-01 4.373784e-01 -1.240132e-01 5.304117e-01 2.793435e-01 -8.761615e-03 -3.042229e-01 3.890748e-01 7.003217e-01 -1.438633e-01 -6.306096e-01 -4.178091e-01 4.450426e-01 4.703196e-01 -3.864731e-01
<VARIANCE> 39
 1.106820e+01 3.113000e+01 4.319049e+01 5.614051e+01 5.653052e+01 8.055069e+01 6.497375e+01 6.647325e+01 5.722680e+01 6.732445e+01 1.028491e+02 4.606151e+01 1.855701e+01 9.634817e-01 2.136857e+00 2.700815e+00 3.787054e+00 5.168697e+00 4.879962e+00 5.637555e+00 5.019024e+00 5.720408e+00 4.527565e+00 4.726956e+00 3.588660e+00 1.264429e+00 2.454265e-01 3.647651e-01 3.530742e-01 6.815320e-01 8.208811e-01 9.679839e-01 9.487709e-01 1.124191e+00 9.782210e-01 1.066957e+00 1.060955e+00 6.958367e-01 1.597744e-01
<GCONST> 1.315878e+02
<TRANSP> 5
 0.000000e+00 1.000000e+00 0.000000e+00 0.000000e+00 0.000000e+00
 0.000000e+00 5.299202e-01 4.700799e-01 0.000000e+00 0.000000e+00
 0.000000e+00 0.000000e+00 4.569978e-01 5.430022e-01 0.000000e+00
 0.000000e+00 0.000000e+00 0.000000e+00 5.788622e-01 4.211378e-01
 0.000000e+00 0.000000e+00 0.000000e+00 0.000000e+00 0.000000e+00
<ENDHMM>
~h "y"
<BEGINHMM>
<NUMSTATES> 5
<STATE> 2
<MEAN> 39
 -8.481195e+00 -8.791848e-01 1.358476e+01 -7.315943e+00 -1.099335e+01 -6.620449e+00 -5.079765e+00 -4.643159e+00 -6.861456e+00 -8.911186e-01 -1.877618e+00 -1.419409e+00 6.720026e+01 1.476535e+00 -1.896790e-01 1.746574e+00 -1.450757e+00 -2.497843e+00 -1.063596e+00 -1.390046e+00 -1.038617e+00 -1.254215e+00 -2.233987e-02 -5.427257e-01 -1.523121e-01 9.719677e-01 -9.592124e-02 -2.819705e-01 -6.220851e-01 -1.377091e-01 2.148861e-01 1.225956e-01 1.707239e-01 4.163604e-01 3.264636e-01 2.097107e-01 1.647875e-01 1.049373e-01 7.081868e-02
<VARIANCE> 39
 3.786554e+01 2.998393e+01 3.956417e+01 7.051305e+01 6.599615e+01 5.563884e+01 4.963315e+01 6.436324e+01 4.388590e+01 3.524238e+01 3.922384e+01 2.324866e+01 2.440049e+01 7.576159e+00 2.922443e+00 4.399189e+00 6.275328e+00 6.660315e+00 6.184585e+00 6.018126e+00 5.361360e+00 4.545478e+00 4.022588e+00 4.416986e+00 3.018788e+00 2.089724e+00 6.203623e-01 4.014184e-01 5.781521e-01 7.287139e-01 1.140501e+00 8.706180e-01 8.554714e-01 9.551376e-01 7.631428e-01 6.143134e-01 6.126473e-01 4.575777e-01 2.703727e-01
<GCONST> 1.343175e+02
<STATE> 3
<MEAN> 39
 -5.838943e+00 -2.914255e+00 1.592592e+01 -1.210584e+01 -1.677334e+01 -8.145386e+00 -7.372105e+00 -5.747600e+00 -9.024648e+00 1.151120e+00 -2.572753e+00 -1.188937e+00 6.999078e+01 5.045006e-01 -8.838174e-01 -6.187232e-01 -8.305156e-01 -7.276417e-01 -5.872856e-01 -9.073798e-02 6.469069e-01 3.120691e-01 4.148181e-01 6.477848e-02 1.260889e-01 7.330998e-01 -1.844989e-01 -1.361996e-01 -8.596396e-01 3.813688e-01 7.668318e-01 1.614599e-01 3.770520e-01 4.812542e-01 5.584010e-01 -1.273949e-01 3.751668e-02 -4.893126e-02 -1.436687e-01
<VARIANCE> 39
 1.201544e+01 2.626936e+01 3.959391e+01 8.441324e+01 4.387538e+01 6.059332e+01 5.358125e+01 7.169812e+01 5.126636e+01 4.789638e+01 5.337816e+01 3.046187e+01 1.522432e+01 1.458133e+00 2.404637e+00 3.551325e+00 2.830340e+00 3.636777e+00 3.606724e+00 3.791725e+00 3.938956e+00 3.244418e+00 2.744046e+00 2.338781e+00 1.860445e+00 1.081917e+00 3.792585e-01 2.568349e-01 3.603512e-01 6.236845e-01 8.555919e-01 8.330094e-01 7.327210e-01 7.036690e-01 6.791014e-01 6.709935e-01 5.463684e-01 4.429372e-01 1.381362e-01
<GCONST> 1.231767e+02
<STATE> 4
<MEAN> 39
 -4.414858e+00 -6.228295e+00 1.037863e+01 -1.271491e+01 -1.666504e+01 -8.761416e+00 -6.549733e+00 -1.655247e+00 -5.396739e+00 4.887135e-01 -2.670339e+00 -1.478802e+00 7.173100e+01 4.679682e-01 -8.080255e-01 -1.911469e+00 -6.150842e-03 1.007717e+00 9.539710e-02 2.171306e-01 9.133165e-01 9.945663e-01 -2.900462e-01 -3.467330e-01 -3.678221e-01 2.699845e-01 -2.754520e-02 1.437143e-01 -1.093412e-01 1.705449e-01 3.938794e-01 2.857840e-01 7.913869e-03 -1.762453e-01 -5.926305e-02 -1.106725e-01 -7.769179e-03 -9.398361e-02 -1.989192e-01
<VARIANCE> 39
 1.384714e+01 2.900466e+01 5.414177e+01 6.945901e+01 5.946412e+01 6.771339e+01 6.794836e+01 7.404366e+01 4.821809e+01 4.503654e+01 5.706848e+01 3.038811e+01 1.895947e+01 4.490651e-01 1.266288e+00 2.431515e+00 2.012707e+00 3.593385e+00 2.961395e+00 3.379833e+00 3.461261e+00 3.449828e+00 3.478045e+00 2.276145e+00 2.111331e+00 6.534815e-01 1.047499e-01 2.026969e-01 3.081268e-01 3.251419e-01 4.901899e-01 5.751960e-01 5.776057e-01 6.169001e-01 5.885987e-01 5.075613e-01 4.564733e-01 3.675422e-01 8.608344e-02
<GCONST> 1.163932e+02
<TRANSP> 5
 0.000000e+00 1.000000e+00 0.000000e+00 0.000000e+00 0.000000e+00
 0.000000e+00 6.094759e-01 3.905241e-01 0.000000e+00 0.000000e+00
 0.000000e+00 0.000000e+00 5.545920e-01 4.454079e-01 0.000000e+00
 0.000000e+00 0.000000e+00 0.000000e+00 7.642067e-01 2.357933e-01
 0.000000e+00 0.000000e+00 0.000000e+00 0.000000e+00 0.000000e+00
<ENDHMM>
~h "z"
<BEGINHMM>
<NUMSTATES> 5
<STATE> 2
<MEAN> 39
 -1.532853e+01 1.176982e+00 3.264120e+00 -3.046128e+00 -1.987183e+00 -3.450554e+00 3.071721e-01 1.344316e+00 -1.245705e+00 -1.248736e+00 9.054675e-01 1.121401e+00 6.598860e+01 -6.069154e-01 -3.468190e-01 -6.079835e-01 -1.408149e-01 7.497700e-01 6.058189e-01 1.384575e-01 3.410158e-01 4.270669e-01 3.464832e-01 3.439662e-01 3.764862e-01 -4.278318e-01 6.691310e-01 -7.546146e-02 2.772561e-01 -5.222590e-02 -4.071626e-01 -1.587672e-01 -2.979365e-01 -3.536575e-01 -2.483610e-01 8.545951e-03 -1.205054e-01 -1.399566e-01 -8.248539e-02
<VARIANCE> 39
 9.653729e+01 2.728945e+01 3.948991e+01 5.170772e+01 7.295909e+01 4.419582e+01 4.914180e+01 6.074838e+01 4.532407e+01 3.501307e+01 3.069569e+01 2.660528e+01 2.534333e+01 3.190007e+00 1.656049e+00 2.076596e+00 2.598562e+00 2.498419e+00 2.650605e+00 2.761279e+00 3.634457e+00 2.629656e+00 2.374615e+00 2.067276e+00 1.831384e+00 7.329806e-01 5.768251e-01 2.847301e-01 4.201548e-01 4.643426e-01 6.089543e-01 5.230892e-01 5.771287e-01 6.613318e-01 5.293603e-01 5.119806e-01 3.738994e-01 3.513574e-01 1.458244e-01
<GCONST> 1.201532e+02
<STATE> 3
<MEAN> 39
 -1.157326e+01 -5.227184e-02 2.993752e+00 -4.247406e+00 -2.676367e+00 -2.778685e+00 -1.266114e+00 2.570404e-01 -3.074548e+00 -2.031307e+00 1.390858e+00 8.338822e-01 6.482065e+01 5.853185e-01 -3.041131e-01 1.075391e-02 1.912296e-01 2.651691e-01 3.639934e-01 -2.174537e-01 -8.436270e-02 6.634101e-02 1.840095e-01 6.064181e-02 6.148466e-02 -6.559378e-01 3.952818e-01 1.305077e-02 1.857485e-01 1.998989e-02 -1.731207e-01 -1.083081e-01 -1.419068e-01 -2.248270e-01 -7.882921e-02 -4.960192e-03 -1.604491e-01 -1.684479e-01 -4.928765e-02
<VARIANCE> 39
 1.057397e+02 3.225053e+01 4.204674e+01 5.215849e+01 6.421333e+01 5.575906e+01 5.258475e+01 5.443002e+01 4.485757e+01 4.469630e+01 4.573227e+01 2.840680e+01 2.909789e+01 1.823156e+00 1.188967e+00 1.587892e+00 2.101756e+00 1.955363e+00 1.985143e+00 2.309840e+00 2.586489e+00 2.243873e+00 2.340833e+00 2.030886e+00 1.466537e+00 8.893878e-01 3.650691e-01 2.608123e-01 3.479657e-01 4.468007e-01 4.655831e-01 4.404293e-01 4.608108e-01 5.676721e-01 4.481812e-01 5.283275e-01 4.499449e-01 3.418995e-01 1.475963e-01
<GCONST> 1.171822e+02
<STATE> 4
<MEAN> 39
 -1.129824e+01 -3.107848e+00 4.676111e+00 -7.307673e-01 4.371552e-01 1.090467e+00 1.804815e+00 1.667896e+00 1.112314e+00 9.981861e-01 3.037291e+00 2.287890e+00 5.731342e+01 6.069071e-01 -6.745510e-02 1.582873e-01 1.610729e-01 2.480581e-02 1.184045e-01 -1.441047e-01 -2.974505e-01 1.380018e-02 3.715779e-02 -1.577630e-01 -1.518910e-01 -3.886470e-01 1.678968e-01 5.882425e-02 4.123239e-02 -7.571865e-02 -1.159400e-01 -1.306296e-01 -9.282407e-02 -1.530028e-01 -8.550621e-02 -4.604292e-02 -1.342722e-01 -1.163183e-01 9.571866e-02
<VARIANCE> 39
 3.717130e+01 1.991712e+01 1.865501e+01 2.908268e+01 3.316511e+01 4.996764e+01 3.713860e+01 3.619482e+01 3.539935e+01 2.949223e+01 3.317321e+01 2.028910e+01 5.172356e+01 1.633585e+00 7.836050e-01 1.176987e+00 1.380423e+00 1.476855e+00 1.561120e+00 1.993595e+00 1.914629e+00 1.686397e+00 1.966407e+00 1.852783e+00 1.498022e+00 7.517521e-01 1.967756e-01 1.824543e-01 2.582105e-01 2.496891e-01 3.167021e-01 3.856170e-01 3.857654e-01 4.688133e-01 3.502424e-01 4.057918e-01 4.131851e-01 2.890400e-01 1.451411e-01
<GCONST> 1.055595e+02
<TRANSP> 5
 0.000000e+00 1.000000e+00 0.000000e+00 0.000000e+00 0.000000e+00
 0.000000e+00 5.847627e-01 4.152373e-01 0.000000e+00 0.000000e+00
 0.000000e+00 0.000000e+00 4.177133e-01 5.822867e-01 0.000000e+00
 0.000000e+00 0.000000e+00 0.000000e+00 6.559022e-01 3.440977e-01
 0.000000e+00 0.000000e+00 0.000000e+00 0.000000e+00 0.000000e+00
<ENDHMM>
~h "aa"
<BEGINHMM>
<NUMSTATES> 5
<STATE> 2
<MEAN> 39
 -2.376672e+00 -1.120521e+01 -2.436838e+00 -1.039228e+01 -6.578766e+00 -5.438988e+00 -3.996499e+00 2.545420e+00 -1.418294e+00 -2.822326e+00 -5.059462e+00 -3.475088e+00 7.215431e+01 5.910184e-01 -1.757423e+00 -1.424273e+00 -6.830761e-01 3.447990e-01 1.220194e-01 3.036952e-01 5.960903e-01 -2.885826e-01 -9.949747e-01 -9.750710e-01 -5.448989e-01 1.595613e+00 -3.014694e-01 3.035223e-01 2.309742e-01 4.281872e-01 2.254078e-01 1.907713e-01 8.913604e-02 -2.541108e-01 -2.871783e-02 8.231594e-02 2.455861e-01 2.459367e-01 -4.138283e-01
<VARIANCE> 39
 1.893517e+01 4.072126e+01 5.099359e+01 5.332985e+01 6.906516e+01 6.900546e+01 7.023212e+01 5.334269e+01 4.936411e+01 6.043564e+01 5.690172e+01 5.734241e+01 4.975301e+01 2.158695e+00 2.883426e+00 2.841186e+00 3.773541e+00 3.845987e+00 4.247318e+00 5.657200e+00 4.284982e+00 3.898972e+00 3.869785e+00 3.565501e+00 3.547326e+00 2.957201e+00 3.901171e-01 5.695771e-01 5.324048e-01 6.360570e-01 6.323431e-01 7.161701e-01 9.141256e-01 7.598354e-01 6.289212e-01 6.932437e-01 6.716126e-01 5.909588e-01 5.781967e-01
<GCONST> 1.334013e+02
<STATE> 3
<MEAN> 39
 -1.933572e+00 -1.544301e+01 -5.797664e+00 -1.066714e+01 -4.840007e+00 -4.264357e+00 -2.949324e+00 2.831939e+00 -3.104446e+00 -5.832466e+00 -6.897629e+00 -3.839668e+00 7.574538e+01 5.601801e-02 1.109760e-01 -1.665498e-01 4.021866e-01 2.931644e-01 3.397849e-02 -6.911533e-02 -1.779796e-01 1.583120e-02 -2.158611e-01 2.360105e-02 7.427923e-02 -1.885160e-01 -7.936217e-02 6.610955e-01 4.710262e-01 2.299850e-01 -1.667933e-01 -1.257994e-01 -1.777285e-01 -1.979216e-01 9.574772e-02 3.303879e-01 2.711280e-01 1.072360e-01 -5.398455e-01
<VARIANCE> 39
 1.265753e+01 2.622899e+01 3.947730e+01 3.926033e+01 5.420251e+01 5.651477e+01 6.087033e+01 4.847709e+01 5.172954e+01 5.952726e+01 4.755744e+01 5.805280e+01 1.719341e+01 6.102418e-01 1.833438e+00 1.726058e+00 1.802941e+00 2.695692e+00 2.437125e+00 2.695934e+00 2.520475e+00 2.169593e+00 2.416983e+00 2.007337e+00 2.007171e+00 1.077156e+00 2.091270e-01 2.880910e-01 2.906731e-01 4.143613e-01 4.171347e-01 4.633311e-01 5.687386e-01 5.404240e-01 5.128478e-01 4.868975e-01 4.490446e-01 4.566307e-01 1.963106e-01
<GCONST> 1.154674e+02
<STATE> 4
<MEAN> 39
 -1.882965e+00 -1.183287e+01 -4.400567e+00 -8.007208e+00 -5.532762e+00 -4.405180e+00 -3.641904e+00 2.140941e+00 -1.715053e+00 -5.008283e+00 -5.157913e+00 -3.202309e+00 7.182890e+01 -1.711325e-01 1.519106e+00 1.105605e+00 7.647450e-01 -7.954136e-02 -2.018454e-01 -2.892520e-01 -4.417095e-01 1.371682e-01 5.772366e-01 5.272723e-01 2.593042e-01 -1.406842e+00 -2.030611e-01 2.337833e-01 2.697232e-01 1.500250e-01 7.777917e-02 8.745805e-02 3.910869e-02 -1.053731e-01 -1.950710e-02 1.415232e-01 1.083319e-01 8.791745e-02 -2.446613e-01
<VARIANCE> 39
 1.669019e+01 3.383926e+01 4.361532e+01 4.845248e+01 6.258118e+01 6.230071e+01 6.009530e+01 4.648450e+01 5.202826e+01 6.262010e+01 5.060709e+01 5.295082e+01 4.287061e+01 1.162896e+00 2.348834e+00 2.252082e+00 2.807434e+00 3.191064e+00 3.019910e+00 3.307038e+00 3.097758e+00 2.785442e+00 2.843684e+00 2.448722e+00 2.412199e+00 1.926685e+00 2.670539e-01 3.038474e-01 3.328789e-01 4.056467e-01 4.790930e-01 5.187327e-01 5.480131e-01 5.235627e-01 4.822629e-01 5.054256e-01 4.309855e-01 3.995856e-01 2.492465e-01
<GCONST> 1.218419e+02
<TRANSP> 5
 0.000000e+00 1.000000e+00 0.000000e+00 0.000000e+00 0.000000e+00
 0.000000e+00 5.946224e-01 4.053776e-01 0.000000e+00 0.000000e+00
 0.000000e+00 0.000000e+00 6.299022e-01 3.700977e-01 0.000000e+00
 0.000000e+00 0.000000e+00 0.000000e+00 6.857995e-01 3.142004e-01
 0.000000e+00 0.000000e+00 0.000000e+00 0.000000e+00 0.000000e+00
<ENDHMM>
~h "bb"
<BEGINHMM>
<NUMSTATES> 5
<STATE> 2
<MEAN> 39
 7.655728e-01 -5.967397e+00 1.980380e+00 -8.476772e+00 -6.547497e+00 -5.993996e+00 -8.206610e+00 -3.997927e+00 -3.807327e+00 5.030378e-01 -1.102349e+00 -2.990808e+00 6.655523e+01 3.229187e-01 3.452568e-01 -1.721601e-01 2.153120e-01 4.001860e-01 -8.655231e-02 -5.912680e-01 -4.488379e-01 1.044190e-01 3.624052e-01 3.082063e-01 -8.105160e-02 -4.831377e-01 -1.477015e-01 -2.309743e-01 7.760328e-02 -2.834069e-01 -3.210718e-01 -2.472192e-03 1.719537e-01 1.995787e-01 -6.591623e-02 -9.775469e-02 -1.111346e-01 3.760817e-03 3.566177e-01
<VARIANCE> 39
 1.562324e+01 3.874054e+01 6.079560e+01 6.877082e+01 4.791270e+01 6.407762e+01 4.910508e+01 4.631916e+01 4.161623e+01 4.340141e+01 5.528197e+01 3.070790e+01 3.236566e+01 8.864651e-01 2.639464e+00 3.940686e+00 5.120600e+00 4.847724e+00 3.862376e+00 3.318853e+00 3.948397e+00 3.249531e+00 2.956700e+00 3.012817e+00 2.606174e+00 2.994467e+00 1.477908e-01 4.493078e-01 4.701903e-01 8.469068e-01 8.406619e-01 6.942012e-01 6.495918e-01 7.283186e-01 5.739726e-01 5.994626e-01 5.911807e-01 4.784091e-01 4.350635e-01
<GCONST> 1.272888e+02
<STATE> 3
<MEAN> 39
 1.484405e+00 -6.239158e+00 1.720963e+00 -9.066903e+00 -6.629588e+00 -6.440333e+00 -9.498606e+00 -4.440150e+00 -3.807406e+00 1.073588e+00 -6.009893e-01 -3.195561e+00 6.670469e+01 -9.780888e-02 -1.876982e-01 2.595070e-01 -3.090543e-01 -4.058926e-01 -2.129035e-01 2.657406e-03 3.526900e-01 2.025644e-02 -8.126476e-02 -7.663728e-02 1.111467e-02 2.518101e-01 -1.900413e-01 -2.371853e-01 1.292571e-01 -2.381715e-01 -3.158818e-01 1.466598e-03 2.884420e-01 2.764296e-01 -4.671146e-02 -1.655978e-01 -1.931111e-01 3.535443e-02 3.483632e-01
<VARIANCE> 39
 1.239730e+01 3.334816e+01 5.881552e+01 7.235361e+01 4.247613e+01 6.476254e+01 5.148157e+01 4.628421e+01 4.263921e+01 4.860816e+01 5.394241e+01 3.101748e+01 2.387622e+01 6.863152e-01 2.444436e+00 3.549660e+00 5.026443e+00 3.798612e+00 4.146902e+00 3.127294e+00 4.099249e+00 3.502186e+00 3.467219e+00 2.994678e+00 2.783630e+00 2.327970e+00 1.051709e-01 3.925987e-01 4.269041e-01 8.109296e-01 7.834636e-01 6.974549e-01 6.025834e-01 7.695580e-01 6.404190e-01 6.951462e-01 6.117563e-01 5.226032e-01 3.620799e-01
<GCONST> 1.255683e+02
<STATE> 4
<MEAN> 39
 1.090471e+00 -6.685476e+00 1.022242e+00 -1.362525e+01 -9.455060e+00 -5.284230e+00 -7.505401e+00 -2.222192e+00 -4.228975e+00 4.030499e-01 -2.103504e+00 -3.240922e+00 6.890593e+01 -2.983072e-01 -2.324454e-01 2.490235e-01 -1.696922e-01 -3.529427e-01 -6.770057e-02 3.542157e-01 3.599496e-01 -3.644675e-04 -2.206022e-01 -2.216839e-01 6.263759e-02 3.303643e-01 -8.908916e-02 -8.199366e-03 4.318753e-02 7.172629e-02 1.783511e-02 3.830571e-02 6.666970e-02 -2.677254e-02 -2.569955e-02 -3.495879e-02 -2.179119e-02 2.432657e-02 2.741572e-02
<VARIANCE> 39
 1.430788e+01 4.668781e+01 8.617732e+01 9.023920e+01 5.523280e+01 7.668987e+01 6.466178e+01 5.676882e+01 4.836143e+01 5.324262e+01 6.282297e+01 3.725544e+01 2.552870e+01 5.322803e-01 1.628766e+00 2.440706e+00 3.329862e+00 3.003017e+00 2.677536e+00 2.558430e+00 3.111441e+00 2.717861e+00 2.579296e+00 2.412214e+00 2.284898e+00 1.501402e+00 8.615969e-02 2.399439e-01 2.719717e-01 5.252033e-01 4.684898e-01 4.350576e-01 4.449809e-01 5.294451e-01 4.312857e-01 4.954679e-01 4.157685e-01 3.910117e-01 2.118597e-01
<GCONST> 1.189506e+02
<TRANSP> 5
 0.000000e+00 1.000000e+00 0.000000e+00 0.000000e+00 0.000000e+00
 0.000000e+00 4.365123e-01 5.634877e-01 0.000000e+00 0.000000e+00
 0.000000e+00 0.000000e+00 4.748284e-01 5.251717e-01 0.000000e+00
 0.000000e+00 0.000000e+00 0.000000e+00 6.877698e-01 3.122302e-01
 0.000000e+00 0.000000e+00 0.000000e+00 0.000000e+00 0.000000e+00
<ENDHMM>
~h "ch"
<BEGINHMM>
<NUMSTATES> 5
<STATE> 2
<MEAN> 39
 -1.101111e+01 -1.398654e+00 8.363163e+00 -1.482207e+00 1.159298e-01 6.862853e-01 -4.271687e-01 8.667531e-01 1.225585e+00 1.942971e+00 2.454811e+00 2.084620e+00 5.625845e+01 -1.916426e+00 -7.987207e-01 -5.353580e-01 -2.829090e-01 1.313569e+00 1.538703e+00 9.351052e-01 1.206588e+00 1.311513e+00 8.014190e-01 1.061102e+00 8.643727e-01 -6.275011e-01 -2.636294e-01 -1.958091e-01 -8.251779e-03 -8.279333e-01 -4.776761e-01 -3.327181e-01 -3.845399e-01 -1.250967e-01 -2.928596e-01 -1.568681e-01 -1.706933e-01 -1.628451e-01 1.136511e+00
<VARIANCE> 39
 2.059076e+01 1.870462e+01 2.175246e+01 2.532076e+01 2.761381e+01 3.362074e+01 3.152741e+01 2.892304e+01 2.985662e+01 2.550706e+01 2.487530e+01 2.182396e+01 2.549957e+01 2.777087e+00 2.391711e+00 2.718373e+00 5.595130e+00 3.704216e+00 3.473451e+00 4.205539e+00 3.172973e+00 3.404145e+00 3.014111e+00 2.765859e+00 2.328558e+00 7.579088e+00 5.035200e-01 6.869601e-01 6.979111e-01 6.873463e-01 6.883171e-01 6.421958e-01 6.764203e-01 5.563083e-01 6.349516e-01 7.158478e-01 5.618796e-01 4.649998e-01 7.064489e-01
<GCONST> 1.236712e+02
<STATE> 3
<MEAN> 39
 -2.322396e+01 -3.266660e+00 8.626719e+00 -9.310679e+00 1.207672e+00 3.570555e+00 -4.770539e-01 3.895328e+00 2.726988e+00 2.183488e+00 4.198882e+00 3.134812e+00 6.563677e+01 -1.725373e+00 1.070552e-01 3.980064e-01 -8.961055e-01 -1.112442e+00 -4.895050e-01 5.463980e-02 -4.618275e-02 -3.574771e-01 -6.118900e-01 -3.040144e-01 -3.298848e-01 2.556822e+00 1.255824e+00 7.611868e-02 -5.247352e-02 5.800526e-01 -5.119433e-01 -6.690829e-01 -9.253745e-02 -3.312726e-01 -3.500001e-01 -2.361332e-01 -3.440938e-01 -2.311384e-01 -3.981101e-01
<VARIANCE> 39
 2.757238e+01 2.512641e+01 2.792014e+01 2.602196e+01 3.294596e+01 2.606681e+01 2.461568e+01 2.390635e+01 2.251808e+01 1.680368e+01 1.669633e+01 1.532404e+01 2.912454e+01 6.168648e+00 1.867521e+00 2.119769e+00 3.641949e+00 3.053022e+00 3.660811e+00 2.888220e+00 2.502172e+00 2.355113e+00 2.202749e+00 2.007415e+00 1.628345e+00 3.503649e+00 1.112206e+00 4.851900e-01 5.264494e-01 6.081061e-01 6.360257e-01 7.266774e-01 6.787705e-01 5.568686e-01 4.870326e-01 4.262590e-01 4.321238e-01 3.730842e-01 6.698803e-01
<GCONST> 1.184571e+02
<STATE> 4
<MEAN> 39
 -1.643400e+01 -4.111502e+00 8.172076e+00 -7.520830e+00 -5.949307e+00 -3.744898e+00 -2.017742e+00 1.779136e+00 -2.750573e-01 -1.654593e+00 6.120419e-01 7.401167e-01 6.948539e+01 4.052413e+00 -4.522522e-01 -1.033976e+00 -8.579883e-02 -1.439645e+00 -2.272703e+00 -1.483999e+00 -8.674062e-01 -8.494955e-01 -7.522425e-01 -1.412301e+00 -9.204698e-01 3.012373e-01 4.536524e-01 -1.474875e-01 -3.131896e-01 -3.253940e-01 2.567237e-01 2.673388e-01 -2.204917e-01 -1.218516e-01 1.097485e-01 2.822958e-01 -2.810610e-02 -9.072019e-02 -2.189066e-01
<VARIANCE> 39
 7.963287e+01 1.779869e+01 2.210707e+01 3.197634e+01 3.360258e+01 5.316274e+01 4.134076e+01 2.977513e+01 3.144508e+01 2.676415e+01 2.763543e+01 1.865666e+01 1.699475e+01 4.334997e+00 2.282567e+00 3.665904e+00 3.952367e+00 4.612474e+00 4.821563e+00 5.025798e+00 3.842166e+00 3.462301e+00 3.971461e+00 3.813626e+00 2.415967e+00 1.407850e+00 1.757419e+00 4.071236e-01 4.491637e-01 7.107677e-01 7.582231e-01 1.154748e+00 9.706196e-01 6.980065e-01 6.198329e-01 7.211610e-01 6.800382e-01 4.516727e-01 4.222771e-01
<GCONST> 1.272768e+02
<TRANSP> 5
 0.000000e+00 1.000000e+00 0.000000e+00 0.000000e+00 0.000000e+00
 0.000000e+00 7.957360e-01 2.042640e-01 0.000000e+00 0.000000e+00
 0.000000e+00 0.000000e+00 7.187978e-01 2.812022e-01 0.000000e+00
 0.000000e+00 0.000000e+00 0.000000e+00 7.544380e-01 2.455620e-01
 0.000000e+00 0.000000e+00 0.000000e+00 0.000000e+00 0.000000e+00
<ENDHMM>
~h "dd"
<BEGINHMM>
<NUMSTATES> 5
<STATE> 2
<MEAN> 39
 -1.889523e+00 -8.792780e+00 -1.445705e+00 -1.028821e+01 -7.878447e+00 -7.770672e+00 -6.627642e+00 -1.029412e+00 -7.855910e-01 -2.945051e+00 -4.172954e+00 -2.663998e+00 7.221548e+01 1.454539e-01 2.348694e-01 -3.454099e-01 -3.492382e-01 1.939950e-01 -2.193321e-02 -3.739687e-01 -1.339166e-01 6.620528e-01 2.678759e-01 -6.713696e-03 -1.253393e-01 -1.198222e-01 -1.340797e-02 3.838003e-02 6.957084e-02 -3.030930e-02 -3.470953e-02 6.775375e-02 4.948681e-02 2.410853e-03 -7.508090e-02 4.854312e-02 1.597839e-02 -2.734788e-02 -3.737878e-02
<VARIANCE> 39
 1.128443e+01 4.555787e+01 7.710818e+01 6.827021e+01 7.436237e+01 7.146308e+01 6.159397e+01 5.680082e+01 5.230745e+01 6.298841e+01 6.226457e+01 5.314375e+01 2.628489e+01 3.516009e-01 1.441176e+00 1.477129e+00 2.389629e+00 2.086656e+00 2.019599e+00 2.099790e+00 2.357722e+00 2.238730e+00 1.939601e+00 1.860339e+00 1.556547e+00 1.116286e+00 6.317339e-02 1.688218e-01 1.668332e-01 3.419910e-01 3.366283e-01 3.405027e-01 3.420237e-01 3.418173e-01 3.463679e-01 3.204641e-01 3.103669e-01 2.664980e-01 1.796619e-01
<GCONST> 1.108368e+02
<STATE> 3
<MEAN> 39
 -1.303902e+00 -7.093929e+00 -1.579069e+00 -1.200288e+01 -7.614255e+00 -7.873978e+00 -7.672213e+00 -2.044948e+00 7.774289e-01 -7.629594e-01 -3.342736e+00 -3.475946e+00 7.148024e+01 3.602853e-02 1.074699e-01 -1.458699e-01 -3.935396e-01 1.174613e-01 2.991146e-01 2.785151e-02 -1.029811e-01 9.021548e-02 1.994276e-01 9.841833e-02 -6.887959e-02 -8.182719e-02 -2.166113e-02 -4.186182e-02 5.168896e-02 2.103491e-02 -1.791379e-02 8.585315e-02 1.215812e-01 4.963783e-02 -1.759572e-01 -6.045177e-02 1.659114e-03 2.377665e-02 -1.367363e-03
<VARIANCE> 39
 1.233694e+01 3.477213e+01 6.476794e+01 7.300534e+01 7.025523e+01 7.130595e+01 6.909882e+01 6.289953e+01 5.596223e+01 6.160781e+01 6.512672e+01 5.044848e+01 2.389587e+01 3.085300e-01 1.153613e+00 1.240694e+00 2.133618e+00 1.652686e+00 1.902447e+00 1.824376e+00 2.066217e+00 1.897895e+00 1.786958e+00 1.856004e+00 1.592858e+00 8.786025e-01 4.797283e-02 1.430299e-01 1.396532e-01 2.776749e-01 2.572413e-01 2.786676e-01 2.910165e-01 3.007516e-01 3.060443e-01 2.787096e-01 2.791902e-01 2.387188e-01 1.401633e-01
<GCONST> 1.066634e+02
<STATE> 4
<MEAN> 39
 -1.414923e+00 -6.503429e+00 -2.445213e+00 -1.342763e+01 -6.207276e+00 -3.445203e+00 -6.194938e+00 -2.200721e+00 4.203594e-01 -8.966236e-01 -2.101486e+00 -2.801288e+00 6.940439e+01 -2.046479e-02 1.137865e-01 1.060233e-01 -1.218221e-03 4.887656e-02 2.320044e-01 1.895430e-01 -1.748334e-02 -2.549429e-01 -1.662082e-02 9.944178e-02 1.059677e-01 -2.322558e-01 -1.147409e-02 1.387418e-02 5.719642e-02 1.324970e-01 -7.825507e-03 -4.682525e-02 4.536789e-03 2.683808e-02 -3.212087e-02 -1.703730e-02 -1.153797e-02 1.215773e-02 -5.079103e-02
<VARIANCE> 39
 2.002779e+01 3.360199e+01 6.162251e+01 9.145538e+01 7.241613e+01 6.975605e+01 7.286674e+01 6.110313e+01 5.260955e+01 5.559780e+01 6.194056e+01 4.191249e+01 4.331857e+01 2.935093e-01 7.811025e-01 8.982340e-01 1.543072e+00 1.326961e+00 1.530016e+00 1.438049e+00 1.470758e+00 1.555088e+00 1.467015e+00 1.454737e+00 1.303010e+00 5.647841e-01 4.909559e-02 1.128944e-01 1.219417e-01 2.290514e-01 2.209558e-01 2.307796e-01 2.403145e-01 2.346533e-01 2.600580e-01 2.426960e-01 2.317682e-01 2.075729e-01 1.018716e-01
<GCONST> 1.018636e+02
<TRANSP> 5
 0.000000e+00 1.000000e+00 0.000000e+00 0.000000e+00 0.000000e+00
 0.000000e+00 6.092317e-01 3.907683e-01 0.000000e+00 0.000000e+00
 0.000000e+00 0.000000e+00 6.028219e-01 3.971781e-01 0.000000e+00
 0.000000e+00 0.000000e+00 0.000000e+00 7.913933e-01 2.086067e-01
 0.000000e+00 0.000000e+00 0.000000e+00 0.000000e+00 0.000000e+00
<ENDHMM>
~h "ey"
<BEGINHMM>
<NUMSTATES> 5
<STATE> 2
<MEAN> 39
 -4.907199e+00 -6.777114e+00 5.865734e+00 -8.394998e+00 -1.310604e+01 -9.415510e+00 -2.403859e+00 5.942181e-01 -3.060632e+00 -5.452818e-02 -1.550519e+00 -4.910815e-01 6.911658e+01 6.571977e-01 -5.788667e-01 5.235513e-01 -1.190241e+00 -2.011699e+00 -1.012503e+00 8.943523e-02 -4.885137e-02 -6.702814e-01 5.925898e-02 -3.015267e-01 -3.139002e-01 1.360344e+00 -2.365803e-01 2.223954e-01 -1.074021e-01 2.535153e-01 4.683347e-01 4.327692e-01 2.565456e-02 -1.172084e-01 1.152447e-01 7.233493e-02 7.683523e-02 1.301730e-02 -3.319316e-01
<VARIANCE> 39
 2.061550e+01 2.850232e+01 3.358742e+01 7.172117e+01 8.187048e+01 8.356106e+01 6.193829e+01 5.684927e+01 4.823046e+01 4.089063e+01 4.353689e+01 2.928231e+01 6.724583e+01 2.991246e+00 2.386799e+00 2.334165e+00 4.961965e+00 6.582925e+00 5.517494e+00 5.006472e+00 4.400941e+00 3.409553e+00 3.236825e+00 3.398054e+00 2.615220e+00 3.760473e+00 4.746068e-01 4.157290e-01 3.592416e-01 8.434281e-01 1.220179e+00 1.000041e+00 7.667838e-01 7.838251e-01 6.453462e-01 5.687191e-01 5.368415e-01 4.363714e-01 7.488369e-01
<GCONST> 1.329236e+02
<STATE> 3
<MEAN> 39
 -4.035422e+00 -8.110724e+00 6.887042e+00 -1.169264e+01 -1.719508e+01 -1.116293e+01 -2.401713e+00 1.556863e-02 -5.097659e+00 3.516692e-01 -2.584571e+00 -1.618894e+00 7.317609e+01 3.736204e-02 3.590527e-01 9.217347e-02 2.705998e-01 6.073404e-02 1.984768e-01 -3.414219e-02 -2.574696e-01 -1.422610e-01 -1.006772e-01 -3.906364e-02 -7.320449e-02 -2.515672e-01 -1.864424e-01 4.377972e-01 -1.497068e-01 6.072300e-01 8.132313e-01 3.713555e-01 -1.292043e-01 -1.179951e-01 1.938200e-01 -9.576754e-02 6.391910e-02 8.408462e-02 -6.185014e-01
<VARIANCE> 39
 1.305500e+01 2.431094e+01 3.697700e+01 6.917297e+01 5.709899e+01 6.682815e+01 6.546895e+01 6.808952e+01 4.356601e+01 4.338067e+01 4.641024e+01 2.854598e+01 2.012348e+01 1.004351e+00 2.048930e+00 1.766851e+00 3.234192e+00 3.624717e+00 2.910203e+00 3.164644e+00 2.936290e+00 2.352014e+00 2.432460e+00 2.026937e+00 1.751911e+00 1.950599e+00 3.590046e-01 3.306728e-01 3.339127e-01 5.712835e-01 6.698272e-01 7.709118e-01 7.653886e-01 6.940823e-01 5.198950e-01 5.150827e-01 4.673811e-01 3.943420e-01 2.863856e-01
<GCONST> 1.210577e+02
<STATE> 4
<MEAN> 39
 -4.251944e+00 -5.403563e+00 6.563150e+00 -8.632464e+00 -1.537668e+01 -9.260477e+00 -3.120999e+00 -1.243513e+00 -4.613956e+00 -6.434569e-01 -2.237137e+00 -1.287243e+00 7.007906e+01 -2.603915e-01 1.018766e+00 -1.474162e-01 1.301052e+00 1.608479e+00 6.928372e-01 -1.282647e-01 -2.661501e-01 2.102355e-01 -3.218800e-01 6.592980e-02 9.734119e-02 -1.277901e+00 -2.209758e-01 8.049069e-02 -9.176609e-02 1.575855e-01 4.141195e-01 2.400328e-01 7.722326e-02 4.518744e-02 1.329937e-01 8.620198e-02 8.281447e-02 5.040316e-02 -2.085882e-01
<VARIANCE> 39
 1.546236e+01 2.993513e+01 3.467871e+01 6.545915e+01 7.344618e+01 7.112630e+01 5.839260e+01 6.643269e+01 4.470158e+01 4.206347e+01 4.405378e+01 3.031842e+01 3.729823e+01 1.815728e+00 2.268928e+00 1.991542e+00 3.555429e+00 4.272177e+00 3.620280e+00 3.761646e+00 3.405358e+00 2.778489e+00 2.708677e+00 2.461637e+00 2.117956e+00 2.137160e+00 3.506506e-01 3.409449e-01 3.084195e-01 5.182387e-01 6.777769e-01 6.265920e-01 5.882778e-01 6.542600e-01 5.211872e-01 5.023066e-01 4.436342e-01 3.656309e-01 2.880819e-01
<GCONST> 1.236407e+02
<TRANSP> 5
 0.000000e+00 1.000000e+00 0.000000e+00 0.000000e+00 0.000000e+00
 0.000000e+00 5.014414e-01 4.985586e-01 0.000000e+00 0.000000e+00
 0.000000e+00 0.000000e+00 4.871022e-01 5.128978e-01 0.000000e+00
 0.000000e+00 0.000000e+00 0.000000e+00 5.914266e-01 4.085734e-01
 0.000000e+00 0.000000e+00 0.000000e+00 0.000000e+00 0.000000e+00
<ENDHMM>
~h "gg"
<BEGINHMM>
<NUMSTATES> 5
<STATE> 2
<MEAN> 39
 2.404799e-01 -2.240132e+00 1.701548e+00 -1.253387e+01 -7.611909e+00 -5.599522e+00 -5.479952e+00 -4.953650e+00 -7.773459e+00 2.963098e+00 -1.104880e+00 1.026543e-01 6.561205e+01 3.302502e-01 1.708379e-01 -6.587100e-01 -1.374825e+00 -4.755627e-01 8.740944e-01 8.737090e-01 2.436323e-01 -4.974331e-01 -5.199281e-01 6.166417e-02 2.575831e-01 1.661078e-01 -7.367709e-02 -1.820776e-01 4.797948e-02 7.081983e-02 -1.476073e-01 -1.381664e-01 8.798983e-03 2.638643e-01 1.910547e-01 -1.786115e-01 -1.614471e-01 -9.881139e-02 1.748907e-01
<VARIANCE> 39
 2.162649e+01 3.400645e+01 6.724574e+01 7.514577e+01 5.885243e+01 5.662714e+01 5.766835e+01 6.432434e+01 5.286385e+01 5.731570e+01 7.174748e+01 3.522538e+01 3.178374e+01 5.649507e-01 1.624352e+00 1.809553e+00 4.269249e+00 2.986994e+00 2.719210e+00 2.971218e+00 2.927556e+00 3.221514e+00 3.231512e+00 2.926188e+00 2.262084e+00 1.694405e+00 8.758933e-02 1.828548e-01 2.536428e-01 5.892554e-01 5.470180e-01 4.421634e-01 5.140563e-01 5.367386e-01 5.734632e-01 5.938628e-01 5.406329e-01 4.458389e-01 2.469402e-01
<GCONST> 1.207818e+02
<STATE> 3
<MEAN> 39
 -1.127079e-01 -3.091591e+00 1.082808e+00 -1.628074e+01 -1.120691e+01 -3.750991e+00 -3.221617e+00 -2.855600e+00 -7.558411e+00 1.052138e-02 -3.104839e+00 -7.004586e-01 6.787692e+01 4.748989e-02 -1.912975e-01 -4.226513e-01 -1.943338e-01 1.025862e-02 2.039773e-01 2.714959e-01 3.116457e-01 1.459555e-01 -3.146604e-01 -5.801804e-02 -5.110859e-02 1.454824e-01 -3.595683e-02 -9.244853e-02 -1.015752e-02 1.919717e-01 1.532023e-01 -6.799304e-02 -1.493254e-01 -8.115347e-02 9.186205e-02 9.444825e-02 7.372072e-02 -4.116905e-02 2.098536e-02
<VARIANCE> 39
 2.827582e+01 5.164833e+01 9.050457e+01 9.009344e+01 6.159226e+01 6.530086e+01 5.359188e+01 7.847412e+01 5.201131e+01 5.252335e+01 6.285302e+01 3.996618e+01 3.623945e+01 2.888266e-01 8.864056e-01 1.063076e+00 2.076134e+00 1.793295e+00 1.666360e+00 1.472787e+00 1.862521e+00 1.805421e+00 1.935181e+00 1.519297e+00 1.552930e+00 8.464683e-01 5.309967e-02 1.624968e-01 1.662261e-01 3.392544e-01 2.877738e-01 2.743908e-01 2.955813e-01 3.106192e-01 3.149975e-01 3.589963e-01 2.982823e-01 2.825729e-01 1.585987e-01
<GCONST> 1.083716e+02
<STATE> 4
<MEAN> 39
 -3.276251e+00 -4.578157e+00 6.438947e-01 -9.746876e+00 -4.801657e+00 -3.151672e-01 -4.296222e-01 -5.676773e-01 -2.929631e+00 1.352390e-01 1.438785e-01 1.290219e+00 6.209164e+01 -9.564171e-02 -1.712512e-01 -1.463125e-01 2.244290e-01 2.536298e-01 8.566989e-02 1.601660e-02 6.354305e-02 1.727459e-01 -3.781940e-02 8.054091e-02 -1.004256e-01 1.834109e-02 -1.449803e-02 -3.733981e-02 1.942149e-02 9.454045e-02 6.632905e-02 -6.071531e-02 -1.170763e-01 -6.014406e-02 2.912857e-02 6.744158e-02 3.242115e-03 -6.502635e-02 2.611693e-02
<VARIANCE> 39
 4.708861e+01 3.758604e+01 5.531807e+01 1.111215e+02 6.581268e+01 5.896608e+01 4.082874e+01 5.290282e+01 5.849829e+01 3.967223e+01 4.901448e+01 3.258829e+01 6.905083e+01 4.300597e-01 8.072300e-01 1.090605e+00 1.736870e+00 1.456856e+00 1.444840e+00 1.721346e+00 1.806034e+00 1.852401e+00 1.929440e+00 1.619467e+00 1.473561e+00 7.715932e-01 7.046729e-02 1.532864e-01 1.670516e-01 3.107616e-01 2.740497e-01 2.749880e-01 3.032812e-01 3.058925e-01 3.281138e-01 3.470321e-01 3.117848e-01 2.730489e-01 1.345877e-01
<GCONST> 1.074342e+02
<TRANSP> 5
 0.000000e+00 1.000000e+00 0.000000e+00 0.000000e+00 0.000000e+00
 0.000000e+00 6.267375e-01 3.732626e-01 0.000000e+00 0.000000e+00
 0.000000e+00 0.000000e+00 6.820353e-01 3.179647e-01 0.000000e+00
 0.000000e+00 0.000000e+00 0.000000e+00 6.792393e-01 3.207607e-01
 0.000000e+00 0.000000e+00 0.000000e+00 0.000000e+00 0.000000e+00
<ENDHMM>
~h "hh"
<BEGINHMM>
<NUMSTATES> 5
<STATE> 2
<MEAN> 39
 -8.812222e+00 -5.782218e+00 3.160111e+00 -3.582331e+00 2.537844e+00 -5.151346e-01 -1.580862e+00 1.125065e+00 -1.446326e+00 1.038945e+00 -2.175178e+00 3.752951e-01 6.462843e+01 -1.072440e+00 -5.791855e-01 -9.633415e-01 1.091548e-01 1.935324e+00 1.228523e+00 4.444438e-01 6.989020e-01 7.440815e-01 9.771881e-01 6.151291e-01 4.022920e-01 -6.285101e-01 3.054731e-01 5.691509e-02 -3.353335e-02 -5.656725e-01 -7.548071e-01 -1.063094e-01 -2.018444e-02 -3.048998e-01 -2.963004e-01 -5.787261e-02 6.783134e-02 -6.001896e-02 2.201980e-01
<VARIANCE> 39
 2.739935e+01 2.695642e+01 5.282483e+01 4.172691e+01 6.899728e+01 5.516930e+01 5.044680e+01 5.093021e+01 4.675816e+01 5.828032e+01 3.878289e+01 2.561213e+01 2.360261e+01 2.529762e+00 2.171670e+00 5.203533e+00 4.292616e+00 6.201393e+00 5.002600e+00 4.759074e+00 5.615314e+00 5.292157e+00 4.586884e+00 3.722105e+00 3.108327e+00 9.427606e-01 2.900786e-01 4.319691e-01 5.729039e-01 6.123384e-01 8.921692e-01 8.585659e-01 9.083306e-01 1.112644e+00 1.009483e+00 9.354198e-01 7.062148e-01 5.793067e-01 1.434182e-01
<GCONST> 1.308840e+02
<STATE> 3
<MEAN> 39
 -1.047862e+01 -6.148445e+00 1.380712e+00 -5.640313e+00 3.805083e+00 2.408937e+00 -8.623248e-02 1.462837e+00 -1.247522e+00 2.603118e+00 -1.633779e-01 1.200404e+00 6.395930e+01 3.165103e-02 1.897974e-01 -3.407136e-01 -7.488502e-01 -3.541146e-01 4.872656e-01 4.602806e-01 -1.769905e-01 -2.226547e-01 -4.270952e-02 3.990580e-01 1.930796e-01 -2.025623e-01 5.685333e-01 2.496854e-01 1.627357e-01 -2.268524e-01 -8.023570e-01 -4.645814e-01 -2.116445e-01 -3.400973e-01 -3.003632e-01 -4.103314e-01 -2.505766e-01 -2.106929e-01 2.318293e-01
<VARIANCE> 39
 3.148612e+01 2.711848e+01 5.853558e+01 4.337420e+01 6.534059e+01 4.817518e+01 4.763835e+01 4.665472e+01 4.372341e+01 5.976631e+01 3.951514e+01 2.653661e+01 2.492634e+01 1.708559e+00 1.558768e+00 2.434963e+00 2.546508e+00 3.873118e+00 3.298961e+00 3.424267e+00 3.541782e+00 3.524370e+00 3.469126e+00 2.948397e+00 2.348378e+00 6.449029e-01 2.634771e-01 2.617581e-01 4.728364e-01 5.818677e-01 6.377590e-01 6.201295e-01 7.005621e-01 7.359832e-01 7.448477e-01 7.550058e-01 6.568588e-01 5.388400e-01 1.338943e-01
<GCONST> 1.227345e+02
<STATE> 4
<MEAN> 39
 -9.987335e+00 -4.552585e+00 2.824230e+00 -5.463471e+00 7.314574e-01 3.329732e+00 1.977378e+00 1.339627e+00 -5.372977e-01 1.277129e+00 8.938715e-01 2.025975e+00 6.043032e+01 7.368246e-01 3.838750e-01 3.425182e-02 -4.687200e-01 -9.849432e-01 -3.509909e-01 -1.583449e-01 -4.451106e-01 -3.426943e-01 -4.840112e-01 -2.220043e-01 -2.835324e-01 1.635953e-01 3.043546e-01 2.361899e-02 1.295953e-02 -1.174927e-01 -3.016555e-01 -2.437148e-01 -2.213500e-01 -1.531025e-01 -1.401240e-01 -8.156004e-02 -1.232347e-01 -1.606846e-01 1.927214e-01
<VARIANCE> 39
 3.420040e+01 2.476307e+01 4.688574e+01 4.435920e+01 5.761742e+01 3.711053e+01 3.754564e+01 3.794017e+01 4.058498e+01 3.929259e+01 3.426927e+01 2.404002e+01 4.502884e+01 1.756503e+00 1.225754e+00 1.634554e+00 2.293809e+00 3.515129e+00 2.245826e+00 2.383647e+00 2.521138e+00 2.443476e+00 2.507502e+00 2.174891e+00 1.930397e+00 7.445486e-01 2.260157e-01 2.103947e-01 2.817786e-01 3.827323e-01 5.029538e-01 4.068096e-01 4.628797e-01 4.488439e-01 4.627227e-01 4.328632e-01 4.274002e-01 3.737370e-01 1.433804e-01
<GCONST> 1.139688e+02
<TRANSP> 5
 0.000000e+00 1.000000e+00 0.000000e+00 0.000000e+00 0.000000e+00
 0.000000e+00 6.075641e-01 3.924360e-01 0.000000e+00 0.000000e+00
 0.000000e+00 0.000000e+00 4.618217e-01 5.381783e-01 0.000000e+00
 0.000000e+00 0.000000e+00 0.000000e+00 7.652521e-01 2.347479e-01
 0.000000e+00 0.000000e+00 0.000000e+00 0.000000e+00 0.000000e+00
<ENDHMM>
~h "iy"
<BEGINHMM>
<NUMSTATES> 5
<STATE> 2
<MEAN> 39
 -6.737475e+00 -9.675438e-01 1.311411e+01 -6.857309e+00 -1.326343e+01 -6.667688e+00 -5.260600e+00 -6.320103e+00 -7.440166e+00 -6.814060e-01 -2.201961e+00 -1.173293e+00 6.714229e+01 7.626161e-01 3.662151e-01 2.167154e+00 -1.779908e+00 -2.411459e+00 -2.400721e-01 -1.259133e+00 -1.644048e+00 -1.286556e+00 1.771363e-01 -8.608272e-01 -2.838256e-01 1.015947e+00 -1.951952e-01 5.073644e-03 -4.181907e-01 1.027215e-01 5.011349e-01 3.359028e-01 1.048178e-01 2.759855e-01 3.671852e-01 1.154952e-01 5.393235e-02 9.066122e-02 -2.533469e-01
<VARIANCE> 39
 2.124748e+01 2.585357e+01 3.908828e+01 8.019146e+01 6.316827e+01 5.826936e+01 4.905153e+01 6.200415e+01 4.988321e+01 3.905839e+01 4.167529e+01 2.987778e+01 2.936968e+01 4.281961e+00 2.098073e+00 3.401613e+00 6.166389e+00 6.092813e+00 5.689394e+00 6.076411e+00 5.742395e+00 4.740144e+00 4.104406e+00 4.581951e+00 3.492957e+00 2.144666e+00 4.323161e-01 3.666196e-01 5.757250e-01 9.732229e-01 1.191357e+00 8.068091e-01 8.628991e-01 1.014015e+00 7.556709e-01 6.265427e-01 6.546862e-01 5.201356e-01 4.450801e-01
<GCONST> 1.339607e+02
<STATE> 3
<MEAN> 39
 -6.391468e+00 -7.646090e-02 1.674580e+01 -1.216262e+01 -1.646242e+01 -4.946667e+00 -8.269243e+00 -8.997322e+00 -8.764187e+00 7.172502e-01 -4.790789e+00 -1.398177e+00 6.895684e+01 2.561059e-02 3.423130e-01 -4.732404e-02 2.238761e-01 2.128106e-01 2.315525e-01 -2.447531e-02 -8.602467e-02 9.804933e-02 -1.153349e-02 -6.416684e-02 -3.974152e-02 -3.127612e-01 -1.193402e-01 -4.132763e-02 -7.111650e-01 7.779811e-01 7.776909e-01 -6.340838e-02 4.352157e-01 4.639895e-01 3.344249e-01 -1.493279e-01 2.886353e-01 3.572990e-02 -3.860637e-01
<VARIANCE> 39
 1.084257e+01 2.253858e+01 3.293613e+01 9.758527e+01 4.811643e+01 5.701554e+01 5.314344e+01 6.142278e+01 5.228797e+01 4.646130e+01 5.563380e+01 3.974844e+01 1.371688e+01 1.112810e+00 1.509063e+00 2.174602e+00 4.830675e+00 3.963722e+00 3.068016e+00 3.292521e+00 2.891352e+00 2.569536e+00 2.400381e+00 2.279438e+00 1.914691e+00 1.308444e+00 3.501443e-01 2.802122e-01 4.016600e-01 8.541893e-01 8.814486e-01 7.630094e-01 7.143329e-01 7.451686e-01 6.618025e-01 5.775697e-01 5.707726e-01 4.743674e-01 2.248675e-01
<GCONST> 1.223787e+02
<STATE> 4
<MEAN> 39
 -6.208823e+00 6.349605e-01 1.337704e+01 -8.059237e+00 -1.441619e+01 -5.548246e+00 -6.786994e+00 -7.530118e+00 -6.748688e+00 -9.552929e-01 -2.885562e+00 -1.214398e+00 6.700806e+01 4.759688e-02 -2.048609e-01 -1.294629e+00 1.008314e+00 1.264267e+00 -1.961698e-01 6.641175e-01 9.071741e-01 6.466976e-01 -1.803249e-01 3.326851e-01 8.775278e-02 -5.425296e-01 -7.464086e-02 -1.620433e-01 -2.368883e-01 -2.932953e-02 2.155063e-01 9.447830e-02 8.638217e-02 1.843285e-01 1.490464e-01 4.240365e-02 1.331202e-02 3.520591e-02 -1.042800e-03
<VARIANCE> 39
 1.655638e+01 2.566005e+01 3.533109e+01 8.512767e+01 6.862447e+01 5.977398e+01 5.311566e+01 5.845098e+01 4.628976e+01 3.943139e+01 4.559518e+01 3.187090e+01 2.765599e+01 1.717026e+00 1.710767e+00 2.217899e+00 4.532481e+00 5.811936e+00 3.615911e+00 3.623149e+00 3.571274e+00 3.209450e+00 2.648047e+00 2.504677e+00 2.107805e+00 2.159850e+00 2.144905e-01 2.489972e-01 2.893592e-01 6.241814e-01 8.527361e-01 6.096895e-01 5.471260e-01 5.792863e-01 5.137618e-01 4.797693e-01 4.280557e-01 3.553352e-01 2.484094e-01
<GCONST> 1.226525e+02
<TRANSP> 5
 0.000000e+00 1.000000e+00 0.000000e+00 0.000000e+00 0.000000e+00
 0.000000e+00 5.845397e-01 4.154603e-01 0.000000e+00 0.000000e+00
 0.000000e+00 0.000000e+00 6.430416e-01 3.569585e-01 0.000000e+00
 0.000000e+00 0.000000e+00 0.000000e+00 7.366626e-01 2.633375e-01
 0.000000e+00 0.000000e+00 0.000000e+00 0.000000e+00 0.000000e+00
<ENDHMM>
~h "ny"
<BEGINHMM>
<NUMSTATES> 5
<STATE> 2
<MEAN> 39
 -2.174508e+00 7.488606e-01 8.168795e+00 -1.150571e+01 -1.101590e+01 -3.358910e+00 -6.018459e+00 -2.660408e+00 -8.023801e+00 -1.951791e+00 -1.978029e+00 -4.238151e+00 6.660098e+01 -8.904371e-02 1.881498e-01 3.454203e-01 -3.645786e-01 -1.512669e-01 5.040119e-01 5.269751e-03 -1.721084e-01 -9.277881e-02 -2.400985e-02 1.590802e-01 -4.575737e-02 -1.324147e-01 -2.859632e-02 -4.012526e-01 -1.585232e-01 1.052667e-01 -6.413662e-02 -1.393347e-01 1.309153e-01 2.448859e-01 1.179761e-01 -1.095207e-01 -3.571225e-02 9.052831e-02 2.317293e-01
<VARIANCE> 39
 1.349821e+01 2.459801e+01 4.338294e+01 7.209595e+01 6.312126e+01 5.442305e+01 4.408710e+01 5.665199e+01 3.476872e+01 4.433391e+01 3.543074e+01 2.774975e+01 1.891266e+01 1.176344e+00 3.233035e+00 3.154118e+00 4.467623e+00 4.640561e+00 3.446709e+00 3.731893e+00 2.720894e+00 2.424843e+00 2.781005e+00 2.174889e+00 1.841981e+00 2.081133e+00 2.056698e-01 2.361374e-01 7.470807e-01 1.016039e+00 8.722097e-01 7.529597e-01 6.234400e-01 4.878298e-01 4.371593e-01 4.408965e-01 4.179651e-01 3.259333e-01 1.710304e-01
<GCONST> 1.214504e+02
<STATE> 3
<MEAN> 39
 -2.668523e+00 -3.985893e+00 8.931534e+00 -1.168018e+01 -1.388504e+01 -1.780925e+00 -4.306857e+00 1.027370e+00 -6.315076e+00 -5.334021e+00 -3.662987e-01 -2.596216e+00 6.842494e+01 1.192716e-01 -1.109861e+00 -9.579475e-01 8.900934e-01 3.436861e-01 -6.880273e-01 1.334249e-01 1.010001e+00 7.247232e-01 -6.141924e-01 -3.088560e-01 4.203857e-01 3.768395e-01 9.986894e-02 3.856239e-02 -3.267908e-01 1.017090e-01 4.685738e-01 -6.787971e-02 -2.512937e-01 -1.877576e-02 2.337592e-01 8.077399e-02 -1.896194e-01 -9.797658e-02 -8.642244e-02
<VARIANCE> 39
 1.337245e+01 3.404747e+01 5.041479e+01 5.823829e+01 5.998124e+01 4.696864e+01 5.008988e+01 5.679784e+01 4.076536e+01 4.793736e+01 3.255152e+01 3.080252e+01 2.615936e+01 4.639369e-01 1.918070e+00 3.000819e+00 2.946052e+00 3.958709e+00 2.886505e+00 2.920982e+00 2.728183e+00 3.036200e+00 2.739199e+00 1.860816e+00 1.726417e+00 9.070478e-01 9.710757e-02 2.576254e-01 5.472723e-01 5.823652e-01 8.216044e-01 5.689910e-01 5.480024e-01 4.482159e-01 4.327677e-01 3.963476e-01 3.249461e-01 3.243630e-01 1.030168e-01
<GCONST> 1.159123e+02
<STATE> 4
<MEAN> 39
 -5.943081e+00 -5.593498e+00 4.118740e+00 -4.535232e+00 -4.631166e+00 2.990085e-01 -1.242513e+00 2.068376e+00 4.169922e-01 -2.261115e+00 -6.313223e-01 3.731239e-01 6.133535e+01 3.707005e-02 -2.741804e-01 -5.812635e-01 3.441418e-01 5.895449e-01 -9.732910e-02 -1.792843e-01 1.451451e-01 4.633269e-01 7.275809e-02 -1.941515e-01 -1.883065e-02 -4.555957e-02 1.445181e-02 1.063167e-01 3.214190e-02 -1.125424e-01 6.861341e-02 6.962568e-02 -6.483092e-02 -1.362903e-01 -3.294266e-02 1.124253e-01 2.416770e-02 -8.285770e-02 -3.894066e-02
<VARIANCE> 39
 2.845311e+01 2.328357e+01 3.040829e+01 5.743376e+01 7.532912e+01 4.574775e+01 4.491628e+01 3.844406e+01 4.527423e+01 4.394444e+01 3.571683e+01 3.143596e+01 8.535199e+01 4.749899e-01 1.095807e+00 1.819183e+00 1.405319e+00 2.353474e+00 1.592265e+00 1.901227e+00 1.860799e+00 2.377485e+00 2.032294e+00 1.701494e+00 1.635009e+00 5.833383e-01 7.719459e-02 1.717575e-01 2.059853e-01 2.480500e-01 3.873273e-01 3.405390e-01 3.221535e-01 3.811646e-01 3.589792e-01 3.545982e-01 3.099551e-01 3.242292e-01 9.802432e-02
<GCONST> 1.071317e+02
<TRANSP> 5
 0.000000e+00 1.000000e+00 0.000000e+00 0.000000e+00 0.000000e+00
 0.000000e+00 8.568193e-01 1.431807e-01 0.000000e+00 0.000000e+00
 0.000000e+00 0.000000e+00 6.730804e-01 3.269196e-01 0.000000e+00
 0.000000e+00 0.000000e+00 0.000000e+00 7.170414e-01 2.829586e-01
 0.000000e+00 0.000000e+00 0.000000e+00 0.000000e+00 0.000000e+00
<ENDHMM>
~h "ow"
<BEGINHMM>
<NUMSTATES> 5
<STATE> 2
<MEAN> 39
 8.677099e-01 -6.411165e+00 -3.708525e+00 -1.675790e+01 -4.884560e+00 -1.810855e+00 -8.951190e+00 -3.496346e+00 -2.404583e+00 1.239254e+00 -1.223196e+00 -3.341704e+00 6.942481e+01 7.397400e-01 -8.568785e-02 -9.155448e-01 -1.445614e+00 1.278918e-01 8.636721e-01 -1.298960e-01 -4.192636e-01 -3.805898e-01 1.640275e-01 3.649086e-01 -3.491263e-01 3.471261e-01 -4.467928e-01 1.754117e-01 3.984682e-01 6.810120e-01 1.513632e-01 -5.109016e-02 3.477843e-01 1.147411e-01 -1.111933e-02 -1.187403e-01 3.714920e-02 2.258667e-01 -3.568991e-01
<VARIANCE> 39
 1.593923e+01 2.593458e+01 4.347879e+01 7.658858e+01 5.182653e+01 6.128875e+01 6.994311e+01 5.070099e+01 5.746049e+01 5.411181e+01 6.845077e+01 3.570958e+01 2.506124e+01 2.079856e+00 1.892703e+00 2.672320e+00 5.665690e+00 4.272896e+00 4.195723e+00 4.816215e+00 3.857805e+00 3.954271e+00 3.845405e+00 3.483051e+00 2.936640e+00 1.803574e+00 3.830069e-01 3.482123e-01 4.385139e-01 1.019677e+00 7.595889e-01 7.146974e-01 8.443764e-01 7.628725e-01 8.235330e-01 7.192050e-01 7.156924e-01 5.471401e-01 2.598856e-01
<GCONST> 1.299681e+02
<STATE> 3
<MEAN> 39
 1.549063e+00 -5.925185e+00 -5.314095e+00 -1.940662e+01 -4.273927e+00 3.117514e-01 -7.826962e+00 -3.777715e+00 -3.910626e+00 6.186445e-01 -3.255886e-01 -3.293118e+00 6.925941e+01 -2.265426e-01 4.025725e-01 3.547432e-01 9.375802e-01 3.559170e-01 -4.920495e-02 2.392838e-01 -8.812533e-02 2.013307e-02 -2.545844e-01 -3.887209e-02 6.676234e-02 -6.116115e-01 -3.725070e-01 1.497779e-01 4.564707e-01 8.179851e-01 6.168870e-02 -2.785672e-01 1.331242e-01 1.148219e-01 1.533164e-01 -5.548795e-02 -1.300419e-01 1.120713e-01 -2.924597e-01
<VARIANCE> 39
 1.264001e+01 2.348917e+01 3.662147e+01 6.736444e+01 5.228865e+01 6.122209e+01 6.769810e+01 4.695135e+01 5.554765e+01 5.581804e+01 6.446674e+01 3.588916e+01 2.084092e+01 8.030699e-01 1.705088e+00 1.869003e+00 4.324278e+00 2.594795e+00 3.071777e+00 3.295509e+00 2.626897e+00 3.365957e+00 3.085963e+00 2.598002e+00 2.230489e+00 1.317620e+00 2.686761e-01 2.620972e-01 3.179097e-01 6.687381e-01 5.605287e-01 5.367487e-01 6.430907e-01 5.949133e-01 6.238956e-01 5.937678e-01 5.383238e-01 4.685578e-01 1.774365e-01
<GCONST> 1.206880e+02
<STATE> 4
<MEAN> 39
 -2.348411e+00 -4.251122e+00 -8.867055e-01 -9.931307e+00 -1.756671e+00 8.869640e-01 -3.653394e+00 -2.166800e+00 -1.432739e+00 3.399713e-01 3.292566e-01 -9.768306e-01 6.226614e+01 -8.032491e-01 3.580494e-01 9.572251e-01 1.742491e+00 4.184299e-01 -2.769429e-01 4.008065e-01 1.644217e-01 2.592312e-01 -1.680544e-01 -1.861699e-01 1.614267e-01 -7.988731e-01 -1.789685e-01 -1.431222e-02 1.125346e-01 1.056853e-01 -5.160439e-02 -7.836676e-02 6.379672e-02 9.046940e-02 2.080595e-02 3.667086e-02 -2.263099e-03 5.938325e-02 2.543268e-02
<VARIANCE> 39
 3.441156e+01 2.188723e+01 3.843963e+01 9.117649e+01 4.641240e+01 5.295972e+01 7.411166e+01 4.361728e+01 5.014243e+01 4.195819e+01 4.879086e+01 3.556372e+01 6.181995e+01 1.745999e+00 1.820745e+00 2.220618e+00 4.681301e+00 2.943998e+00 2.890257e+00 3.294585e+00 3.022236e+00 3.162064e+00 2.835788e+00 2.685184e+00 2.253527e+00 1.552813e+00 3.363890e-01 2.405736e-01 3.466304e-01 6.862640e-01 4.865040e-01 4.663112e-01 5.957990e-01 5.538926e-01 5.823042e-01 5.225568e-01 4.832177e-01 4.101427e-01 2.163827e-01
<GCONST> 1.230760e+02
<TRANSP> 5
 0.000000e+00 1.000000e+00 0.000000e+00 0.000000e+00 0.000000e+00
 0.000000e+00 5.798368e-01 4.201632e-01 0.000000e+00 0.000000e+00
 0.000000e+00 0.000000e+00 5.587863e-01 4.412137e-01 0.000000e+00
 0.000000e+00 0.000000e+00 0.000000e+00 6.026489e-01 3.973512e-01
 0.000000e+00 0.000000e+00 0.000000e+00 0.000000e+00 0.000000e+00
<ENDHMM>
~h "rr"
<BEGINHMM>
<NUMSTATES> 5
<STATE> 2
<MEAN> 39
 -4.321476e+00 -8.031806e+00 1.570684e+00 -4.301743e+00 -4.637825e+00 -4.448280e+00 -5.138345e+00 4.478802e-01 9.678683e-01 -7.845989e-01 -1.096265e+00 -2.599208e+00 6.713537e+01 4.303154e-01 -3.659751e-01 -6.280975e-02 -1.411306e-02 -1.487040e-01 -4.121099e-01 -6.238911e-01 -6.110398e-02 2.203192e-01 1.223045e-01 1.886395e-01 -2.982513e-01 2.724389e-01 3.037185e-01 -1.758019e-01 -1.816213e-01 -2.266053e-01 -3.151783e-01 -2.790889e-01 -4.443882e-02 6.657158e-03 -1.946968e-01 4.976676e-02 -1.227924e-01 -4.731118e-02 2.369207e-01
<VARIANCE> 39
 3.262047e+01 2.440266e+01 4.721660e+01 4.064011e+01 4.811887e+01 5.191177e+01 5.293834e+01 4.680268e+01 3.809469e+01 4.570270e+01 5.097032e+01 3.318077e+01 3.928404e+01 3.915105e+00 2.889664e+00 3.872963e+00 3.516446e+00 4.321971e+00 5.088931e+00 4.434966e+00 4.605381e+00 3.683517e+00 3.557515e+00 3.998952e+00 2.923841e+00 3.088595e+00 6.966792e-01 5.449241e-01 7.018942e-01 6.706629e-01 7.333165e-01 8.946763e-01 8.735158e-01 9.012187e-01 7.267947e-01 6.893357e-01 7.652493e-01 5.737914e-01 4.503627e-01
<GCONST> 1.327309e+02
<STATE> 3
<MEAN> 39
 -8.309060e-01 -1.004294e+01 -3.421559e-01 -5.111044e+00 -6.706270e+00 -7.272840e+00 -7.388178e+00 2.485565e-01 6.730965e-01 -6.119335e-02 -8.043283e-01 -4.348528e+00 6.943817e+01 1.011421e+00 -7.839211e-01 -2.751029e-01 -2.561378e-01 -9.498860e-01 -1.165884e+00 -3.736627e-01 3.238524e-01 -3.356505e-01 2.328246e-01 -1.561488e-01 -2.023547e-01 5.521295e-01 -9.180044e-02 -1.224411e-02 1.008837e-01 -1.012942e-01 -1.663594e-01 -7.031709e-02 2.671515e-01 1.374059e-01 -2.629213e-01 -4.119381e-02 -9.698960e-02 1.290207e-01 6.717452e-02
<VARIANCE> 39
 2.428769e+01 2.188356e+01 4.523468e+01 3.699406e+01 4.532140e+01 4.564032e+01 4.896048e+01 4.269665e+01 3.851345e+01 4.313058e+01 6.649522e+01 3.587358e+01 1.918967e+01 2.363308e+00 2.248602e+00 3.265181e+00 2.471406e+00 3.531404e+00 4.075683e+00 3.670764e+00 4.383823e+00 3.353870e+00 3.233258e+00 3.372485e+00 2.769202e+00 1.493196e+00 5.481445e-01 4.590271e-01 5.493093e-01 4.584059e-01 5.876936e-01 6.708490e-01 7.081429e-01 8.083430e-01 6.438527e-01 6.159439e-01 5.970326e-01 4.930474e-01 2.518518e-01
<GCONST> 1.252499e+02
<STATE> 4
<MEAN> 39
 1.254101e+00 -1.243230e+01 -1.228016e+00 -5.440576e+00 -1.066062e+01 -1.037112e+01 -7.127726e+00 2.572224e+00 -1.359095e+00 -3.165649e-02 -1.077109e+00 -5.046014e+00 7.153857e+01 1.752842e-03 -1.333501e-01 4.228434e-01 -4.631960e-01 -8.563846e-01 -5.506836e-01 4.433001e-01 3.544132e-01 -7.953184e-01 -2.187845e-02 -1.694367e-01 2.907786e-01 3.550013e-01 -2.639724e-01 3.332468e-01 1.376751e-01 -4.819977e-02 1.729935e-01 2.840178e-01 1.675364e-01 -1.983527e-01 -4.502324e-02 -4.276574e-02 4.184473e-03 8.621250e-02 -1.406983e-01
<VARIANCE> 39
 1.336703e+01 2.382652e+01 5.684098e+01 4.354540e+01 6.041059e+01 6.604237e+01 5.648938e+01 5.420520e+01 4.589956e+01 3.989675e+01 8.702717e+01 5.064296e+01 1.654235e+01 1.301730e+00 1.896320e+00 2.490375e+00 2.488914e+00 3.120136e+00 3.831278e+00 3.449072e+00 4.016777e+00 3.692393e+00 3.246474e+00 2.841042e+00 2.492086e+00 1.105529e+00 2.387782e-01 3.661500e-01 3.680421e-01 3.858481e-01 5.722617e-01 5.916130e-01 5.662387e-01 7.533394e-01 6.209120e-01 5.659027e-01 5.248903e-01 4.692818e-01 2.041443e-01
<GCONST> 1.223020e+02
<TRANSP> 5
 0.000000e+00 1.000000e+00 0.000000e+00 0.000000e+00 0.000000e+00
 0.000000e+00 6.479213e-01 3.520787e-01 0.000000e+00 0.000000e+00
 0.000000e+00 0.000000e+00 5.413482e-01 4.586518e-01 0.000000e+00
 0.000000e+00 0.000000e+00 0.000000e+00 7.240506e-01 2.759494e-01
 0.000000e+00 0.000000e+00 0.000000e+00 0.000000e+00 0.000000e+00
<ENDHMM>
~h "rx"
<BEGINHMM>
<NUMSTATES> 5
<STATE> 2
<MEAN> 39
 -1.224698e+00 -8.918874e+00 1.536861e+00 -6.164326e+00 -9.399279e+00 -7.502744e+00 -7.328374e+00 1.489584e-01 -1.320535e-01 -4.550153e-01 -1.883500e+00 -2.744903e+00 6.905004e+01 4.468920e-01 -2.402514e-01 5.349000e-01 9.359581e-01 -1.275990e-01 -4.599177e-01 -8.976260e-01 1.851089e-01 4.418528e-01 -3.260181e-01 2.564676e-02 2.286141e-02 -3.739773e-01 -1.811484e-01 4.893601e-02 2.289629e-02 -2.543207e-01 1.470913e-01 2.575253e-01 3.036824e-01 -6.236423e-03 -2.396462e-01 5.285585e-02 4.908615e-02 7.742357e-02 -3.884672e-02
<VARIANCE> 39
 2.180959e+01 3.305703e+01 5.746202e+01 5.739782e+01 6.759960e+01 5.908636e+01 5.768330e+01 5.489950e+01 4.608412e+01 4.270132e+01 5.114129e+01 3.853947e+01 3.611904e+01 2.588768e+00 3.620602e+00 3.778572e+00 6.170767e+00 7.240242e+00 5.384292e+00 4.691673e+00 5.039877e+00 4.349031e+00 4.027856e+00 3.719783e+00 3.225096e+00 3.935297e+00 4.475526e-01 5.984997e-01 6.564142e-01 1.140311e+00 1.294711e+00 1.005159e+00 9.197491e-01 8.909864e-01 8.462957e-01 7.755725e-01 7.703873e-01 6.468642e-01 8.763883e-01
<GCONST> 1.376088e+02
<STATE> 3
<MEAN> 39
 -9.124840e-01 -9.031937e+00 2.828621e+00 -4.577343e+00 -8.991409e+00 -7.671672e+00 -8.491448e+00 5.078725e-01 3.454424e-01 -1.107854e+00 -1.626042e+00 -2.351811e+00 6.795789e+01 -4.323787e-02 4.647205e-02 4.130897e-01 -9.923565e-02 2.322391e-01 1.580160e-01 -1.700960e-02 6.804307e-02 -3.642778e-01 1.657985e-03 1.247971e-01 1.677986e-02 -1.987338e-01 -2.125934e-01 6.399651e-02 -1.711211e-01 -5.362979e-01 6.409527e-02 2.282683e-01 4.457151e-01 -7.757784e-02 -3.544224e-01 1.838844e-01 -2.401954e-02 -1.713653e-02 2.043856e-01
<VARIANCE> 39
 2.033909e+01 3.357062e+01 5.239769e+01 5.253085e+01 6.758221e+01 5.086442e+01 5.698755e+01 5.377036e+01 4.738136e+01 4.201163e+01 5.040582e+01 3.734267e+01 3.256877e+01 2.243922e+00 3.763784e+00 4.342491e+00 6.067730e+00 6.455783e+00 4.897460e+00 4.552208e+00 5.401937e+00 4.600085e+00 4.133706e+00 3.776117e+00 3.259064e+00 3.638909e+00 4.204211e-01 6.973124e-01 6.588014e-01 1.236358e+00 1.387044e+00 1.015037e+00 9.664067e-01 1.003686e+00 9.359152e-01 8.560438e-01 8.059692e-01 6.483708e-01 7.977302e-01
<GCONST> 1.375045e+02
<STATE> 4
<MEAN> 39
 -1.314156e+00 -8.709702e+00 2.845286e+00 -6.090394e+00 -8.404346e+00 -6.838736e+00 -7.530529e+00 7.080977e-01 -1.182622e+00 -4.994496e-01 -9.668279e-01 -2.750142e+00 6.803675e+01 -3.176883e-01 2.643535e-01 1.096038e-01 -7.300899e-01 3.048611e-01 4.508989e-01 6.821247e-01 -2.077291e-01 -8.245101e-01 2.476734e-01 -1.275650e-02 -3.531061e-03 4.596823e-02 -1.526228e-01 6.004757e-02 -1.392032e-01 -1.477461e-01 -1.921897e-02 1.034414e-01 2.700698e-01 -9.495072e-02 -7.096307e-02 3.044929e-02 -6.412490e-02 4.736619e-02 9.296228e-02
<VARIANCE> 39
 2.473988e+01 3.720264e+01 5.724667e+01 5.552263e+01 6.678775e+01 5.735819e+01 6.245192e+01 6.045446e+01 5.027384e+01 4.567172e+01 5.640509e+01 3.943612e+01 3.814844e+01 2.099369e+00 3.660184e+00 3.815741e+00 5.167850e+00 5.733158e+00 4.347588e+00 4.287884e+00 4.976820e+00 4.227135e+00 3.817607e+00 3.681763e+00 3.006940e+00 3.517704e+00 3.467498e-01 5.339959e-01 5.706779e-01 9.180464e-01 1.123705e+00 8.341401e-01 8.433778e-01 8.806121e-01 7.829532e-01 7.633965e-01 7.141096e-01 5.737048e-01 5.556601e-01
<GCONST> 1.351917e+02
<TRANSP> 5
 0.000000e+00 1.000000e+00 0.000000e+00 0.000000e+00 0.000000e+00
 0.000000e+00 3.868706e-01 6.131294e-01 0.000000e+00 0.000000e+00
 0.000000e+00 0.000000e+00 3.968276e-01 6.031724e-01 0.000000e+00
 0.000000e+00 0.000000e+00 0.000000e+00 3.642955e-01 6.357045e-01
 0.000000e+00 0.000000e+00 0.000000e+00 0.000000e+00 0.000000e+00
<ENDHMM>
~h "uw"
<BEGINHMM>
<NUMSTATES> 5
<STATE> 2
<MEAN> 39
 -1.111975e+00 -1.467609e+00 5.195072e-01 -1.128615e+01 -4.922062e+00 -3.200304e+00 -7.927551e+00 -4.257621e+00 -4.059795e+00 -8.273168e-01 -1.506810e+00 -1.258938e+00 6.464909e+01 2.028864e+00 7.632472e-01 -7.142894e-01 -1.851485e+00 -1.082039e+00 7.697816e-02 -1.254777e+00 -1.733021e+00 -1.436820e+00 -1.616706e-01 1.059599e-01 -2.898304e-01 6.236305e-01 -4.175206e-01 -8.430705e-02 1.258700e-01 2.187317e-01 1.118598e-01 1.998851e-01 3.425776e-01 1.604985e-01 1.048381e-01 6.791953e-02 1.115835e-01 1.314435e-01 -8.980120e-02
<VARIANCE> 39
 3.076657e+01 2.646386e+01 3.655308e+01 6.226317e+01 5.727085e+01 5.407143e+01 7.768709e+01 5.690435e+01 5.315388e+01 4.387971e+01 4.378020e+01 3.037892e+01 3.192591e+01 4.338019e+00 2.495114e+00 3.066185e+00 5.013405e+00 5.467086e+00 4.996639e+00 6.750848e+00 6.554729e+00 5.035635e+00 4.452733e+00 4.619662e+00 3.507886e+00 1.909529e+00 5.579482e-01 4.311183e-01 4.447246e-01 1.014576e+00 8.627992e-01 8.303062e-01 1.206235e+00 9.810552e-01 9.654644e-01 7.935871e-01 7.404955e-01 5.876900e-01 3.095111e-01
<GCONST> 1.350497e+02
<STATE> 3
<MEAN> 39
 2.124052e+00 -6.702341e-01 -1.523349e+00 -1.589765e+01 -6.877869e+00 -1.310336e+00 -9.433661e+00 -7.705236e+00 -7.992361e+00 -8.515251e-01 -3.671122e-02 -1.162409e+00 6.652205e+01 1.072109e-01 -9.761825e-03 1.089016e-01 2.224764e-01 4.927137e-02 9.851363e-02 -2.775906e-01 -5.520517e-01 -6.125527e-02 7.688276e-02 4.795974e-02 -1.095291e-01 4.528696e-02 -5.453622e-01 -1.652792e-01 4.135692e-01 8.377314e-01 2.449820e-01 -2.585884e-01 2.503655e-01 4.699093e-01 5.637103e-01 -9.868146e-03 -3.001639e-01 -7.163006e-02 -2.075065e-01
<VARIANCE> 39
 9.823982e+00 2.170339e+01 3.867416e+01 4.860864e+01 4.871558e+01 5.106165e+01 6.758654e+01 6.087627e+01 5.462485e+01 5.397308e+01 5.238189e+01 3.497058e+01 1.289818e+01 1.168617e+00 2.242849e+00 2.183274e+00 5.068568e+00 4.050724e+00 3.832775e+00 5.895683e+00 4.642153e+00 5.352722e+00 4.472188e+00 3.824744e+00 2.933561e+00 1.195664e+00 3.621233e-01 3.107130e-01 4.220540e-01 6.810879e-01 8.228580e-01 8.030279e-01 1.122749e+00 1.039595e+00 9.186082e-01 9.131052e-01 8.575074e-01 6.569110e-01 1.720323e-01
<GCONST> 1.277692e+02
<STATE> 4
<MEAN> 39
 8.489819e-01 -1.340579e+00 5.136960e-01 -1.131038e+01 -6.304325e+00 -3.120229e+00 -9.982782e+00 -7.456336e+00 -5.073270e+00 -1.233493e+00 -1.963625e+00 -2.367070e+00 6.573631e+01 -7.795390e-01 -1.255301e-01 1.084488e+00 1.755372e+00 2.736982e-01 -5.691751e-01 2.935686e-01 5.352654e-01 8.455387e-01 -1.794957e-01 -7.209824e-01 -1.578868e-01 -4.070192e-01 -2.493298e-01 2.072591e-03 1.179284e-01 1.373259e-01 8.193254e-04 3.391149e-02 3.134789e-01 2.864150e-01 2.356994e-02 -3.346926e-02 1.473986e-02 1.029800e-01 -1.069239e-01
<VARIANCE> 39
 1.524577e+01 2.432723e+01 4.770668e+01 6.385581e+01 5.693512e+01 5.290201e+01 6.849380e+01 6.054317e+01 5.366885e+01 5.382647e+01 5.373876e+01 3.588818e+01 1.829741e+01 1.575014e+00 1.940125e+00 3.053997e+00 4.503881e+00 4.294851e+00 4.378942e+00 5.799349e+00 5.117996e+00 4.696423e+00 4.472332e+00 4.285525e+00 3.155395e+00 1.550364e+00 2.405974e-01 3.276855e-01 5.172110e-01 7.943793e-01 7.570837e-01 7.730061e-01 1.037520e+00 9.405438e-01 9.611284e-01 8.858732e-01 8.048045e-01 5.898754e-01 2.189174e-01
<GCONST> 1.301309e+02
<TRANSP> 5
 0.000000e+00 1.000000e+00 0.000000e+00 0.000000e+00 0.000000e+00
 0.000000e+00 5.221961e-01 4.778039e-01 0.000000e+00 0.000000e+00
 0.000000e+00 0.000000e+00 5.807205e-01 4.192794e-01 0.000000e+00
 0.000000e+00 0.000000e+00 0.000000e+00 6.513777e-01 3.486223e-01
 0.000000e+00 0.000000e+00 0.000000e+00 0.000000e+00 0.000000e+00
<ENDHMM>
~h "sil"
<BEGINHMM>
<NUMSTATES> 5
<STATE> 2
<MEAN> 39
 -1.024655e+01 -5.026249e+00 3.617761e+00 -1.876902e+00 4.499205e-01 1.554792e+00 1.216248e+00 1.775093e+00 1.273964e+00 5.000321e-01 2.019674e+00 2.201313e+00 5.733172e+01 -9.218679e-02 -8.739031e-02 1.996131e-02 6.318703e-02 9.039714e-02 7.376934e-02 1.029983e-01 6.324276e-02 9.575232e-02 1.051291e-01 9.555940e-02 1.131574e-01 -1.975209e-01 1.533901e-02 9.748990e-03 -1.188350e-02 -1.980773e-02 -3.055993e-02 -1.393866e-02 -4.921239e-03 -1.148248e-02 1.467050e-03 8.219674e-03 2.224750e-03 8.631041e-04 3.830379e-03
<VARIANCE> 39
