~o
<STREAMINFO> 1 39
<VECSIZE> 39<NULLD><MFCC_D_A_0><DIAGC>
~h "b"
<BEGINHMM>
<NUMSTATES> 5
<STATE> 2
<MEAN> 39
 -5.953010e-01 -9.572386e-01 5.011157e+00 -1.468372e+00 -3.353386e+00 -3.719043e+00 -5.947094e+00 -6.897557e+00 -6.149832e+00 -1.320371e+00 -1.601675e+00 -3.917126e+00 6.099665e+01 1.888728e-02 8.673069e-01 5.167134e-01 7.298061e-01 4.739684e-01 5.291553e-01 1.981896e-01 -4.675447e-01 -1.495463e-01 -3.718075e-01 -3.244559e-02 -2.316670e-02 -9.438243e-01 -1.247231e-01 -1.752907e-01 -2.164560e-02 -2.537270e-01 -8.994721e-02 -2.504614e-02 7.323347e-02 2.315762e-01 1.211902e-01 -1.953371e-02 -3.296797e-02 4.508232e-02 2.315025e-01
<VARIANCE> 39
 1.920416e+01 2.151631e+01 2.551624e+01 4.667461e+01 3.375678e+01 5.563433e+01 4.671402e+01 5.365382e+01 4.592303e+01 3.950299e+01 4.230601e+01 3.568006e+01 2.596756e+01 8.776447e-01 1.179535e+00 1.269884e+00 2.143909e+00 2.153952e+00 2.468058e+00 2.339923e+00 2.270762e+00 2.477976e+00 2.160253e+00 2.235648e+00 2.113331e+00 1.309356e+00 1.318018e-01 2.050681e-01 2.146902e-01 3.651765e-01 3.746228e-01 3.719763e-01 4.223701e-01 4.775119e-01 4.374033e-01 3.769079e-01 3.861805e-01 3.694755e-01 2.125895e-01
<GCONST> 1.110783e+02
<STATE> 3
<MEAN> 39
 -6.435785e-01 5.801768e-01 6.118646e+00 -6.557128e-01 -2.216531e+00 -2.789058e+00 -5.461459e+00 -7.321352e+00 -6.020029e+00 -2.618815e+00 -2.338049e+00 -3.967788e+00 5.938354e+01 -3.456364e-01 3.063485e-01 4.770201e-01 1.107906e-01 2.713883e-01 3.671265e-01 3.847599e-01 2.830755e-01 2.581337e-01 -3.004144e-01 -4.589003e-02 1.147609e-01 -3.966562e-01 -7.177709e-02 -7.366844e-01 -2.012759e-01 -8.889974e-01 -6.258390e-01 -4.805872e-01 -1.261695e-01 4.824171e-01 1.374754e-01 2.769638e-01 1.843493e-02 1.080006e-01 9.470152e-01
<VARIANCE> 39
 1.248144e+01 2.066806e+01 2.477938e+01 4.163891e+01 2.786278e+01 4.296810e+01 3.905381e+01 4.485562e+01 3.753468e+01 3.392570e+01 3.484476e+01 2.738841e+01 2.071304e+01 1.052733e+00 1.167683e+00 1.485725e+00 2.423127e+00 2.257834e+00 2.664989e+00 2.461221e+00 2.766607e+00 2.661319e+00 2.188030e+00 2.146255e+00 2.189270e+00 1.199095e+00 1.924371e-01 2.452392e-01 5.902402e-01 6.574842e-01 5.929043e-01 5.999608e-01 6.420048e-01 6.958621e-01 7.260464e-01 5.443516e-01 5.489814e-01 4.960127e-01 2.629012e-01
<GCONST> 1.150528e+02
<STATE> 4
<MEAN> 39
 -1.740046e+00 -2.346456e-01 6.038910e+00 -1.422088e+00 -2.016360e+00 -2.867219e+00 -5.223372e+00 -5.990827e+00 -4.686265e+00 -2.254657e+00 -1.958303e+00 -3.596068e+00 6.019069e+01 -2.206191e-02 -1.721237e+00 -4.627448e-01 -2.484316e+00 -1.669450e+00 -1.217783e+00 -3.530051e-01 1.300286e+00 5.337232e-01 6.626536e-01 1.243534e-01 3.476976e-01 2.344339e+00 9.775372e-02 -6.242897e-01 -1.289472e-01 -8.930042e-01 -7.456112e-01 -2.747078e-01 -8.941626e-02 1.799309e-01 -1.104293e-01 2.017557e-01 -1.008331e-01 3.889773e-02 8.866044e-01
<VARIANCE> 39
 1.614877e+01 2.011882e+01 2.931612e+01 4.643798e+01 2.868747e+01 4.328843e+01 3.778407e+01 3.992015e+01 3.094094e+01 2.846937e+01 3.099943e+01 2.325767e+01 2.513409e+01 1.872987e+00 2.484979e+00 6.379342e+00 6.548628e+00 4.184106e+00 4.933158e+00 4.888667e+00 5.953722e+00 5.392127e+00 3.825030e+00 3.535482e+00 3.342024e+00 2.394028e+00 3.092653e-01 5.158316e-01 7.913771e-01 9.812251e-01 8.861849e-01 8.492237e-01 7.454398e-01 9.448799e-01 7.885363e-01 6.509631e-01 6.870974e-01 6.578218e-01 4.462441e-01
<GCONST> 1.287520e+02
<TRANSP> 5
 0.000000e+00 1.000000e+00 0.000000e+00 0.000000e+00 0.000000e+00
 0.000000e+00 5.575856e-01 4.424144e-01 0.000000e+00 0.000000e+00
 0.000000e+00 0.000000e+00 3.376656e-01 6.623344e-01 0.000000e+00
 0.000000e+00 0.000000e+00 0.000000e+00 5.116141e-01 4.883859e-01
 0.000000e+00 0.000000e+00 0.000000e+00 0.000000e+00 0.000000e+00
<ENDHMM>
~h "d"
<BEGINHMM>
<NUMSTATES> 5
<STATE> 2
<MEAN> 39
 -4.060551e+00 1.205906e+00 7.310658e+00 8.562243e-01 -2.382890e+00 -4.179855e+00 -4.486734e+00 -3.952059e+00 -2.365859e+00 -3.068922e+00 -3.778476e+00 -2.738269e+00 5.870368e+01 -2.969776e-01 -1.167963e-01 1.582668e-01 -2.170231e-01 -2.363622e-01 -4.272721e-01 -4.676402e-03 2.262172e-01 -2.198395e-01 -1.613605e-01 2.118833e-01 1.073292e-01 7.899683e-01 -3.203201e-02 -5.157669e-01 -2.488814e-01 -7.772428e-01 -7.501992e-01 -3.897208e-01 -6.251021e-02 1.895428e-01 -2.913058e-03 2.040508e-01 1.698005e-01 1.842742e-01 8.840210e-01
<VARIANCE> 39
 1.585105e+01 1.983330e+01 2.482553e+01 3.523473e+01 3.951712e+01 5.031898e+01 4.008669e+01 3.295332e+01 3.065504e+01 3.333729e+01 3.041615e+01 2.958568e+01 3.773200e+01 2.263277e+00 2.530629e+00 2.486501e+00 4.402821e+00 5.093810e+00 5.027419e+00 3.964164e+00 3.782698e+00 3.247362e+00 2.882592e+00 3.198739e+00 3.038958e+00 4.487499e+00 3.168425e-01 3.453263e-01 4.204293e-01 7.226703e-01 1.059811e+00 9.514077e-01 7.577042e-01 6.776616e-01 6.279783e-01 5.591424e-01 5.227148e-01 5.230790e-01 5.890494e-01
<GCONST> 1.255116e+02
<STATE> 3
<MEAN> 39
 -5.833995e+00 -2.749997e+00 3.984694e+00 -4.912999e+00 -6.068464e+00 -9.218742e+00 -5.784257e+00 -1.520931e+00 -1.926037e+00 -2.185517e+00 -1.604784e+00 -5.993859e-01 6.759068e+01 5.841720e-02 -1.612523e+00 -2.560183e-01 -2.373231e+00 -2.950632e+00 -1.990765e+00 -4.174178e-01 7.041126e-01 -1.188351e-01 5.159670e-01 6.134240e-01 6.088720e-01 3.113974e+00 3.384083e-01 -1.130125e-01 2.413274e-01 -3.306774e-01 -5.864676e-01 1.175374e-01 2.165743e-02 -1.820228e-01 -1.365266e-01 1.789592e-01 -2.025676e-01 -2.270215e-01 4.264869e-02
<VARIANCE> 39
 1.933373e+01 1.822619e+01 2.516497e+01 3.957326e+01 5.281417e+01 5.686771e+01 5.055318e+01 3.655235e+01 3.527705e+01 3.349266e+01 3.386542e+01 3.008521e+01 2.504642e+01 1.828766e+00 2.352690e+00 3.841413e+00 5.370034e+00 6.370703e+00 5.490441e+00 5.649188e+00 5.143841e+00 4.875709e+00 4.095656e+00 3.697112e+00 3.130412e+00 3.605946e+00 3.690748e-01 3.432143e-01 5.135883e-01 6.543210e-01 7.933161e-01 7.862082e-01 8.231028e-01 7.225294e-01 5.997383e-01 5.341297e-01 5.890822e-01 5.856374e-01 4.002712e-01
<GCONST> 1.280653e+02
<STATE> 4
<MEAN> 39
 -3.875729e+00 -4.855133e+00 4.239079e+00 -8.034300e+00 -1.228302e+01 -1.277107e+01 -6.820411e+00 -1.195481e+00 -1.948810e+00 -1.479108e+00 -1.638738e+00 -5.047153e-01 7.152521e+01 3.074519e-01 -1.222338e+00 4.212502e-01 -1.966502e+00 -2.696865e+00 -8.085224e-01 1.789764e-02 2.678685e-01 -4.254321e-01 6.175107e-01 2.136632e-01 3.928181e-02 2.003954e+00 7.501720e-02 2.608164e-01 2.296707e-01 2.148291e-01 3.918682e-01 6.352709e-01 1.097332e-01 -2.775808e-01 -1.453686e-01 5.000401e-02 -2.282229e-01 -2.661977e-01 -6.110477e-01
<VARIANCE> 39
 1.343265e+01 2.057492e+01 4.017286e+01 5.562371e+01 5.891691e+01 5.227545e+01 6.024273e+01 5.631974e+01 4.954757e+01 4.526732e+01 4.686662e+01 3.485174e+01 1.655951e+01 1.664044e+00 2.341565e+00 4.040291e+00 5.262094e+00 5.777451e+00 4.352936e+00 5.569888e+00 5.227279e+00 4.367424e+00 3.849739e+00 3.472977e+00 3.068112e+00 2.473971e+00 2.221946e-01 2.351688e-01 3.382004e-01 5.098832e-01 6.683762e-01 6.047310e-01 6.576225e-01 5.809716e-01 5.622101e-01 5.018448e-01 5.134521e-01 4.543750e-01 3.784259e-01
<GCONST> 1.259309e+02
<TRANSP> 5
 0.000000e+00 1.000000e+00 0.000000e+00 0.000000e+00 0.000000e+00
 0.000000e+00 6.404657e-01 3.595342e-01 0.000000e+00 0.000000e+00
 0.000000e+00 0.000000e+00 1.914454e-01 8.085546e-01 0.000000e+00
 0.000000e+00 0.000000e+00 0.000000e+00 1.682393e-01 8.317607e-01
 0.000000e+00 0.000000e+00 0.000000e+00 0.000000e+00 0.000000e+00
<ENDHMM>
~h "f"
<BEGINHMM>
<NUMSTATES> 5
<STATE> 2
<MEAN> 39
 -1.180449e+01 -2.202960e+00 4.287786e+00 2.100143e-01 8.247757e-01 8.659729e-01 -1.359975e-01 1.581418e+00 -2.685462e-01 -1.828331e-01 -5.401701e-02 4.854505e-01 6.174112e+01 -2.839083e+00 -4.884079e-01 -7.555857e-02 1.036346e+00 1.036142e+00 9.572220e-01 9.503337e-01 1.433184e+00 1.551558e+00 1.086219e+00 1.166053e+00 1.161098e+00 -6.782988e-01 3.278513e-01 -3.930760e-01 -2.721178e-01 -6.388664e-01 -5.583384e-01 -3.568290e-01 -2.440124e-01 -1.623004e-01 -1.179250e-01 6.558439e-02 -9.288259e-03 2.033867e-03 4.476266e-01
<VARIANCE> 39
 2.680556e+01 1.312921e+01 1.954930e+01 1.651912e+01 1.793003e+01 2.210872e+01 2.095416e+01 2.178847e+01 2.376031e+01 2.251470e+01 2.125346e+01 1.860138e+01 2.392805e+01 3.405211e+00 2.312923e+00 3.027318e+00 3.297274e+00 3.377879e+00 3.163180e+00 2.804119e+00 3.316944e+00 3.172731e+00 2.624962e+00 2.868454e+00 2.371919e+00 1.633602e+00 5.254986e-01 3.552127e-01 3.972653e-01 5.176547e-01 5.113362e-01 4.985257e-01 4.830529e-01 5.937527e-01 5.521021e-01 5.076599e-01 4.702490e-01 4.401640e-01 2.186160e-01
<GCONST> 1.141094e+02
<STATE> 3
<MEAN> 39
 -1.741392e+01 -6.167573e+00 2.064328e+00 -4.416928e-01 1.122156e+00 1.395608e+00 9.665066e-01 4.018253e+00 2.855803e+00 2.884322e+00 3.218838e+00 3.756168e+00 6.221289e+01 5.160708e-01 -2.554815e-01 -1.894684e-01 -5.185816e-01 -4.095173e-01 -3.522491e-01 -1.854123e-01 -2.377081e-01 -2.974667e-01 -1.962517e-01 -1.540504e-01 -1.293837e-01 4.231305e-01 8.839334e-01 1.975022e-01 1.022025e-01 -3.998208e-01 -3.866645e-01 -2.887706e-01 -2.584228e-01 -4.114535e-01 -4.760094e-01 -2.840555e-01 -3.284326e-01 -3.451175e-01 1.752026e-01
<VARIANCE> 39
 1.043846e+01 1.231266e+01 1.573255e+01 1.164490e+01 1.300974e+01 1.514576e+01 1.542517e+01 1.575704e+01 1.536207e+01 1.514775e+01 1.443411e+01 1.280773e+01 1.575800e+01 3.432354e+00 1.284952e+00 1.541772e+00 1.857259e+00 1.742018e+00 1.874347e+00 1.709309e+00 1.973790e+00 2.119491e+00 1.919611e+00 1.855544e+00 1.719714e+00 1.135338e+00 3.718086e-01 2.766774e-01 3.531075e-01 5.171120e-01 4.512011e-01 4.236969e-01 4.342281e-01 4.919482e-01 4.571848e-01 4.018873e-01 4.348578e-01 3.462280e-01 2.222246e-01
<GCONST> 1.013087e+02
<STATE> 4
<MEAN> 39
 -7.976534e+00 -4.645673e+00 1.864560e+00 -5.092304e+00 -3.011326e+00 -1.872421e+00 -1.311690e+00 3.086438e-01 -1.754199e+00 -8.071445e-01 -1.167850e-01 3.895505e-01 6.450019e+01 4.602796e+00 2.859712e-01 -1.787912e-01 -3.372379e+00 -2.983169e+00 -1.727336e+00 -1.519924e+00 -1.978225e+00 -2.326530e+00 -8.256258e-01 -1.212181e+00 -1.424112e+00 1.519944e+00 -1.309142e-01 -2.444997e-01 4.379320e-02 -2.922203e-01 -2.262299e-01 1.305200e-02 -1.850221e-01 -3.118955e-02 5.230916e-02 3.805137e-01 1.174562e-01 1.163816e-02 2.782611e-01
<VARIANCE> 39
 5.381282e+01 1.501357e+01 3.854346e+01 4.965310e+01 3.385250e+01 3.615775e+01 3.048346e+01 2.767673e+01 2.685800e+01 2.045631e+01 2.059471e+01 1.635221e+01 1.761115e+01 1.933187e+00 3.643326e+00 6.389650e+00 6.983716e+00 4.001592e+00 4.961728e+00 4.299418e+00 4.724388e+00 4.250779e+00 3.751879e+00 4.875922e+00 2.781611e+00 1.640105e+00 8.359674e-01 4.429185e-01 4.084517e-01 9.508908e-01 7.036223e-01 6.483716e-01 6.815863e-01 6.883569e-01 6.899756e-01 5.619994e-01 6.255981e-01 4.345022e-01 2.515588e-01
<GCONST> 1.252835e+02
<TRANSP> 5
 0.000000e+00 1.000000e+00 0.000000e+00 0.000000e+00 0.000000e+00
 0.000000e+00 6.628179e-01 3.371820e-01 0.000000e+00 0.000000e+00
 0.000000e+00 0.000000e+00 8.267439e-01 1.732561e-01 0.000000e+00
 0.000000e+00 0.000000e+00 0.000000e+00 4.341086e-01 5.658914e-01
 0.000000e+00 0.000000e+00 0.000000e+00 0.000000e+00 0.000000e+00
<ENDHMM>
~h "g"
<BEGINHMM>
<NUMSTATES> 5
<STATE> 2
<MEAN> 39
 -2.408190e+00 -3.388280e+00 3.734842e+00 -6.043884e+00 -6.305295e+00 -5.290127e+00 -5.226416e+00 -2.928018e+00 -4.592813e+00 2.074298e-01 -1.838881e+00 -9.276588e-01 6.428151e+01 5.095012e-01 5.407017e-01 1.808053e-02 -2.940695e-01 -4.082043e-01 -1.425446e-01 -1.290847e-01 -3.453984e-01 -6.104801e-01 5.486891e-02 9.820366e-02 1.590649e-01 -1.590998e-01 3.000006e-03 -1.575359e-01 -4.932185e-02 -1.998978e-01 -2.370422e-01 9.998415e-03 3.864536e-02 6.996530e-02 6.348257e-02 -3.497725e-02 -1.804784e-02 -1.171379e-01 2.562375e-01
<VARIANCE> 39
 2.337344e+01 3.124319e+01 3.914725e+01 6.429935e+01 7.609244e+01 7.274719e+01 6.593482e+01 6.532722e+01 5.241893e+01 4.598416e+01 5.566251e+01 3.774119e+01 4.452911e+01 1.451409e+00 2.502502e+00 3.091655e+00 6.360647e+00 5.866393e+00 4.766262e+00 4.328005e+00 4.216527e+00 3.736716e+00 3.497340e+00 3.225894e+00 2.992308e+00 4.487372e+00 2.562163e-01 3.863840e-01 4.556330e-01 7.586936e-01 1.049325e+00 8.326180e-01 8.569628e-01 7.177181e-01 6.778733e-01 6.592018e-01 5.994124e-01 5.532256e-01 5.066523e-01
<GCONST> 1.325793e+02
<STATE> 3
<MEAN> 39
 -8.756442e-01 -2.083376e+00 4.266542e+00 -6.619576e+00 -8.825430e+00 -6.551643e+00 -5.697479e+00 -3.410349e+00 -6.302619e+00 1.007914e+00 -2.005876e+00 -7.737859e-01 6.445480e+01 1.509540e-01 1.035392e-01 -2.232368e-01 -4.128054e-01 -4.119890e-01 1.786365e-02 1.755197e-01 8.485030e-02 -1.818119e-01 6.512196e-02 2.601237e-01 -1.017038e-01 1.306810e-01 -3.287716e-02 -3.892714e-01 -2.124627e-01 -2.594108e-01 -2.339094e-02 -6.345969e-03 -6.594783e-02 2.409227e-01 2.006680e-01 -4.784534e-02 -4.567806e-02 -2.068071e-01 4.211446e-01
<VARIANCE> 39
 1.619207e+01 2.992705e+01 4.048273e+01 6.559786e+01 6.657373e+01 6.774100e+01 5.093256e+01 6.674004e+01 5.319659e+01 4.757622e+01 5.674821e+01 3.884229e+01 3.257849e+01 7.540547e-01 1.676567e+00 1.907887e+00 4.575586e+00 4.273898e+00 3.045071e+00 3.270156e+00 3.207742e+00 2.926699e+00 2.985631e+00 2.796628e+00 2.417456e+00 2.384414e+00 1.615667e-01 3.371465e-01 3.773712e-01 7.188895e-01 8.178033e-01 6.285231e-01 6.287940e-01 6.011645e-01 6.391803e-01 6.217967e-01 5.283784e-01 5.455716e-01 5.181698e-01
<GCONST> 1.248967e+02
<STATE> 4
<MEAN> 39
 -7.395416e-02 -2.000200e+00 2.731449e+00 -9.221849e+00 -1.046443e+01 -4.946363e+00 -5.015005e+00 -1.406739e+00 -5.992545e+00 -8.316720e-01 -8.247244e-02 -2.117170e+00 6.526639e+01 8.749772e-02 -5.135676e-01 -4.903441e-01 -5.274892e-01 -1.035439e-01 -1.286421e-02 -8.193134e-02 3.392177e-01 1.941730e-01 2.531607e-02 7.835443e-02 -2.663447e-01 6.236287e-01 -8.844374e-03 -2.205885e-01 -8.401559e-02 -2.076598e-02 1.600612e-01 1.343223e-02 -1.159404e-01 9.766679e-03 1.105776e-01 -1.878755e-02 -5.240650e-02 -2.241710e-02 1.423533e-01
<VARIANCE> 39
 2.036704e+01 4.056820e+01 4.216656e+01 9.385451e+01 6.877757e+01 7.268572e+01 5.102596e+01 7.005353e+01 5.044621e+01 4.535313e+01 6.467733e+01 4.924207e+01 3.964579e+01 6.962304e-01 1.355941e+00 1.704166e+00 3.313451e+00 3.570808e+00 2.621745e+00 2.680530e+00 2.870621e+00 2.908242e+00 2.664006e+00 2.453825e+00 2.301644e+00 1.616740e+00 1.189600e-01 2.879203e-01 2.894527e-01 6.032919e-01 6.463198e-01 4.943390e-01 4.773042e-01 5.612425e-01 4.732042e-01 4.647250e-01 4.555497e-01 4.280156e-01 4.415585e-01
<GCONST> 1.215232e+02
<TRANSP> 5
 0.000000e+00 1.000000e+00 0.000000e+00 0.000000e+00 0.000000e+00
 0.000000e+00 4.459931e-01 5.540069e-01 0.000000e+00 0.000000e+00
 0.000000e+00 0.000000e+00 3.343259e-01 6.656741e-01 0.000000e+00
 0.000000e+00 0.000000e+00 0.000000e+00 5.454605e-01 4.545395e-01
 0.000000e+00 0.000000e+00 0.000000e+00 0.000000e+00 0.000000e+00
<ENDHMM>
~h "k"
<BEGINHMM>
<NUMSTATES> 5
<STATE> 2
<MEAN> 39
 -7.541615e+00 -2.491981e+00 5.793503e+00 4.098622e-01 -1.297789e+00 -1.421056e+00 3.861549e-01 4.852664e-01 1.217373e-01 1.562114e+00 6.994060e-01 9.785770e-01 5.611146e+01 -1.331148e+00 -3.849439e-01 -3.358194e-01 1.235734e+00 1.579583e+00 1.661253e+00 1.312354e+00 9.748574e-01 1.695125e+00 7.372512e-01 1.147452e+00 9.183191e-01 -2.166810e+00 2.248490e-02 -5.086920e-01 -4.995897e-01 -8.315079e-01 -3.598630e-01 -2.061438e-01 -1.761460e-01 6.441253e-02 -2.220291e-01 8.183626e-02 -5.174281e-02 5.584608e-02 9.309233e-01
<VARIANCE> 39
 1.628442e+01 1.426538e+01 2.697825e+01 2.807245e+01 3.828616e+01 4.757587e+01 3.419797e+01 3.779572e+01 3.684099e+01 3.155833e+01 3.364729e+01 2.454302e+01 2.400275e+01 1.720155e+00 2.413672e+00 3.364958e+00 4.746765e+00 4.582686e+00 4.137352e+00 3.604334e+00 4.264043e+00 4.270875e+00 3.136069e+00 3.903101e+00 2.551452e+00 3.635687e+00 2.799131e-01 3.881169e-01 5.405563e-01 6.306793e-01 6.785411e-01 7.636947e-01 6.649145e-01 6.910008e-01 8.246322e-01 6.246614e-01 6.519481e-01 4.735878e-01 5.350212e-01
<GCONST> 1.242380e+02
<STATE> 3
<MEAN> 39
 -1.097809e+01 -5.908556e+00 2.108288e+00 -6.094199e-01 1.771038e+00 2.227641e+00 3.143901e+00 2.987319e+00 3.057586e+00 4.407293e+00 3.529997e+00 4.440948e+00 5.475345e+01 -2.132417e-01 -9.450269e-01 -1.727811e+00 -1.547121e+00 1.693400e-01 -2.636110e-01 -2.299753e-01 3.051786e-01 -6.505514e-01 3.667273e-01 -2.292853e-01 3.075497e-01 1.850983e+00 5.407451e-01 2.929240e-01 -5.785558e-03 -6.269625e-01 -5.819856e-01 -5.810550e-01 -5.093821e-01 -3.840505e-01 -6.839006e-01 -3.272143e-01 -4.857115e-01 -4.283302e-01 8.736287e-01
<VARIANCE> 39
 1.162231e+01 1.715551e+01 2.872376e+01 2.964136e+01 2.891883e+01 2.887408e+01 2.404129e+01 2.510919e+01 2.532251e+01 2.399487e+01 1.950741e+01 1.668015e+01 2.420599e+01 2.244873e+00 2.653685e+00 4.729051e+00 5.029056e+00 4.542223e+00 4.864497e+00 3.653276e+00 3.892761e+00 4.288735e+00 3.573106e+00 3.271993e+00 2.555784e+00 4.348315e+00 3.753730e-01 4.749085e-01 7.896017e-01 7.439948e-01 8.000827e-01 6.987153e-01 6.075323e-01 7.001973e-01 6.738719e-01 6.229472e-01 5.855756e-01 4.696815e-01 5.786161e-01
<GCONST> 1.228589e+02
<STATE> 4
<MEAN> 39
 -8.114880e+00 -5.944403e+00 -2.880435e+00 -8.712484e+00 -7.501924e-01 -1.385351e+00 -8.080755e-01 1.539974e+00 -2.981699e+00 3.616980e+00 4.468902e-01 2.373624e+00 6.447559e+01 2.029024e+00 8.133619e-01 2.915344e-01 -2.154485e+00 -2.399589e+00 -1.556408e+00 -1.326617e+00 -1.107321e+00 -1.654875e+00 -1.027435e+00 -9.517310e-01 -1.360011e+00 2.261920e+00 3.677572e-01 9.824468e-02 6.053892e-01 2.305478e-01 -4.205098e-01 8.809492e-04 -2.197623e-03 -1.729223e-01 1.806593e-01 -2.886271e-01 6.520642e-02 -3.016059e-01 -3.300447e-01
<VARIANCE> 39
 4.089159e+01 3.343037e+01 6.514822e+01 6.815948e+01 7.343744e+01 6.284097e+01 4.589817e+01 5.511002e+01 4.815728e+01 4.450071e+01 4.049374e+01 2.989770e+01 2.945097e+01 3.555699e+00 2.871816e+00 5.040280e+00 6.006617e+00 6.421772e+00 4.998738e+00 4.649715e+00 5.240406e+00 4.710231e+00 4.203047e+00 4.390209e+00 3.626973e+00 3.259801e+00 6.033192e-01 7.862549e-01 1.027373e+00 9.957417e-01 1.360308e+00 1.136004e+00 9.767662e-01 1.069691e+00 9.667439e-01 9.135036e-01 7.445456e-01 7.268743e-01 4.866452e-01
<GCONST> 1.393490e+02
<TRANSP> 5
 0.000000e+00 1.000000e+00 0.000000e+00 0.000000e+00 0.000000e+00
 0.000000e+00 6.567670e-01 3.432330e-01 0.000000e+00 0.000000e+00
 0.000000e+00 0.000000e+00 6.721019e-01 3.278981e-01 0.000000e+00
 0.000000e+00 0.000000e+00 0.000000e+00 6.163915e-01 3.836084e-01
 0.000000e+00 0.000000e+00 0.000000e+00 0.000000e+00 0.000000e+00
<ENDHMM>
~h "l"
<BEGINHMM>
<NUMSTATES> 5
<STATE> 2
<MEAN> 39
 -3.747587e+00 -3.953878e+00 7.375185e+00 -5.104454e+00 -7.164589e+00 -7.081721e+00 -1.067583e+01 -4.133053e+00 -1.169866e-01 -2.212262e+00 -2.617997e+00 -4.545610e-01 6.553555e+01 -3.001471e-01 1.054306e+00 9.763265e-01 4.125534e-01 6.068455e-01 5.490061e-01 -6.652728e-01 -9.818251e-01 8.755396e-02 -1.584309e-01 -2.194990e-01 2.630572e-01 -8.816948e-01 -2.188237e-02 -3.488823e-01 -3.987638e-01 -2.684965e-01 -8.098097e-02 2.304552e-01 5.356591e-01 4.039112e-01 -9.292696e-02 1.961831e-01 6.560774e-02 -1.229874e-01 1.960361e-01
<VARIANCE> 39
 2.330946e+01 2.473773e+01 3.849216e+01 5.231839e+01 5.629726e+01 6.231509e+01 7.690888e+01 6.142457e+01 4.881870e+01 5.518055e+01 5.012416e+01 4.943293e+01 3.933279e+01 1.653648e+00 2.020012e+00 2.911407e+00 3.682124e+00 3.843100e+00 4.654484e+00 6.615831e+00 5.318438e+00 3.827364e+00 3.659319e+00 3.318552e+00 3.189315e+00 2.185137e+00 2.383637e-01 4.003555e-01 4.749946e-01 6.547052e-01 7.174522e-01 8.676238e-01 9.658946e-01 9.446080e-01 7.640152e-01 7.627273e-01 6.737363e-01 6.134387e-01 2.508478e-01
<GCONST> 1.305652e+02
<STATE> 3
<MEAN> 39
 -4.016469e+00 -3.026935e+00 8.695351e+00 -5.864464e+00 -7.169264e+00 -5.450501e+00 -1.156268e+01 -5.534085e+00 -1.319552e-01 -1.723056e+00 -3.431048e+00 -7.673579e-01 6.495594e+01 -1.290751e-01 -1.886633e-01 -2.424963e-01 -1.351823e-01 1.289052e-01 3.202342e-01 4.931930e-01 4.566210e-01 -5.363378e-02 3.182022e-01 2.128124e-01 -7.721741e-02 -7.234263e-02 8.586186e-02 -5.233268e-01 -5.744442e-01 -2.144731e-01 -2.363198e-01 -1.219179e-01 5.953794e-01 6.190474e-01 -1.012686e-01 1.438543e-01 1.489592e-01 -1.027529e-01 3.743426e-01
<VARIANCE> 39
 2.233804e+01 2.451436e+01 3.900964e+01 5.392576e+01 5.495196e+01 5.687537e+01 8.383199e+01 6.462456e+01 5.069811e+01 5.344632e+01 5.640535e+01 5.257992e+01 3.552024e+01 1.052907e+00 1.488349e+00 2.031417e+00 2.627494e+00 2.539167e+00 3.185609e+00 3.885998e+00 3.984025e+00 3.034474e+00 2.705664e+00 2.576609e+00 2.307717e+00 1.487629e+00 1.923805e-01 3.759538e-01 4.740581e-01 5.961301e-01 6.709527e-01 7.812485e-01 1.090039e+00 9.706662e-01 7.275060e-01 6.983472e-01 6.777807e-01 6.244237e-01 2.445668e-01
<GCONST> 1.255628e+02
<STATE> 4
<MEAN> 39
 -9.890964e+00 -6.242010e+00 5.725987e+00 -2.483595e+00 -1.340930e+00 -1.440295e-01 -9.983331e-01 1.687515e+00 1.575808e+00 7.219830e-01 2.349380e+00 2.850851e+00 5.837022e+01 1.049125e-01 -2.372157e-01 -3.016820e-01 -1.661832e-01 -1.619122e-01 1.092177e-02 3.159840e-01 3.283312e-01 -7.323643e-02 1.123038e-01 2.192567e-02 -1.196484e-01 1.676309e-01 8.051158e-02 -6.298275e-02 -1.060662e-01 -1.046330e-01 -8.511485e-02 -6.552731e-02 1.392502e-02 1.735920e-02 -5.925558e-02 -2.477091e-02 -6.515265e-02 -5.654861e-02 1.535091e-01
<VARIANCE> 39
 2.894978e+01 2.136687e+01 2.020675e+01 3.393918e+01 4.073002e+01 4.751068e+01 6.730300e+01 4.747166e+01 3.442940e+01 3.160929e+01 4.005835e+01 3.045577e+01 4.717979e+01 9.369170e-01 1.582420e+00 1.827607e+00 2.091796e+00 2.337357e+00 2.827747e+00 3.545017e+00 3.576865e+00 2.635625e+00 2.542016e+00 2.376555e+00 2.066747e+00 1.376956e+00 1.638848e-01 2.545544e-01 2.852825e-01 3.940495e-01 4.247614e-01 4.962272e-01 6.486109e-01 5.018449e-01 4.693755e-01 4.639510e-01 4.162561e-01 3.595179e-01 2.146986e-01
<GCONST> 1.151983e+02
<TRANSP> 5
 0.000000e+00 1.000000e+00 0.000000e+00 0.000000e+00 0.000000e+00
 0.000000e+00 4.839560e-01 5.160440e-01 0.000000e+00 0.000000e+00
 0.000000e+00 0.000000e+00 3.998691e-01 6.001310e-01 0.000000e+00
 0.000000e+00 0.000000e+00 0.000000e+00 6.878238e-01 3.121761e-01
 0.000000e+00 0.000000e+00 0.000000e+00 0.000000e+00 0.000000e+00
<ENDHMM>
~h "m"
<BEGINHMM>
<NUMSTATES> 5
<STATE> 2
<MEAN> 39
 9.395525e-01 -3.014047e+00 2.235451e+00 -3.361556e+00 -4.780857e+00 -5.715946e+00 -7.072714e+00 -7.973473e+00 -7.513362e+00 -1.512866e+00 -2.279712e+00 -4.930128e+00 6.481568e+01 1.199229e-01 1.411375e+00 9.085467e-01 2.212271e+00 8.860132e-01 -7.242069e-02 -3.154401e-01 -2.391818e+00 -1.682004e+00 1.778808e-01 1.857507e-01 -5.778910e-01 -1.173529e+00 -2.468085e-01 -3.187812e-01 3.211725e-02 -4.638840e-01 -2.219157e-01 1.064916e-01 1.814577e-01 4.228698e-01 9.504022e-02 -1.013621e-01 -5.594514e-02 9.478483e-02 3.936059e-01
<VARIANCE> 39
 1.044063e+01 2.309969e+01 2.896394e+01 4.131471e+01 4.164348e+01 5.459699e+01 5.180306e+01 5.892213e+01 4.532421e+01 4.259492e+01 4.457540e+01 3.225479e+01 1.971659e+01 1.513378e+00 2.058387e+00 3.891315e+00 3.682939e+00 3.788804e+00 4.602026e+00 5.551142e+00 4.313066e+00 4.824396e+00 5.273556e+00 3.696492e+00 3.351755e+00 1.664287e+00 1.648195e-01 2.590142e-01 4.738384e-01 5.243455e-01 4.891222e-01 5.026731e-01 6.403958e-01 7.322456e-01 7.119129e-01 6.032005e-01 5.132893e-01 4.733657e-01 1.619729e-01
<GCONST> 1.231293e+02
<STATE> 3
<MEAN> 39
 8.145949e-01 -2.105565e+00 3.665156e+00 -1.500016e+00 -4.502075e+00 -4.888414e+00 -7.095789e+00 -1.009351e+01 -1.038246e+01 -1.863820e+00 -1.992552e+00 -5.686495e+00 6.426057e+01 -3.972327e-02 -1.460888e-01 -5.088032e-02 -2.502795e-01 -3.802189e-02 6.792743e-02 7.668249e-02 2.596115e-01 1.041074e-02 -1.650157e-01 -8.229952e-02 -1.675068e-01 1.888072e-01 -2.373236e-02 -3.954990e-01 -2.941289e-01 -8.305859e-01 -2.767189e-01 7.343679e-02 1.356464e-01 7.523889e-01 5.240996e-01 -9.330292e-02 -5.281524e-02 1.797035e-01 3.696586e-01
<VARIANCE> 39
 5.582086e+00 1.885103e+01 2.224173e+01 3.771997e+01 4.446109e+01 6.559344e+01 5.705307e+01 5.851491e+01 4.389451e+01 5.465034e+01 4.697379e+01 3.845886e+01 1.166622e+01 3.359272e-01 8.684862e-01 1.154885e+00 2.043262e+00 1.275071e+00 1.842182e+00 1.639143e+00 2.350520e+00 2.226618e+00 2.010147e+00 1.684085e+00 1.624200e+00 6.507990e-01 1.248737e-01 2.199995e-01 4.389029e-01 4.215466e-01 3.739339e-01 5.010602e-01 6.346123e-01 6.293922e-01 6.753737e-01 7.137992e-01 5.007263e-01 5.108821e-01 1.291455e-01
<GCONST> 1.087862e+02
<STATE> 4
<MEAN> 39
 9.996084e-01 -3.517319e+00 1.231063e+00 -6.287710e+00 -6.044215e+00 -4.835183e+00 -6.009310e+00 -5.950104e+00 -7.290604e+00 -3.250836e+00 -2.885513e+00 -5.963320e+00 6.658850e+01 -1.733969e-01 -1.140683e+00 -6.552290e-01 -2.446110e+00 -8.690448e-01 2.075181e-01 3.931209e-01 2.119548e+00 1.337689e+00 -3.013041e-01 -7.827704e-02 4.763773e-01 1.180791e+00 -1.930068e-01 -1.044838e-01 1.376704e-01 -1.720961e-01 -5.396252e-02 2.336071e-01 1.267027e-01 6.151640e-02 -3.936761e-02 1.557910e-02 5.446491e-02 1.931318e-01 8.916832e-02
<VARIANCE> 39
 7.197186e+00 2.481701e+01 3.750601e+01 5.530834e+01 4.643475e+01 6.140689e+01 5.151069e+01 5.773804e+01 4.881042e+01 5.127933e+01 4.619142e+01 3.171493e+01 1.922398e+01 9.896815e-01 2.259380e+00 4.903121e+00 3.865091e+00 4.074811e+00 4.323125e+00 5.357945e+00 4.879703e+00 5.593128e+00 5.240930e+00 3.777093e+00 3.619321e+00 1.624911e+00 1.114834e-01 2.503712e-01 4.416977e-01 6.334928e-01 5.799818e-01 5.337961e-01 6.365358e-01 6.965735e-01 7.540385e-01 6.253760e-01 5.333467e-01 4.667473e-01 1.211565e-01
<GCONST> 1.237908e+02
<TRANSP> 5
 0.000000e+00 1.000000e+00 0.000000e+00 0.000000e+00 0.000000e+00
 0.000000e+00 5.060576e-01 4.939424e-01 0.000000e+00 0.000000e+00
 0.000000e+00 0.000000e+00 7.010188e-01 2.989812e-01 0.000000e+00
 0.000000e+00 0.000000e+00 0.000000e+00 5.128048e-01 4.871952e-01
 0.000000e+00 0.000000e+00 0.000000e+00 0.000000e+00 0.000000e+00
<ENDHMM>
~h "n"
<BEGINHMM>
<NUMSTATES> 5
<STATE> 2
<MEAN> 39
 -4.927461e-01 -2.791298e+00 3.569870e+00 -5.394173e+00 -9.011733e+00 -7.255056e+00 -4.983484e+00 -3.708688e+00 -6.048429e+00 -2.379732e+00 -4.632365e+00 -3.657649e+00 6.599297e+01 5.161833e-01 1.365063e+00 6.541861e-01 1.770274e+00 -1.044304e-01 -8.421513e-01 1.923383e-01 -1.412315e+00 -4.379103e-01 1.764467e-01 -9.527388e-01 3.112156e-02 -1.240989e+00 -1.478751e-01 -1.055758e-01 8.166407e-03 -3.338904e-01 4.607894e-03 2.339000e-01 3.942607e-02 8.900020e-02 3.580656e-02 -2.266653e-02 9.171373e-02 4.432595e-02 1.754228e-01
<VARIANCE> 39
 1.219003e+01 2.266829e+01 3.537610e+01 5.480927e+01 6.394272e+01 6.445735e+01 5.127163e+01 7.488893e+01 5.151224e+01 5.628708e+01 5.724288e+01 4.681295e+01 2.645821e+01 1.157895e+00 1.607198e+00 3.574327e+00 3.181616e+00 4.793437e+00 4.183520e+00 4.743637e+00 4.394908e+00 4.322311e+00 4.264585e+00 3.562968e+00 3.325795e+00 1.689525e+00 1.497844e-01 2.403949e-01 3.383266e-01 4.240038e-01 5.024492e-01 5.449509e-01 5.313565e-01 6.643783e-01 5.721901e-01 5.520708e-01 5.228066e-01 4.126647e-01 1.515110e-01
<GCONST> 1.234105e+02
<STATE> 3
<MEAN> 39
 6.001221e-01 -1.201574e-01 4.853918e+00 -2.981025e+00 -1.035338e+01 -8.486192e+00 -4.586941e+00 -6.580966e+00 -6.997190e+00 -2.027239e+00 -6.633012e+00 -3.064113e+00 6.409152e+01 -1.084317e-01 5.101887e-01 3.388304e-01 4.022276e-01 2.906913e-01 1.605487e-01 -6.650881e-02 -1.494305e-01 -5.310617e-02 -1.697511e-01 -2.202627e-02 4.699247e-02 -5.076008e-01 -3.102882e-01 -3.699673e-01 -9.954940e-02 -4.606719e-01 2.677839e-01 3.863851e-01 -8.189401e-02 5.137111e-01 1.833362e-01 -9.221445e-02 3.575910e-01 4.519857e-04 2.705052e-01
<VARIANCE> 39
 5.772434e+00 1.656704e+01 2.765907e+01 3.917892e+01 4.713418e+01 5.320623e+01 4.556709e+01 5.857286e+01 4.434051e+01 6.125246e+01 5.110696e+01 5.423021e+01 1.162941e+01 5.237430e-01 1.319402e+00 1.342045e+00 1.833761e+00 2.203857e+00 2.165467e+00 2.107207e+00 2.586149e+00 2.297678e+00 2.124272e+00 2.096227e+00 1.754117e+00 1.133550e+00 1.694183e-01 2.972322e-01 4.116252e-01 5.361562e-01 5.815184e-01 5.697083e-01 6.195284e-01 6.163453e-01 6.193326e-01 6.021049e-01 5.182167e-01 5.037906e-01 2.160994e-01
<GCONST> 1.136037e+02
<STATE> 4
<MEAN> 39
 -1.214818e+00 4.548452e-01 5.977442e+00 -2.344997e+00 -6.757126e+00 -5.916519e+00 -4.991786e+00 -5.091896e+00 -6.119545e+00 -2.964417e+00 -4.777702e+00 -3.001798e+00 6.214115e+01 -1.120517e+00 -6.606581e-01 5.178189e-02 -3.099644e-01 1.276073e+00 1.161299e+00 7.015426e-02 1.295916e+00 7.976333e-01 -8.422336e-03 8.939956e-01 2.018099e-01 -1.303907e-01 -2.676415e-01 -4.776442e-01 -3.032929e-01 -3.668561e-01 3.105352e-02 2.494839e-01 2.020188e-01 3.440705e-01 2.758461e-01 2.073794e-01 2.358754e-01 1.402692e-01 2.770351e-01
<VARIANCE> 39
 1.067885e+01 2.324890e+01 2.618974e+01 3.935434e+01 4.718490e+01 4.815063e+01 4.040539e+01 5.113546e+01 3.986911e+01 4.416539e+01 4.249450e+01 3.705899e+01 2.737348e+01 1.447450e+00 2.584143e+00 2.715339e+00 4.671949e+00 4.202767e+00 3.754586e+00 4.406977e+00 4.071755e+00 4.121838e+00 3.984978e+00 3.292942e+00 3.018970e+00 2.972069e+00 2.398784e-01 3.060736e-01 3.759702e-01 4.808263e-01 5.742912e-01 5.324349e-01 5.635106e-01 5.752820e-01 5.864560e-01 5.840682e-01 4.994338e-01 4.647517e-01 2.268061e-01
<GCONST> 1.226780e+02
<TRANSP> 5
 0.000000e+00 1.000000e+00 0.000000e+00 0.000000e+00 0.000000e+00
 0.000000e+00 4.459845e-01 5.540155e-01 0.000000e+00 0.000000e+00
 0.000000e+00 0.000000e+00 6.443851e-01 3.556149e-01 0.000000e+00
 0.000000e+00 0.000000e+00 0.000000e+00 4.724800e-01 5.275200e-01
 0.000000e+00 0.000000e+00 0.000000e+00 0.000000e+00 0.000000e+00
<ENDHMM>
~h "p"
<BEGINHMM>
<NUMSTATES> 5
<STATE> 2
<MEAN> 39
 -8.045902e+00 -2.666527e+00 5.180526e+00 8.522058e-01 1.132185e+00 2.247482e+00 1.792686e+00 7.105185e-01 2.209654e+00 1.624587e+00 1.338168e+00 8.221789e-01 5.323205e+01 -1.146302e+00 -4.092515e-01 1.929431e-02 5.325443e-01 4.455008e-01 7.172151e-01 9.267981e-01 7.588485e-01 1.059049e+00 6.500920e-01 7.372459e-01 8.629819e-01 -1.168350e+00 1.943249e-01 -2.387747e-01 -3.069651e-01 -6.112173e-01 -3.653272e-01 -3.819430e-01 -3.690009e-01 -9.885634e-02 -2.568971e-01 -9.452962e-02 -8.921244e-02 -7.918575e-02 8.902162e-01
<VARIANCE> 39
 1.545532e+01 1.222146e+01 1.468939e+01 1.377179e+01 1.632637e+01 2.039110e+01 2.200794e+01 2.439614e+01 2.639967e+01 2.629059e+01 2.653566e+01 2.576056e+01 1.074190e+01 1.587351e+00 1.332487e+00 1.705186e+00 2.702919e+00 1.968456e+00 2.146010e+00 2.416314e+00 2.527748e+00 2.883172e+00 2.460426e+00 2.533107e+00 2.107429e+00 2.574327e+00 2.373570e-01 3.380285e-01 3.652645e-01 4.939900e-01 3.938008e-01 4.242149e-01 4.441353e-01 4.979838e-01 5.308259e-01 5.571443e-01 5.140796e-01 4.682249e-01 3.246555e-01
<GCONST> 1.085723e+02
<STATE> 3
<MEAN> 39
 -1.074978e+01 -4.470916e+00 4.022089e+00 -1.382830e-01 1.327020e+00 2.639549e+00 2.486173e+00 2.169489e+00 3.729442e+00 2.946800e+00 3.243691e+00 3.097136e+00 5.412088e+01 9.767454e-01 -4.364247e-01 -8.380340e-01 -1.856339e+00 -1.168594e+00 -1.656605e+00 -1.495639e+00 -3.494487e-01 -9.506905e-01 -6.513650e-01 -7.515467e-01 -6.728283e-01 3.249264e+00 1.018236e+00 -1.022576e-01 -2.849706e-01 -8.833827e-01 -7.337117e-01 -5.620381e-01 -6.157011e-01 -4.077409e-01 -6.414328e-01 -2.852897e-01 -4.766254e-01 -5.150313e-01 1.056979e+00
<VARIANCE> 39
 5.364452e+00 7.013225e+00 8.487179e+00 1.121812e+01 1.164377e+01 1.631485e+01 1.681755e+01 1.519958e+01 1.636675e+01 1.707243e+01 1.481636e+01 1.397802e+01 2.461656e+01 2.960599e+00 1.643005e+00 2.572232e+00 3.715836e+00 2.940821e+00 3.626270e+00 2.915627e+00 2.709838e+00 3.038930e+00 2.632184e+00 2.677902e+00 2.414085e+00 3.052985e+00 2.616026e-01 4.299321e-01 5.343280e-01 6.803399e-01 5.390247e-01 7.363554e-01 6.067539e-01 5.707390e-01 5.762901e-01 5.638926e-01 5.975837e-01 4.573119e-01 6.279199e-01
<GCONST> 1.100876e+02
<STATE> 4
<MEAN> 39
 -3.944035e+00 -5.099347e+00 2.087020e-01 -8.298826e+00 -4.392194e+00 -3.445498e+00 -3.501954e+00 -6.262968e-01 -7.950634e-01 -1.223052e-01 -2.934673e-01 -7.226794e-01 6.607141e+01 3.269623e+00 -9.898629e-01 -1.466866e+00 -3.464372e+00 -2.693497e+00 -1.602768e+00 -1.926960e+00 -1.052912e+00 -1.665762e+00 -5.189549e-01 -1.005328e+00 -1.293262e+00 3.738853e+00 -1.169764e-01 -1.797813e-01 2.149464e-01 3.723291e-01 7.783157e-02 4.275891e-01 2.733479e-01 3.526627e-02 1.888817e-01 2.519147e-01 1.652358e-01 9.830476e-02 -6.682652e-01
<VARIANCE> 39
 3.866453e+01 2.076335e+01 3.269063e+01 6.280301e+01 3.465230e+01 4.382274e+01 3.596929e+01 2.986524e+01 3.009516e+01 2.728753e+01 2.647031e+01 2.138193e+01 2.435456e+01 2.213469e+00 4.341076e+00 5.810435e+00 8.172014e+00 5.534422e+00 7.485737e+00 5.643521e+00 4.926769e+00 4.750267e+00 4.273305e+00 5.210833e+00 3.722592e+00 4.773763e+00 7.936321e-01 4.746534e-01 4.908729e-01 1.299224e+00 8.725874e-01 7.875492e-01 7.549323e-01 8.088407e-01 7.658657e-01 6.905433e-01 6.405136e-01 5.353428e-01 4.736314e-01
<GCONST> 1.325013e+02
<TRANSP> 5
 0.000000e+00 1.000000e+00 0.000000e+00 0.000000e+00 0.000000e+00
 0.000000e+00 7.556071e-01 2.443929e-01 0.000000e+00 0.000000e+00
 0.000000e+00 0.000000e+00 5.880513e-01 4.119487e-01 0.000000e+00
 0.000000e+00 0.000000e+00 0.000000e+00 4.652034e-01 5.347966e-01
 0.000000e+00 0.000000e+00 0.000000e+00 0.000000e+00 0.000000e+00
<ENDHMM>
~h "s"
<BEGINHMM>
<NUMSTATES> 5
<STATE> 2
<MEAN> 39
 -1.254122e+01 2.608618e+00 2.973054e+00 -2.597170e+00 -9.079977e-01 -5.065853e+00 -1.969638e+00 -4.379433e-02 -2.338179e+00 -2.542364e+00 -1.348520e+00 -5.947723e-01 6.657745e+01 -4.285311e+00 1.158470e+00 -1.793622e-01 1.439735e+00 2.240645e+00 1.826137e+00 1.611659e+00 1.495653e+00 1.063913e+00 8.643142e-01 1.305093e+00 9.552560e-01 -7.334303e-01 2.110764e-02 -6.449187e-01 -3.504738e-01 -5.017946e-01 -3.872580e-01 1.314629e-01 -1.297128e-02 2.039637e-01 1.955020e-01 3.808764e-01 1.903648e-01 1.683144e-01 1.095466e-01
<VARIANCE> 39
 4.558186e+01 2.360374e+01 2.757014e+01 3.525343e+01 5.508588e+01 5.339354e+01 4.326852e+01 4.117999e+01 3.530853e+01 3.600232e+01 2.766707e+01 2.296790e+01 2.179258e+01 2.628594e+00 3.415615e+00 3.779359e+00 4.494548e+00 4.184726e+00 4.824676e+00 4.721284e+00 4.464439e+00 3.716259e+00 4.181639e+00 3.626135e+00 3.202150e+00 1.399443e+00 8.657956e-01 4.405521e-01 4.047211e-01 5.128012e-01 6.463877e-01 7.678427e-01 7.041150e-01 6.788679e-01 5.735358e-01 6.036801e-01 4.947448e-01 4.983672e-01 1.746999e-01
<GCONST> 1.261247e+02
<STATE> 3
<MEAN> 39
 -2.344221e+01 2.532757e+00 -5.235128e-01 -1.814408e+00 1.933163e+00 -3.273695e-01 2.072691e+00 4.527553e+00 1.512792e+00 1.698298e+00 3.511523e+00 3.439292e+00 6.481081e+01 -6.826780e-01 -3.024400e-01 -2.567154e-01 -9.733253e-02 4.496083e-02 3.239401e-01 2.672992e-01 3.716352e-01 3.477811e-01 4.279271e-01 4.502596e-01 4.163609e-01 -2.861865e-01 9.121572e-01 -1.744461e-01 2.596767e-01 -1.494270e-01 -3.566912e-01 -3.644195e-01 -2.787920e-01 -3.526737e-01 -2.558962e-01 -2.477612e-01 -3.247810e-01 -2.547518e-01 5.031799e-02
<VARIANCE> 39
 1.732996e+01 1.770963e+01 2.483357e+01 3.245840e+01 3.745329e+01 3.342747e+01 3.426226e+01 2.900469e+01 2.461062e+01 2.139477e+01 2.029418e+01 1.786171e+01 1.621508e+01 2.333358e+00 1.298035e+00 1.444245e+00 1.412256e+00 1.668812e+00 2.124610e+00 1.929994e+00 2.110308e+00 2.170310e+00 2.224979e+00 1.954815e+00 1.747631e+00 1.121573e+00 4.039677e-01 2.536102e-01 2.854535e-01 3.620501e-01 4.082039e-01 4.832858e-01 4.774707e-01 4.788941e-01 4.354465e-01 4.660212e-01 4.291280e-01 3.606686e-01 1.665888e-01
<GCONST> 1.075844e+02
<STATE> 4
<MEAN> 39
 -1.899052e+01 -6.341143e-01 1.810644e+00 -1.998068e+00 6.600242e-01 -6.671476e-02 1.534061e+00 3.813066e+00 1.443567e+00 1.778895e+00 2.910096e+00 2.935488e+00 6.259351e+01 2.235235e+00 -5.249468e-01 6.457523e-01 -2.189144e-01 -9.646703e-01 -6.733835e-01 -5.946921e-01 -9.164903e-01 -5.242729e-01 -3.878970e-01 -7.072939e-01 -5.969390e-01 -2.183374e-01 5.258769e-01 -2.038830e-02 1.993960e-02 -1.870751e-01 -3.287168e-01 -2.227729e-01 -2.657262e-01 -2.618526e-01 -1.892981e-01 -1.132961e-01 -2.036632e-01 -1.605878e-01 1.756647e-01
<VARIANCE> 39
 3.121402e+01 1.865034e+01 2.381476e+01 2.993237e+01 3.284193e+01 4.011223e+01 3.788296e+01 2.909089e+01 2.766207e+01 2.530227e+01 2.321223e+01 1.949796e+01 3.592901e+01 4.785141e+00 1.593904e+00 2.262839e+00 2.945819e+00 3.407936e+00 3.996820e+00 3.735945e+00 3.180990e+00 2.716105e+00 2.641384e+00 2.795407e+00 2.184660e+00 2.431895e+00 5.590903e-01 3.016037e-01 3.638278e-01 4.738129e-01 5.339679e-01 6.190764e-01 6.766112e-01 5.684391e-01 4.981894e-01 5.031543e-01 5.236890e-01 3.982680e-01 3.124767e-01
<GCONST> 1.190182e+02
<TRANSP> 5
 0.000000e+00 1.000000e+00 0.000000e+00 0.000000e+00 0.000000e+00
 0.000000e+00 6.230726e-01 3.769274e-01 0.000000e+00 0.000000e+00
 0.000000e+00 0.000000e+00 7.750844e-01 2.249155e-01 0.000000e+00
 0.000000e+00 0.000000e+00 0.000000e+00 7.055868e-01 2.944132e-01
 0.000000e+00 0.000000e+00 0.000000e+00 0.000000e+00 0.000000e+00
<ENDHMM>
~h "t"
<BEGINHMM>
<NUMSTATES> 5
<STATE> 2
<MEAN> 39
 -9.125569e+00 -2.049506e+00 5.717534e+00 1.600618e+00 9.044367e-01 2.022784e+00 1.873976e+00 8.925434e-01 2.065063e+00 1.678771e+00 1.593137e+00 1.326069e+00 5.305971e+01 -8.419128e-01 -7.694001e-01 -2.046624e-01 2.074408e-01 6.360290e-01 1.114301e+00 1.000470e+00 6.235601e-01 8.897425e-01 5.734487e-01 7.841386e-01 7.544630e-01 -1.076298e+00 1.292766e-02 -1.639778e-01 -2.495473e-01 -5.848627e-01 -4.140696e-01 -4.603371e-01 -3.048065e-01 -4.881725e-02 -2.282018e-01 -9.268508e-02 -7.666115e-02 -2.378375e-02 9.276918e-01
<VARIANCE> 39
 1.201807e+01 1.151957e+01 1.508597e+01 1.429052e+01 1.709984e+01 2.213385e+01 2.115546e+01 2.226645e+01 2.404195e+01 2.367344e+01 2.306454e+01 2.258981e+01 1.159716e+01 1.580348e+00 1.335838e+00 1.685186e+00 2.300448e+00 2.508537e+00 2.701872e+00 2.619638e+00 2.418418e+00 2.677185e+00 2.421253e+00 2.533443e+00 2.087730e+00 2.467734e+00 2.139955e-01 3.160155e-01 3.391885e-01 4.726013e-01 4.897387e-01 4.609188e-01 4.287395e-01 4.329618e-01 4.612677e-01 4.734248e-01 4.474653e-01 4.013760e-01 4.644169e-01
<GCONST> 1.077204e+02
<STATE> 3
<MEAN> 39
 -1.193411e+01 -4.221361e+00 3.916809e+00 4.613858e-02 1.524812e+00 3.296270e+00 3.249519e+00 2.591231e+00 3.602420e+00 3.364267e+00 3.875226e+00 3.751091e+00 5.365150e+01 -6.586789e-01 -7.399229e-01 -9.400608e-01 -1.946399e+00 -9.027127e-01 -1.307453e+00 -6.380308e-01 2.809070e-01 -5.297849e-01 -4.055641e-01 -1.251157e-01 -6.493913e-02 3.510509e+00 6.785055e-01 2.085534e-01 -5.677481e-02 -5.835864e-01 -8.454091e-01 -1.040083e+00 -7.685191e-01 -3.793316e-01 -5.700680e-01 -4.745199e-01 -6.767750e-01 -5.811781e-01 1.343536e+00
<VARIANCE> 39
 9.255676e+00 8.037926e+00 1.186546e+01 1.541549e+01 1.427413e+01 1.531041e+01 1.550677e+01 1.699211e+01 1.747476e+01 1.814326e+01 1.480308e+01 1.431158e+01 2.085534e+01 1.645654e+00 1.541200e+00 2.138053e+00 2.305222e+00 3.094134e+00 3.320326e+00 2.941730e+00 2.790031e+00 2.837613e+00 2.928793e+00 2.704655e+00 2.534411e+00 3.696272e+00 3.756227e-01 3.023109e-01 5.342714e-01 4.987908e-01 5.968355e-01 5.147874e-01 5.586823e-01 6.099487e-01 5.658635e-01 5.766574e-01 5.360150e-01 4.558182e-01 4.855998e-01
<GCONST> 1.096133e+02
<STATE> 4
<MEAN> 39
 -1.185120e+01 -4.921295e+00 1.109825e+00 -6.852216e+00 -2.888937e+00 -4.162774e+00 -1.329958e+00 2.236490e+00 5.042280e-01 2.530255e-01 1.016331e+00 1.317823e+00 6.818569e+01 2.531997e+00 -1.800615e-01 -5.856684e-01 -2.345140e+00 -2.747556e+00 -3.109662e+00 -2.544019e+00 -9.641017e-01 -1.127499e+00 -9.440570e-01 -1.799605e+00 -1.615790e+00 4.058588e+00 7.976057e-01 -3.165800e-02 2.839918e-01 2.065908e-01 -1.496542e-01 2.973412e-01 -1.103582e-01 -2.868528e-01 -1.931304e-02 1.398669e-01 -1.508086e-01 -2.391678e-01 -8.544565e-01
<VARIANCE> 39
 2.534034e+01 1.895322e+01 2.392887e+01 2.704629e+01 3.406446e+01 4.085143e+01 3.931150e+01 2.673332e+01 2.352692e+01 2.608383e+01 2.841685e+01 2.291885e+01 1.818806e+01 2.846490e+00 2.761004e+00 5.257656e+00 4.671556e+00 5.334189e+00 4.555348e+00 5.195716e+00 5.200768e+00 4.594532e+00 4.646431e+00 4.746865e+00 3.559271e+00 4.059637e+00 5.830519e-01 5.207416e-01 7.184967e-01 6.091265e-01 7.959311e-01 1.165284e+00 1.044932e+00 8.719677e-01 6.694979e-01 6.980473e-01 8.476071e-01 6.967705e-01 4.585993e-01
<GCONST> 1.291045e+02
<TRANSP> 5
 0.000000e+00 1.000000e+00 0.000000e+00 0.000000e+00 0.000000e+00
 0.000000e+00 7.333241e-01 2.666759e-01 0.000000e+00 0.000000e+00
 0.000000e+00 0.000000e+00 5.542583e-01 4.457416e-01 0.000000e+00
 0.000000e+00 0.000000e+00 0.000000e+00 5.367360e-01 4.632640e-01
 0.000000e+00 0.000000e+00 0.000000e+00 0.000000e+00 0.000000e+00
<ENDHMM>
~h "w"
<BEGINHMM>
<NUMSTATES> 5
<STATE> 2
<MEAN> 39
 3.227392e+00 -6.704979e-01 -3.118992e+00 -1.762759e+01 -9.261326e+00 -1.743060e+00 -4.241230e+00 -2.973480e+00 -7.461773e+00 -1.258217e+00 -7.252654e-01 -8.299545e-01 6.545090e+01 1.612079e+00 -5.062506e-01 -1.186742e+00 -2.281364e+00 -4.001847e-01 2.019550e-01 -1.090942e+00 -1.447168e+00 -1.545316e+00 7.467710e-01 5.085995e-01 -2.184887e-01 1.514327e+00 -7.627286e-01 -7.446465e-01 1.869706e-01 8.793763e-01 6.782391e-01 -3.155798e-02 -1.552800e-01 2.190199e-01 7.910470e-01 6.233089e-01 6.751886e-02 -1.732456e-01 6.009300e-02
<VARIANCE> 39
 1.071411e+01 2.183223e+01 2.739092e+01 6.056066e+01 5.240987e+01 3.900782e+01 4.694649e+01 4.957545e+01 4.406750e+01 4.150962e+01 4.503386e+01 3.171121e+01 1.731959e+01 3.476550e+00 3.473103e+00 2.893089e+00 6.463174e+00 5.442153e+00 5.283278e+00 5.472896e+00 5.329457e+00 5.620561e+00 5.701115e+00 5.954510e+00 3.658117e+00 2.482382e+00 3.951409e-01 3.842513e-01 3.918889e-01 1.051841e+00 8.143783e-01 7.744843e-01 8.260456e-01 9.416818e-01 1.079885e+00 8.684569e-01 7.379425e-01 6.274834e-01 1.990850e-01
<GCONST> 1.312262e+02
<STATE> 3
<MEAN> 39
 3.019261e+00 -6.538327e+00 -5.758195e+00 -1.877271e+01 -5.017136e+00 -4.872935e-01 -8.624153e+00 -6.546669e+00 -7.450646e+00 5.316815e+00 1.951671e+00 -2.954741e+00 7.002178e+01 -4.253368e-01 -2.018615e+00 -5.995458e-02 1.021670e+00 9.824268e-01 -1.267258e+00 -1.840462e+00 1.814400e-01 1.894380e+00 1.653237e+00 -8.875253e-01 -1.694987e+00 1.395206e+00 -6.296436e-01 -2.186348e-02 7.266324e-01 1.073715e+00 -2.508986e-01 -6.615079e-01 4.730188e-01 9.954496e-01 7.749267e-01 -7.264887e-01 -7.399014e-01 3.009143e-02 -2.814883e-01
<VARIANCE> 39
 7.616491e+00 2.076623e+01 3.745043e+01 5.661147e+01 4.996850e+01 6.162132e+01 5.489260e+01 5.103279e+01 6.147443e+01 6.477785e+01 8.419983e+01 4.065178e+01 1.337227e+01 1.242641e+00 2.703854e+00 2.140485e+00 5.102101e+00 3.894719e+00 5.414259e+00 4.480019e+00 4.232407e+00 4.968699e+00 4.722104e+00 5.217665e+00 3.055632e+00 1.596385e+00 3.760693e-01 3.173087e-01 3.844074e-01 7.875499e-01 8.404934e-01 8.312251e-01 9.841974e-01 8.643111e-01 1.062247e+00 9.978595e-01 9.008425e-01 7.560390e-01 1.470649e-01
<GCONST> 1.292933e+02
<STATE> 4
<MEAN> 39
 5.600000e-01 -1.092920e+01 -2.860716e+00 -1.303851e+01 -5.561945e+00 -8.000954e+00 -1.120522e+01 -8.505078e-01 -5.790818e-02 3.895596e+00 -5.486300e+00 -5.717167e+00 7.248901e+01 -9.306043e-01 -8.839516e-01 1.683064e+00 1.649302e+00 -1.314340e+00 -2.158797e+00 8.914285e-01 2.043643e+00 8.500606e-01 -1.679672e+00 -1.341680e+00 3.627087e-01 5.808581e-01 -1.023463e-01 5.843182e-01 3.183399e-01 -6.125135e-02 -4.265022e-01 4.275751e-01 8.432835e-01 -1.760965e-01 -8.000144e-01 -5.110667e-01 5.695666e-01 5.860200e-01 -4.096191e-01
<VARIANCE> 39
 1.002403e+01 2.782627e+01 4.372775e+01 4.943414e+01 5.459556e+01 7.748376e+01 5.882827e+01 6.141928e+01 5.086908e+01 6.803645e+01 9.975002e+01 4.533397e+01 1.684434e+01 7.534133e-01 1.543064e+00 2.324941e+00 3.227552e+00 4.639959e+00 4.212205e+00 5.169172e+00 3.925757e+00 5.204081e+00 3.945382e+00 4.157192e+00 3.246999e+00 9.909192e-01 2.471620e-01 3.022861e-01 3.277808e-01 5.960460e-01 7.508394e-01 8.855119e-01 8.352447e-01 9.915356e-01 7.919151e-01 9.991595e-01 9.174326e-01 6.233758e-01 1.311995e-01
<GCONST> 1.270361e+02
<TRANSP> 5
 0.000000e+00 1.000000e+00 0.000000e+00 0.000000e+00 0.000000e+00
 0.000000e+00 5.420819e-01 4.579181e-01 0.000000e+00 0.000000e+00
 0.000000e+00 0.000000e+00 4.810398e-01 5.189602e-01 0.000000e+00
 0.000000e+00 0.000000e+00 0.000000e+00 5.268580e-01 4.731421e-01
 0.000000e+00 0.000000e+00 0.000000e+00 0.000000e+00 0.000000e+00
<ENDHMM>
~h "y"
<BEGINHMM>
<NUMSTATES> 5
<STATE> 2
<MEAN> 39
 -9.085929e+00 -4.033571e-01 1.364203e+01 -6.700554e+00 -1.010747e+01 -6.340750e+00 -4.760585e+00 -4.378065e+00 -6.560247e+00 -1.251130e+00 -1.748432e+00 -1.352400e+00 6.658254e+01 1.619859e+00 -1.379806e-01 1.756784e+00 -1.420285e+00 -2.506611e+00 -1.037495e+00 -1.437398e+00 -1.178880e+00 -1.294370e+00 -1.281484e-01 -6.153582e-01 -2.257392e-01 9.447585e-01 -5.366795e-02 -3.145968e-01 -5.928832e-01 -2.367430e-01 1.097763e-01 9.675002e-02 1.076370e-01 3.710561e-01 3.072059e-01 2.623027e-01 1.553326e-01 1.097013e-01 1.354732e-01
<VARIANCE> 39
 4.015863e+01 2.932060e+01 3.419551e+01 6.430500e+01 6.658727e+01 5.520277e+01 4.795307e+01 6.172504e+01 4.085630e+01 3.221874e+01 3.616714e+01 2.194890e+01 2.449997e+01 8.217290e+00 2.786674e+00 4.294150e+00 6.757956e+00 7.269038e+00 6.391414e+00 6.124500e+00 5.216855e+00 4.584198e+00 3.980084e+00 4.517189e+00 3.061903e+00 2.298226e+00 6.474165e-01 4.122882e-01 5.264130e-01 7.079188e-01 1.160335e+00 8.929117e-01 8.274052e-01 9.562995e-01 7.174450e-01 5.770404e-01 5.974571e-01 4.500065e-01 3.002743e-01
<GCONST> 1.339643e+02
<STATE> 3
<MEAN> 39
 -6.065921e+00 -2.494056e+00 1.676386e+01 -1.279281e+01 -1.702711e+01 -7.213320e+00 -7.777539e+00 -6.522485e+00 -9.224284e+00 1.473210e+00 -2.948341e+00 -1.241886e+00 6.984335e+01 4.402006e-01 -8.908295e-01 -5.811923e-01 -8.345878e-01 -8.471792e-01 -5.996444e-01 2.575850e-02 6.181032e-01 2.705985e-01 4.789315e-01 1.663618e-01 1.657872e-01 7.668597e-01 -1.414317e-01 -1.777919e-01 -8.833684e-01 4.420448e-01 7.044062e-01 3.980865e-02 4.034834e-01 5.542238e-01 5.428171e-01 -1.587734e-01 6.630536e-02 -2.836911e-02 -1.253320e-01
<VARIANCE> 39
 1.037491e+01 2.403245e+01 3.451963e+01 8.352473e+01 4.149897e+01 5.929425e+01 5.180667e+01 6.758659e+01 5.131620e+01 4.793428e+01 5.497541e+01 3.155312e+01 1.373968e+01 1.228206e+00 2.239424e+00 2.903930e+00 2.741707e+00 2.960948e+00 3.356575e+00 3.459481e+00 3.495291e+00 2.691650e+00 2.323634e+00 2.132719e+00 1.670363e+00 9.739888e-01 3.559607e-01 2.243345e-01 3.254380e-01 5.714714e-01 8.328254e-01 7.431493e-01 6.778407e-01 5.974026e-01 6.585093e-01 6.270508e-01 5.216346e-01 4.219715e-01 1.286636e-01
<GCONST> 1.199291e+02
<STATE> 4
<MEAN> 39
 -4.307527e+00 -6.923413e+00 9.688475e+00 -1.257388e+01 -1.700221e+01 -9.726928e+00 -5.850660e+00 -8.256590e-01 -5.108699e+00 2.484972e-01 -2.541003e+00 -1.320869e+00 7.228120e+01 5.306950e-01 -9.753703e-01 -2.174093e+00 2.744137e-02 1.191967e+00 3.684808e-02 2.006437e-01 1.176163e+00 1.212234e+00 -4.361761e-01 -5.297154e-01 -4.213967e-01 3.372878e-01 -3.998358e-02 2.005570e-01 -8.482387e-02 1.492386e-01 4.814216e-01 3.882194e-01 -7.242881e-02 -2.745703e-01 -5.607792e-02 -8.889496e-02 -5.711983e-02 -1.429801e-01 -2.373581e-01
<VARIANCE> 39
 1.302879e+01 2.613602e+01 4.485659e+01 6.996616e+01 5.646149e+01 6.765863e+01 6.888943e+01 7.241810e+01 4.463204e+01 4.291900e+01 5.562072e+01 2.968829e+01 1.702885e+01 3.858657e-01 1.097526e+00 2.068325e+00 1.907655e+00 3.362113e+00 2.638082e+00 3.546749e+00 3.261241e+00 3.670396e+00 3.712810e+00 2.240277e+00 2.133337e+00 5.495678e-01 1.027042e-01 1.805920e-01 2.573475e-01 3.209796e-01 4.375338e-01 5.664260e-01 5.627709e-01 5.899291e-01 5.508325e-01 5.068394e-01 4.528579e-01 3.681822e-01 6.935377e-02
<GCONST> 1.141316e+02
<TRANSP> 5
 0.000000e+00 1.000000e+00 0.000000e+00 0.000000e+00 0.000000e+00
 0.000000e+00 5.945712e-01 4.054288e-01 0.000000e+00 0.000000e+00
 0.000000e+00 0.000000e+00 6.403484e-01 3.596517e-01 0.000000e+00
 0.000000e+00 0.000000e+00 0.000000e+00 7.107980e-01 2.892020e-01
 0.000000e+00 0.000000e+00 0.000000e+00 0.000000e+00 0.000000e+00
<ENDHMM>
~h "z"
<BEGINHMM>
<NUMSTATES> 5
<STATE> 2
<MEAN> 39
 -1.850203e+01 2.679439e+00 3.199708e+00 -1.009509e+00 -2.432785e-01 -3.863330e+00 4.134637e-01 2.242072e+00 -9.878560e-01 -1.189729e+00 1.603545e+00 1.046010e+00 6.650861e+01 -1.366082e+00 -3.915597e-01 -7.115207e-01 -4.208102e-02 1.397357e+00 9.845526e-01 3.358193e-01 8.700235e-01 1.013716e+00 4.205330e-01 5.586637e-01 4.295419e-01 -4.873300e-01 8.386269e-01 -2.143059e-01 2.484743e-01 -2.580181e-01 -6.462386e-01 -1.286442e-01 -3.266993e-01 -4.624451e-01 -2.776078e-01 7.797880e-02 -1.699336e-01 -1.297954e-01 -6.739601e-02
<VARIANCE> 39
 4.750776e+01 2.582437e+01 3.763081e+01 3.761161e+01 4.980221e+01 4.514139e+01 4.576747e+01 4.507599e+01 3.684796e+01 2.931220e+01 2.623718e+01 2.622145e+01 1.831041e+01 5.647109e+00 1.866085e+00 2.786361e+00 2.983805e+00 4.404459e+00 3.736413e+00 3.650963e+00 4.943498e+00 3.270330e+00 2.840674e+00 2.684858e+00 2.364631e+00 7.625493e-01 5.646219e-01 4.036366e-01 5.259445e-01 5.806876e-01 6.941832e-01 7.048778e-01 7.170614e-01 6.955979e-01 6.153420e-01 6.424284e-01 5.135956e-01 5.022585e-01 1.475263e-01
<GCONST> 1.235211e+02
<STATE> 3
<MEAN> 39
 -1.573194e+01 3.219656e-01 2.767044e+00 -2.648531e+00 -8.991606e-01 -2.840844e+00 -7.425784e-01 1.259390e+00 -1.150406e+00 -7.808250e-01 1.666826e+00 6.829426e-01 6.509364e+01 1.507126e+00 -2.902939e-01 3.076521e-01 1.474589e-01 -4.606485e-03 3.657537e-01 -5.907562e-01 -6.056136e-01 -1.171785e-01 1.582239e-01 -3.344555e-01 -1.341727e-01 -1.023554e+00 5.430494e-01 9.867389e-02 1.563655e-01 5.473722e-02 -3.219406e-01 -1.442790e-01 -1.527530e-01 -3.730792e-01 -1.838748e-01 -4.052678e-02 -2.611589e-01 -1.680643e-01 -5.952473e-02
<VARIANCE> 39
 6.539345e+01 2.675432e+01 4.380597e+01 4.036623e+01 4.808786e+01 4.506074e+01 4.817899e+01 5.059791e+01 4.106850e+01 3.414651e+01 4.081804e+01 2.622012e+01 2.179619e+01 2.939183e+00 1.417338e+00 2.100912e+00 2.566182e+00 2.981477e+00 2.800968e+00 3.191364e+00 3.230416e+00 2.938564e+00 2.531587e+00 2.449032e+00 1.900650e+00 1.403700e+00 4.505456e-01 3.925109e-01 4.342427e-01 5.516554e-01 6.166601e-01 6.188816e-01 7.241025e-01 8.413932e-01 6.259999e-01 6.024356e-01 5.839291e-01 4.568309e-01 2.571386e-01
<GCONST> 1.225811e+02
<STATE> 4
<MEAN> 39
 -1.251257e+01 -8.790176e-01 4.186367e+00 -1.418677e+00 1.320527e-01 -6.877460e-01 -4.439371e-01 7.648882e-01 -2.275503e-01 7.073020e-01 1.569455e+00 9.596748e-01 6.102711e+01 2.122489e+00 1.005448e-01 3.495744e-01 1.746964e-01 -6.169652e-01 -1.605503e-01 -5.497499e-01 -1.357287e+00 -5.011778e-01 -7.834365e-02 -7.324237e-01 -5.766176e-01 -7.052549e-01 2.815712e-01 1.157064e-01 -6.376052e-02 -1.752829e-01 -3.334829e-01 -4.267500e-01 -2.381063e-01 -2.826343e-01 -2.018704e-01 -1.202278e-01 -1.995778e-01 -1.886844e-01 3.817063e-01
<VARIANCE> 39
 4.572094e+01 1.958550e+01 2.530396e+01 3.455065e+01 3.797487e+01 4.763459e+01 4.658040e+01 4.371086e+01 3.691001e+01 3.232966e+01 3.545430e+01 2.232782e+01 3.080664e+01 3.343494e+00 1.796754e+00 2.206018e+00 2.369542e+00 3.300629e+00 3.456389e+00 4.158165e+00 3.821356e+00 2.891400e+00 2.916104e+00 3.100226e+00 2.692504e+00 1.646612e+00 2.910336e-01 3.384466e-01 3.943470e-01 3.871979e-01 4.990676e-01 6.158224e-01 7.456383e-01 7.068884e-01 5.008510e-01 5.555580e-01 4.589112e-01 4.104423e-01 3.069120e-01
<GCONST> 1.208059e+02
<TRANSP> 5
 0.000000e+00 1.000000e+00 0.000000e+00 0.000000e+00 0.000000e+00
 0.000000e+00 7.375988e-01 2.624011e-01 0.000000e+00 0.000000e+00
 0.000000e+00 0.000000e+00 4.096392e-01 5.903608e-01 0.000000e+00
 0.000000e+00 0.000000e+00 0.000000e+00 4.511002e-01 5.488999e-01
 0.000000e+00 0.000000e+00 0.000000e+00 0.000000e+00 0.000000e+00
<ENDHMM>
~h "aa"
<BEGINHMM>
<NUMSTATES> 5
<STATE> 2
<MEAN> 39
 -2.404898e+00 -1.068246e+01 -2.329791e+00 -1.012947e+01 -6.535495e+00 -5.708210e+00 -4.167680e+00 2.513243e+00 -8.636440e-01 -2.188849e+00 -4.689731e+00 -3.520660e+00 7.162198e+01 7.793353e-01 -2.016048e+00 -1.589393e+00 -9.857322e-01 1.627485e-01 2.562794e-02 3.566623e-01 7.277660e-01 -3.364366e-01 -1.029702e+00 -1.168463e+00 -7.306567e-01 1.933835e+00 -3.535581e-01 2.408963e-01 1.968428e-01 4.522765e-01 3.036157e-01 2.740770e-01 1.650093e-01 -2.506477e-01 -6.871198e-02 1.239423e-02 2.248238e-01 2.704753e-01 -4.038374e-01
<VARIANCE> 39
 2.014665e+01 3.947548e+01 4.928001e+01 5.481974e+01 7.126891e+01 7.278146e+01 6.933274e+01 5.269607e+01 4.841588e+01 5.976381e+01 5.758408e+01 5.672918e+01 5.220282e+01 2.611315e+00 2.737808e+00 2.949568e+00 3.913381e+00 4.127930e+00 4.710713e+00 6.216346e+00 4.617734e+00 4.355688e+00 4.192333e+00 3.870275e+00 3.872308e+00 2.976348e+00 4.297499e-01 5.834451e-01 5.802765e-01 7.063602e-01 6.902300e-01 7.653378e-01 9.147189e-01 7.945374e-01 6.435369e-01 7.260117e-01 7.103927e-01 6.143489e-01 6.912900e-01
<GCONST> 1.352803e+02
<STATE> 3
<MEAN> 39
 -2.150259e+00 -1.596978e+01 -6.144439e+00 -1.051737e+01 -4.803482e+00 -3.884647e+00 -2.748881e+00 2.657755e+00 -3.387521e+00 -6.330209e+00 -7.188518e+00 -3.505566e+00 7.619848e+01 6.556927e-02 8.652295e-02 -1.935969e-01 3.145421e-01 1.934291e-01 1.628237e-02 -4.331465e-02 -1.185056e-01 3.923135e-02 -2.340315e-01 4.868116e-03 5.761663e-02 -1.377661e-01 -1.781438e-02 6.228800e-01 4.293267e-01 1.848763e-01 -1.979932e-01 -1.716349e-01 -2.145405e-01 -1.766222e-01 1.206367e-01 3.299534e-01 2.478719e-01 7.044914e-02 -5.025804e-01
<VARIANCE> 39
 1.221046e+01 2.148972e+01 3.793819e+01 3.697155e+01 5.350411e+01 5.332820e+01 6.026584e+01 4.870176e+01 5.065150e+01 5.514027e+01 4.342727e+01 5.657322e+01 1.234684e+01 4.877250e-01 1.385714e+00 1.428341e+00 1.447275e+00 2.653052e+00 2.123534e+00 2.270943e+00 2.195278e+00 1.924421e+00 2.151579e+00 1.727283e+00 1.747928e+00 6.240969e-01 1.564336e-01 2.467551e-01 2.460141e-01 3.580816e-01 3.541629e-01 3.806512e-01 4.913435e-01 4.874368e-01 4.557651e-01 4.144438e-01 3.991912e-01 3.942821e-01 1.613192e-01
<GCONST> 1.099559e+02
<STATE> 4
<MEAN> 39
 -1.165755e+00 -1.066697e+01 -4.015279e+00 -8.323043e+00 -6.301956e+00 -5.542616e+00 -4.062759e+00 2.318414e+00 -1.043700e+00 -4.098560e+00 -4.848683e+00 -3.750949e+00 7.128862e+01 -2.462763e-01 1.964880e+00 1.497393e+00 1.143531e+00 1.087979e-01 -1.749481e-01 -4.012984e-01 -6.131281e-01 1.433210e-01 7.409850e-01 7.180935e-01 3.890927e-01 -1.969158e+00 -3.365752e-01 2.017376e-01 3.019483e-01 2.490571e-01 2.336299e-01 2.199836e-01 1.174499e-01 -1.386368e-01 -6.116585e-02 9.047414e-02 1.214791e-01 1.412236e-01 -2.735687e-01
<VARIANCE> 39
 1.467356e+01 2.801111e+01 4.050485e+01 5.083334e+01 6.462351e+01 6.692107e+01 6.201921e+01 4.820444e+01 5.323152e+01 6.656590e+01 5.358167e+01 5.350100e+01 3.245330e+01 1.356973e+00 2.241391e+00 2.336473e+00 3.357956e+00 3.704926e+00 3.767888e+00 3.994644e+00 3.573358e+00 3.395913e+00 3.282914e+00 2.819174e+00 2.815104e+00 1.983084e+00 2.890931e-01 3.335671e-01 3.806374e-01 4.683263e-01 5.287511e-01 6.115323e-01 6.236410e-01 6.101564e-01 5.546685e-01 5.852163e-01 4.940270e-01 4.539207e-01 2.791515e-01
<GCONST> 1.248939e+02
<TRANSP> 5
 0.000000e+00 1.000000e+00 0.000000e+00 0.000000e+00 0.000000e+00
 0.000000e+00 5.696032e-01 4.303969e-01 0.000000e+00 0.000000e+00
 0.000000e+00 0.000000e+00 7.385420e-01 2.614580e-01 0.000000e+00
 0.000000e+00 0.000000e+00 0.000000e+00 6.036143e-01 3.963857e-01
 0.000000e+00 0.000000e+00 0.000000e+00 0.000000e+00 0.000000e+00
<ENDHMM>
~h "bb"
<BEGINHMM>
<NUMSTATES> 5
<STATE> 2
<MEAN> 39
 9.790670e-01 -4.645775e+00 2.386994e+00 -6.740293e+00 -4.763510e+00 -5.468393e+00 -8.530794e+00 -5.023771e+00 -3.803781e+00 5.239642e-01 -8.208391e-01 -2.889421e+00 6.458542e+01 1.145695e-01 9.249882e-01 -1.830941e-01 8.358865e-01 1.097941e+00 4.177729e-01 -3.611282e-01 -8.233730e-01 1.182292e-01 2.957826e-01 3.752587e-01 -4.117464e-02 -1.129623e+00 -1.644638e-01 -3.931247e-01 9.168454e-02 -5.139441e-01 -6.129974e-01 -1.212805e-01 2.220234e-01 3.301695e-01 -8.179183e-02 -1.283646e-01 -1.478169e-01 7.546231e-03 6.028231e-01
<VARIANCE> 39
 1.231767e+01 3.300488e+01 4.484381e+01 5.810830e+01 3.258492e+01 5.692571e+01 4.210952e+01 3.607540e+01 3.577719e+01 3.707172e+01 4.848034e+01 2.658371e+01 2.764582e+01 9.152052e-01 2.199214e+00 3.912775e+00 4.140485e+00 3.762550e+00 4.007946e+00 3.477569e+00 3.441940e+00 3.140159e+00 2.754496e+00 2.821663e+00 2.444151e+00 1.989212e+00 1.746012e-01 4.279691e-01 4.980118e-01 7.655557e-01 6.853684e-01 7.115452e-01 7.253615e-01 6.502659e-01 5.696059e-01 6.048023e-01 5.466424e-01 4.842705e-01 3.581785e-01
<GCONST> 1.230802e+02
<STATE> 3
<MEAN> 39
 1.466349e+00 -4.894866e+00 1.750964e+00 -6.902450e+00 -4.827872e+00 -5.937745e+00 -9.530740e+00 -5.653859e+00 -3.839477e+00 1.149796e+00 -1.035481e-01 -3.181437e+00 6.481087e+01 -1.126844e-01 -4.062099e-01 2.974434e-01 -2.473390e-01 -6.843998e-01 -6.342577e-01 -6.384233e-03 7.114784e-01 9.820653e-02 -2.850140e-01 -1.716205e-01 9.411661e-02 4.441442e-01 -1.840803e-01 -4.486014e-01 2.153207e-01 -5.014300e-01 -6.387336e-01 -1.453228e-01 2.893471e-01 4.792844e-01 -6.394612e-02 -1.901184e-01 -2.421242e-01 5.040728e-02 6.087102e-01
<VARIANCE> 39
 1.205274e+01 2.790966e+01 4.096425e+01 5.878564e+01 3.032877e+01 5.407037e+01 4.239697e+01 3.717803e+01 3.756362e+01 4.054721e+01 4.759511e+01 2.626601e+01 2.142417e+01 7.065306e-01 2.136661e+00 3.352808e+00 4.401292e+00 2.979682e+00 4.104423e+00 3.001652e+00 3.265932e+00 3.419297e+00 3.150561e+00 2.716286e+00 2.611265e+00 1.970476e+00 1.181562e-01 3.432652e-01 4.278113e-01 7.156866e-01 6.944451e-01 6.814283e-01 6.312351e-01 7.114409e-01 6.640090e-01 6.554343e-01 5.837091e-01 5.268459e-01 2.928950e-01
<GCONST> 1.212994e+02
<STATE> 4
<MEAN> 39
 1.988834e+00 -5.066698e+00 5.024043e-01 -1.325427e+01 -8.828075e+00 -5.472786e+00 -6.522415e+00 -2.219977e+00 -4.345269e+00 1.088880e-01 -1.335632e+00 -2.330687e+00 6.732261e+01 -3.070273e-01 -5.375910e-01 2.670784e-01 -5.835364e-01 -6.925524e-01 -1.248197e-01 3.804602e-01 6.266480e-01 -3.358743e-03 -2.066621e-01 -2.545201e-01 3.952398e-02 6.976947e-01 -1.152631e-01 -5.453063e-02 5.430511e-02 -1.774155e-02 1.004579e-02 1.262322e-01 6.367110e-02 -8.191080e-02 -4.765601e-02 1.387230e-02 -2.695763e-02 -1.548268e-02 1.013109e-01
<VARIANCE> 39
 1.302131e+01 4.763624e+01 6.598299e+01 1.006216e+02 4.631408e+01 7.579733e+01 6.073771e+01 4.849987e+01 4.588737e+01 4.549030e+01 5.222568e+01 3.376029e+01 2.388285e+01 5.680604e-01 1.528464e+00 2.751410e+00 3.196513e+00 3.185186e+00 2.461399e+00 2.314388e+00 2.756569e+00 2.733768e+00 2.397047e+00 2.265923e+00 2.250780e+00 1.391909e+00 7.665689e-02 1.831454e-01 2.062016e-01 5.079517e-01 4.038905e-01 3.981413e-01 4.036677e-01 4.288555e-01 3.769169e-01 4.457238e-01 3.826383e-01 3.458493e-01 1.546737e-01
<GCONST> 1.153605e+02
<TRANSP> 5
 0.000000e+00 1.000000e+00 0.000000e+00 0.000000e+00 0.000000e+00
 0.000000e+00 4.089746e-01 5.910254e-01 0.000000e+00 0.000000e+00
 0.000000e+00 0.000000e+00 4.091192e-01 5.908808e-01 0.000000e+00
 0.000000e+00 0.000000e+00 0.000000e+00 6.062220e-01 3.937780e-01
 0.000000e+00 0.000000e+00 0.000000e+00 0.000000e+00 0.000000e+00
<ENDHMM>
~h "ch"
<BEGINHMM>
<NUMSTATES> 5
<STATE> 2
<MEAN> 39
 -1.068705e+01 -1.185871e+00 8.368462e+00 -1.099332e+00 -2.230021e-02 4.789162e-01 -1.794777e-01 7.876093e-01 1.129969e+00 2.013483e+00 2.376941e+00 1.958585e+00 5.583247e+01 -1.841438e+00 -8.452525e-01 -6.413579e-01 -2.311720e-01 1.391950e+00 1.561268e+00 9.259816e-01 1.246793e+00 1.320509e+00 8.658391e-01 1.083992e+00 8.913974e-01 -7.446967e-01 -3.119101e-01 -2.272103e-01 -4.052796e-03 -8.988088e-01 -4.798676e-01 -3.334692e-01 -4.254549e-01 -1.049530e-01 -2.856126e-01 -1.584081e-01 -1.605446e-01 -1.466780e-01 1.212268e+00
<VARIANCE> 39
 1.592781e+01 1.739091e+01 2.136736e+01 2.226426e+01 2.611307e+01 3.261409e+01 3.128506e+01 3.034675e+01 3.129687e+01 2.636106e+01 2.539088e+01 2.204935e+01 2.168822e+01 2.605278e+00 2.328722e+00 2.474042e+00 5.607569e+00 3.665648e+00 3.508611e+00 4.366633e+00 3.233943e+00 3.523838e+00 2.950710e+00 2.793586e+00 2.289582e+00 7.349282e+00 4.816887e-01 7.029799e-01 6.919412e-01 6.112307e-01 6.548776e-01 6.000947e-01 6.457039e-01 5.582996e-01 6.384498e-01 7.397221e-01 5.684119e-01 4.772767e-01 6.156172e-01
<GCONST> 1.225780e+02
<STATE> 3
<MEAN> 39
 -2.403727e+01 -2.836507e+00 8.824657e+00 -9.985495e+00 1.337008e+00 3.551882e+00 -7.705930e-01 3.827733e+00 2.523710e+00 2.109135e+00 4.117299e+00 2.957663e+00 6.634881e+01 -1.552819e+00 4.466561e-02 4.762697e-01 -8.357388e-01 -1.201503e+00 -3.835243e-01 1.076515e-01 -1.334831e-01 -3.443204e-01 -5.668612e-01 -2.684566e-01 -3.197784e-01 2.400740e+00 1.258809e+00 4.736348e-02 -3.830683e-02 5.994511e-01 -5.239091e-01 -6.570456e-01 -5.549328e-02 -3.135834e-01 -3.444054e-01 -2.249204e-01 -3.156410e-01 -2.004774e-01 -4.362577e-01
<VARIANCE> 39
 2.215238e+01 2.695110e+01 2.755268e+01 2.213010e+01 3.163562e+01 2.513420e+01 2.390532e+01 2.383316e+01 2.262251e+01 1.668988e+01 1.653736e+01 1.534478e+01 2.448422e+01 6.035506e+00 1.817936e+00 1.971714e+00 3.340462e+00 2.826269e+00 3.319864e+00 2.785505e+00 2.499551e+00 2.329272e+00 2.171705e+00 1.890845e+00 1.570058e+00 3.469973e+00 9.570367e-01 4.780849e-01 4.978415e-01 4.893553e-01 5.900903e-01 6.770026e-01 6.404022e-01 5.418316e-01 4.695171e-01 4.076609e-01 4.091810e-01 3.597610e-01 5.516356e-01
<GCONST> 1.162530e+02
<STATE> 4
<MEAN> 39
 -1.558616e+01 -4.435616e+00 8.451386e+00 -6.664751e+00 -6.755695e+00 -4.425235e+00 -1.832863e+00 1.781992e+00 -6.982973e-01 -2.090614e+00 4.198225e-01 7.938755e-01 6.920976e+01 4.569718e+00 -4.230007e-01 -1.206725e+00 3.255276e-02 -1.422443e+00 -2.637644e+00 -1.741422e+00 -8.510143e-01 -8.958187e-01 -8.857557e-01 -1.593894e+00 -9.711125e-01 1.355751e-01 4.135910e-01 -1.513128e-01 -3.888599e-01 -4.730083e-01 3.299557e-01 3.495229e-01 -3.113064e-01 -1.375973e-01 1.822853e-01 3.404272e-01 -3.816294e-02 -1.225980e-01 -1.414651e-01
<VARIANCE> 39
 6.707058e+01 1.598932e+01 2.002426e+01 3.116277e+01 2.811549e+01 5.014309e+01 4.155771e+01 3.035924e+01 3.345238e+01 2.668322e+01 2.746161e+01 1.903788e+01 1.772686e+01 2.800692e+00 2.369725e+00 3.592262e+00 4.277358e+00 5.012438e+00 4.392888e+00 4.885286e+00 4.054733e+00 3.666644e+00 4.023203e+00 3.769745e+00 2.513769e+00 1.280002e+00 1.676805e+00 4.202801e-01 4.362289e-01 6.655895e-01 7.352173e-01 1.111350e+00 9.705735e-01 7.342100e-01 6.452318e-01 7.574370e-01 7.248505e-01 4.743349e-01 4.280180e-01
<GCONST> 1.265411e+02
<TRANSP> 5
 0.000000e+00 1.000000e+00 0.000000e+00 0.000000e+00 0.000000e+00
 0.000000e+00 7.903701e-01 2.096298e-01 0.000000e+00 0.000000e+00
 0.000000e+00 0.000000e+00 7.650211e-01 2.349789e-01 0.000000e+00
 0.000000e+00 0.000000e+00 0.000000e+00 7.172610e-01 2.827390e-01
 0.000000e+00 0.000000e+00 0.000000e+00 0.000000e+00 0.000000e+00
<ENDHMM>
~h "dd"
<BEGINHMM>
<NUMSTATES> 5
<STATE> 2
<MEAN> 39
 -2.071355e+00 -7.537513e+00 -5.502135e-01 -9.020484e+00 -8.134098e+00 -8.834956e+00 -6.837038e+00 -1.239322e+00 -6.535811e-01 -3.501313e+00 -3.888551e+00 -1.594201e+00 7.126987e+01 1.538232e-01 1.479327e-01 -4.577388e-01 -4.534989e-01 3.254358e-01 2.782462e-02 -4.332354e-01 -7.781711e-02 8.181558e-01 3.455561e-01 -8.391526e-02 -1.928064e-01 -7.381150e-02 -2.269443e-02 -2.317622e-02 5.394258e-02 -1.294838e-01 -5.159078e-02 1.581887e-01 8.345486e-02 -1.155905e-02 -1.069150e-01 9.499893e-02 1.962317e-02 -9.124403e-02 2.601393e-02
<VARIANCE> 39
 1.055009e+01 4.163874e+01 7.158053e+01 7.505011e+01 7.451286e+01 7.384933e+01 5.870401e+01 5.300328e+01 5.018561e+01 5.932332e+01 5.691983e+01 5.006139e+01 2.798227e+01 3.919721e-01 1.491668e+00 1.665771e+00 2.742857e+00 2.350950e+00 2.063311e+00 2.170730e+00 2.432387e+00 2.389705e+00 2.097692e+00 1.911702e+00 1.655422e+00 1.320055e+00 7.082554e-02 1.948856e-01 1.946665e-01 4.241760e-01 3.896285e-01 3.865899e-01 3.607610e-01 3.636431e-01 3.696601e-01 3.419617e-01 3.368545e-01 2.907454e-01 2.453898e-01
<GCONST> 1.130623e+02
<STATE> 3
<MEAN> 39
 -1.177511e+00 -6.180428e+00 -1.536426e+00 -1.120354e+01 -7.368531e+00 -8.994062e+00 -8.452645e+00 -2.316488e+00 1.808358e+00 -2.302221e-01 -3.110825e+00 -3.732846e+00 7.088508e+01 1.691233e-02 2.365047e-02 -2.048141e-01 -5.907415e-01 1.368882e-01 4.517852e-01 7.006697e-02 -1.053762e-01 8.915358e-02 3.159565e-01 1.600738e-01 -1.722435e-01 6.382622e-03 -3.600471e-02 -8.701842e-02 4.844182e-02 -2.894247e-02 -3.468955e-02 1.575342e-01 1.922348e-01 7.338028e-02 -2.606190e-01 -1.010997e-01 -5.076796e-03 4.500597e-02 3.890233e-02
<VARIANCE> 39
 1.098022e+01 2.880010e+01 5.931405e+01 7.183176e+01 6.567675e+01 6.765391e+01 6.790417e+01 6.384733e+01 5.640331e+01 5.730232e+01 6.181265e+01 5.124245e+01 2.434520e+01 3.404095e-01 1.234784e+00 1.405652e+00 2.490609e+00 1.824025e+00 2.057082e+00 1.935225e+00 2.366306e+00 1.956277e+00 1.905846e+00 2.095517e+00 1.806588e+00 1.068541e+00 5.192169e-02 1.520454e-01 1.528084e-01 3.021298e-01 2.856409e-01 2.950979e-01 3.023376e-01 3.276180e-01 3.180373e-01 2.964902e-01 3.048356e-01 2.617105e-01 1.692412e-01
<GCONST> 1.084733e+02
<STATE> 4
<MEAN> 39
 -7.704518e-01 -6.919803e+00 -3.145957e+00 -1.458395e+01 -6.562622e+00 -3.768205e+00 -7.013227e+00 -2.516294e+00 3.799592e-01 -6.619131e-01 -2.174851e+00 -3.739917e+00 7.076080e+01 6.452195e-03 1.235689e-01 8.828793e-02 -1.217482e-01 6.984711e-03 2.295748e-01 1.612179e-01 -3.595959e-02 -2.286441e-01 7.628012e-03 1.131879e-01 1.113380e-01 -1.925282e-01 -8.970905e-03 -1.177864e-03 5.294707e-02 1.271252e-01 -1.396353e-02 -4.896307e-02 7.753895e-03 3.335014e-02 -4.186007e-02 -2.436299e-02 -2.533798e-02 2.035212e-02 -3.877394e-02
<VARIANCE> 39
 1.599888e+01 3.501738e+01 5.974672e+01 8.380025e+01 7.033282e+01 6.861101e+01 6.817791e+01 6.211096e+01 5.293347e+01 5.710278e+01 6.423104e+01 4.257609e+01 2.584801e+01 2.429879e-01 7.588750e-01 8.121228e-01 1.462069e+00 1.184411e+00 1.414278e+00 1.308615e+00 1.395588e+00 1.426489e+00 1.341542e+00 1.376131e+00 1.209027e+00 5.321009e-01 4.170505e-02 1.010446e-01 1.020089e-01 2.014801e-01 2.027690e-01 2.077633e-01 2.086114e-01 2.115990e-01 2.340893e-01 2.131421e-01 2.040542e-01 1.862284e-01 9.539565e-02
<GCONST> 9.840400e+01
<TRANSP> 5
 0.000000e+00 1.000000e+00 0.000000e+00 0.000000e+00 0.000000e+00
 0.000000e+00 4.492670e-01 5.507329e-01 0.000000e+00 0.000000e+00
 0.000000e+00 0.000000e+00 4.983627e-01 5.016374e-01 0.000000e+00
 0.000000e+00 0.000000e+00 0.000000e+00 7.523440e-01 2.476560e-01
 0.000000e+00 0.000000e+00 0.000000e+00 0.000000e+00 0.000000e+00
<ENDHMM>
~h "ey"
<BEGINHMM>
<NUMSTATES> 5
<STATE> 2
<MEAN> 39
 -4.994798e+00 -6.446290e+00 5.743388e+00 -7.961318e+00 -1.281600e+01 -9.338207e+00 -2.610322e+00 6.738738e-01 -2.728759e+00 -3.502806e-01 -1.359440e+00 -3.588941e-01 6.879183e+01 9.123359e-01 -8.176227e-01 6.172917e-01 -1.582916e+00 -2.497401e+00 -1.321934e+00 -4.208388e-02 1.922730e-03 -8.368447e-01 5.286095e-02 -4.051912e-01 -4.223545e-01 1.789623e+00 -2.850583e-01 1.801651e-01 -9.519422e-02 1.940774e-01 4.559213e-01 4.888771e-01 9.417619e-02 -1.165295e-01 1.053634e-01 1.360209e-01 8.410580e-02 4.908604e-03 -3.123650e-01
<VARIANCE> 39
 2.171987e+01 2.973199e+01 3.284137e+01 6.953855e+01 7.990712e+01 8.265605e+01 6.086924e+01 5.576421e+01 4.838636e+01 4.112298e+01 4.302229e+01 2.928445e+01 6.628010e+01 3.466290e+00 2.362371e+00 2.558042e+00 5.288509e+00 6.345347e+00 5.830776e+00 5.677846e+00 4.864927e+00 3.692760e+00 3.607093e+00 3.847395e+00 2.883611e+00 3.634701e+00 4.980683e-01 4.309660e-01 3.722413e-01 8.868229e-01 1.297097e+00 1.026564e+00 7.520537e-01 8.197683e-01 6.718430e-01 5.743600e-01 5.617457e-01 4.475133e-01 8.373855e-01
<GCONST> 1.343035e+02
<STATE> 3
<MEAN> 39
 -4.213645e+00 -8.822433e+00 7.269718e+00 -1.293249e+01 -1.807839e+01 -1.076712e+01 -2.252789e+00 2.835802e-01 -5.610248e+00 7.545764e-01 -2.919074e+00 -1.976603e+00 7.409991e+01 3.303180e-02 2.827968e-01 6.332466e-02 2.052854e-01 4.821502e-03 1.718923e-01 -1.711085e-02 -2.205724e-01 -1.465895e-01 -6.771453e-02 -3.734516e-02 -5.884465e-02 -2.132583e-01 -8.640487e-02 4.603887e-01 -1.511104e-01 6.526756e-01 7.487812e-01 2.462382e-01 -1.917157e-01 -1.650928e-01 1.888167e-01 -1.539346e-01 4.493502e-02 1.006899e-01 -6.210625e-01
<VARIANCE> 39
 1.186291e+01 2.177884e+01 3.762394e+01 6.450933e+01 4.888488e+01 6.402599e+01 6.615881e+01 7.177531e+01 4.141814e+01 4.313953e+01 5.035683e+01 2.837669e+01 1.219947e+01 6.386448e-01 1.491138e+00 1.467261e+00 2.320611e+00 2.378443e+00 2.212538e+00 2.560921e+00 2.445082e+00 2.009280e+00 2.122715e+00 1.680201e+00 1.461610e+00 1.084175e+00 2.793770e-01 2.734436e-01 3.069223e-01 4.668037e-01 5.575361e-01 6.845603e-01 6.829475e-01 6.340542e-01 4.682882e-01 4.594005e-01 4.308704e-01 3.609490e-01 2.227870e-01
<GCONST> 1.146817e+02
<STATE> 4
<MEAN> 39
 -3.618633e+00 -4.954197e+00 6.515236e+00 -8.203102e+00 -1.523497e+01 -9.677547e+00 -3.979891e+00 -1.244065e+00 -4.492863e+00 -1.162188e+00 -2.227783e+00 -1.155332e+00 6.976817e+01 -2.712552e-01 1.352187e+00 -9.229109e-02 1.749828e+00 2.051463e+00 7.853677e-01 -1.881950e-01 -4.270352e-01 3.097797e-01 -3.979794e-01 7.917517e-02 1.612795e-01 -1.733312e+00 -3.197544e-01 6.945573e-02 -6.633072e-02 1.345208e-01 4.757068e-01 3.390505e-01 1.730160e-01 3.945528e-02 1.474721e-01 1.430707e-01 1.000237e-01 2.865657e-02 -2.115408e-01
<VARIANCE> 39
 1.341420e+01 2.981639e+01 3.595867e+01 6.064804e+01 6.274290e+01 7.281867e+01 6.104383e+01 6.956716e+01 4.678155e+01 4.223253e+01 4.457182e+01 3.147162e+01 2.756253e+01 1.809169e+00 2.200685e+00 2.332620e+00 3.573780e+00 3.944436e+00 3.980449e+00 4.315582e+00 3.814957e+00 3.091355e+00 3.010633e+00 2.755564e+00 2.382043e+00 2.020559e+00 3.483686e-01 3.241008e-01 3.213164e-01 4.652123e-01 6.447920e-01 6.341669e-01 5.738082e-01 7.102945e-01 5.665126e-01 5.068381e-01 4.787441e-01 3.900538e-01 2.260356e-01
<GCONST> 1.238746e+02
<TRANSP> 5
 0.000000e+00 1.000000e+00 0.000000e+00 0.000000e+00 0.000000e+00
 0.000000e+00 4.725562e-01 5.274438e-01 0.000000e+00 0.000000e+00
 0.000000e+00 0.000000e+00 6.611436e-01 3.388564e-01 0.000000e+00
 0.000000e+00 0.000000e+00 0.000000e+00 5.064580e-01 4.935420e-01
 0.000000e+00 0.000000e+00 0.000000e+00 0.000000e+00 0.000000e+00
<ENDHMM>
~h "gg"
<BEGINHMM>
<NUMSTATES> 5
<STATE> 2
<MEAN> 39
 5.212302e-01 -1.313597e+00 1.382953e+00 -1.057448e+01 -5.053241e+00 -5.301046e+00 -6.646276e+00 -5.828861e+00 -7.393000e+00 3.572047e+00 -2.645065e-01 -8.317272e-02 6.374848e+01 5.260350e-01 5.884085e-01 -8.879030e-01 -1.698615e+00 -4.715639e-01 1.190183e+00 1.092176e+00 -5.320977e-02 -7.765797e-01 -3.797562e-01 3.662470e-01 3.306674e-01 -1.169752e-01 -5.974047e-02 -2.821893e-01 8.042642e-02 -2.009810e-01 -4.867142e-01 -2.132940e-01 1.537974e-01 4.437606e-01 1.361580e-01 -2.772095e-01 -2.324301e-01 -6.187740e-02 3.937661e-01
<VARIANCE> 39
 1.702520e+01 2.407466e+01 5.207531e+01 6.871109e+01 5.261189e+01 5.150766e+01 5.441806e+01 5.020550e+01 5.182488e+01 5.760336e+01 6.813012e+01 3.429689e+01 2.491792e+01 7.686203e-01 1.898452e+00 2.070571e+00 4.855105e+00 3.967786e+00 3.780782e+00 3.655420e+00 4.051448e+00 3.996770e+00 3.877236e+00 3.621054e+00 2.704222e+00 2.237800e+00 1.265357e-01 1.967157e-01 3.289205e-01 7.496052e-01 7.178451e-01 5.773335e-01 7.550237e-01 5.927861e-01 8.659456e-01 7.340530e-01 6.202039e-01 5.699322e-01 2.469474e-01
<GCONST> 1.249137e+02
<STATE> 3
<MEAN> 39
 7.383237e-01 -1.574142e+00 1.338186e+00 -1.680318e+01 -1.172202e+01 -3.341868e+00 -3.660844e+00 -2.978401e+00 -7.928837e+00 1.563301e-01 -1.968325e+00 -6.386440e-01 6.670839e+01 4.409123e-02 -2.568650e-01 -4.330586e-01 -3.649360e-01 -1.093301e-01 1.598355e-01 2.715107e-01 4.711036e-01 2.979441e-01 -2.875077e-01 -7.963888e-02 -1.908584e-01 2.619236e-01 -5.020262e-02 -1.582436e-01 -4.831956e-02 1.554588e-01 1.967093e-01 -4.168846e-02 -1.565658e-01 -1.178324e-01 6.132746e-02 1.057391e-01 7.630687e-02 -1.967809e-02 8.959182e-02
<VARIANCE> 39
 2.627560e+01 3.777639e+01 8.969414e+01 9.242104e+01 5.794947e+01 6.240799e+01 5.017490e+01 7.121412e+01 5.015228e+01 5.064033e+01 6.210226e+01 3.769748e+01 2.795081e+01 2.774801e-01 7.972051e-01 1.001951e+00 1.856568e+00 1.771919e+00 1.648603e+00 1.425829e+00 1.828078e+00 1.739806e+00 1.739910e+00 1.503974e+00 1.449415e+00 7.808345e-01 5.233903e-02 1.616900e-01 1.628052e-01 4.012104e-01 3.174376e-01 2.900316e-01 3.063464e-01 3.123035e-01 3.173531e-01 3.541060e-01 3.291498e-01 2.862967e-01 1.917486e-01
<GCONST> 1.072528e+02
<STATE> 4
<MEAN> 39
 4.379935e-01 -2.408676e+00 -5.644977e-02 -1.434522e+01 -8.482536e+00 -2.919384e+00 -2.434795e+00 -2.532898e+00 -6.163264e+00 -8.717076e-02 -9.676122e-01 -1.348783e-01 6.539281e+01 -1.319470e-01 -5.610144e-01 -5.067596e-01 1.027863e-02 3.767059e-01 1.434046e-01 -2.368403e-02 2.310321e-01 3.226169e-01 -1.552505e-02 9.287862e-02 -2.047595e-01 4.202466e-01 -1.514565e-02 -1.498600e-01 -4.215923e-02 7.192831e-02 1.128764e-01 -6.643486e-02 -1.852483e-01 -1.388155e-01 1.551518e-02 1.086662e-01 -2.403253e-02 -8.752449e-02 1.500535e-01
<VARIANCE> 39
 2.476190e+01 3.920870e+01 6.637973e+01 9.457129e+01 5.856021e+01 7.437078e+01 4.141590e+01 6.159873e+01 4.742616e+01 4.401217e+01 5.730759e+01 3.536082e+01 3.703638e+01 4.524503e-01 1.111171e+00 1.551130e+00 2.460154e+00 1.942739e+00 2.023918e+00 2.202040e+00 2.487182e+00 2.377005e+00 2.525741e+00 2.170629e+00 1.930374e+00 1.108309e+00 1.055009e-01 2.376057e-01 2.462009e-01 5.876864e-01 4.139698e-01 4.152928e-01 4.041883e-01 3.655725e-01 4.264589e-01 4.471465e-01 4.636103e-01 3.624957e-01 2.834617e-01
<GCONST> 1.154488e+02
<TRANSP> 5
 0.000000e+00 1.000000e+00 0.000000e+00 0.000000e+00 0.000000e+00
 0.000000e+00 6.788713e-01 3.211288e-01 0.000000e+00 0.000000e+00
 0.000000e+00 0.000000e+00 6.744201e-01 3.255799e-01 0.000000e+00
 0.000000e+00 0.000000e+00 0.000000e+00 3.123957e-01 6.876043e-01
 0.000000e+00 0.000000e+00 0.000000e+00 0.000000e+00 0.000000e+00
<ENDHMM>
~h "hh"
<BEGINHMM>
<NUMSTATES> 5
<STATE> 2
<MEAN> 39
 -8.840850e+00 -5.411868e+00 4.204688e+00 -2.721002e+00 2.126965e+00 -1.924337e+00 -1.869585e+00 1.038298e+00 -1.548186e+00 7.142956e-01 -2.677330e+00 5.085278e-01 6.481918e+01 -1.180094e+00 -8.571959e-01 -1.275952e+00 3.947144e-01 2.414527e+00 1.157088e+00 3.947668e-01 1.058757e+00 1.091524e+00 1.039846e+00 5.602744e-01 3.612245e-01 -6.351936e-01 2.653910e-01 1.871966e-03 -1.056006e-01 -6.841395e-01 -7.279061e-01 3.158100e-02 -4.977077e-02 -3.367950e-01 -2.765321e-01 4.884849e-02 1.260442e-01 -6.101168e-02 2.290911e-01
<VARIANCE> 39
 2.481773e+01 2.808634e+01 5.207792e+01 3.582847e+01 6.157819e+01 5.762465e+01 5.260219e+01 5.130223e+01 4.684205e+01 5.332923e+01 3.668843e+01 2.550546e+01 1.988450e+01 2.691364e+00 2.387073e+00 5.684878e+00 4.339066e+00 6.370986e+00 5.353473e+00 5.184002e+00 6.265153e+00 5.523007e+00 4.790798e+00 3.928338e+00 3.385116e+00 9.310351e-01 2.732853e-01 4.769374e-01 5.537637e-01 5.869415e-01 8.833516e-01 9.362888e-01 1.017202e+00 1.179939e+00 1.053488e+00 9.052214e-01 7.203674e-01 5.988218e-01 1.390157e-01
<GCONST> 1.313221e+02
<STATE> 3
<MEAN> 39
 -1.074878e+01 -6.930250e+00 8.391452e-02 -5.917155e+00 5.351048e+00 2.862403e+00 -5.845637e-01 1.814892e+00 -8.798493e-01 3.682296e+00 6.320519e-01 1.468585e+00 6.378459e+01 8.850807e-02 2.443008e-01 -3.520647e-01 -8.965142e-01 -4.480109e-01 6.182115e-01 5.790537e-01 -2.404027e-01 -3.887686e-01 -9.020275e-02 5.314913e-01 3.053525e-01 -2.456457e-01 6.322135e-01 3.381325e-01 2.610843e-01 -2.158061e-01 -8.937501e-01 -5.140381e-01 -2.062250e-01 -3.626250e-01 -3.626765e-01 -5.335677e-01 -3.486258e-01 -2.405985e-01 2.385156e-01
<VARIANCE> 39
 2.908770e+01 2.676233e+01 5.653623e+01 3.884428e+01 5.683116e+01 4.596409e+01 4.726618e+01 4.547595e+01 4.273948e+01 5.952824e+01 3.822255e+01 2.797717e+01 2.102073e+01 1.606602e+00 1.476860e+00 2.289023e+00 2.364870e+00 3.189645e+00 3.322031e+00 3.482485e+00 3.476441e+00 3.470666e+00 3.369510e+00 2.994351e+00 2.358176e+00 5.706592e-01 2.603425e-01 2.498893e-01 4.779398e-01 5.973487e-01 5.918975e-01 6.227909e-01 7.379082e-01 7.619638e-01 7.530181e-01 7.633453e-01 6.843576e-01 6.130537e-01 1.327879e-01
<GCONST> 1.216906e+02
<STATE> 4
<MEAN> 39
 -1.042806e+01 -4.277651e+00 2.715362e+00 -7.104255e+00 4.242272e-01 2.993725e+00 1.911048e+00 1.349568e+00 -1.188181e+00 1.143917e+00 4.004861e-01 1.839249e+00 6.278276e+01 1.217597e+00 6.669344e-01 1.449462e-01 -7.284226e-01 -1.512398e+00 -5.846139e-01 -3.579416e-01 -7.581845e-01 -6.122233e-01 -7.769383e-01 -4.852766e-01 -5.397314e-01 3.210500e-01 4.086479e-01 -1.097239e-02 -2.753492e-02 -1.906756e-01 -4.157444e-01 -3.229897e-01 -3.189960e-01 -1.993910e-01 -1.798314e-01 -5.861047e-02 -1.372590e-01 -2.164911e-01 2.872612e-01
<VARIANCE> 39
 3.991602e+01 2.839705e+01 5.318668e+01 3.898605e+01 5.357151e+01 4.164084e+01 4.097514e+01 4.360697e+01 4.239907e+01 4.294411e+01 3.418980e+01 2.475431e+01 2.954426e+01 2.164360e+00 1.402573e+00 1.987605e+00 2.910312e+00 3.820018e+00 2.606806e+00 2.881760e+00 3.011023e+00 2.843904e+00 2.738071e+00 2.417961e+00 2.175507e+00 8.323329e-01 2.143745e-01 2.479837e-01 3.268309e-01 4.687043e-01 5.057985e-01 4.378770e-01 5.160215e-01 4.860264e-01 5.130215e-01 4.551322e-01 4.750350e-01 3.955792e-01 1.670411e-01
<GCONST> 1.174163e+02
<TRANSP> 5
 0.000000e+00 1.000000e+00 0.000000e+00 0.000000e+00 0.000000e+00
 0.000000e+00 6.332974e-01 3.667026e-01 0.000000e+00 0.000000e+00
 0.000000e+00 0.000000e+00 5.530106e-01 4.469894e-01 0.000000e+00
 0.000000e+00 0.000000e+00 0.000000e+00 6.766919e-01 3.233080e-01
 0.000000e+00 0.000000e+00 0.000000e+00 0.000000e+00 0.000000e+00
<ENDHMM>
~h "iy"
<BEGINHMM>
<NUMSTATES> 5
<STATE> 2
<MEAN> 39
 -6.846899e+00 -1.032289e+00 1.313175e+01 -5.979955e+00 -1.363223e+01 -7.350662e+00 -4.807117e+00 -6.009229e+00 -7.860657e+00 -1.054280e+00 -1.657880e+00 -1.168272e+00 6.721455e+01 9.578896e-01 3.249851e-01 2.384126e+00 -1.961407e+00 -2.863322e+00 -3.518849e-01 -1.373047e+00 -1.856732e+00 -1.479789e+00 1.892468e-01 -9.128814e-01 -3.496946e-01 1.190202e+00 -2.437101e-01 3.110747e-02 -4.103600e-01 1.831851e-02 5.630496e-01 4.484701e-01 6.422872e-02 2.461325e-01 4.314853e-01 1.694725e-01 3.388092e-03 1.001332e-01 -2.744530e-01
<VARIANCE> 39
 2.028237e+01 2.647686e+01 3.423558e+01 7.277867e+01 6.005843e+01 6.037631e+01 4.623808e+01 6.209024e+01 4.747823e+01 3.780514e+01 3.902508e+01 2.769898e+01 2.962802e+01 4.563170e+00 2.130124e+00 3.090204e+00 6.159557e+00 5.139179e+00 5.837007e+00 6.447937e+00 5.701396e+00 4.639913e+00 4.320684e+00 4.910424e+00 3.708701e+00 1.898183e+00 4.245787e-01 3.765298e-01 5.174382e-01 8.135368e-01 1.121436e+00 7.458203e-01 8.389502e-01 1.040512e+00 7.127476e-01 5.904872e-01 6.322129e-01 5.101516e-01 4.251310e-01
<GCONST> 1.327108e+02
<STATE> 3
<MEAN> 39
 -6.637145e+00 -1.636688e-01 1.735653e+01 -1.345751e+01 -1.696825e+01 -4.104636e+00 -8.905749e+00 -9.104634e+00 -8.781406e+00 1.086278e+00 -5.149829e+00 -1.545458e+00 6.937878e+01 3.865811e-02 3.263258e-01 -1.087873e-02 1.098005e-01 1.368984e-01 2.417278e-01 -5.933368e-02 -1.282576e-01 1.133146e-01 1.808663e-02 -1.183856e-01 -9.110501e-03 -2.767489e-01 -4.732706e-02 -2.486966e-02 -7.139878e-01 8.663960e-01 7.432454e-01 -1.701869e-01 4.451213e-01 4.414377e-01 2.798122e-01 -2.009803e-01 3.036455e-01 3.160781e-02 -4.030583e-01
<VARIANCE> 39
 1.012136e+01 2.208188e+01 3.018105e+01 8.935029e+01 4.466866e+01 5.455816e+01 5.352641e+01 6.096161e+01 5.295061e+01 4.634479e+01 5.767563e+01 4.247942e+01 1.102948e+01 7.947405e-01 1.344590e+00 1.721790e+00 3.951091e+00 2.667460e+00 2.645393e+00 2.754252e+00 2.318417e+00 2.101316e+00 2.068332e+00 1.942358e+00 1.651002e+00 9.302723e-01 3.029624e-01 2.469896e-01 3.591796e-01 6.949567e-01 7.922354e-01 6.639432e-01 6.479958e-01 6.622705e-01 6.279607e-01 5.336452e-01 5.292111e-01 4.474553e-01 1.895089e-01
<GCONST> 1.175733e+02
<STATE> 4
<MEAN> 39
 -5.980581e+00 7.197731e-01 1.331471e+01 -7.460411e+00 -1.492172e+01 -6.354763e+00 -6.511506e+00 -7.619587e+00 -6.780846e+00 -1.474172e+00 -2.510255e+00 -1.122668e+00 6.704538e+01 1.185774e-01 -1.646942e-01 -1.388688e+00 1.267538e+00 1.494207e+00 -3.278306e-01 6.833938e-01 1.005054e+00 7.138586e-01 -2.784545e-01 3.595769e-01 1.094141e-01 -7.002656e-01 -1.229376e-01 -1.604866e-01 -2.404420e-01 -6.851359e-02 3.018074e-01 1.872821e-01 6.820206e-02 1.940611e-01 2.067330e-01 7.287534e-02 -2.230161e-02 2.696057e-02 -1.201381e-02
<VARIANCE> 39
 1.479086e+01 2.662148e+01 2.960230e+01 8.015543e+01 6.278925e+01 6.231942e+01 5.038415e+01 5.851617e+01 4.473009e+01 3.846770e+01 4.396348e+01 3.019383e+01 2.508602e+01 1.609403e+00 1.767796e+00 2.106348e+00 4.860637e+00 6.005862e+00 3.799650e+00 3.739591e+00 3.474744e+00 3.320574e+00 2.758249e+00 2.584874e+00 2.222191e+00 2.434401e+00 2.215389e-01 2.583331e-01 2.570909e-01 5.525697e-01 8.224464e-01 5.831259e-01 5.378045e-01 5.872740e-01 4.992709e-01 4.614646e-01 4.236301e-01 3.472066e-01 2.348755e-01
<GCONST> 1.219331e+02
<TRANSP> 5
 0.000000e+00 1.000000e+00 0.000000e+00 0.000000e+00 0.000000e+00
 0.000000e+00 5.318122e-01 4.681878e-01 0.000000e+00 0.000000e+00
 0.000000e+00 0.000000e+00 7.012699e-01 2.987301e-01 0.000000e+00
 0.000000e+00 0.000000e+00 0.000000e+00 6.761269e-01 3.238731e-01
 0.000000e+00 0.000000e+00 0.000000e+00 0.000000e+00 0.000000e+00
<ENDHMM>
~h "ny"
<BEGINHMM>
<NUMSTATES> 5
<STATE> 2
<MEAN> 39
 -1.610624e+00 1.393135e+00 7.566473e+00 -1.072076e+01 -9.646492e+00 -4.391181e+00 -6.334579e+00 -3.592908e+00 -8.426378e+00 -1.506328e+00 -2.654769e+00 -4.477432e+00 6.576260e+01 -7.156340e-02 2.862195e-01 4.751720e-01 -5.094326e-01 -1.560281e-01 5.927495e-01 -7.800633e-02 -3.511053e-01 -6.414001e-02 1.160239e-01 1.361671e-01 -1.308514e-01 -1.793310e-01 -9.217347e-02 -4.833373e-01 -5.485686e-02 -1.442050e-02 -2.539115e-01 -8.174253e-02 2.444199e-01 2.647456e-01 1.276341e-01 -1.351595e-01 1.899578e-02 1.201032e-01 3.347899e-01
<VARIANCE> 39
 1.231733e+01 1.775983e+01 4.271851e+01 7.577823e+01 5.267794e+01 5.526064e+01 3.944327e+01 5.784376e+01 3.077483e+01 4.826454e+01 3.608999e+01 2.671512e+01 1.524588e+01 1.358738e+00 2.811983e+00 3.243379e+00 5.186032e+00 4.747124e+00 3.567877e+00 3.969443e+00 2.808890e+00 2.456957e+00 2.822238e+00 2.321794e+00 1.755452e+00 2.157309e+00 2.275563e-01 1.939875e-01 7.903619e-01 1.178697e+00 7.419391e-01 8.466945e-01 6.167140e-01 5.523733e-01 4.675296e-01 4.774197e-01 4.316461e-01 3.211936e-01 1.407289e-01
<GCONST> 1.211004e+02
<STATE> 3
<MEAN> 39
 -3.534976e+00 -5.035067e+00 1.081626e+01 -1.281059e+01 -1.692959e+01 -2.668864e+00 -2.438922e+00 9.522038e-01 -7.443269e+00 -5.221792e+00 4.566163e-01 -1.994865e+00 7.020953e+01 2.039981e-01 -1.912242e+00 -1.595944e+00 1.553842e+00 2.643689e-01 -1.506997e+00 3.999784e-01 1.869550e+00 9.611435e-01 -1.158988e+00 -4.666735e-01 7.738777e-01 8.095057e-01 2.230424e-01 1.580113e-01 -6.770017e-01 2.266402e-01 1.031449e+00 -1.321616e-01 -6.139696e-01 -3.399256e-02 4.392111e-01 7.376166e-02 -4.010323e-01 -1.943649e-01 -2.286783e-01
<VARIANCE> 39
 1.016656e+01 2.501804e+01 4.022321e+01 5.767735e+01 4.296674e+01 4.922113e+01 4.893941e+01 7.146630e+01 3.598927e+01 4.900016e+01 3.225324e+01 3.271426e+01 1.655197e+01 3.679007e-01 1.241225e+00 2.673784e+00 2.087762e+00 4.535895e+00 2.530337e+00 3.888909e+00 2.715924e+00 3.838388e+00 3.653893e+00 2.272343e+00 2.032115e+00 4.894400e-01 7.393698e-02 2.407705e-01 4.966123e-01 6.767577e-01 5.861426e-01 7.544917e-01 5.318665e-01 7.070203e-01 4.552983e-01 5.627213e-01 3.523313e-01 4.225209e-01 5.811650e-02
<GCONST> 1.141898e+02
<STATE> 4
<MEAN> 39
 -2.515575e+00 -8.483996e+00 4.830663e+00 -8.538298e+00 -1.120408e+01 -5.595589e+00 -4.767776e+00 4.760217e+00 -1.205182e+00 -6.954058e+00 -3.857791e+00 -7.741190e-01 7.015869e+01 3.997157e-01 -7.085264e-01 -1.907551e+00 4.687461e-01 2.123397e+00 -2.301105e-01 -9.332755e-01 2.500691e-01 1.515328e+00 8.045647e-02 -9.022001e-01 -4.603923e-01 4.687079e-02 1.480680e-02 4.765156e-01 2.013936e-01 -3.995358e-01 1.337521e-01 4.846655e-01 -1.022412e-01 -6.240001e-01 -2.370380e-01 5.001577e-01 2.470343e-01 -3.177589e-01 -2.678859e-01
<VARIANCE> 39
 1.256106e+01 2.484319e+01 3.404915e+01 4.860205e+01 4.620476e+01 4.737716e+01 5.697670e+01 5.915919e+01 5.476312e+01 3.709883e+01 3.312414e+01 2.883906e+01 2.817886e+01 4.159930e-01 1.392534e+00 2.283019e+00 1.935619e+00 2.544315e+00 1.885868e+00 2.850809e+00 2.471164e+00 3.291915e+00 3.360517e+00 1.789663e+00 2.489924e+00 4.313293e-01 7.138319e-02 1.734659e-01 2.437636e-01 3.533773e-01 4.802389e-01 5.493996e-01 4.085681e-01 5.443365e-01 4.170109e-01 4.146749e-01 3.677951e-01 3.593544e-01 8.274484e-02
<GCONST> 1.100311e+02
<TRANSP> 5
 0.000000e+00 1.000000e+00 0.000000e+00 0.000000e+00 0.000000e+00
 0.000000e+00 8.828998e-01 1.171002e-01 0.000000e+00 0.000000e+00
 0.000000e+00 0.000000e+00 7.077892e-01 2.922109e-01 0.000000e+00
 0.000000e+00 0.000000e+00 0.000000e+00 3.092789e-01 6.907212e-01
 0.000000e+00 0.000000e+00 0.000000e+00 0.000000e+00 0.000000e+00
<ENDHMM>
~h "ow"
<BEGINHMM>
<NUMSTATES> 5
<STATE> 2
<MEAN> 39
 8.641959e-01 -7.027144e+00 -3.420662e+00 -1.626550e+01 -5.272316e+00 -3.055322e+00 -9.705008e+00 -3.247059e+00 -1.764565e+00 1.288540e+00 -1.898298e+00 -3.585699e+00 7.011211e+01 9.869697e-01 -2.574224e-01 -1.306736e+00 -1.967387e+00 1.226346e-01 1.099493e+00 -2.899450e-01 -5.416244e-01 -4.069793e-01 3.919766e-01 4.506232e-01 -6.035404e-01 5.988945e-01 -5.064401e-01 2.404506e-01 4.144407e-01 7.017989e-01 2.038065e-01 8.178893e-02 4.764723e-01 7.679047e-02 -1.030020e-01 -1.449037e-01 1.334719e-01 2.864771e-01 -4.500134e-01
<VARIANCE> 39
 1.419139e+01 2.784037e+01 4.049409e+01 7.082917e+01 5.284856e+01 6.266988e+01 6.711686e+01 5.407054e+01 5.783526e+01 5.621782e+01 7.351138e+01 3.548904e+01 2.154091e+01 2.259299e+00 2.090143e+00 2.742338e+00 5.247150e+00 5.261940e+00 4.684580e+00 5.272349e+00 4.482689e+00 4.321325e+00 4.158778e+00 3.903936e+00 3.170631e+00 1.777117e+00 4.026873e-01 3.981672e-01 4.518555e-01 1.089858e+00 8.527199e-01 7.912496e-01 8.738869e-01 8.802229e-01 9.355463e-01 7.916397e-01 7.896491e-01 5.696446e-01 2.646878e-01
<GCONST> 1.318862e+02
<STATE> 3
<MEAN> 39
 1.958151e+00 -6.149152e+00 -5.925694e+00 -2.020922e+01 -4.734233e+00 7.231957e-01 -7.842171e+00 -3.761137e+00 -4.385031e+00 5.349147e-01 -2.051971e-01 -3.535662e+00 6.981869e+01 -1.628623e-01 4.041257e-01 3.240344e-01 9.007679e-01 2.551733e-01 -1.457312e-01 2.042368e-01 -1.181843e-01 2.787705e-02 -2.841821e-01 -8.438077e-02 8.478487e-02 -5.704955e-01 -3.311484e-01 1.585741e-01 4.673502e-01 8.376657e-01 6.947934e-02 -3.137154e-01 8.669189e-02 8.376172e-02 1.810968e-01 -5.949751e-02 -1.700102e-01 1.049882e-01 -3.101845e-01
<VARIANCE> 39
 1.020731e+01 2.330131e+01 3.274044e+01 5.415441e+01 5.466673e+01 6.053416e+01 6.532073e+01 4.850660e+01 5.587948e+01 5.894898e+01 6.484081e+01 3.660854e+01 1.482850e+01 5.251663e-01 1.643613e+00 1.543729e+00 3.957870e+00 2.398204e+00 3.006977e+00 3.128834e+00 2.483111e+00 3.264216e+00 2.979172e+00 2.483836e+00 2.180288e+00 1.133749e+00 2.258430e-01 2.264286e-01 2.823131e-01 5.274092e-01 5.503006e-01 5.108798e-01 5.934514e-01 5.793846e-01 5.876002e-01 5.784842e-01 4.969385e-01 4.582133e-01 1.463713e-01
<GCONST> 1.174468e+02
<STATE> 4
<MEAN> 39
 -6.544229e-01 -3.576327e+00 -1.818182e+00 -1.089118e+01 -2.866070e+00 -2.904144e-01 -4.591996e+00 -3.085694e+00 -2.302558e+00 -2.717414e-01 -3.772007e-01 -1.884478e+00 6.375186e+01 -1.286253e+00 4.992677e-01 1.503859e+00 2.636286e+00 7.610978e-01 -2.591057e-01 6.893237e-01 3.281393e-01 4.440032e-01 -2.017995e-01 -2.226842e-01 3.205232e-01 -1.298621e+00 -2.870617e-01 -9.158561e-02 1.062849e-01 2.535979e-02 -1.337889e-02 6.155200e-03 1.092253e-01 1.631663e-01 4.315427e-02 8.574506e-02 7.859236e-02 1.008250e-01 5.147375e-02
<VARIANCE> 39
 2.036755e+01 2.623049e+01 3.307340e+01 5.847463e+01 5.101143e+01 6.055386e+01 7.513190e+01 4.556258e+01 5.232117e+01 4.762173e+01 5.419545e+01 3.504503e+01 4.183624e+01 1.890720e+00 2.223084e+00 2.527578e+00 4.886269e+00 3.947314e+00 3.903811e+00 4.086995e+00 3.944593e+00 3.925510e+00 3.506712e+00 3.415513e+00 2.692008e+00 1.845916e+00 3.815951e-01 3.177107e-01 3.893596e-01 6.836540e-01 5.654033e-01 5.387226e-01 6.944962e-01 6.371558e-01 7.189524e-01 6.132392e-01 5.496067e-01 4.602716e-01 2.191824e-01
<GCONST> 1.265725e+02
<TRANSP> 5
 0.000000e+00 1.000000e+00 0.000000e+00 0.000000e+00 0.000000e+00
 0.000000e+00 5.642717e-01 4.357282e-01 0.000000e+00 0.000000e+00
 0.000000e+00 0.000000e+00 6.995812e-01 3.004188e-01 0.000000e+00
 0.000000e+00 0.000000e+00 0.000000e+00 4.591425e-01 5.408576e-01
 0.000000e+00 0.000000e+00 0.000000e+00 0.000000e+00 0.000000e+00
<ENDHMM>
~h "rr"
<BEGINHMM>
<NUMSTATES> 5
<STATE> 2
<MEAN> 39
 -6.401147e+00 -6.925112e+00 3.616772e+00 -2.973898e+00 -2.922445e+00 -2.964740e+00 -3.708549e+00 6.807212e-01 1.118318e+00 -5.516548e-01 -5.263336e-01 -1.719787e+00 6.493690e+01 1.955301e-01 -1.845649e-01 1.029321e-01 -2.312613e-01 -6.539767e-02 -3.843175e-01 -4.931971e-01 -1.729795e-01 8.131847e-02 7.072408e-02 1.491779e-01 -2.040709e-01 3.928767e-01 5.091348e-01 -2.585368e-01 -3.743443e-01 -3.419268e-01 -4.402217e-01 -3.622267e-01 -1.613139e-01 -4.091292e-02 -1.771188e-01 4.746628e-02 -1.824555e-01 -1.155778e-01 3.666230e-01
<VARIANCE> 39
 3.136506e+01 2.441403e+01 4.066051e+01 3.665380e+01 3.833778e+01 4.770337e+01 5.178269e+01 4.296462e+01 3.799492e+01 4.228880e+01 3.828706e+01 2.825816e+01 4.084825e+01 4.225435e+00 2.980422e+00 3.633717e+00 3.306788e+00 4.089690e+00 4.737711e+00 4.544268e+00 4.596359e+00 3.521711e+00 3.373025e+00 3.645255e+00 2.825252e+00 3.220870e+00 6.623307e-01 5.809730e-01 6.271588e-01 6.850294e-01 7.121726e-01 9.120191e-01 8.677500e-01 9.143816e-01 7.576663e-01 6.814641e-01 7.223302e-01 5.619852e-01 4.712942e-01
<GCONST> 1.311434e+02
<STATE> 3
<MEAN> 39
 -2.452905e-01 -9.249802e+00 -1.210464e+00 -5.444235e+00 -6.224875e+00 -7.001941e+00 -7.692087e+00 -9.714136e-01 5.936900e-01 4.297445e-01 -6.897325e-01 -4.701578e+00 6.917710e+01 1.393901e+00 -9.211674e-01 -6.912633e-01 -2.316799e-01 -1.109707e+00 -1.282658e+00 -5.497966e-01 2.053052e-01 -1.660180e-01 2.070620e-01 -2.243351e-01 -2.896625e-01 6.348948e-01 -1.450038e-01 -1.414407e-01 1.525079e-01 -6.066538e-03 -2.115938e-01 -8.640946e-02 2.847787e-01 2.943181e-01 -2.242292e-01 -9.395254e-02 -8.126693e-02 1.388020e-01 8.502628e-02
<VARIANCE> 39
 1.676734e+01 1.723528e+01 3.824475e+01 3.242085e+01 3.816615e+01 3.829091e+01 4.215853e+01 3.614644e+01 3.515531e+01 4.151960e+01 6.050257e+01 3.038490e+01 1.558069e+01 2.033338e+00 2.010202e+00 2.883392e+00 2.227933e+00 3.160329e+00 3.378508e+00 3.167935e+00 3.802075e+00 3.006123e+00 2.906352e+00 3.185152e+00 2.629665e+00 1.204167e+00 3.762668e-01 3.251079e-01 4.430847e-01 3.891888e-01 4.754023e-01 5.056663e-01 5.891300e-01 6.521359e-01 5.787553e-01 5.416092e-01 5.164180e-01 4.243264e-01 1.960573e-01
<GCONST> 1.186862e+02
<STATE> 4
<MEAN> 39
 1.830612e+00 -1.277824e+01 -1.837023e+00 -4.739959e+00 -1.086378e+01 -1.085372e+01 -7.389873e+00 2.575018e+00 -9.793221e-01 -3.502451e-01 -9.737117e-01 -5.124536e+00 7.167431e+01 3.928100e-02 -3.844422e-01 4.633189e-01 -5.188524e-01 -1.074034e+00 -6.526074e-01 3.922070e-01 6.323750e-01 -8.631307e-01 -1.338699e-01 -1.446324e-01 2.918018e-01 5.198652e-01 -3.432308e-01 3.600999e-01 2.138366e-01 -1.457653e-01 1.869039e-01 3.407670e-01 2.283029e-01 -1.978225e-01 -1.225579e-01 3.740612e-03 1.598647e-02 9.667636e-02 -1.307566e-01
<VARIANCE> 39
 1.058351e+01 2.127002e+01 5.684124e+01 4.154653e+01 6.045138e+01 6.139254e+01 5.576589e+01 5.366756e+01 4.334900e+01 4.146900e+01 9.464520e+01 5.582516e+01 1.408817e+01 1.212263e+00 1.597476e+00 2.365344e+00 2.309278e+00 2.869894e+00 3.761895e+00 3.416174e+00 3.864147e+00 3.700000e+00 3.388242e+00 2.840709e+00 2.525847e+00 9.193652e-01 2.074342e-01 2.972953e-01 3.179774e-01 3.525103e-01 5.227503e-01 5.045753e-01 5.241331e-01 6.700283e-01 5.649167e-01 5.875257e-01 5.158144e-01 4.850861e-01 1.685167e-01
<GCONST> 1.199067e+02
<TRANSP> 5
 0.000000e+00 1.000000e+00 0.000000e+00 0.000000e+00 0.000000e+00
 0.000000e+00 6.899744e-01 3.100257e-01 0.000000e+00 0.000000e+00
 0.000000e+00 0.000000e+00 6.064826e-01 3.935175e-01 0.000000e+00
 0.000000e+00 0.000000e+00 0.000000e+00 6.778116e-01 3.221884e-01
 0.000000e+00 0.000000e+00 0.000000e+00 0.000000e+00 0.000000e+00
<ENDHMM>
~h "rx"
<BEGINHMM>
<NUMSTATES> 5
<STATE> 2
<MEAN> 39
 -8.502934e-01 -9.023627e+00 1.209846e+00 -5.805161e+00 -9.862405e+00 -8.188681e+00 -7.542211e+00 1.018085e-01 1.328570e-01 -3.074095e-01 -2.010808e+00 -2.917847e+00 6.925435e+01 3.511660e-01 -2.028443e-02 7.202525e-01 1.304864e+00 1.363943e-01 -3.566017e-01 -8.314996e-01 1.100747e-01 5.669029e-01 -4.703513e-01 5.762532e-02 1.852754e-01 -7.611006e-01 -2.404968e-01 4.633468e-02 5.396097e-02 -2.911575e-01 1.926366e-01 3.468908e-01 3.572324e-01 2.647512e-02 -2.809255e-01 4.298097e-02 8.191727e-02 9.158500e-02 -5.982211e-02
<VARIANCE> 39
 1.946380e+01 3.081044e+01 5.773985e+01 5.160569e+01 6.779253e+01 5.607316e+01 5.614569e+01 5.333460e+01 4.658600e+01 4.161290e+01 5.097129e+01 3.901894e+01 2.945992e+01 2.703676e+00 3.625291e+00 3.672278e+00 5.241164e+00 7.731736e+00 5.391578e+00 4.574765e+00 5.042683e+00 4.136083e+00 4.046307e+00 3.721366e+00 3.238533e+00 3.354527e+00 4.284521e-01 5.602794e-01 6.412585e-01 1.039630e+00 1.233282e+00 9.542854e-01 8.610921e-01 8.474022e-01 8.343853e-01 7.224075e-01 7.571256e-01 6.182242e-01 8.232902e-01
<GCONST> 1.360502e+02
<STATE> 3
<MEAN> 39
 -1.248736e+00 -8.071346e+00 3.528605e+00 -2.673766e+00 -8.013279e+00 -7.495509e+00 -8.383587e+00 1.683560e-01 1.022433e+00 -1.616008e+00 -1.692145e+00 -1.807140e+00 6.653748e+01 -2.070328e-01 1.126761e-01 6.182290e-01 6.223420e-02 4.162062e-01 2.802110e-01 3.535621e-02 1.255807e-01 -3.561376e-01 -5.822786e-02 2.605734e-01 9.485800e-02 -3.848020e-01 -1.746219e-01 -7.859430e-02 -2.633987e-01 -8.049889e-01 -1.025176e-01 1.918177e-01 4.359792e-01 3.865547e-03 -4.524327e-01 3.070750e-01 -3.029110e-03 -1.007981e-01 4.169365e-01
<VARIANCE> 39
 1.922126e+01 3.166032e+01 4.688736e+01 4.460620e+01 6.615472e+01 4.512964e+01 5.152779e+01 4.519806e+01 4.326723e+01 3.819509e+01 4.263940e+01 3.331583e+01 3.102386e+01 2.351464e+00 3.320893e+00 4.056485e+00 4.433646e+00 5.732993e+00 4.323375e+00 4.070486e+00 4.821137e+00 3.952521e+00 3.572909e+00 3.415229e+00 3.007262e+00 2.920772e+00 4.523821e-01 6.967008e-01 6.455100e-01 1.179960e+00 1.466098e+00 1.068011e+00 1.004974e+00 9.894972e-01 9.296456e-01 8.403261e-01 8.115565e-01 6.417533e-01 8.119939e-01
<GCONST> 1.346814e+02
<STATE> 4
<MEAN> 39
 -1.881210e+00 -8.092714e+00 3.222346e+00 -5.245262e+00 -7.623247e+00 -6.908830e+00 -7.320120e+00 6.707504e-01 -8.073730e-01 -4.806580e-01 -4.815239e-01 -2.377480e+00 6.727704e+01 -3.165756e-01 5.512197e-02 1.408004e-01 -9.191638e-01 1.095077e-01 4.469783e-01 6.662630e-01 -3.092226e-02 -8.509011e-01 3.868405e-01 3.747777e-02 -6.180976e-02 1.895766e-01 -9.490310e-02 -2.434264e-02 -2.075331e-01 -2.874435e-01 -1.296576e-01 1.083662e-01 2.829075e-01 -8.295268e-02 -1.193280e-01 8.649270e-02 -1.277941e-01 2.995979e-03 1.964264e-01
<VARIANCE> 39
 2.721328e+01 3.436646e+01 5.222043e+01 4.610240e+01 6.158311e+01 5.220694e+01 5.728354e+01 5.274212e+01 4.588524e+01 4.274567e+01 5.082306e+01 3.647382e+01 3.546054e+01 2.500676e+00 3.808884e+00 3.858380e+00 5.071715e+00 5.854336e+00 4.430116e+00 4.293779e+00 5.123695e+00 4.336972e+00 3.714437e+00 3.742806e+00 3.037124e+00 3.992095e+00 4.179537e-01 5.298452e-01 5.864218e-01 8.767042e-01 1.166905e+00 8.719354e-01 8.555321e-01 8.630668e-01 7.699475e-01 7.650217e-01 7.350068e-01 5.688395e-01 5.488687e-01
<GCONST> 1.347770e+02
<TRANSP> 5
 0.000000e+00 1.000000e+00 0.000000e+00 0.000000e+00 0.000000e+00
 0.000000e+00 3.168869e-01 6.831132e-01 0.000000e+00 0.000000e+00
 0.000000e+00 0.000000e+00 3.111115e-01 6.888885e-01 0.000000e+00
 0.000000e+00 0.000000e+00 0.000000e+00 2.807179e-01 7.192820e-01
 0.000000e+00 0.000000e+00 0.000000e+00 0.000000e+00 0.000000e+00
<ENDHMM>
~h "sp"
<BEGINHMM>
<NUMSTATES> 3
<STATE> 2
<MEAN> 39
 -1.065822e+01 -4.870754e+00 4.574490e+00 8.558103e-01 2.063856e+00 4.211856e+00 3.664070e+00 2.173144e+00 3.447101e+00 2.179881e+00 3.408110e+00 3.714688e+00 5.167872e+01 -6.393744e-02 5.112304e-03 7.172849e-02 9.525331e-02 5.706722e-02 8.432651e-02 4.887495e-02 -4.240947e-02 7.073579e-03 -5.568857e-04 1.058660e-03 6.263326e-03 -1.146401e-01 5.940976e-02 2.475970e-02 -2.554699e-02 -8.740874e-02 -7.898103e-02 -9.343361e-02 -8.537818e-02 -3.712523e-02 -6.656189e-02 -4.296308e-02 -6.268556e-02 -5.520399e-02 1.454925e-01
<VARIANCE> 39
 4.639115e+00 7.949835e+00 9.228699e+00 1.036073e+01 1.258175e+01 1.458360e+01 1.552447e+01 1.797379e+01 1.696637e+01 1.832921e+01 1.708322e+01 1.464973e+01 8.229257e+00 4.065714e-01 4.816392e-01 6.527482e-01 8.312044e-01 1.111975e+00 1.242348e+00 1.396884e+00 1.467836e+00 1.525138e+00 1.587077e+00 1.416378e+00 1.265311e+00 3.237817e-01 9.174030e-02 9.848796e-02 1.424360e-01 1.995696e-01 2.530886e-01 2.591479e-01 2.897913e-01 3.011535e-01 3.112704e-01 3.192549e-01 2.900858e-01 2.571398e-01 1.010927e-01
<GCONST> 8.257108e+01
<TRANSP> 3
