~o
<STREAMINFO> 1 39
<VECSIZE> 39<NULLD><MFCC_D_A_0><DIAGC>
~h "b"
<BEGINHMM>
<NUMSTATES> 5
<STATE> 2
<MEAN> 39
 -7.382497e+00 -4.832675e+00 3.436123e+00 -4.640440e+00 -3.369511e+00 -1.263345e+00 -1.262002e+00 -7.722828e-02 -8.338109e-01 2.018118e-01 1.993879e-01 4.075145e-01 6.157602e+01 8.536942e-03 5.588337e-05 2.409413e-03 -1.054349e-02 -4.868104e-03 -8.651275e-03 -1.022498e-02 -3.220007e-03 -4.368418e-03 -7.312367e-04 -1.210400e-02 -9.138825e-03 1.048647e-02 1.069707e-03 -3.686677e-04 -6.061851e-05 -2.424472e-04 -6.201600e-04 -2.743659e-04 -6.839109e-04 -3.654998e-04 -6.712548e-05 -2.121633e-04 -1.011330e-03 -3.747996e-04 7.938076e-04
<VARIANCE> 39
 5.010796e+01 3.331813e+01 4.823944e+01 7.268578e+01 7.455461e+01 6.394705e+01 5.957647e+01 5.158950e+01 5.183065e+01 4.042753e+01 4.664996e+01 3.762014e+01 8.733124e+01 2.012509e+00 1.883368e+00 2.292544e+00 3.486881e+00 3.491435e+00 2.988119e+00 3.074835e+00 3.131451e+00 2.903960e+00 2.670438e+00 2.508586e+00 2.172449e+00 2.367495e+00 2.880205e-01 3.036037e-01 3.566591e-01 5.576386e-01 5.810027e-01 5.247306e-01 5.420881e-01 5.580759e-01 5.203192e-01 4.951178e-01 4.572742e-01 4.004953e-01 3.367287e-01
<GCONST> 1.253964e+02
<STATE> 3
<MEAN> 39
 -7.349254e+00 -4.833469e+00 3.443264e+00 -4.674308e+00 -3.389093e+00 -1.290692e+00 -1.298822e+00 -9.281504e-02 -8.507224e-01 1.997375e-01 1.558202e-01 3.765894e-01 6.161211e+01 1.176772e-02 -7.775030e-04 2.262173e-03 -1.133619e-02 -7.319832e-03 -9.612083e-03 -1.208946e-02 -4.631509e-03 -5.453483e-03 -1.223799e-03 -1.458763e-02 -9.989765e-03 1.273720e-02 1.001427e-03 -2.407122e-04 -1.629976e-04 -9.553822e-05 -7.472966e-04 -2.207692e-04 -5.390593e-04 -4.558540e-04 -3.364412e-04 -2.555582e-04 -6.656654e-04 -1.351850e-04 6.662902e-04
<VARIANCE> 39
 5.004869e+01 3.337259e+01 4.830470e+01 7.290562e+01 7.490487e+01 6.422749e+01 5.981807e+01 5.185228e+01 5.187366e+01 4.055087e+01 4.671191e+01 3.778037e+01 8.744549e+01 2.008220e+00 1.891071e+00 2.303334e+00 3.495577e+00 3.495120e+00 2.997593e+00 3.089976e+00 3.137203e+00 2.899005e+00 2.674390e+00 2.511837e+00 2.175101e+00 2.380480e+00 2.875257e-01 3.051378e-01 3.579076e-01 5.585678e-01 5.819829e-01 5.261500e-01 5.447959e-01 5.590622e-01 5.194476e-01 4.957530e-01 4.582003e-01 4.010515e-01 3.386484e-01
<GCONST> 1.254864e+02
<STATE> 4
<MEAN> 39
 -7.282966e+00 -4.829476e+00 3.432745e+00 -4.683388e+00 -3.435190e+00 -1.292542e+00 -1.370593e+00 -1.095048e-01 -8.661292e-01 1.848927e-01 8.907482e-02 3.436471e-01 6.164515e+01 1.465465e-02 -1.186261e-03 1.699591e-03 -1.141241e-02 -1.023043e-02 -9.862833e-03 -1.306775e-02 -6.905951e-03 -7.441373e-03 -2.364238e-03 -1.649649e-02 -1.020779e-02 1.502801e-02 6.235136e-04 -8.091149e-05 -1.910859e-04 7.462139e-05 -6.207922e-04 -3.809236e-05 -1.834489e-04 -4.223012e-04 -3.548991e-04 -3.369400e-04 -3.199078e-04 4.623864e-05 5.407582e-04
<VARIANCE> 39
 4.988879e+01 3.343837e+01 4.867524e+01 7.297160e+01 7.574610e+01 6.426580e+01 6.022923e+01 5.233886e+01 5.195092e+01 4.053716e+01 4.677720e+01 3.798221e+01 8.772308e+01 1.982271e+00 1.890467e+00 2.311801e+00 3.483650e+00 3.498357e+00 2.998387e+00 3.091562e+00 3.135518e+00 2.888633e+00 2.667070e+00 2.506007e+00 2.173954e+00 2.395431e+00 2.833840e-01 3.049394e-01 3.578490e-01 5.552770e-01 5.811040e-01 5.253591e-01 5.446996e-01 5.579779e-01 5.172117e-01 4.939793e-01 4.571933e-01 4.006234e-01 3.393091e-01
<GCONST> 1.254823e+02
<TRANSP> 5
 0.000000e+00 1.000000e+00 0.000000e+00 0.000000e+00 0.000000e+00
 0.000000e+00 6.850146e-01 3.149855e-01 0.000000e+00 0.000000e+00
 0.000000e+00 0.000000e+00 6.850154e-01 3.149846e-01 0.000000e+00
 0.000000e+00 0.000000e+00 0.000000e+00 8.023711e-01 1.976289e-01
 0.000000e+00 0.000000e+00 0.000000e+00 0.000000e+00 0.000000e+00
<ENDHMM>
~h "d"
<BEGINHMM>
<NUMSTATES> 5
<STATE> 2
<MEAN> 39
 -6.820196e+00 -4.613704e+00 3.381529e+00 -5.310949e+00 -4.482928e+00 -2.575233e+00 -2.068597e+00 -3.343753e-01 -1.112707e+00 9.300977e-02 -3.607664e-01 4.112774e-02 6.313649e+01 -2.771244e-03 6.433332e-03 1.590728e-03 1.623620e-03 -1.520747e-03 1.782201e-03 1.614753e-03 -6.304034e-04 -2.219357e-03 -7.488742e-05 5.138470e-04 -1.155643e-05 -5.215113e-04 -1.822467e-04 -2.936986e-04 -7.189592e-06 2.958770e-04 2.251959e-04 5.957228e-04 2.885351e-04 1.272748e-04 7.450893e-05 -1.671674e-05 6.356952e-05 1.772437e-04 -5.102253e-04
<VARIANCE> 39
 5.111126e+01 3.496388e+01 5.165345e+01 7.431023e+01 8.300568e+01 7.132348e+01 6.479507e+01 5.469485e+01 5.008094e+01 4.266822e+01 4.901600e+01 3.875790e+01 8.467191e+01 2.387723e+00 2.009394e+00 2.457555e+00 3.923531e+00 4.026254e+00 3.488695e+00 3.406309e+00 3.374650e+00 3.044242e+00 2.802687e+00 2.696826e+00 2.299036e+00 2.701051e+00 3.474891e-01 3.243008e-01 3.839940e-01 6.302328e-01 6.639029e-01 6.067716e-01 5.968510e-01 6.053043e-01 5.429222e-01 5.161974e-01 4.878498e-01 4.182202e-01 3.907061e-01
<GCONST> 1.284829e+02
<STATE> 3
<MEAN> 39
 -6.829668e+00 -4.594714e+00 3.386292e+00 -5.305043e+00 -4.485761e+00 -2.565838e+00 -2.061960e+00 -3.358707e-01 -1.118355e+00 9.304655e-02 -3.579903e-01 4.249042e-02 6.313169e+01 -3.319031e-03 5.518475e-03 1.637176e-03 2.633006e-03 -6.984003e-04 3.510734e-03 2.816506e-03 -2.678330e-04 -1.776521e-03 -4.838784e-04 9.374644e-04 4.977893e-04 -2.327509e-03 -1.553964e-04 -3.087254e-04 2.531949e-05 3.292822e-04 2.398838e-04 4.777159e-04 3.786866e-04 1.262492e-04 1.828341e-04 -7.384522e-05 1.628196e-04 1.408676e-04 -6.009734e-04
<VARIANCE> 39
 5.117869e+01 3.484072e+01 5.162999e+01 7.428384e+01 8.326202e+01 7.142159e+01 6.481498e+01 5.463881e+01 5.012216e+01 4.271001e+01 4.898156e+01 3.864782e+01 8.455613e+01 2.385670e+00 2.003390e+00 2.452803e+00 3.916761e+00 4.024462e+00 3.480812e+00 3.402759e+00 3.368920e+00 3.044886e+00 2.800187e+00 2.691380e+00 2.293171e+00 2.687651e+00 3.469400e-01 3.234761e-01 3.831127e-01 6.292856e-01 6.635110e-01 6.052586e-01 5.966415e-01 6.041966e-01 5.430313e-01 5.158932e-01 4.869066e-01 4.172402e-01 3.891174e-01
<GCONST> 1.284354e+02
<STATE> 4
<MEAN> 39
 -6.840186e+00 -4.561254e+00 3.373018e+00 -5.242874e+00 -4.514919e+00 -2.497780e+00 -2.046998e+00 -3.211676e-01 -1.110012e+00 8.691931e-02 -3.427820e-01 5.521935e-02 6.306497e+01 -4.441825e-03 4.472420e-03 1.535211e-03 4.279246e-03 1.214500e-03 5.407651e-03 4.170854e-03 4.221554e-05 -6.597379e-04 -5.643346e-04 1.685719e-03 1.111624e-03 -5.188121e-03 -2.660903e-04 -2.591349e-04 2.119277e-05 4.464971e-04 3.825545e-04 3.584540e-04 3.362056e-04 1.045136e-04 2.544425e-04 2.216238e-05 1.751134e-04 9.134639e-05 -6.831569e-04
<VARIANCE> 39
 5.106380e+01 3.453720e+01 5.178260e+01 7.382101e+01 8.412385e+01 7.141973e+01 6.487326e+01 5.465371e+01 5.019555e+01 4.255379e+01 4.889099e+01 3.852362e+01 8.451569e+01 2.358038e+00 1.977975e+00 2.436573e+00 3.865084e+00 4.021488e+00 3.449015e+00 3.376786e+00 3.348834e+00 3.033907e+00 2.782920e+00 2.672569e+00 2.280335e+00 2.658981e+00 3.418703e-01 3.192179e-01 3.797085e-01 6.195444e-01 6.614352e-01 5.988248e-01 5.920619e-01 5.997459e-01 5.404282e-01 5.125604e-01 4.830045e-01 4.148286e-01 3.840436e-01
<GCONST> 1.282041e+02
<TRANSP> 5
 0.000000e+00 1.000000e+00 0.000000e+00 0.000000e+00 0.000000e+00
 0.000000e+00 6.850502e-01 3.149497e-01 0.000000e+00 0.000000e+00
 0.000000e+00 0.000000e+00 6.850467e-01 3.149533e-01 0.000000e+00
 0.000000e+00 0.000000e+00 0.000000e+00 8.023749e-01 1.976251e-01
 0.000000e+00 0.000000e+00 0.000000e+00 0.000000e+00 0.000000e+00
<ENDHMM>
~h "f"
<BEGINHMM>
<NUMSTATES> 5
<STATE> 2
<MEAN> 39
 -7.567705e+00 -4.884894e+00 3.158876e+00 -4.738709e+00 -3.620155e+00 -1.601400e+00 -1.345461e+00 1.012808e-01 -7.391400e-01 3.217455e-01 -6.118450e-02 5.352612e-01 6.230077e+01 -3.544138e-04 1.516530e-03 -2.824901e-03 -2.238257e-03 -1.339086e-03 4.915030e-03 -2.464629e-03 1.760422e-03 -3.659532e-03 5.859795e-04 -9.206645e-04 -2.511544e-03 1.399649e-04 1.670124e-04 -7.494661e-05 -3.871766e-04 -1.155059e-04 -5.462699e-04 4.144958e-04 3.658574e-04 1.101992e-04 4.658150e-05 -1.168537e-04 2.486046e-04 -5.263751e-04 2.959649e-04
<VARIANCE> 39
 5.466286e+01 3.260061e+01 4.883706e+01 7.349932e+01 7.476227e+01 6.506683e+01 5.850550e+01 5.133522e+01 4.979398e+01 4.044922e+01 4.590578e+01 3.644769e+01 8.242409e+01 2.889421e+00 1.999869e+00 2.427106e+00 4.023092e+00 3.800070e+00 3.348264e+00 3.297307e+00 3.376089e+00 3.173580e+00 2.782016e+00 2.719310e+00 2.275649e+00 2.378528e+00 4.191744e-01 3.323708e-01 3.833855e-01 6.476302e-01 6.260116e-01 5.774179e-01 5.803148e-01 6.051494e-01 5.745382e-01 5.174294e-01 4.920142e-01 4.150689e-01 3.396849e-01
<GCONST> 1.278318e+02
<STATE> 3
<MEAN> 39
 -7.568775e+00 -4.881983e+00 3.148135e+00 -4.745252e+00 -3.623583e+00 -1.584821e+00 -1.352915e+00 1.081527e-01 -7.500944e-01 3.228828e-01 -6.276858e-02 5.264427e-01 6.230240e+01 3.064623e-04 1.255712e-03 -4.502699e-03 -2.487066e-03 -1.975319e-03 6.010501e-03 -1.663385e-03 1.742771e-03 -3.361875e-03 -1.461874e-04 -2.732756e-04 -3.630810e-03 9.840161e-04 2.328952e-04 -1.417704e-04 -4.659113e-04 -6.061864e-05 -1.691334e-04 3.088366e-04 3.202840e-04 -9.127751e-05 9.766842e-05 -2.641844e-04 2.060665e-04 -4.196744e-04 3.114167e-04
<VARIANCE> 39
 5.474658e+01 3.267146e+01 4.895137e+01 7.368385e+01 7.475545e+01 6.474880e+01 5.856530e+01 5.129062e+01 4.977818e+01 4.050200e+01 4.591302e+01 3.653257e+01 8.231776e+01 2.893370e+00 2.002723e+00 2.427541e+00 4.033719e+00 3.803041e+00 3.350894e+00 3.300912e+00 3.371615e+00 3.188081e+00 2.787410e+00 2.722373e+00 2.278446e+00 2.381218e+00 4.199682e-01 3.327177e-01 3.831818e-01 6.489748e-01 6.265653e-01 5.775533e-01 5.815158e-01 6.039873e-01 5.775471e-01 5.180375e-01 4.925595e-01 4.151396e-01 3.396467e-01
<GCONST> 1.278680e+02
<STATE> 4
<MEAN> 39
 -7.554965e+00 -4.876958e+00 3.101751e+00 -4.708952e+00 -3.641202e+00 -1.526688e+00 -1.350813e+00 1.244163e-01 -7.543404e-01 3.062779e-01 -6.056288e-02 5.253500e-01 6.227376e+01 7.242073e-04 7.641419e-04 -6.280823e-03 -1.824701e-03 -7.380008e-04 6.174556e-03 -6.113041e-04 1.774195e-03 -2.227265e-03 -1.200087e-03 1.044122e-06 -4.459320e-03 1.265405e-03 1.691843e-04 -7.530590e-05 -3.597686e-04 8.481200e-05 9.281862e-05 4.578412e-05 3.600174e-04 -1.323107e-04 1.477119e-04 -2.848579e-04 3.853960e-05 -3.654241e-04 2.125411e-04
<VARIANCE> 39
 5.480775e+01 3.271371e+01 4.936508e+01 7.302854e+01 7.486256e+01 6.413345e+01 5.855160e+01 5.120105e+01 4.981293e+01 4.042989e+01 4.585602e+01 3.664096e+01 8.208943e+01 2.877661e+00 1.992661e+00 2.423705e+00 3.990177e+00 3.796196e+00 3.336375e+00 3.288748e+00 3.358913e+00 3.185087e+00 2.781051e+00 2.711709e+00 2.282013e+00 2.381255e+00 4.170924e-01 3.301570e-01 3.814906e-01 6.407800e-01 6.240104e-01 5.736359e-01 5.791677e-01 6.002840e-01 5.765291e-01 5.164205e-01 4.900685e-01 4.148797e-01 3.376434e-01
<GCONST> 1.277462e+02
<TRANSP> 5
 0.000000e+00 1.000000e+00 0.000000e+00 0.000000e+00 0.000000e+00
 0.000000e+00 6.843072e-01 3.156928e-01 0.000000e+00 0.000000e+00
 0.000000e+00 0.000000e+00 6.843069e-01 3.156931e-01 0.000000e+00
 0.000000e+00 0.000000e+00 0.000000e+00 8.012526e-01 1.987474e-01
 0.000000e+00 0.000000e+00 0.000000e+00 0.000000e+00 0.000000e+00
<ENDHMM>
~h "g"
<BEGINHMM>
<NUMSTATES> 5
<STATE> 2
<MEAN> 39
 -6.732504e+00 -5.188002e+00 3.028713e+00 -4.781114e+00 -3.591482e+00 -1.410884e+00 -1.550398e+00 6.716054e-02 -8.536054e-01 4.698170e-01 6.480758e-02 1.635944e-01 6.181159e+01 8.153032e-03 -2.496322e-03 -4.328821e-03 -3.121999e-03 1.852293e-03 7.913820e-03 -6.824195e-03 -1.813659e-03 -1.186200e-02 -5.955421e-04 2.432156e-03 -1.476653e-03 2.876078e-03 -2.692751e-04 2.605538e-04 -4.611893e-05 4.639718e-04 -1.819649e-04 5.453557e-05 7.178840e-04 -2.151863e-04 3.167459e-04 -3.065664e-04 -3.700352e-05 7.173576e-05 -2.246516e-04
<VARIANCE> 39
 4.995695e+01 3.344081e+01 4.589836e+01 7.003713e+01 7.574890e+01 6.646864e+01 6.310348e+01 5.222031e+01 5.102130e+01 4.056018e+01 5.032498e+01 3.980714e+01 8.819457e+01 1.887255e+00 1.833504e+00 2.156235e+00 3.458732e+00 3.494078e+00 2.986044e+00 3.070765e+00 3.145109e+00 2.920621e+00 2.677715e+00 2.539762e+00 2.162699e+00 2.175972e+00 2.737350e-01 2.964104e-01 3.414215e-01 5.627145e-01 5.859494e-01 5.241324e-01 5.420029e-01 5.616137e-01 5.272386e-01 4.958781e-01 4.639188e-01 4.006231e-01 3.167750e-01
<GCONST> 1.252112e+02
<STATE> 3
<MEAN> 39
 -6.709168e+00 -5.194539e+00 3.016461e+00 -4.789214e+00 -3.583737e+00 -1.384063e+00 -1.568463e+00 6.191482e-02 -8.860425e-01 4.655224e-01 7.116307e-02 1.596519e-01 6.181687e+01 6.493913e-03 -1.596055e-03 -3.655314e-03 -1.949275e-03 1.567526e-03 7.372194e-03 -4.253851e-03 -1.771485e-03 -1.013848e-02 -1.549885e-03 2.118749e-03 -5.360877e-04 2.006912e-03 -5.231902e-04 1.587038e-04 2.029044e-04 2.911972e-04 -1.049972e-04 -3.313788e-04 8.159505e-04 1.332003e-04 6.382068e-04 -4.057895e-04 -1.701671e-04 1.551744e-04 -1.580057e-04
<VARIANCE> 39
 4.985355e+01 3.353497e+01 4.594987e+01 7.018794e+01 7.563091e+01 6.628748e+01 6.313007e+01 5.225806e+01 5.114284e+01 4.047150e+01 5.065611e+01 3.988541e+01 8.838989e+01 1.881965e+00 1.837729e+00 2.150306e+00 3.461552e+00 3.499468e+00 2.987888e+00 3.070121e+00 3.155233e+00 2.936028e+00 2.681027e+00 2.548004e+00 2.171288e+00 2.179949e+00 2.735757e-01 2.971909e-01 3.404126e-01 5.629078e-01 5.866822e-01 5.246824e-01 5.418762e-01 5.635782e-01 5.301008e-01 4.965509e-01 4.650622e-01 4.018286e-01 3.170742e-01
<GCONST> 1.252593e+02
<STATE> 4
<MEAN> 39
 -6.649825e+00 -5.214665e+00 2.953759e+00 -4.790124e+00 -3.593257e+00 -1.312997e+00 -1.606384e+00 7.379021e-02 -8.848539e-01 4.418398e-01 7.391609e-02 1.470823e-01 6.180621e+01 2.976931e-03 -2.382664e-04 -1.621110e-03 -7.795604e-04 1.558740e-03 5.679226e-03 -2.943883e-04 -7.446560e-04 -6.126633e-03 -2.789972e-03 9.477623e-04 8.594653e-04 2.199037e-04 -6.583268e-04 1.356676e-04 2.657138e-04 1.910772e-04 -1.398614e-04 -5.959822e-04 9.323090e-04 2.868865e-04 7.952549e-04 -3.219478e-04 -3.223737e-04 1.481791e-04 -1.229066e-04
<VARIANCE> 39
 4.951614e+01 3.363901e+01 4.636037e+01 7.005844e+01 7.579060e+01 6.610614e+01 6.344484e+01 5.237992e+01 5.127488e+01 4.022414e+01 5.104007e+01 4.004642e+01 8.868266e+01 1.856494e+00 1.833449e+00 2.131282e+00 3.437702e+00 3.508569e+00 2.975430e+00 3.066782e+00 3.151056e+00 2.940516e+00 2.671664e+00 2.548073e+00 2.178384e+00 2.187169e+00 2.703017e-01 2.960978e-01 3.365901e-01 5.575657e-01 5.872608e-01 5.220639e-01 5.398159e-01 5.616851e-01 5.303954e-01 4.949106e-01 4.640534e-01 4.022618e-01 3.164726e-01
<GCONST> 1.251961e+02
<TRANSP> 5
 0.000000e+00 1.000000e+00 0.000000e+00 0.000000e+00 0.000000e+00
 0.000000e+00 6.869280e-01 3.130720e-01 0.000000e+00 0.000000e+00
 0.000000e+00 0.000000e+00 6.869287e-01 3.130713e-01 0.000000e+00
 0.000000e+00 0.000000e+00 0.000000e+00 8.050251e-01 1.949749e-01
 0.000000e+00 0.000000e+00 0.000000e+00 0.000000e+00 0.000000e+00
<ENDHMM>
~h "k"
<BEGINHMM>
<NUMSTATES> 5
<STATE> 2
<MEAN> 39
 -7.338127e+00 -4.883107e+00 3.146798e+00 -4.841296e+00 -3.467870e+00 -1.604935e+00 -1.196797e+00 1.473673e-01 -8.207376e-01 4.652478e-01 1.629578e-01 4.107695e-01 6.193901e+01 -1.403576e-03 8.766345e-04 -6.250738e-04 -1.089899e-04 -5.800681e-04 -3.297922e-03 1.449744e-03 1.128737e-04 -9.797375e-04 -9.108250e-04 -3.988068e-04 -1.677597e-04 2.818894e-03 -3.339810e-05 -1.604223e-04 1.620708e-04 5.821825e-05 3.842501e-05 -1.781644e-04 -3.262750e-04 -5.013833e-05 1.727561e-04 6.255231e-05 -2.651606e-04 5.278888e-05 6.868431e-06
<VARIANCE> 39
 5.052927e+01 3.285135e+01 5.018594e+01 7.374265e+01 7.700739e+01 6.747123e+01 6.085746e+01 5.149399e+01 5.053291e+01 4.079676e+01 4.698079e+01 3.763384e+01 8.834650e+01 2.482333e+00 2.008792e+00 2.507647e+00 3.928432e+00 3.923086e+00 3.451400e+00 3.368723e+00 3.289091e+00 3.212763e+00 2.838863e+00 2.732843e+00 2.311667e+00 2.825031e+00 3.622493e-01 3.376272e-01 4.018035e-01 6.321856e-01 6.503340e-01 6.032331e-01 5.915973e-01 5.974600e-01 5.798512e-01 5.284451e-01 4.964129e-01 4.227206e-01 4.039544e-01
<GCONST> 1.284034e+02
<STATE> 3
<MEAN> 39
 -7.341232e+00 -4.882751e+00 3.145667e+00 -4.841140e+00 -3.470212e+00 -1.618166e+00 -1.194100e+00 1.475492e-01 -8.231045e-01 4.629535e-01 1.596381e-01 4.097748e-01 6.194855e+01 -1.330054e-03 3.690838e-04 7.920054e-06 4.998621e-05 -7.411009e-04 -3.771882e-03 4.613515e-04 -6.663460e-05 -5.058068e-04 -6.124632e-04 -1.140627e-03 2.012291e-05 2.774265e-03 1.323429e-04 -1.636246e-04 1.821783e-04 1.743394e-05 -1.308117e-04 -2.144740e-04 -3.220064e-04 -6.354097e-05 1.432551e-04 1.411521e-04 -2.623441e-04 1.461933e-05 -5.655042e-06
<VARIANCE> 39
 5.058543e+01 3.288165e+01 5.022533e+01 7.369302e+01 7.704359e+01 6.743807e+01 6.078640e+01 5.153088e+01 5.047782e+01 4.076944e+01 4.699234e+01 3.759523e+01 8.816579e+01 2.481941e+00 2.007479e+00 2.507336e+00 3.925269e+00 3.926384e+00 3.452088e+00 3.368216e+00 3.291553e+00 3.216953e+00 2.837158e+00 2.732065e+00 2.312932e+00 2.828446e+00 3.621865e-01 3.373272e-01 4.016370e-01 6.315466e-01 6.508528e-01 6.034458e-01 5.914126e-01 5.978808e-01 5.804930e-01 5.281410e-01 4.963751e-01 4.230128e-01 4.043296e-01
<GCONST> 1.284036e+02
<STATE> 4
<MEAN> 39
 -7.339234e+00 -4.877728e+00 3.122899e+00 -4.814746e+00 -3.497059e+00 -1.585829e+00 -1.190536e+00 1.544330e-01 -8.026495e-01 4.541458e-01 1.568943e-01 4.214330e-01 6.191239e+01 -6.400350e-04 -2.240809e-04 3.372709e-04 -1.417884e-04 -1.058495e-03 -3.920003e-03 -7.463436e-04 -2.827013e-04 1.089295e-04 1.594741e-04 -1.849769e-03 -1.193716e-04 2.633846e-03 2.368895e-04 -9.522405e-05 7.264082e-05 -9.863990e-05 -1.561818e-04 -2.515295e-05 -2.977728e-04 -7.207096e-05 1.125850e-04 1.943075e-04 -1.911778e-04 -4.707196e-05 -2.640165e-05
<VARIANCE> 39
 5.051210e+01 3.286308e+01 5.050469e+01 7.328729e+01 7.745646e+01 6.723227e+01 6.077198e+01 5.158051e+01 5.034554e+01 4.067373e+01 4.705755e+01 3.754611e+01 8.795155e+01 2.454001e+00 1.992176e+00 2.498456e+00 3.884469e+00 3.919832e+00 3.433351e+00 3.355042e+00 3.281203e+00 3.205257e+00 2.822114e+00 2.722331e+00 2.310852e+00 2.823656e+00 3.573360e-01 3.341525e-01 3.989619e-01 6.233733e-01 6.485027e-01 5.992998e-01 5.885599e-01 5.951399e-01 5.774912e-01 5.246502e-01 4.938660e-01 4.221758e-01 4.016272e-01
<GCONST> 1.282469e+02
<TRANSP> 5
 0.000000e+00 1.000000e+00 0.000000e+00 0.000000e+00 0.000000e+00
 0.000000e+00 6.853489e-01 3.146510e-01 0.000000e+00 0.000000e+00
 0.000000e+00 0.000000e+00 6.853514e-01 3.146486e-01 0.000000e+00
 0.000000e+00 0.000000e+00 0.000000e+00 8.027987e-01 1.972013e-01
 0.000000e+00 0.000000e+00 0.000000e+00 0.000000e+00 0.000000e+00
<ENDHMM>
~h "l"
<BEGINHMM>
<NUMSTATES> 5
<STATE> 2
<MEAN> 39
 -7.540733e+00 -5.064461e+00 3.447790e+00 -4.221156e+00 -3.045513e+00 -9.051537e-01 -1.005343e+00 2.020533e-01 -6.292039e-02 4.794692e-01 2.925408e-01 7.435271e-01 6.092036e+01 -8.564358e-03 -8.178190e-04 3.182076e-04 4.063804e-03 9.737432e-03 2.898675e-03 6.083408e-03 5.231686e-03 2.687284e-03 3.540660e-03 6.930737e-03 4.901492e-03 -7.119718e-03 -2.227991e-04 -3.903495e-04 1.116073e-04 -4.050895e-04 -4.380867e-05 -1.856513e-04 -2.747566e-04 4.484219e-04 -3.452213e-05 2.348797e-04 4.110115e-04 1.510473e-04 4.347824e-04
<VARIANCE> 39
 4.528610e+01 3.083049e+01 4.471912e+01 6.779915e+01 7.271608e+01 6.405930e+01 6.282888e+01 4.785794e+01 4.643327e+01 3.881694e+01 4.452228e+01 3.598861e+01 9.338557e+01 2.003659e+00 1.780719e+00 2.168011e+00 3.239316e+00 3.317916e+00 2.971260e+00 3.158607e+00 3.063053e+00 2.781476e+00 2.566848e+00 2.434032e+00 2.094895e+00 2.211703e+00 2.908249e-01 2.928790e-01 3.443492e-01 5.290158e-01 5.545904e-01 5.239695e-01 5.571974e-01 5.545480e-01 5.058646e-01 4.792517e-01 4.489049e-01 3.882763e-01 3.170529e-01
<GCONST> 1.240822e+02
<STATE> 3
<MEAN> 39
 -7.569305e+00 -5.069168e+00 3.449055e+00 -4.210580e+00 -3.014677e+00 -8.963716e-01 -9.885783e-01 2.218293e-01 -5.319548e-02 4.917662e-01 3.155748e-01 7.592635e-01 6.090059e+01 -9.190638e-03 -1.687680e-03 7.270154e-04 3.005455e-03 9.172554e-03 2.439494e-03 5.347077e-03 6.238028e-03 2.552307e-03 3.883294e-03 7.680440e-03 5.274530e-03 -5.753255e-03 -1.267893e-04 -2.614027e-04 1.255350e-04 -3.380991e-04 -2.531667e-04 -1.241085e-04 -3.159808e-04 2.889280e-04 -6.460272e-06 1.000654e-04 1.927855e-04 1.466694e-04 4.286948e-04
<VARIANCE> 39
 4.532208e+01 3.078168e+01 4.468961e+01 6.765427e+01 7.259778e+01 6.390747e+01 6.279296e+01 4.791021e+01 4.631432e+01 3.880804e+01 4.447854e+01 3.592617e+01 9.301249e+01 2.003725e+00 1.778278e+00 2.167760e+00 3.237003e+00 3.312881e+00 2.973185e+00 3.156777e+00 3.063401e+00 2.780841e+00 2.567939e+00 2.432827e+00 2.094918e+00 2.210166e+00 2.907282e-01 2.926380e-01 3.446047e-01 5.286015e-01 5.532796e-01 5.244431e-01 5.569924e-01 5.548068e-01 5.059363e-01 4.794794e-01 4.486513e-01 3.885302e-01 3.168181e-01
<GCONST> 1.240585e+02
<STATE> 4
<MEAN> 39
 -7.606827e+00 -5.079251e+00 3.427138e+00 -4.177758e+00 -3.006186e+00 -8.556127e-01 -9.726872e-01 2.605074e-01 -2.917126e-02 4.930404e-01 3.524776e-01 7.848463e-01 6.085590e+01 -9.138823e-03 -2.310317e-03 1.248282e-03 2.331723e-03 7.493112e-03 1.639461e-03 4.122401e-03 6.825147e-03 2.740978e-03 3.650909e-03 7.482017e-03 5.587923e-03 -4.294587e-03 5.264508e-05 -9.523585e-05 1.382778e-04 -1.376030e-04 -4.435682e-04 -1.663784e-04 -3.154608e-04 8.191096e-05 4.798846e-05 -1.552618e-05 -4.421936e-05 7.980106e-05 2.791138e-04
<VARIANCE> 39
 4.529121e+01 3.071431e+01 4.484593e+01 6.703766e+01 7.284489e+01 6.349974e+01 6.287933e+01 4.810344e+01 4.614878e+01 3.870849e+01 4.452716e+01 3.591891e+01 9.239784e+01 1.983942e+00 1.764473e+00 2.158371e+00 3.207931e+00 3.303607e+00 2.966692e+00 3.147829e+00 3.054360e+00 2.769785e+00 2.560619e+00 2.427226e+00 2.094275e+00 2.207447e+00 2.874984e-01 2.900583e-01 3.427595e-01 5.229154e-01 5.499992e-01 5.228645e-01 5.546267e-01 5.530132e-01 5.037420e-01 4.777864e-01 4.469103e-01 3.882496e-01 3.150515e-01
<GCONST> 1.239172e+02
<TRANSP> 5
 0.000000e+00 1.000000e+00 0.000000e+00 0.000000e+00 0.000000e+00
 0.000000e+00 6.843376e-01 3.156624e-01 0.000000e+00 0.000000e+00
 0.000000e+00 0.000000e+00 6.843416e-01 3.156584e-01 0.000000e+00
 0.000000e+00 0.000000e+00 0.000000e+00 8.015789e-01 1.984211e-01
 0.000000e+00 0.000000e+00 0.000000e+00 0.000000e+00 0.000000e+00
<ENDHMM>
~h "m"
<BEGINHMM>
<NUMSTATES> 5
<STATE> 2
<MEAN> 39
 -7.080900e+00 -4.870497e+00 3.253864e+00 -4.700914e+00 -3.426064e+00 -1.334633e+00 -1.387288e+00 -1.664842e-01 -1.070891e+00 1.439504e-01 1.489096e-01 2.712186e-01 6.179842e+01 5.454169e-03 -3.875372e-03 4.247300e-05 -4.520369e-03 -4.619133e-03 -2.951593e-03 -3.466940e-03 -1.002366e-04 -4.330664e-03 -2.049627e-03 -5.411265e-03 -6.182062e-03 8.235723e-03 -7.499495e-06 1.116600e-04 1.001302e-04 2.126413e-04 -1.291501e-04 1.714331e-04 1.473501e-04 -2.438379e-04 2.908081e-05 1.216003e-04 -2.627264e-04 -3.571417e-05 -1.123911e-04
<VARIANCE> 39
 5.003757e+01 3.225130e+01 4.680706e+01 7.112056e+01 7.546132e+01 6.413374e+01 6.124776e+01 5.336253e+01 5.239235e+01 4.088437e+01 4.611857e+01 3.833160e+01 8.559610e+01 2.149474e+00 1.867653e+00 2.323928e+00 3.738131e+00 3.587240e+00 3.182187e+00 3.234738e+00 3.295984e+00 3.049318e+00 2.739005e+00 2.544651e+00 2.204452e+00 2.391613e+00 3.123192e-01 3.048968e-01 3.723254e-01 6.093410e-01 5.935739e-01 5.583435e-01 5.727217e-01 5.933602e-01 5.490295e-01 5.079584e-01 4.651532e-01 4.055484e-01 3.437497e-01
<GCONST> 1.263883e+02
<STATE> 3
<MEAN> 39
 -7.063216e+00 -4.881366e+00 3.254753e+00 -4.714040e+00 -3.440597e+00 -1.341856e+00 -1.397020e+00 -1.679984e-01 -1.083518e+00 1.372909e-01 1.299424e-01 2.521698e-01 6.182211e+01 5.520902e-03 -3.362983e-03 1.875584e-04 -4.112464e-03 -5.094499e-03 -2.315667e-03 -3.155624e-03 -7.148506e-04 -4.378751e-03 -1.804589e-03 -6.213846e-03 -6.061543e-03 7.851807e-03 1.467442e-05 1.880697e-04 -1.728800e-05 7.819633e-05 -1.164563e-04 1.996363e-04 6.900162e-05 -2.007343e-04 1.579845e-05 7.370572e-05 -1.992877e-04 6.928301e-05 -1.131660e-04
<VARIANCE> 39
 4.997091e+01 3.235757e+01 4.695092e+01 7.116100e+01 7.559622e+01 6.434146e+01 6.132034e+01 5.341866e+01 5.248233e+01 4.097779e+01 4.616632e+01 3.843913e+01 8.570016e+01 2.150851e+00 1.876104e+00 2.329683e+00 3.744862e+00 3.594160e+00 3.193161e+00 3.243938e+00 3.304263e+00 3.053447e+00 2.744025e+00 2.550729e+00 2.208635e+00 2.400465e+00 3.126858e-01 3.063600e-01 3.730800e-01 6.107894e-01 5.947536e-01 5.604377e-01 5.743822e-01 5.951208e-01 5.497277e-01 5.089279e-01 4.662070e-01 4.062834e-01 3.450213e-01
<GCONST> 1.264744e+02
<STATE> 4
<MEAN> 39
 -7.035691e+00 -4.883015e+00 3.226488e+00 -4.698627e+00 -3.486246e+00 -1.300251e+00 -1.423146e+00 -1.596321e-01 -1.084412e+00 1.113127e-01 1.062602e-01 2.454380e-01 6.181625e+01 6.107713e-03 -1.925027e-03 -5.005032e-05 -3.989473e-03 -5.588015e-03 -1.875541e-03 -3.356930e-03 -1.981573e-03 -4.507453e-03 -1.558422e-03 -7.287272e-03 -5.941085e-03 7.169792e-03 6.049734e-05 2.929390e-04 -1.317780e-04 -2.349074e-05 -7.432542e-05 6.406095e-05 -8.488900e-05 -2.953987e-04 4.287154e-06 9.403336e-05 -1.740115e-04 1.739686e-05 -3.874113e-05
<VARIANCE> 39
 4.982447e+01 3.241755e+01 4.734252e+01 7.072828e+01 7.624206e+01 6.435081e+01 6.150648e+01 5.349889e+01 5.268638e+01 4.107668e+01 4.631474e+01 3.850013e+01 8.588692e+01 2.135001e+00 1.874080e+00 2.329556e+00 3.720838e+00 3.597271e+00 3.191634e+00 3.244763e+00 3.300119e+00 3.049834e+00 2.738106e+00 2.552438e+00 2.204406e+00 2.405442e+00 3.097636e-01 3.056231e-01 3.720025e-01 6.057739e-01 5.939487e-01 5.595808e-01 5.736745e-01 5.933818e-01 5.481402e-01 5.073940e-01 4.656295e-01 4.051958e-01 3.443434e-01
<GCONST> 1.264420e+02
<TRANSP> 5
 0.000000e+00 1.000000e+00 0.000000e+00 0.000000e+00 0.000000e+00
 0.000000e+00 6.845674e-01 3.154326e-01 0.000000e+00 0.000000e+00
 0.000000e+00 0.000000e+00 6.845672e-01 3.154328e-01 0.000000e+00
 0.000000e+00 0.000000e+00 0.000000e+00 8.017879e-01 1.982121e-01
 0.000000e+00 0.000000e+00 0.000000e+00 0.000000e+00 0.000000e+00
<ENDHMM>
~h "n"
<BEGINHMM>
<NUMSTATES> 5
<STATE> 2
<MEAN> 39
 -7.084784e+00 -4.630010e+00 3.386460e+00 -4.896477e+00 -3.892680e+00 -1.745992e+00 -1.425480e+00 -9.381339e-02 -1.153850e+00 1.314076e-01 -2.194179e-01 2.170349e-01 6.218959e+01 2.031019e-04 2.023793e-03 -1.592284e-03 -1.713259e-03 1.392667e-03 5.514190e-04 -1.435041e-03 -1.460643e-03 -2.576345e-03 -4.704183e-04 -1.799006e-03 -1.248647e-03 1.000393e-03 5.362941e-05 -5.555994e-06 -3.735855e-05 -7.940274e-06 5.599489e-05 -3.162470e-05 -1.787486e-04 4.523633e-05 1.408819e-04 7.026661e-05 6.780165e-05 2.587185e-05 -1.001097e-04
<VARIANCE> 39
 5.195767e+01 3.408163e+01 4.711160e+01 7.274065e+01 7.868764e+01 6.728723e+01 6.053071e+01 5.260884e+01 5.101720e+01 4.180933e+01 4.784563e+01 3.828066e+01 8.769504e+01 2.368553e+00 1.966931e+00 2.331104e+00 3.661731e+00 3.696185e+00 3.293209e+00 3.249866e+00 3.268279e+00 3.010388e+00 2.756202e+00 2.653270e+00 2.234754e+00 2.453541e+00 3.385308e-01 3.183983e-01 3.698739e-01 5.888903e-01 6.087370e-01 5.741922e-01 5.721440e-01 5.881465e-01 5.409576e-01 5.106767e-01 4.792579e-01 4.092347e-01 3.512974e-01
<GCONST> 1.270733e+02
<STATE> 3
<MEAN> 39
 -7.083818e+00 -4.623447e+00 3.380839e+00 -4.901863e+00 -3.888697e+00 -1.744689e+00 -1.430898e+00 -9.811920e-02 -1.161171e+00 1.302954e-01 -2.238354e-01 2.128477e-01 6.219217e+01 4.548258e-04 1.919016e-03 -1.682316e-03 -1.661037e-03 1.649950e-03 6.945479e-04 -1.917323e-03 -1.424897e-03 -2.048225e-03 -2.240425e-04 -1.689741e-03 -1.348664e-03 6.427774e-04 1.003487e-04 -5.599790e-05 -4.786344e-05 3.151222e-05 6.553507e-05 4.514169e-05 -9.415013e-05 -1.627562e-05 1.855522e-04 9.375258e-05 5.591553e-05 -1.262331e-06 -1.155443e-04
<VARIANCE> 39
 5.202213e+01 3.407246e+01 4.708852e+01 7.279088e+01 7.880093e+01 6.730537e+01 6.059901e+01 5.262745e+01 5.104069e+01 4.183993e+01 4.783015e+01 3.829681e+01 8.760681e+01 2.367939e+00 1.965867e+00 2.329694e+00 3.659534e+00 3.698686e+00 3.291497e+00 3.250000e+00 3.270773e+00 3.014179e+00 2.756578e+00 2.652845e+00 2.236157e+00 2.451347e+00 3.383394e-01 3.181869e-01 3.695203e-01 5.884162e-01 6.090690e-01 5.737810e-01 5.720720e-01 5.885788e-01 5.414476e-01 5.106451e-01 4.792040e-01 4.094134e-01 3.510078e-01
<GCONST> 1.270757e+02
<STATE> 4
<MEAN> 39
 -7.082843e+00 -4.604450e+00 3.355189e+00 -4.869187e+00 -3.902886e+00 -1.687721e+00 -1.435432e+00 -8.645472e-02 -1.144667e+00 1.187878e-01 -2.139208e-01 2.288716e-01 6.213647e+01 8.670795e-04 1.678371e-03 -1.746573e-03 -1.232791e-03 1.739292e-03 8.843505e-04 -2.053019e-03 -1.513641e-03 -1.222138e-03 7.449283e-05 -1.728550e-03 -1.565272e-03 5.261222e-05 1.057219e-04 -8.676025e-05 -4.010450e-06 9.155717e-05 6.947017e-05 3.248357e-05 2.186537e-05 -4.768834e-05 1.593062e-04 1.283509e-04 8.351037e-06 -9.184405e-07 -1.398040e-04
<VARIANCE> 39
 5.191083e+01 3.392566e+01 4.722641e+01 7.243173e+01 7.935848e+01 6.713557e+01 6.072635e+01 5.262043e+01 5.109466e+01 4.174630e+01 4.784540e+01 3.830343e+01 8.749490e+01 2.338996e+00 1.945224e+00 2.317225e+00 3.614751e+00 3.692787e+00 3.269001e+00 3.233644e+00 3.253754e+00 3.005681e+00 2.742249e+00 2.643538e+00 2.230786e+00 2.439027e+00 3.333747e-01 3.142533e-01 3.664922e-01 5.797800e-01 6.066573e-01 5.691012e-01 5.687060e-01 5.849088e-01 5.391659e-01 5.073892e-01 4.769917e-01 4.079315e-01 3.478018e-01
<GCONST> 1.268908e+02
<TRANSP> 5
 0.000000e+00 1.000000e+00 0.000000e+00 0.000000e+00 0.000000e+00
 0.000000e+00 6.847454e-01 3.152546e-01 0.000000e+00 0.000000e+00
 0.000000e+00 0.000000e+00 6.847422e-01 3.152578e-01 0.000000e+00
 0.000000e+00 0.000000e+00 0.000000e+00 8.020935e-01 1.979065e-01
 0.000000e+00 0.000000e+00 0.000000e+00 0.000000e+00 0.000000e+00
<ENDHMM>
~h "p"
<BEGINHMM>
<NUMSTATES> 5
<STATE> 2
<MEAN> 39
 -7.444423e+00 -4.967661e+00 3.058630e+00 -4.569093e+00 -3.141703e+00 -1.189066e+00 -1.158318e+00 2.359329e-01 -3.183297e-01 5.303011e-01 2.608603e-01 5.973243e-01 6.140667e+01 3.638553e-03 -2.576906e-03 -2.383708e-03 -4.642769e-03 4.572718e-05 -3.040293e-03 -2.652202e-03 4.959827e-04 1.741641e-03 -2.985627e-03 1.461342e-04 -2.233619e-03 7.256161e-03 3.581718e-04 -1.948301e-04 3.131669e-04 -1.220941e-04 -2.382681e-04 -4.452560e-04 1.037445e-04 -2.965460e-04 1.288241e-04 -6.310617e-05 -9.224814e-05 1.970882e-04 -4.972172e-05
<VARIANCE> 39
 5.107042e+01 3.297840e+01 4.656874e+01 7.139978e+01 7.266556e+01 6.436015e+01 6.004260e+01 4.865424e+01 4.780902e+01 3.832405e+01 4.569413e+01 3.604709e+01 9.031212e+01 2.561200e+00 1.965641e+00 2.387514e+00 3.905538e+00 3.705182e+00 3.340465e+00 3.344149e+00 3.178169e+00 3.070212e+00 2.733123e+00 2.667320e+00 2.219705e+00 2.858171e+00 3.783401e-01 3.238724e-01 3.806936e-01 6.427837e-01 6.142415e-01 5.833339e-01 5.886924e-01 5.777885e-01 5.595625e-01 5.167834e-01 4.855551e-01 4.094658e-01 4.021574e-01
<GCONST> 1.273744e+02
<STATE> 3
<MEAN> 39
 -7.431444e+00 -4.975609e+00 3.051886e+00 -4.582924e+00 -3.141731e+00 -1.200835e+00 -1.166328e+00 2.353662e-01 -3.130433e-01 5.195387e-01 2.602209e-01 5.908164e-01 6.142926e+01 4.395794e-03 -2.834606e-03 -1.535469e-03 -4.662659e-03 -7.592035e-04 -4.155070e-03 -2.176071e-03 -1.665519e-04 1.725857e-03 -3.624193e-03 -4.623931e-04 -1.671980e-03 7.236136e-03 2.223550e-04 -3.570988e-05 2.713141e-04 9.232608e-06 -3.187447e-04 -3.994225e-04 6.155764e-05 -2.195891e-04 -2.822667e-05 -2.094249e-04 -2.123563e-04 1.320094e-04 5.441701e-05
<VARIANCE> 39
 5.117244e+01 3.310443e+01 4.662046e+01 7.154251e+01 7.263015e+01 6.439951e+01 6.011696e+01 4.874286e+01 4.781533e+01 3.838387e+01 4.576627e+01 3.605100e+01 9.001213e+01 2.564331e+00 1.972230e+00 2.393968e+00 3.922637e+00 3.711401e+00 3.342324e+00 3.354004e+00 3.185000e+00 3.074677e+00 2.734506e+00 2.672698e+00 2.225348e+00 2.872039e+00 3.790400e-01 3.251815e-01 3.816723e-01 6.455471e-01 6.153473e-01 5.834615e-01 5.902599e-01 5.791411e-01 5.604990e-01 5.170863e-01 4.863855e-01 4.104055e-01 4.039152e-01
<GCONST> 1.274472e+02
<STATE> 4
<MEAN> 39
 -7.412775e+00 -4.980493e+00 3.020775e+00 -4.560123e+00 -3.167606e+00 -1.181578e+00 -1.163861e+00 2.374457e-01 -2.890500e-01 4.935893e-01 2.621288e-01 5.941866e-01 6.141642e+01 4.357878e-03 -2.541993e-03 -7.929830e-04 -3.868272e-03 -2.088104e-03 -5.477783e-03 -2.047050e-03 -8.088495e-04 1.174378e-03 -3.814769e-03 -9.387070e-04 -1.183194e-03 7.407677e-03 1.628566e-05 6.375994e-05 2.135774e-04 1.146834e-04 -4.366185e-04 -3.393944e-04 -3.418667e-05 -1.258673e-04 -1.219442e-04 -2.172771e-05 -1.325310e-04 7.884590e-05 1.133496e-04
<VARIANCE> 39
 5.108541e+01 3.318258e+01 4.689969e+01 7.123518e+01 7.295145e+01 6.437050e+01 6.020514e+01 4.880420e+01 4.786717e+01 3.832469e+01 4.582325e+01 3.606568e+01 8.970524e+01 2.541758e+00 1.962953e+00 2.395332e+00 3.904285e+00 3.710879e+00 3.333226e+00 3.354757e+00 3.179547e+00 3.069392e+00 2.725925e+00 2.672763e+00 2.228585e+00 2.881764e+00 3.751416e-01 3.232993e-01 3.809686e-01 6.408973e-01 6.136408e-01 5.808982e-01 5.890523e-01 5.777308e-01 5.592730e-01 5.151054e-01 4.857994e-01 4.104695e-01 4.032996e-01
<GCONST> 1.273863e+02
<TRANSP> 5
 0.000000e+00 1.000000e+00 0.000000e+00 0.000000e+00 0.000000e+00
 0.000000e+00 6.852084e-01 3.147916e-01 0.000000e+00 0.000000e+00
 0.000000e+00 0.000000e+00 6.852151e-01 3.147849e-01 0.000000e+00
 0.000000e+00 0.000000e+00 0.000000e+00 8.026182e-01 1.973818e-01
 0.000000e+00 0.000000e+00 0.000000e+00 0.000000e+00 0.000000e+00
<ENDHMM>
~h "s"
<BEGINHMM>
<NUMSTATES> 5
<STATE> 2
<MEAN> 39
 -8.391158e+00 -4.466956e+00 3.194486e+00 -4.377628e+00 -3.010306e+00 -1.449077e+00 -9.688815e-01 3.501268e-01 -3.754028e-01 3.969810e-01 2.667600e-01 7.528332e-01 6.165465e+01 7.000848e-05 2.296613e-03 6.024267e-04 -5.033058e-04 -1.695811e-03 -1.316562e-03 -6.100637e-04 -1.084377e-03 -3.695849e-03 7.237894e-04 3.621042e-04 2.645766e-04 6.032172e-04 6.531786e-05 -3.312129e-06 1.069664e-05 3.477981e-05 7.575545e-06 1.401429e-04 -4.473863e-05 -9.668569e-06 3.694297e-05 3.052013e-04 7.234419e-05 7.599308e-06 -8.741838e-05
<VARIANCE> 39
 5.486398e+01 3.319074e+01 4.473985e+01 6.863252e+01 7.481390e+01 6.648360e+01 6.026332e+01 4.864079e+01 4.675596e+01 3.883982e+01 4.483183e+01 3.512202e+01 8.921853e+01 2.818033e+00 1.925301e+00 2.210860e+00 3.452784e+00 3.583235e+00 3.247479e+00 3.243993e+00 3.152102e+00 2.851854e+00 2.660403e+00 2.570505e+00 2.140392e+00 2.315402e+00 3.989101e-01 3.125602e-01 3.525067e-01 5.565715e-01 5.870143e-01 5.656121e-01 5.689423e-01 5.685954e-01 5.151656e-01 4.954078e-01 4.635400e-01 3.919456e-01 3.321848e-01
<GCONST> 1.260252e+02
<STATE> 3
<MEAN> 39
 -8.390663e+00 -4.459510e+00 3.196678e+00 -4.379619e+00 -3.015728e+00 -1.452561e+00 -9.707381e-01 3.460418e-01 -3.863519e-01 4.003746e-01 2.680485e-01 7.539183e-01 6.165648e+01 2.320786e-04 2.338655e-03 7.659175e-04 -3.217501e-04 -1.584308e-03 -8.847506e-04 -7.669305e-04 -1.124914e-03 -3.533421e-03 1.306753e-03 5.248768e-04 2.955219e-04 3.077134e-04 1.631043e-05 1.431316e-05 4.113547e-05 1.033390e-04 6.219599e-05 1.806679e-04 -3.128946e-05 -1.043876e-05 1.310605e-04 1.513521e-04 2.817746e-05 -1.279536e-05 -1.101040e-04
<VARIANCE> 39
 5.486162e+01 3.314946e+01 4.474755e+01 6.865421e+01 7.482966e+01 6.648242e+01 6.017559e+01 4.863819e+01 4.674327e+01 3.883899e+01 4.480388e+01 3.508568e+01 8.909605e+01 2.821304e+00 1.926053e+00 2.212522e+00 3.457715e+00 3.587480e+00 3.250747e+00 3.247013e+00 3.153040e+00 2.852502e+00 2.660542e+00 2.572176e+00 2.140321e+00 2.315640e+00 3.995807e-01 3.127774e-01 3.528398e-01 5.572094e-01 5.877368e-01 5.661011e-01 5.695995e-01 5.687972e-01 5.152287e-01 4.954194e-01 4.639556e-01 3.919764e-01 3.321018e-01
<GCONST> 1.260369e+02
<STATE> 4
<MEAN> 39
 -8.392426e+00 -4.445948e+00 3.180575e+00 -4.347285e+00 -3.044761e+00 -1.403556e+00 -9.690496e-01 3.457334e-01 -3.826489e-01 3.950557e-01 2.846611e-01 7.683169e-01 6.161507e+01 4.206249e-04 2.392314e-03 9.670841e-04 1.557364e-04 -1.532628e-03 -3.884338e-04 -6.189635e-04 -1.177746e-03 -2.830147e-03 1.391103e-03 4.712550e-04 2.970828e-04 -6.279224e-05 1.100419e-05 1.490577e-05 3.794396e-05 1.712935e-04 2.672540e-05 1.962181e-04 7.131982e-05 -2.941924e-05 2.042952e-04 -2.299534e-06 -3.231801e-05 -9.371142e-05 -1.156546e-04
<VARIANCE> 39
 5.476196e+01 3.297315e+01 4.493255e+01 6.832177e+01 7.519831e+01 6.623472e+01 6.013581e+01 4.867545e+01 4.675753e+01 3.869248e+01 4.477693e+01 3.497874e+01 8.891691e+01 2.794072e+00 1.908173e+00 2.206996e+00 3.430795e+00 3.585292e+00 3.237437e+00 3.237956e+00 3.141011e+00 2.841507e+00 2.645535e+00 2.565643e+00 2.134984e+00 2.307954e+00 3.952535e-01 3.094518e-01 3.512902e-01 5.513334e-01 5.859562e-01 5.630485e-01 5.673019e-01 5.656968e-01 5.125865e-01 4.925656e-01 4.625016e-01 3.910031e-01 3.295270e-01
<GCONST> 1.258837e+02
<TRANSP> 5
 0.000000e+00 1.000000e+00 0.000000e+00 0.000000e+00 0.000000e+00
 0.000000e+00 6.845818e-01 3.154182e-01 0.000000e+00 0.000000e+00
 0.000000e+00 0.000000e+00 6.845866e-01 3.154133e-01 0.000000e+00
 0.000000e+00 0.000000e+00 0.000000e+00 8.018082e-01 1.981918e-01
 0.000000e+00 0.000000e+00 0.000000e+00 0.000000e+00 0.000000e+00
<ENDHMM>
~h "t"
<BEGINHMM>
<NUMSTATES> 5
<STATE> 2
<MEAN> 39
 -7.541891e+00 -4.708993e+00 3.344741e+00 -4.548897e+00 -3.401807e+00 -1.416662e+00 -1.208581e+00 1.807446e-01 -5.373467e-01 4.058115e-01 1.733205e-01 4.658712e-01 6.162971e+01 8.768947e-04 1.305833e-04 -4.899461e-03 1.237671e-03 5.484800e-04 1.664546e-03 8.002188e-04 1.822502e-03 4.654200e-04 2.264886e-03 6.938187e-04 4.223589e-05 -1.253106e-03 1.007176e-04 -9.082806e-05 -1.281189e-04 -1.504539e-04 2.287085e-04 4.312456e-05 -3.351401e-05 -3.442376e-05 5.272015e-05 2.160909e-04 -7.605839e-05 3.229893e-05 -2.786822e-05
<VARIANCE> 39
 4.824355e+01 3.207103e+01 4.559250e+01 7.094952e+01 7.601499e+01 6.518454e+01 6.049099e+01 4.951377e+01 4.844218e+01 3.948370e+01 4.570317e+01 3.714014e+01 8.998191e+01 2.398996e+00 1.935462e+00 2.311538e+00 3.705069e+00 3.801510e+00 3.409832e+00 3.361027e+00 3.223186e+00 3.006849e+00 2.725775e+00 2.688584e+00 2.252424e+00 2.985667e+00 3.575092e-01 3.188324e-01 3.707289e-01 5.929356e-01 6.283280e-01 5.974714e-01 5.911065e-01 5.834982e-01 5.409216e-01 5.081208e-01 4.879837e-01 4.124776e-01 4.252095e-01
<GCONST> 1.272544e+02
<STATE> 3
<MEAN> 39
 -7.539650e+00 -4.708689e+00 3.330573e+00 -4.545185e+00 -3.399978e+00 -1.411020e+00 -1.206401e+00 1.860234e-01 -5.361160e-01 4.142453e-01 1.757184e-01 4.654363e-01 6.162550e+01 9.896025e-04 -1.483696e-04 -5.044596e-03 9.049171e-04 1.117461e-03 1.683956e-03 8.354542e-04 1.614262e-03 5.138951e-04 2.912249e-03 5.659711e-04 1.252475e-04 -1.348125e-03 -4.895070e-06 -5.119105e-05 -3.154108e-05 -1.362993e-04 1.998464e-04 -5.278598e-05 -4.992482e-06 -1.144586e-04 4.858239e-05 1.566127e-04 -8.040370e-05 3.480908e-05 -8.486022e-07
<VARIANCE> 39
 4.821670e+01 3.204634e+01 4.551806e+01 7.091460e+01 7.596380e+01 6.520736e+01 6.053297e+01 4.945944e+01 4.839965e+01 3.952132e+01 4.568613e+01 3.705790e+01 9.007664e+01 2.394187e+00 1.934612e+00 2.309913e+00 3.704558e+00 3.802959e+00 3.412400e+00 3.362314e+00 3.219282e+00 3.006200e+00 2.728909e+00 2.688361e+00 2.250959e+00 2.989588e+00 3.570105e-01 3.184999e-01 3.706201e-01 5.928586e-01 6.286722e-01 5.979684e-01 5.912293e-01 5.829176e-01 5.408283e-01 5.088553e-01 4.880370e-01 4.121611e-01 4.257436e-01
<GCONST> 1.272468e+02
<STATE> 4
<MEAN> 39
 -7.539723e+00 -4.702556e+00 3.297191e+00 -4.514167e+00 -3.415087e+00 -1.349260e+00 -1.212033e+00 2.054448e-01 -5.216144e-01 4.169429e-01 1.954830e-01 4.745949e-01 6.157812e+01 6.943735e-04 -2.890059e-04 -4.186659e-03 6.637894e-04 1.285404e-03 1.714530e-03 1.064351e-03 1.149708e-03 4.385441e-04 2.952113e-03 4.223281e-04 3.221228e-04 -1.437140e-03 -6.346653e-05 -1.659789e-05 1.158367e-04 -1.126628e-04 1.249461e-04 -3.226259e-05 6.684352e-05 -1.545857e-04 2.310858e-05 -3.228700e-05 -7.474906e-05 7.233082e-05 3.766268e-06
<VARIANCE> 39
 4.804497e+01 3.191150e+01 4.559106e+01 7.048986e+01 7.632386e+01 6.487043e+01 6.069853e+01 4.940287e+01 4.832826e+01 3.942709e+01 4.569892e+01 3.696079e+01 9.022147e+01 2.365240e+00 1.917105e+00 2.298343e+00 3.668640e+00 3.797019e+00 3.394477e+00 3.352332e+00 3.200413e+00 2.990660e+00 2.717592e+00 2.679462e+00 2.245177e+00 2.986075e+00 3.521890e-01 3.148890e-01 3.680499e-01 5.858703e-01 6.260893e-01 5.942388e-01 5.884664e-01 5.787079e-01 5.374197e-01 5.066516e-01 4.858599e-01 4.106984e-01 4.236616e-01
<GCONST> 1.270734e+02
<TRANSP> 5
 0.000000e+00 1.000000e+00 0.000000e+00 0.000000e+00 0.000000e+00
 0.000000e+00 6.842862e-01 3.157138e-01 0.000000e+00 0.000000e+00
 0.000000e+00 0.000000e+00 6.842847e-01 3.157153e-01 0.000000e+00
 0.000000e+00 0.000000e+00 0.000000e+00 8.015298e-01 1.984702e-01
 0.000000e+00 0.000000e+00 0.000000e+00 0.000000e+00 0.000000e+00
<ENDHMM>
~h "w"
<BEGINHMM>
<NUMSTATES> 5
<STATE> 2
<MEAN> 39
 -7.076413e+00 -5.163324e+00 2.674347e+00 -5.235313e+00 -3.258547e+00 -1.385622e+00 -1.388536e+00 -5.032606e-02 -5.945723e-01 5.810356e-01 -3.167695e-02 4.814643e-01 6.207053e+01 8.112639e-03 -3.018034e-03 -8.235901e-03 -2.013917e-03 -4.462766e-03 -3.211656e-03 -9.918672e-04 -1.828226e-03 9.529275e-05 -7.753948e-03 -7.427986e-03 -3.324173e-03 6.302902e-03 -4.184331e-04 4.353573e-04 1.592739e-04 3.913639e-04 2.919444e-04 -4.292342e-04 2.094266e-04 1.722717e-04 3.434298e-04 -1.582543e-04 1.242855e-04 -5.379346e-05 1.054341e-05
<VARIANCE> 39
 5.309105e+01 3.322802e+01 4.642954e+01 7.651596e+01 7.270503e+01 6.615545e+01 6.066904e+01 4.912609e+01 4.891530e+01 4.187875e+01 4.838716e+01 3.721619e+01 9.027589e+01 2.513000e+00 2.040364e+00 2.313484e+00 3.890474e+00 3.552579e+00 3.343471e+00 3.300682e+00 3.302449e+00 3.170015e+00 2.901366e+00 2.744044e+00 2.262791e+00 2.501640e+00 3.662833e-01 3.355251e-01 3.658902e-01 6.251903e-01 5.981333e-01 5.801663e-01 5.837435e-01 6.058335e-01 5.896840e-01 5.459906e-01 4.999247e-01 4.162354e-01 3.468018e-01
<GCONST> 1.276558e+02
<STATE> 3
<MEAN> 39
 -7.055734e+00 -5.170344e+00 2.651707e+00 -5.237815e+00 -3.272581e+00 -1.398986e+00 -1.391285e+00 -5.293187e-02 -5.939949e-01 5.570285e-01 -5.321097e-02 4.715744e-01 6.209213e+01 6.544759e-03 -1.616557e-03 -7.698276e-03 -1.155568e-03 -3.397969e-03 -4.169818e-03 -4.547694e-04 -1.216605e-03 9.427428e-04 -7.773698e-03 -7.048343e-03 -3.511635e-03 6.342614e-03 -6.613891e-04 4.820842e-04 2.910414e-04 3.512316e-04 4.721796e-04 -2.745368e-04 2.263916e-04 2.188598e-04 2.605973e-04 6.425013e-05 2.611841e-04 -7.567673e-05 -5.406041e-05
<VARIANCE> 39
 5.315062e+01 3.326492e+01 4.655217e+01 7.655779e+01 7.263653e+01 6.626109e+01 6.075570e+01 4.913383e+01 4.887139e+01 4.186129e+01 4.857335e+01 3.733539e+01 9.004284e+01 2.518390e+00 2.043312e+00 2.319488e+00 3.895802e+00 3.563141e+00 3.352580e+00 3.306962e+00 3.301817e+00 3.171992e+00 2.901528e+00 2.757926e+00 2.266601e+00 2.506264e+00 3.672499e-01 3.361030e-01 3.668981e-01 6.259491e-01 6.000941e-01 5.817493e-01 5.845914e-01 6.055505e-01 5.902837e-01 5.456510e-01 5.024668e-01 4.167978e-01 3.472852e-01
<GCONST> 1.277143e+02
<STATE> 4
<MEAN> 39
 -7.055015e+00 -5.150304e+00 2.607115e+00 -5.181617e+00 -3.308319e+00 -1.349741e+00 -1.378176e+00 -3.778040e-02 -5.746821e-01 5.235077e-01 -5.295286e-02 4.824816e-01 6.203720e+01 3.501247e-03 4.039663e-04 -6.038628e-03 1.631481e-04 -1.813253e-03 -4.386008e-03 -2.261695e-04 -2.904600e-04 1.237753e-03 -6.780726e-03 -6.040507e-03 -3.728343e-03 5.955277e-03 -7.596305e-04 4.665693e-04 3.487537e-04 3.087414e-04 6.252668e-04 4.048993e-05 2.013752e-04 1.698494e-04 1.216526e-04 2.423355e-04 3.506028e-04 -6.810506e-05 -2.436897e-04
<VARIANCE> 39
 5.306977e+01 3.324158e+01 4.699282e+01 7.581599e+01 7.297517e+01 6.594415e+01 6.102085e+01 4.895689e+01 4.877352e+01 4.183792e+01 4.873653e+01 3.732422e+01 8.973014e+01 2.499290e+00 2.029506e+00 2.316015e+00 3.845970e+00 3.570985e+00 3.349191e+00 3.307537e+00 3.281304e+00 3.152982e+00 2.887309e+00 2.761055e+00 2.264069e+00 2.498103e+00 3.640179e-01 3.331102e-01 3.655512e-01 6.171210e-01 6.000076e-01 5.811811e-01 5.835599e-01 6.007808e-01 5.852197e-01 5.419158e-01 5.021072e-01 4.163760e-01 3.441118e-01
<GCONST> 1.275887e+02
<TRANSP> 5
 0.000000e+00 1.000000e+00 0.000000e+00 0.000000e+00 0.000000e+00
 0.000000e+00 6.830924e-01 3.169076e-01 0.000000e+00 0.000000e+00
 0.000000e+00 0.000000e+00 6.830949e-01 3.169051e-01 0.000000e+00
 0.000000e+00 0.000000e+00 0.000000e+00 8.003936e-01 1.996064e-01
 0.000000e+00 0.000000e+00 0.000000e+00 0.000000e+00 0.000000e+00
<ENDHMM>
~h "y"
<BEGINHMM>
<NUMSTATES> 5
<STATE> 2
<MEAN> 39
 -7.751783e+00 -4.613648e+00 3.959715e+00 -4.715080e+00 -3.977033e+00 -1.783397e+00 -1.300840e+00 7.245869e-02 -9.514480e-01 3.011477e-01 2.272692e-02 4.558784e-01 6.201636e+01 4.308815e-03 1.023256e-03 -4.385541e-04 -2.242276e-03 -3.505510e-03 -1.115289e-03 4.549501e-04 -2.358254e-03 -5.240107e-03 -5.613454e-04 -4.120497e-03 -1.539653e-03 1.312337e-03 1.011457e-04 2.282284e-04 -2.522862e-04 3.807849e-04 6.713379e-05 4.302863e-04 1.991804e-04 -1.065997e-04 -7.564758e-05 -6.323845e-05 1.909800e-04 4.437788e-05 -3.918281e-04
<VARIANCE> 39
 5.214138e+01 3.298071e+01 4.852976e+01 7.055289e+01 8.114846e+01 6.662117e+01 6.187093e+01 5.214606e+01 5.032427e+01 3.999731e+01 4.639882e+01 3.617869e+01 8.804935e+01 2.387144e+00 1.906088e+00 2.440133e+00 3.450808e+00 3.706440e+00 3.205967e+00 3.273399e+00 3.249782e+00 2.949392e+00 2.704732e+00 2.583931e+00 2.147474e+00 2.282538e+00 3.351177e-01 3.067836e-01 3.736401e-01 5.545570e-01 6.040085e-01 5.578586e-01 5.752973e-01 5.837582e-01 5.307732e-01 5.023467e-01 4.670200e-01 3.946227e-01 3.242238e-01
<GCONST> 1.263845e+02
<STATE> 3
<MEAN> 39
 -7.738309e+00 -4.608429e+00 3.958818e+00 -4.721337e+00 -3.988712e+00 -1.784665e+00 -1.298231e+00 6.385934e-02 -9.683105e-01 3.002751e-01 1.047480e-02 4.510583e-01 6.201781e+01 4.555864e-03 1.549391e-03 -1.236773e-03 -1.199997e-03 -3.198144e-03 2.222786e-04 8.947240e-04 -2.849923e-03 -5.339611e-03 -7.013023e-04 -3.551090e-03 -1.566105e-03 3.295101e-04 -4.145081e-05 1.562418e-04 -1.692291e-04 3.775952e-04 1.732987e-04 4.171565e-04 1.648451e-04 -2.006275e-04 2.176840e-05 5.680894e-05 1.850447e-04 -4.747851e-05 -3.460944e-04
<VARIANCE> 39
 5.206691e+01 3.299077e+01 4.854465e+01 7.068510e+01 8.123610e+01 6.666605e+01 6.179937e+01 5.213251e+01 5.034650e+01 4.002750e+01 4.638073e+01 3.624177e+01 8.830643e+01 2.383395e+00 1.904772e+00 2.436903e+00 3.451172e+00 3.701496e+00 3.200588e+00 3.268027e+00 3.250428e+00 2.944482e+00 2.705640e+00 2.580275e+00 2.146957e+00 2.279888e+00 3.346821e-01 3.063383e-01 3.735305e-01 5.542083e-01 6.031944e-01 5.569142e-01 5.743200e-01 5.842581e-01 5.298417e-01 5.025880e-01 4.663014e-01 3.946127e-01 3.233455e-01
<GCONST> 1.263661e+02
<STATE> 4
<MEAN> 39
 -7.721730e+00 -4.597928e+00 3.946235e+00 -4.679953e+00 -4.009654e+00 -1.718026e+00 -1.280907e+00 6.271552e-02 -9.659179e-01 2.976500e-01 8.770138e-03 4.611316e-01 6.195037e+01 4.397165e-03 1.848492e-03 -1.263264e-03 -3.811002e-04 -2.746006e-03 1.580599e-03 1.268616e-03 -3.905165e-03 -5.029006e-03 -4.766090e-04 -2.817045e-03 -1.928035e-03 -7.517828e-04 -1.197093e-04 3.925104e-06 -8.724637e-06 2.667025e-04 2.027399e-04 2.966218e-04 1.113488e-04 -2.748695e-04 1.148336e-04 5.751713e-05 1.744311e-04 -1.134903e-04 -2.350101e-04
<VARIANCE> 39
 5.172679e+01 3.287385e+01 4.878928e+01 7.040647e+01 8.169836e+01 6.640318e+01 6.171237e+01 5.200764e+01 5.042128e+01 3.989180e+01 4.632236e+01 3.624144e+01 8.873676e+01 2.347941e+00 1.885992e+00 2.424139e+00 3.406152e+00 3.679883e+00 3.169180e+00 3.239799e+00 3.233509e+00 2.926725e+00 2.693277e+00 2.565968e+00 2.137238e+00 2.262365e+00 3.291275e-01 3.025295e-01 3.707015e-01 5.450594e-01 5.980527e-01 5.508143e-01 5.685053e-01 5.808398e-01 5.259799e-01 5.001791e-01 4.632529e-01 3.928885e-01 3.189824e-01
<GCONST> 1.261296e+02
<TRANSP> 5
 0.000000e+00 1.000000e+00 0.000000e+00 0.000000e+00 0.000000e+00
 0.000000e+00 6.848887e-01 3.151112e-01 0.000000e+00 0.000000e+00
 0.000000e+00 0.000000e+00 6.848813e-01 3.151187e-01 0.000000e+00
 0.000000e+00 0.000000e+00 0.000000e+00 8.021868e-01 1.978132e-01
 0.000000e+00 0.000000e+00 0.000000e+00 0.000000e+00 0.000000e+00
<ENDHMM>
~h "z"
<BEGINHMM>
<NUMSTATES> 5
<STATE> 2
<MEAN> 39
 -8.028820e+00 -4.278201e+00 4.375279e+00 -4.275239e+00 -3.091913e+00 -1.269158e+00 -4.104103e-01 -1.908518e-02 -7.368053e-01 5.785034e-01 3.752750e-01 1.095422e+00 6.080908e+01 4.170051e-03 -4.995377e-03 6.620434e-03 6.550569e-03 1.234758e-02 -6.623500e-03 -8.250749e-03 1.751440e-03 1.484415e-02 -3.281753e-03 3.228767e-05 1.131132e-02 -1.141915e-02 9.586267e-04 1.013588e-03 4.854157e-04 -9.199930e-05 -1.031347e-03 -3.701850e-04 -1.806061e-03 -1.598999e-03 -1.076621e-03 7.492740e-04 -8.511110e-04 -9.814763e-04 6.313476e-05
<VARIANCE> 39
 4.387706e+01 3.120646e+01 4.289643e+01 6.638940e+01 7.047961e+01 6.671636e+01 6.331799e+01 5.298625e+01 5.171010e+01 4.083825e+01 4.498416e+01 3.298585e+01 8.292995e+01 1.898987e+00 1.651827e+00 1.951169e+00 2.911496e+00 2.976955e+00 2.886454e+00 2.961608e+00 2.928337e+00 2.658908e+00 2.454356e+00 2.388640e+00 1.966188e+00 1.729063e+00 2.766447e-01 2.704885e-01 3.051893e-01 4.499936e-01 4.880590e-01 5.020496e-01 5.252720e-01 5.152612e-01 4.690675e-01 4.502140e-01 4.348221e-01 3.700538e-01 2.443499e-01
<GCONST> 1.218825e+02
<STATE> 3
<MEAN> 39
 -8.011261e+00 -4.290144e+00 4.392033e+00 -4.259287e+00 -3.046323e+00 -1.285960e+00 -4.464862e-01 -2.209099e-02 -6.933398e-01 5.694969e-01 3.694644e-01 1.123686e+00 6.077682e+01 5.858463e-03 -1.015106e-03 8.438095e-03 6.292751e-03 1.055872e-02 -7.044809e-03 -1.345405e-02 -3.192951e-03 1.156365e-02 -7.219933e-04 -2.309451e-03 7.952248e-03 -1.095839e-02 6.008025e-04 1.095933e-03 5.787465e-04 -3.400568e-04 -6.929399e-04 5.051792e-05 -1.428641e-03 -1.562821e-03 -1.294225e-03 8.886832e-04 -9.294564e-04 -1.228803e-03 2.999689e-04
<VARIANCE> 39
 4.367163e+01 3.132571e+01 4.285866e+01 6.662308e+01 7.026317e+01 6.695088e+01 6.316938e+01 5.275556e+01 5.138260e+01 4.058276e+01 4.505053e+01 3.257196e+01 8.299767e+01 1.882352e+00 1.658588e+00 1.938564e+00 2.916920e+00 2.986952e+00 2.873527e+00 2.949847e+00 2.906962e+00 2.649880e+00 2.448590e+00 2.387168e+00 1.967940e+00 1.728294e+00 2.739647e-01 2.715423e-01 3.021284e-01 4.503336e-01 4.899274e-01 5.002940e-01 5.233839e-01 5.104777e-01 4.682075e-01 4.492365e-01 4.340682e-01 3.708560e-01 2.432620e-01
<GCONST> 1.217914e+02
<STATE> 4
<MEAN> 39
 -8.003412e+00 -4.273139e+00 4.364858e+00 -4.238900e+00 -2.969619e+00 -1.209395e+00 -5.221788e-01 -4.777247e-02 -6.515290e-01 5.638340e-01 3.517102e-01 1.157146e+00 6.069532e+01 6.462237e-03 4.125139e-03 8.906359e-03 3.959260e-03 1.159455e-02 -5.139290e-03 -1.742601e-02 -8.224271e-03 7.273013e-03 2.401243e-03 -4.782062e-03 3.298016e-03 -9.502389e-03 1.583031e-04 1.099209e-03 3.842135e-04 -6.001323e-04 -3.332962e-04 4.002729e-04 -6.390658e-04 -1.075923e-03 -1.208400e-03 8.656109e-04 -6.743891e-04 -1.167754e-03 3.160979e-04
<VARIANCE> 39
 4.337487e+01 3.165845e+01 4.285805e+01 6.737621e+01 7.070317e+01 6.692406e+01 6.335717e+01 5.220676e+01 5.095515e+01 4.002450e+01 4.491507e+01 3.205761e+01 8.334045e+01 1.861509e+00 1.656592e+00 1.937957e+00 2.921642e+00 2.971232e+00 2.844835e+00 2.942339e+00 2.879537e+00 2.630281e+00 2.439582e+00 2.368033e+00 1.966006e+00 1.718157e+00 2.691347e-01 2.707604e-01 3.005899e-01 4.488783e-01 4.855151e-01 4.944118e-01 5.221817e-01 5.048321e-01 4.653479e-01 4.475517e-01 4.291007e-01 3.708517e-01 2.401442e-01
<GCONST> 1.216058e+02
<TRANSP> 5
 0.000000e+00 1.000000e+00 0.000000e+00 0.000000e+00 0.000000e+00
 0.000000e+00 6.875092e-01 3.124909e-01 0.000000e+00 0.000000e+00
 0.000000e+00 0.000000e+00 6.875085e-01 3.124915e-01 0.000000e+00
 0.000000e+00 0.000000e+00 0.000000e+00 8.054783e-01 1.945217e-01
 0.000000e+00 0.000000e+00 0.000000e+00 0.000000e+00 0.000000e+00
<ENDHMM>
~h "aa"
<BEGINHMM>
<NUMSTATES> 5
<STATE> 2
<MEAN> 39
 -7.184521e+00 -5.256035e+00 2.775150e+00 -4.706024e+00 -3.494711e+00 -1.494047e+00 -1.224639e+00 3.555687e-01 -5.672126e-01 8.068311e-02 -1.830184e-01 2.497176e-01 6.225496e+01 -7.821776e-04 1.484313e-03 -2.990191e-04 1.093025e-03 2.446995e-03 1.668222e-03 5.078749e-05 1.190836e-03 -8.169950e-04 2.411426e-03 -1.488226e-05 -8.344422e-04 -1.326351e-03 -5.399249e-05 6.837795e-05 1.738062e-04 1.062971e-04 -5.105782e-05 6.659784e-05 7.477312e-05 -2.888555e-05 1.602129e-04 1.657763e-05 1.358397e-04 1.703868e-04 -2.882123e-04
<VARIANCE> 39
 4.963997e+01 3.642884e+01 4.992723e+01 6.990781e+01 7.529726e+01 6.591720e+01 6.043974e+01 4.935032e+01 4.838041e+01 4.213314e+01 4.757928e+01 3.874123e+01 9.351225e+01 2.303217e+00 2.034989e+00 2.329900e+00 3.462253e+00 3.521105e+00 3.180294e+00 3.201633e+00 3.144589e+00 2.915398e+00 2.732891e+00 2.604005e+00 2.225616e+00 2.569685e+00 3.357724e-01 3.250995e-01 3.664982e-01 5.642802e-01 5.846447e-01 5.560293e-01 5.658428e-01 5.674731e-01 5.261536e-01 5.034091e-01 4.703591e-01 4.054102e-01 3.669906e-01
<GCONST> 1.266181e+02
<STATE> 3
<MEAN> 39
 -7.186993e+00 -5.250973e+00 2.774245e+00 -4.702526e+00 -3.487889e+00 -1.488500e+00 -1.223785e+00 3.594576e-01 -5.692849e-01 8.799672e-02 -1.820805e-01 2.479684e-01 6.224992e+01 -8.983841e-04 1.674698e-03 1.185068e-04 1.283410e-03 2.230261e-03 1.901935e-03 3.421002e-04 1.115537e-03 -3.825198e-04 2.436119e-03 4.996881e-04 -3.149551e-04 -2.162571e-03 -6.814196e-05 8.017903e-05 1.328656e-04 5.585062e-05 -1.046981e-04 1.339895e-04 1.557379e-04 -3.517851e-05 9.979954e-05 -4.947761e-05 1.290649e-04 1.965663e-04 -2.641942e-04
<VARIANCE> 39
 4.967478e+01 3.643161e+01 4.993416e+01 6.986507e+01 7.526266e+01 6.588775e+01 6.039785e+01 4.931847e+01 4.830000e+01 4.213602e+01 4.757988e+01 3.873548e+01 9.350272e+01 2.305311e+00 2.034070e+00 2.329948e+00 3.459952e+00 3.517915e+00 3.181699e+00 3.200507e+00 3.144804e+00 2.914612e+00 2.731925e+00 2.602467e+00 2.225707e+00 2.566904e+00 3.361406e-01 3.249611e-01 3.665235e-01 5.638532e-01 5.843054e-01 5.562637e-01 5.656112e-01 5.674998e-01 5.260634e-01 5.032933e-01 4.701232e-01 4.054546e-01 3.665549e-01
<GCONST> 1.266086e+02
<STATE> 4
<MEAN> 39
 -7.186000e+00 -5.239305e+00 2.744583e+00 -4.659205e+00 -3.503794e+00 -1.435189e+00 -1.218431e+00 3.721418e-01 -5.493813e-01 8.297515e-02 -1.725982e-01 2.552089e-01 6.220026e+01 -1.013012e-03 1.987260e-03 3.476552e-04 1.377324e-03 1.918747e-03 2.426310e-03 1.077800e-03 8.030547e-04 -7.629523e-05 2.030575e-03 9.466506e-04 2.874387e-04 -3.025023e-03 -7.212002e-05 9.123684e-05 6.553845e-05 4.364994e-05 -7.622343e-05 2.071800e-04 2.010875e-04 -9.118520e-05 4.745851e-05 -1.062711e-04 4.981308e-05 1.692220e-04 -2.218811e-04
<VARIANCE> 39
 4.957309e+01 3.638099e+01 5.016974e+01 6.931524e+01 7.564594e+01 6.569067e+01 6.045647e+01 4.931839e+01 4.825860e+01 4.202042e+01 4.765844e+01 3.877371e+01 9.358192e+01 2.280446e+00 2.016039e+00 2.320992e+00 3.416511e+00 3.507673e+00 3.167299e+00 3.185771e+00 3.130544e+00 2.901341e+00 2.717396e+00 2.593658e+00 2.219517e+00 2.554352e+00 3.320471e-01 3.215318e-01 3.643246e-01 5.552663e-01 5.814888e-01 5.528785e-01 5.619020e-01 5.638759e-01 5.227839e-01 5.000170e-01 4.675588e-01 4.040021e-01 3.631264e-01
<GCONST> 1.264317e+02
<TRANSP> 5
 0.000000e+00 1.000000e+00 0.000000e+00 0.000000e+00 0.000000e+00
 0.000000e+00 6.857467e-01 3.142533e-01 0.000000e+00 0.000000e+00
 0.000000e+00 0.000000e+00 6.857478e-01 3.142522e-01 0.000000e+00
 0.000000e+00 0.000000e+00 0.000000e+00 8.032199e-01 1.967801e-01
 0.000000e+00 0.000000e+00 0.000000e+00 0.000000e+00 0.000000e+00
<ENDHMM>
~h "bb"
<BEGINHMM>
<NUMSTATES> 5
<STATE> 2
<MEAN> 39
 -6.840391e+00 -5.224225e+00 3.165468e+00 -5.294565e+00 -4.113068e+00 -1.838948e+00 -1.921486e+00 -2.306840e-01 -9.266326e-01 3.003069e-01 -2.036981e-01 1.708455e-01 6.267593e+01 6.758348e-03 2.815706e-03 -5.970660e-03 -7.790919e-03 -3.075173e-03 -2.905229e-03 -9.592154e-03 -4.034278e-03 -7.210633e-03 9.487057e-05 -5.722025e-03 -7.826968e-03 1.022848e-02 -4.737802e-05 3.211038e-04 -1.751909e-05 6.634530e-05 4.401729e-04 -2.458694e-04 8.912968e-06 1.928216e-04 2.091673e-04 1.682958e-04 2.760999e-05 1.659120e-04 -4.798320e-04
<VARIANCE> 39
 5.205045e+01 3.621333e+01 5.469587e+01 7.474719e+01 7.885848e+01 6.828916e+01 6.337795e+01 5.184002e+01 4.986179e+01 4.191288e+01 4.913118e+01 3.869170e+01 8.914844e+01 2.211599e+00 1.960477e+00 2.358184e+00 3.657624e+00 3.718099e+00 3.250270e+00 3.246053e+00 3.244141e+00 2.944925e+00 2.741673e+00 2.616806e+00 2.208829e+00 2.470688e+00 3.160201e-01 3.163074e-01 3.612573e-01 5.938269e-01 6.148616e-01 5.655679e-01 5.700204e-01 5.876597e-01 5.271509e-01 5.056544e-01 4.729320e-01 4.033995e-01 3.571640e-01
<GCONST> 1.271235e+02
<STATE> 3
<MEAN> 39
 -6.818380e+00 -5.212970e+00 3.146126e+00 -5.318400e+00 -4.118955e+00 -1.847517e+00 -1.951683e+00 -2.444572e-01 -9.485045e-01 3.007851e-01 -2.219643e-01 1.476711e-01 6.270384e+01 6.542189e-03 3.739418e-03 -5.968664e-03 -7.422368e-03 -1.783452e-03 -3.554404e-03 -9.211267e-03 -3.355378e-03 -6.441025e-03 4.941041e-04 -5.497092e-03 -7.169822e-03 8.588631e-03 1.452827e-05 2.314968e-04 6.446047e-05 6.136740e-05 3.116372e-04 -2.279511e-04 1.086242e-04 3.180184e-04 2.872592e-04 4.903659e-05 6.605936e-05 2.602038e-04 -5.422573e-04
<VARIANCE> 39
 5.208874e+01 3.630544e+01 5.477502e+01 7.492798e+01 7.892294e+01 6.833044e+01 6.344636e+01 5.187556e+01 4.992599e+01 4.207266e+01 4.926517e+01 3.875892e+01 8.909186e+01 2.216424e+00 1.961097e+00 2.361699e+00 3.660260e+00 3.719917e+00 3.244941e+00 3.244660e+00 3.241853e+00 2.947615e+00 2.747660e+00 2.624357e+00 2.213284e+00 2.466214e+00 3.164143e-01 3.161630e-01 3.612910e-01 5.940617e-01 6.148003e-01 5.648117e-01 5.695336e-01 5.868592e-01 5.273440e-01 5.062624e-01 4.741028e-01 4.039088e-01 3.565429e-01
<GCONST> 1.271525e+02
<STATE> 4
<MEAN> 39
 -6.784237e+00 -5.184973e+00 3.091779e+00 -5.305541e+00 -4.148755e+00 -1.807660e+00 -1.988159e+00 -2.639347e-01 -9.562825e-01 2.808280e-01 -2.449511e-01 1.274805e-01 6.268902e+01 6.092030e-03 4.735126e-03 -5.738588e-03 -6.616310e-03 -4.231203e-04 -3.592941e-03 -7.808726e-03 -2.408730e-03 -5.107886e-03 5.400744e-04 -5.049685e-03 -5.919313e-03 6.048499e-03 -9.333569e-06 1.397949e-04 1.201973e-04 9.429290e-05 1.279286e-04 -1.387274e-04 2.652535e-04 3.968643e-04 3.323455e-04 -9.998144e-06 8.596893e-05 2.930886e-04 -5.056256e-04
<VARIANCE> 39
 5.193263e+01 3.627097e+01 5.524940e+01 7.461193e+01 7.941201e+01 6.807629e+01 6.348210e+01 5.187373e+01 4.995389e+01 4.212376e+01 4.953280e+01 3.892356e+01 8.905868e+01 2.198658e+00 1.942123e+00 2.359301e+00 3.616304e+00 3.715364e+00 3.217905e+00 3.228868e+00 3.221062e+00 2.933852e+00 2.740140e+00 2.625794e+00 2.212664e+00 2.449804e+00 3.128306e-01 3.124583e-01 3.595908e-01 5.849940e-01 6.120501e-01 5.597392e-01 5.658379e-01 5.815067e-01 5.237314e-01 5.036767e-01 4.734195e-01 4.028938e-01 3.527657e-01
<GCONST> 1.270023e+02
<TRANSP> 5
 0.000000e+00 1.000000e+00 0.000000e+00 0.000000e+00 0.000000e+00
 0.000000e+00 6.836365e-01 3.163635e-01 0.000000e+00 0.000000e+00
 0.000000e+00 0.000000e+00 6.836376e-01 3.163624e-01 0.000000e+00
 0.000000e+00 0.000000e+00 0.000000e+00 8.007885e-01 1.992116e-01
 0.000000e+00 0.000000e+00 0.000000e+00 0.000000e+00 0.000000e+00
<ENDHMM>
~h "ch"
<BEGINHMM>
<NUMSTATES> 5
<STATE> 2
<MEAN> 39
 -8.181796e+00 -4.801568e+00 3.990561e+00 -4.669828e+00 -2.877267e+00 -1.102869e+00 -9.673364e-01 1.520357e-01 -5.768843e-01 4.291483e-01 2.662706e-01 6.964613e-01 6.123892e+01 -3.181332e-03 3.366533e-03 -8.555776e-03 5.098612e-03 1.439098e-02 5.688521e-05 4.183241e-03 5.029768e-04 -2.325645e-03 4.126887e-03 2.530775e-04 -2.118469e-03 -3.955661e-04 -7.405980e-04 -4.387379e-04 -4.015810e-04 2.124391e-04 1.345604e-03 7.906616e-04 -1.434147e-04 4.207803e-04 1.323967e-03 7.833222e-04 2.252668e-04 6.889956e-04 -3.594112e-04
<VARIANCE> 39
 5.377972e+01 3.009675e+01 4.643174e+01 6.697623e+01 7.067458e+01 6.274593e+01 5.618904e+01 4.548519e+01 4.816393e+01 3.657682e+01 4.510625e+01 3.336435e+01 8.824622e+01 2.970479e+00 1.858877e+00 2.266406e+00 3.495453e+00 3.627687e+00 3.296022e+00 3.159768e+00 2.941452e+00 2.940351e+00 2.662727e+00 2.564248e+00 2.134886e+00 2.534706e+00 4.508201e-01 3.142339e-01 3.755317e-01 6.000130e-01 6.013624e-01 5.717662e-01 5.789217e-01 5.266883e-01 5.325889e-01 5.048991e-01 4.713376e-01 3.978728e-01 3.798513e-01
<GCONST> 1.261449e+02
<STATE> 3
<MEAN> 39
 -8.193563e+00 -4.792100e+00 3.963580e+00 -4.656693e+00 -2.829397e+00 -1.102177e+00 -9.517633e-01 1.522936e-01 -5.796709e-01 4.445190e-01 2.671004e-01 6.923301e-01 6.123973e+01 -5.011588e-03 1.989501e-03 -9.317067e-03 4.947198e-03 1.682422e-02 2.099229e-03 3.004682e-03 1.971964e-03 2.432812e-03 6.117606e-03 1.270582e-03 -8.784351e-06 -1.353499e-03 -2.930269e-04 -5.558898e-04 -1.914867e-04 -1.546092e-04 3.601311e-04 5.995813e-04 -7.057547e-04 5.357076e-04 1.709378e-03 6.335053e-04 1.565306e-04 4.977550e-04 -1.835781e-04
<VARIANCE> 39
 5.394121e+01 3.012091e+01 4.594533e+01 6.654974e+01 7.074879e+01 6.264771e+01 5.624008e+01 4.542068e+01 4.806870e+01 3.647556e+01 4.472320e+01 3.328494e+01 8.814606e+01 2.982327e+00 1.862834e+00 2.264981e+00 3.486539e+00 3.627470e+00 3.287821e+00 3.161044e+00 2.940031e+00 2.942211e+00 2.672963e+00 2.563810e+00 2.134794e+00 2.533904e+00 4.528057e-01 3.158718e-01 3.769027e-01 5.979099e-01 6.007265e-01 5.707263e-01 5.788721e-01 5.266278e-01 5.327699e-01 5.067610e-01 4.711240e-01 3.982635e-01 3.802485e-01
<GCONST> 1.261304e+02
<STATE> 4
<MEAN> 39
 -8.208606e+00 -4.798687e+00 3.896191e+00 -4.639045e+00 -2.799496e+00 -1.069159e+00 -9.480575e-01 1.524505e-01 -5.496974e-01 4.588305e-01 2.829126e-01 6.987488e-01 6.122193e+01 -4.940721e-03 1.511187e-04 -8.999246e-03 3.866283e-03 1.613231e-02 2.980969e-03 9.594859e-04 3.528287e-03 6.633191e-03 7.706362e-03 2.311419e-03 6.271322e-04 -1.049198e-03 4.532025e-04 -5.812334e-04 -2.693207e-05 -2.192155e-04 -4.187811e-04 3.262932e-04 -8.447281e-04 4.548875e-04 1.121945e-03 2.599403e-04 -3.915544e-05 -8.117524e-06 5.154900e-06
<VARIANCE> 39
 5.424285e+01 3.009506e+01 4.545791e+01 6.540193e+01 7.121449e+01 6.239909e+01 5.615752e+01 4.572751e+01 4.814777e+01 3.622145e+01 4.423487e+01 3.332654e+01 8.797745e+01 2.984127e+00 1.857072e+00 2.253075e+00 3.440123e+00 3.613959e+00 3.272596e+00 3.149386e+00 2.935802e+00 2.941753e+00 2.675156e+00 2.562433e+00 2.130085e+00 2.523702e+00 4.509589e-01 3.151137e-01 3.761525e-01 5.882925e-01 5.955505e-01 5.672869e-01 5.761003e-01 5.251179e-01 5.317371e-01 5.073065e-01 4.699524e-01 3.969598e-01 3.779274e-01
<GCONST> 1.259973e+02
<TRANSP> 5
 0.000000e+00 1.000000e+00 0.000000e+00 0.000000e+00 0.000000e+00
 0.000000e+00 6.864775e-01 3.135225e-01 0.000000e+00 0.000000e+00
 0.000000e+00 0.000000e+00 6.864785e-01 3.135214e-01 0.000000e+00
 0.000000e+00 0.000000e+00 0.000000e+00 8.038148e-01 1.961852e-01
 0.000000e+00 0.000000e+00 0.000000e+00 0.000000e+00 0.000000e+00
<ENDHMM>
~h "dd"
<BEGINHMM>
<NUMSTATES> 5
<STATE> 2
<MEAN> 39
 -7.170613e+00 -4.887572e+00 2.970050e+00 -4.976973e+00 -3.599882e+00 -1.704263e+00 -1.433722e+00 -1.595847e-01 -4.217571e-01 2.000102e-01 -1.474134e-01 3.978758e-01 6.218738e+01 -8.790863e-03 4.949852e-03 5.717651e-03 5.454604e-03 2.586458e-03 5.829274e-03 7.149130e-03 6.923888e-04 2.757433e-03 5.239465e-03 1.888052e-03 5.778648e-03 -9.383215e-03 1.057136e-04 3.203919e-05 -1.395223e-04 1.020553e-04 3.163715e-04 4.153800e-04 -2.316359e-04 4.851924e-05 -8.207698e-05 -2.726555e-04 1.289696e-04 2.381142e-05 -2.929948e-04
<VARIANCE> 39
 4.824194e+01 3.370650e+01 5.045224e+01 7.326379e+01 7.797353e+01 6.782368e+01 6.368736e+01 5.191117e+01 4.717287e+01 4.197994e+01 4.720575e+01 3.768095e+01 9.185332e+01 2.139837e+00 1.815332e+00 2.157175e+00 3.492934e+00 3.441783e+00 3.072057e+00 3.149940e+00 3.107638e+00 2.821015e+00 2.585995e+00 2.501893e+00 2.108268e+00 2.363538e+00 3.085690e-01 2.904586e-01 3.332565e-01 5.690817e-01 5.708299e-01 5.317453e-01 5.484834e-01 5.520428e-01 5.077648e-01 4.761987e-01 4.537224e-01 3.826508e-01 3.408040e-01
<GCONST> 1.253756e+02
<STATE> 3
<MEAN> 39
 -7.198715e+00 -4.871692e+00 2.987713e+00 -4.959015e+00 -3.588135e+00 -1.682460e+00 -1.410631e+00 -1.566243e-01 -4.136465e-01 2.158110e-01 -1.409495e-01 4.162122e-01 6.215451e+01 -8.498690e-03 5.027423e-03 5.134403e-03 5.659767e-03 3.665739e-03 6.785420e-03 6.403525e-03 1.060440e-03 2.567740e-03 4.426943e-03 2.296260e-03 5.742141e-03 -1.014622e-02 5.099212e-05 -1.295051e-05 -2.422661e-04 1.560646e-04 4.439043e-04 2.719660e-04 -3.135038e-04 1.182986e-04 -2.362438e-06 -2.138925e-04 1.394505e-04 -8.818541e-05 -2.424224e-04
<VARIANCE> 39
 4.823257e+01 3.362694e+01 5.029602e+01 7.324612e+01 7.790755e+01 6.784160e+01 6.354282e+01 5.179329e+01 4.699938e+01 4.183514e+01 4.709677e+01 3.761765e+01 9.203648e+01 2.145077e+00 1.812318e+00 2.153696e+00 3.486583e+00 3.437271e+00 3.066612e+00 3.142230e+00 3.100658e+00 2.813440e+00 2.583274e+00 2.498557e+00 2.106410e+00 2.358708e+00 3.092754e-01 2.903361e-01 3.328484e-01 5.682880e-01 5.709092e-01 5.309368e-01 5.473049e-01 5.510122e-01 5.068229e-01 4.758470e-01 4.531991e-01 3.824095e-01 3.404615e-01
<GCONST> 1.253254e+02
<STATE> 4
<MEAN> 39
 -7.231939e+00 -4.841228e+00 2.975275e+00 -4.896533e+00 -3.586331e+00 -1.596100e+00 -1.390379e+00 -1.579535e-01 -3.932301e-01 2.124084e-01 -1.236461e-01 4.456359e-01 6.207156e+01 -7.952111e-03 4.999690e-03 4.130450e-03 5.974842e-03 5.097938e-03 7.376094e-03 5.503586e-03 1.392215e-03 2.515600e-03 3.755271e-03 2.670628e-03 5.260305e-03 -1.113122e-02 8.872675e-05 -6.644968e-05 -2.446448e-04 2.098803e-04 3.343701e-04 5.790907e-05 -3.022584e-04 4.154556e-05 7.875391e-05 -6.254856e-05 1.162181e-04 -1.446469e-04 -1.824022e-04
<VARIANCE> 39
 4.803188e+01 3.346594e+01 5.040997e+01 7.291983e+01 7.827137e+01 6.751105e+01 6.340234e+01 5.156940e+01 4.677150e+01 4.153148e+01 4.689952e+01 3.755334e+01 9.232848e+01 2.128679e+00 1.795699e+00 2.146297e+00 3.443093e+00 3.432453e+00 3.042300e+00 3.119949e+00 3.077377e+00 2.796075e+00 2.570415e+00 2.484948e+00 2.099886e+00 2.347680e+00 3.062778e-01 2.876259e-01 3.314246e-01 5.600629e-01 5.700418e-01 5.264549e-01 5.429065e-01 5.467666e-01 5.036844e-01 4.734570e-01 4.500094e-01 3.810336e-01 3.379902e-01
<GCONST> 1.251183e+02
<TRANSP> 5
 0.000000e+00 1.000000e+00 0.000000e+00 0.000000e+00 0.000000e+00
 0.000000e+00 6.851690e-01 3.148311e-01 0.000000e+00 0.000000e+00
 0.000000e+00 0.000000e+00 6.851678e-01 3.148321e-01 0.000000e+00
 0.000000e+00 0.000000e+00 0.000000e+00 8.024608e-01 1.975392e-01
 0.000000e+00 0.000000e+00 0.000000e+00 0.000000e+00 0.000000e+00
<ENDHMM>
~h "ey"
<BEGINHMM>
<NUMSTATES> 5
<STATE> 2
<MEAN> 39
 -7.557087e+00 -4.810433e+00 3.547193e+00 -4.639907e+00 -4.027694e+00 -1.856732e+00 -1.159492e+00 1.749502e-01 -7.332277e-01 3.470389e-01 7.686310e-02 5.059958e-01 6.206085e+01 4.512752e-04 -9.415508e-05 -2.087642e-03 -1.517973e-03 -1.110389e-03 -2.493705e-03 -2.309412e-03 6.681356e-04 -2.538226e-03 -1.752560e-03 -7.030885e-04 -4.172723e-04 4.395965e-03 -4.203169e-05 -8.659069e-05 -6.741251e-05 1.968563e-04 2.206277e-04 7.304417e-05 7.903723e-05 8.693330e-05 3.325230e-05 3.052046e-05 1.195536e-04 -1.191520e-05 -1.583491e-04
<VARIANCE> 39
 4.964949e+01 3.299964e+01 4.563784e+01 7.112722e+01 8.136541e+01 6.976955e+01 6.042505e+01 5.042316e+01 4.901800e+01 3.985843e+01 4.626971e+01 3.673381e+01 9.153822e+01 2.379975e+00 1.922202e+00 2.209080e+00 3.557352e+00 3.782967e+00 3.337019e+00 3.214391e+00 3.174044e+00 2.926640e+00 2.693526e+00 2.577994e+00 2.169281e+00 2.556670e+00 3.468280e-01 3.146055e-01 3.514027e-01 5.734149e-01 6.188601e-01 5.786070e-01 5.667124e-01 5.756162e-01 5.275127e-01 5.016188e-01 4.684821e-01 3.976851e-01 3.665487e-01
<GCONST> 1.265495e+02
<STATE> 3
<MEAN> 39
 -7.555956e+00 -4.810861e+00 3.540235e+00 -4.644677e+00 -4.030499e+00 -1.864047e+00 -1.165833e+00 1.778187e-01 -7.415811e-01 3.420977e-01 7.482214e-02 5.049728e-01 6.207421e+01 3.231638e-04 -2.898412e-04 -2.348278e-03 -1.080799e-03 -5.829042e-04 -2.170433e-03 -1.881791e-03 1.072380e-03 -2.436773e-03 -1.614428e-03 -3.731134e-04 -4.090032e-04 3.954568e-03 -3.730472e-05 -6.042284e-05 -6.528768e-05 1.336606e-04 1.948285e-04 1.165045e-04 1.464215e-04 1.149897e-04 3.383125e-05 8.871684e-05 1.271229e-04 -4.045087e-06 -1.689077e-04
<VARIANCE> 39
 4.971156e+01 3.304810e+01 4.566109e+01 7.107876e+01 8.144933e+01 6.976312e+01 6.043798e+01 5.042055e+01 4.901123e+01 3.987794e+01 4.628822e+01 3.671695e+01 9.142426e+01 2.383111e+00 1.924311e+00 2.209714e+00 3.556463e+00 3.784698e+00 3.337798e+00 3.215683e+00 3.176244e+00 2.929396e+00 2.694788e+00 2.580769e+00 2.170276e+00 2.556095e+00 3.472382e-01 3.149261e-01 3.515634e-01 5.732429e-01 6.190658e-01 5.787236e-01 5.669572e-01 5.759814e-01 5.279374e-01 5.017864e-01 4.689543e-01 3.978730e-01 3.665429e-01
<GCONST> 1.265658e+02
<STATE> 4
<MEAN> 39
 -7.561574e+00 -4.804816e+00 3.513403e+00 -4.609168e+00 -4.060037e+00 -1.815906e+00 -1.162844e+00 1.944900e-01 -7.363257e-01 3.269799e-01 9.216662e-02 5.176409e-01 6.204025e+01 1.861779e-04 -2.990094e-04 -2.365550e-03 -7.892156e-04 -9.016163e-05 -1.607028e-03 -1.437523e-03 1.415905e-03 -2.216549e-03 -1.138298e-03 -1.785250e-04 -6.160873e-04 3.398457e-03 -3.753569e-05 -1.089333e-05 4.049383e-06 1.133809e-04 1.561185e-04 1.397937e-04 1.118225e-04 7.327594e-05 4.446756e-05 1.415364e-04 9.407300e-05 -4.844684e-05 -1.765861e-04
<VARIANCE> 39
 4.962472e+01 3.296921e+01 4.584380e+01 7.052634e+01 8.211526e+01 6.956454e+01 6.050896e+01 5.040174e+01 4.895158e+01 3.982098e+01 4.634872e+01 3.671683e+01 9.129696e+01 2.363206e+00 1.908445e+00 2.201813e+00 3.516485e+00 3.782372e+00 3.319094e+00 3.201562e+00 3.163591e+00 2.918975e+00 2.685103e+00 2.576650e+00 2.166768e+00 2.547366e+00 3.434960e-01 3.122301e-01 3.497407e-01 5.661185e-01 6.175243e-01 5.750269e-01 5.640261e-01 5.731000e-01 5.254852e-01 4.992825e-01 4.672618e-01 3.967851e-01 3.638967e-01
<GCONST> 1.264217e+02
<TRANSP> 5
 0.000000e+00 1.000000e+00 0.000000e+00 0.000000e+00 0.000000e+00
 0.000000e+00 6.849796e-01 3.150205e-01 0.000000e+00 0.000000e+00
 0.000000e+00 0.000000e+00 6.849825e-01 3.150175e-01 0.000000e+00
 0.000000e+00 0.000000e+00 0.000000e+00 8.023488e-01 1.976512e-01
 0.000000e+00 0.000000e+00 0.000000e+00 0.000000e+00 0.000000e+00
<ENDHMM>
~h "gg"
<BEGINHMM>
<NUMSTATES> 5
<STATE> 2
<MEAN> 39
 -7.436252e+00 -4.860282e+00 3.096327e+00 -4.774147e+00 -3.311560e+00 -1.211867e+00 -6.240702e-01 -1.758917e-01 -7.134856e-01 5.701201e-01 2.810693e-02 7.931447e-01 6.121319e+01 -2.104767e-02 5.028818e-03 -1.368259e-04 1.079740e-02 1.327235e-02 8.778417e-03 2.842750e-03 4.132398e-03 7.380117e-03 1.019090e-03 -7.010033e-03 5.751960e-03 -5.340939e-03 7.507385e-05 4.919806e-04 5.956704e-04 1.454616e-04 -3.520738e-04 -6.736332e-04 1.108039e-05 1.446998e-04 -5.626864e-04 -5.127426e-06 3.909844e-04 -2.627788e-04 -7.066962e-05
<VARIANCE> 39
 4.838177e+01 3.293510e+01 4.870352e+01 7.615546e+01 7.368407e+01 6.583299e+01 5.779961e+01 5.129034e+01 4.921257e+01 3.954173e+01 4.847574e+01 3.641525e+01 9.199658e+01 1.916525e+00 1.773237e+00 2.058233e+00 3.275386e+00 3.325560e+00 2.905589e+00 2.995106e+00 3.025893e+00 2.800493e+00 2.643613e+00 2.514546e+00 2.103974e+00 2.168979e+00 2.722668e-01 2.799316e-01 3.101450e-01 5.211412e-01 5.461622e-01 5.040780e-01 5.308105e-01 5.380228e-01 5.008256e-01 4.917039e-01 4.576993e-01 3.907088e-01 3.071584e-01
<GCONST> 1.241255e+02
<STATE> 3
<MEAN> 39
 -7.504179e+00 -4.842993e+00 3.101751e+00 -4.736726e+00 -3.270032e+00 -1.187443e+00 -6.120640e-01 -1.583857e-01 -6.955936e-01 5.728133e-01 8.835346e-03 8.113523e-01 6.119297e+01 -2.025417e-02 6.283233e-03 1.985898e-03 1.073491e-02 1.130375e-02 6.250666e-03 2.843024e-03 4.296099e-03 5.492731e-03 1.350349e-03 -5.779544e-03 4.561869e-03 -5.176621e-03 4.972416e-04 3.313988e-04 6.119609e-04 -1.041165e-04 -6.655871e-04 -8.973702e-04 -1.153540e-05 -1.216902e-04 -5.793989e-04 3.227010e-05 4.440892e-04 -5.240146e-04 6.776569e-05
<VARIANCE> 39
 4.860029e+01 3.295956e+01 4.861390e+01 7.623267e+01 7.336859e+01 6.581902e+01 5.794171e+01 5.137838e+01 4.889258e+01 3.943665e+01 4.840858e+01 3.648350e+01 9.213658e+01 1.926153e+00 1.777060e+00 2.054506e+00 3.264446e+00 3.325832e+00 2.896820e+00 2.996553e+00 3.030883e+00 2.801080e+00 2.639843e+00 2.509808e+00 2.098583e+00 2.169947e+00 2.731512e-01 2.809369e-01 3.101204e-01 5.200660e-01 5.468812e-01 5.027785e-01 5.306063e-01 5.388705e-01 5.010008e-01 4.906334e-01 4.570462e-01 3.896051e-01 3.072567e-01
<GCONST> 1.241172e+02
<STATE> 4
<MEAN> 39
 -7.572343e+00 -4.816838e+00 3.108475e+00 -4.638231e+00 -3.227928e+00 -1.106899e+00 -6.030448e-01 -1.087006e-01 -6.603513e-01 5.772168e-01 2.491099e-02 8.399511e-01 6.110965e+01 -1.720908e-02 6.448749e-03 5.081590e-03 9.767210e-03 7.561008e-03 2.079237e-03 3.021863e-03 3.932141e-03 2.738138e-03 1.792422e-03 -4.284592e-03 2.211424e-03 -4.569593e-03 9.748716e-04 6.233362e-05 5.256672e-04 -4.196633e-04 -9.395225e-04 -1.039952e-03 -2.569375e-04 -4.252923e-04 -4.421513e-04 7.741371e-05 3.044979e-04 -7.508587e-04 3.185910e-04
<VARIANCE> 39
 4.854881e+01 3.280787e+01 4.869027e+01 7.552988e+01 7.330083e+01 6.541711e+01 5.825112e+01 5.141321e+01 4.866369e+01 3.937441e+01 4.832906e+01 3.669179e+01 9.233213e+01 1.910695e+00 1.760592e+00 2.035644e+00 3.202345e+00 3.315984e+00 2.861603e+00 2.975409e+00 3.019404e+00 2.784179e+00 2.626284e+00 2.490518e+00 2.085005e+00 2.162730e+00 2.703543e-01 2.785183e-01 3.076081e-01 5.102800e-01 5.454244e-01 4.965582e-01 5.256231e-01 5.364695e-01 4.971137e-01 4.867437e-01 4.531448e-01 3.866091e-01 3.051951e-01
<GCONST> 1.238883e+02
<TRANSP> 5
 0.000000e+00 1.000000e+00 0.000000e+00 0.000000e+00 0.000000e+00
 0.000000e+00 6.879338e-01 3.120662e-01 0.000000e+00 0.000000e+00
 0.000000e+00 0.000000e+00 6.879359e-01 3.120640e-01 0.000000e+00
 0.000000e+00 0.000000e+00 0.000000e+00 8.057014e-01 1.942987e-01
 0.000000e+00 0.000000e+00 0.000000e+00 0.000000e+00 0.000000e+00
<ENDHMM>
~h "hh"
<BEGINHMM>
<NUMSTATES> 5
<STATE> 2
<MEAN> 39
 -7.383843e+00 -4.914561e+00 3.567852e+00 -4.764002e+00 -3.310807e+00 -9.592277e-01 -9.144105e-01 8.133949e-02 -8.375028e-01 4.651633e-01 6.829500e-04 5.442356e-01 6.146048e+01 -1.160267e-02 -3.606384e-05 1.605844e-03 2.662516e-03 2.783942e-04 -7.466703e-04 3.685338e-03 5.304396e-03 -1.083320e-03 4.598133e-03 -2.651458e-03 1.355476e-03 6.877961e-04 -1.679097e-04 8.664755e-05 1.416786e-04 -3.147351e-04 -3.970395e-04 3.295705e-04 3.553253e-04 -2.629372e-04 -4.582830e-04 -4.184914e-04 7.008523e-05 -1.385419e-06 2.744657e-04
<VARIANCE> 39
 4.594591e+01 3.257459e+01 4.932643e+01 7.348085e+01 8.044179e+01 6.423674e+01 6.064997e+01 5.071040e+01 4.955739e+01 4.091155e+01 4.608674e+01 3.562938e+01 8.772064e+01 2.078674e+00 1.813304e+00 2.279469e+00 3.465748e+00 3.848812e+00 3.093571e+00 3.194165e+00 3.171034e+00 2.958392e+00 2.732457e+00 2.505542e+00 2.190633e+00 2.189085e+00 3.005619e-01 2.985953e-01 3.473628e-01 5.567898e-01 6.208385e-01 5.320176e-01 5.615026e-01 5.713606e-01 5.291631e-01 5.084788e-01 4.562439e-01 4.013342e-01 3.138091e-01
<GCONST> 1.255519e+02
<STATE> 3
<MEAN> 39
 -7.420321e+00 -4.911270e+00 3.572186e+00 -4.755647e+00 -3.311182e+00 -9.610329e-01 -9.022050e-01 9.453251e-02 -8.427228e-01 4.759647e-01 -6.965861e-03 5.487196e-01 6.146290e+01 -1.165284e-02 4.942493e-04 1.489035e-03 2.404614e-03 -5.342639e-04 4.733268e-04 4.314126e-03 4.116993e-03 -2.170781e-03 3.477681e-03 -2.292714e-03 1.140437e-03 8.391647e-04 1.020233e-04 1.878427e-04 -4.941957e-05 -9.625997e-05 -2.481981e-04 3.598701e-04 6.864472e-05 -4.802258e-04 -2.212958e-04 -4.033663e-04 1.523991e-04 -5.501046e-05 -3.689944e-05
<VARIANCE> 39
 4.604776e+01 3.252227e+01 4.909054e+01 7.325454e+01 8.041649e+01 6.410683e+01 6.057798e+01 5.064875e+01 4.955549e+01 4.095090e+01 4.611763e+01 3.563863e+01 8.794093e+01 2.079257e+00 1.810914e+00 2.274698e+00 3.451204e+00 3.839992e+00 3.081227e+00 3.181921e+00 3.163009e+00 2.957129e+00 2.728358e+00 2.497655e+00 2.189842e+00 2.190377e+00 3.004308e-01 2.978105e-01 3.469171e-01 5.546333e-01 6.194140e-01 5.297621e-01 5.592400e-01 5.703287e-01 5.287443e-01 5.080310e-01 4.544743e-01 4.012992e-01 3.142228e-01
<GCONST> 1.254944e+02
<STATE> 4
<MEAN> 39
 -7.464923e+00 -4.879628e+00 3.561665e+00 -4.714268e+00 -3.331497e+00 -9.122730e-01 -8.770280e-01 9.947369e-02 -8.239808e-01 4.675494e-01 -1.368076e-02 5.702403e-01 6.142476e+01 -1.038862e-02 2.227503e-03 2.045202e-04 3.000466e-03 -2.414489e-04 1.868723e-03 4.058386e-03 1.731780e-03 -2.347453e-03 1.533807e-03 -1.731878e-03 8.355510e-04 -4.294299e-04 3.466312e-04 2.939088e-04 -1.734279e-04 1.061825e-04 -5.946845e-05 3.648591e-04 -5.230256e-05 -5.226920e-04 9.019925e-05 -4.903536e-04 9.582902e-05 -8.000518e-05 -3.514608e-04
<VARIANCE> 39
 4.604822e+01 3.240321e+01 4.908714e+01 7.251244e+01 8.086742e+01 6.378107e+01 6.034589e+01 5.068469e+01 4.963282e+01 4.097298e+01 4.624698e+01 3.558683e+01 8.814928e+01 2.058108e+00 1.796030e+00 2.263834e+00 3.400805e+00 3.819925e+00 3.055167e+00 3.145215e+00 3.141698e+00 2.948519e+00 2.712374e+00 2.483029e+00 2.178700e+00 2.177342e+00 2.964087e-01 2.945574e-01 3.448433e-01 5.447212e-01 6.141308e-01 5.246183e-01 5.523319e-01 5.658751e-01 5.264087e-01 5.051240e-01 4.511752e-01 3.989704e-01 3.112742e-01
<GCONST> 1.252681e+02
<TRANSP> 5
 0.000000e+00 1.000000e+00 0.000000e+00 0.000000e+00 0.000000e+00
 0.000000e+00 6.877955e-01 3.122045e-01 0.000000e+00 0.000000e+00
 0.000000e+00 0.000000e+00 6.877946e-01 3.122054e-01 0.000000e+00
 0.000000e+00 0.000000e+00 0.000000e+00 8.057736e-01 1.942264e-01
 0.000000e+00 0.000000e+00 0.000000e+00 0.000000e+00 0.000000e+00
<ENDHMM>
~h "iy"
<BEGINHMM>
<NUMSTATES> 5
<STATE> 2
<MEAN> 39
 -7.742009e+00 -4.299521e+00 4.134673e+00 -4.577128e+00 -4.028320e+00 -1.638480e+00 -1.384109e+00 -3.338027e-01 -1.008202e+00 2.747691e-01 2.668546e-02 5.485561e-01 6.186008e+01 -3.972169e-03 2.502494e-03 2.524759e-03 1.463694e-03 -6.927699e-04 3.817178e-03 1.747467e-03 8.058772e-06 -9.537513e-04 2.527556e-03 2.221005e-04 4.508652e-04 -2.248241e-03 1.428282e-04 4.725079e-05 -2.392527e-05 1.116169e-04 -6.555393e-05 -1.379980e-05 -2.024396e-05 -1.725340e-04 1.935082e-05 1.176159e-04 -7.792753e-05 -1.968475e-04 -3.172065e-05
<VARIANCE> 39
 4.984273e+01 3.335982e+01 5.142644e+01 7.105232e+01 8.174697e+01 6.595178e+01 6.186715e+01 5.402962e+01 5.056045e+01 3.980428e+01 4.547371e+01 3.595978e+01 8.481435e+01 2.337984e+00 1.861754e+00 2.453203e+00 3.653621e+00 3.881270e+00 3.259579e+00 3.311661e+00 3.297121e+00 3.013921e+00 2.686671e+00 2.585545e+00 2.186377e+00 2.412917e+00 3.358877e-01 3.047189e-01 3.784541e-01 5.959647e-01 6.417511e-01 5.705342e-01 5.810443e-01 5.869867e-01 5.383859e-01 4.988489e-01 4.679463e-01 4.023848e-01 3.478796e-01
<GCONST> 1.268587e+02
<STATE> 3
<MEAN> 39
 -7.754009e+00 -4.290917e+00 4.142538e+00 -4.572047e+00 -4.029645e+00 -1.625503e+00 -1.378559e+00 -3.352472e-01 -1.010860e+00 2.826865e-01 2.720697e-02 5.491092e-01 6.185173e+01 -3.539299e-03 2.563718e-03 2.261735e-03 1.786009e-03 -7.477672e-04 3.819049e-03 1.828523e-03 -5.102237e-04 -9.295237e-04 2.828524e-03 1.400249e-04 -7.234304e-05 -2.336388e-03 1.315903e-04 1.721876e-05 -1.291012e-04 9.107377e-05 1.823728e-05 3.036335e-05 5.549886e-05 -1.548529e-04 1.960537e-05 1.032169e-04 -1.203384e-05 -1.327115e-04 -4.182152e-05
<VARIANCE> 39
 4.985735e+01 3.329313e+01 5.136775e+01 7.102267e+01 8.176136e+01 6.592483e+01 6.190486e+01 5.406497e+01 5.053972e+01 3.983489e+01 4.547184e+01 3.590270e+01 8.482848e+01 2.335166e+00 1.861693e+00 2.451590e+00 3.651007e+00 3.884107e+00 3.256515e+00 3.311664e+00 3.295111e+00 3.014944e+00 2.688811e+00 2.584995e+00 2.183333e+00 2.414564e+00 3.354903e-01 3.047827e-01 3.780079e-01 5.957244e-01 6.424635e-01 5.699795e-01 5.811239e-01 5.863785e-01 5.385780e-01 4.992706e-01 4.679653e-01 4.018324e-01 3.481313e-01
<GCONST> 1.268494e+02
<STATE> 4
<MEAN> 39
 -7.760714e+00 -4.264830e+00 4.129056e+00 -4.529022e+00 -4.060353e+00 -1.550368e+00 -1.376178e+00 -3.385793e-01 -1.002618e+00 2.765178e-01 3.763558e-02 5.539254e-01 6.180464e+01 -2.956899e-03 2.738759e-03 1.629483e-03 2.006183e-03 -2.545490e-04 4.283200e-03 2.094882e-03 -1.482979e-03 -8.776126e-04 2.943983e-03 -2.707094e-05 -6.289291e-04 -2.764483e-03 1.234554e-04 2.967492e-05 -1.881417e-04 3.109575e-05 8.766880e-05 9.661094e-05 7.519311e-05 -1.708468e-04 6.399445e-06 9.629025e-05 -3.010890e-05 -1.085042e-04 -4.998045e-05
<VARIANCE> 39
 4.975666e+01 3.310966e+01 5.153143e+01 7.052477e+01 8.228936e+01 6.557003e+01 6.198790e+01 5.417902e+01 5.051856e+01 3.974207e+01 4.548496e+01 3.586398e+01 8.484379e+01 2.309842e+00 1.846472e+00 2.440950e+00 3.605879e+00 3.882372e+00 3.234610e+00 3.297325e+00 3.282715e+00 3.004242e+00 2.680362e+00 2.575173e+00 2.176833e+00 2.407110e+00 3.311628e-01 3.018008e-01 3.753244e-01 5.869245e-01 6.403557e-01 5.654824e-01 5.778005e-01 5.826864e-01 5.357278e-01 4.974966e-01 4.658532e-01 4.002420e-01 3.456718e-01
<GCONST> 1.266788e+02
<TRANSP> 5
 0.000000e+00 1.000000e+00 0.000000e+00 0.000000e+00 0.000000e+00
 0.000000e+00 6.854378e-01 3.145622e-01 0.000000e+00 0.000000e+00
 0.000000e+00 0.000000e+00 6.854308e-01 3.145692e-01 0.000000e+00
 0.000000e+00 0.000000e+00 0.000000e+00 8.028705e-01 1.971296e-01
 0.000000e+00 0.000000e+00 0.000000e+00 0.000000e+00 0.000000e+00
<ENDHMM>
~h "ny"
<BEGINHMM>
<NUMSTATES> 5
<STATE> 2
<MEAN> 39
 -7.415676e+00 -4.473527e+00 3.940462e+00 -4.670012e+00 -3.442835e+00 -8.739644e-01 -1.046346e+00 3.960932e-01 -4.448992e-01 6.971052e-02 5.927011e-01 2.238904e-01 6.144318e+01 1.363266e-02 -8.749161e-03 -9.143639e-03 1.181153e-02 1.703545e-02 1.042452e-02 1.008122e-02 8.125323e-03 1.122721e-02 -3.508347e-03 5.628885e-03 1.445688e-02 -3.060717e-02 -3.018926e-04 3.427279e-04 -9.807679e-04 -4.744299e-04 8.536628e-04 6.281953e-04 2.106095e-04 2.294503e-04 6.862016e-05 -5.451328e-04 1.854411e-04 1.202271e-04 -3.648002e-04
<VARIANCE> 39
 4.791964e+01 3.078618e+01 4.596725e+01 6.722975e+01 7.983686e+01 6.213544e+01 6.301437e+01 4.885579e+01 4.693542e+01 4.183646e+01 3.886245e+01 3.855918e+01 8.921919e+01 2.073584e+00 1.835426e+00 2.327745e+00 3.045519e+00 3.406496e+00 2.945407e+00 3.037342e+00 3.001698e+00 2.725669e+00 2.572402e+00 2.326390e+00 2.180607e+00 1.911955e+00 3.041944e-01 2.848767e-01 3.764370e-01 5.037018e-01 5.677794e-01 5.340280e-01 5.388312e-01 5.403260e-01 4.813091e-01 4.611255e-01 4.369738e-01 3.920758e-01 2.688204e-01
<GCONST> 1.238490e+02
<STATE> 3
<MEAN> 39
 -7.374540e+00 -4.502319e+00 3.908005e+00 -4.633902e+00 -3.387273e+00 -8.417556e-01 -1.008388e+00 4.212856e-01 -4.064787e-01 5.814481e-02 6.090721e-01 2.684206e-01 6.134751e+01 1.209057e-02 -7.945968e-03 -1.179049e-02 1.068423e-02 1.966979e-02 1.282770e-02 1.066731e-02 8.413511e-03 1.206594e-02 -4.917982e-03 6.073364e-03 1.447684e-02 -3.137480e-02 -1.071397e-03 5.879924e-04 -4.374326e-04 -2.842751e-04 8.643281e-04 8.343128e-04 1.252260e-04 4.895430e-05 1.081060e-04 -1.030884e-04 2.247123e-04 1.307376e-04 -2.817432e-04
<VARIANCE> 39
 4.732924e+01 3.056873e+01 4.605895e+01 6.690416e+01 7.932245e+01 6.195630e+01 6.312850e+01 4.902271e+01 4.666935e+01 4.163664e+01 3.909079e+01 3.851584e+01 8.993193e+01 2.040438e+00 1.821045e+00 2.311753e+00 3.007043e+00 3.384166e+00 2.917377e+00 3.010798e+00 2.995071e+00 2.717417e+00 2.549593e+00 2.315461e+00 2.169107e+00 1.901271e+00 2.996040e-01 2.820431e-01 3.722432e-01 4.974627e-01 5.630088e-01 5.288730e-01 5.342967e-01 5.389747e-01 4.792269e-01 4.574138e-01 4.342683e-01 3.902923e-01 2.673366e-01
<GCONST> 1.236198e+02
<STATE> 4
<MEAN> 39
 -7.340458e+00 -4.516766e+00 3.821830e+00 -4.536828e+00 -3.295461e+00 -7.297384e-01 -9.185151e-01 4.410859e-01 -3.250265e-01 3.235900e-02 6.265575e-01 3.470203e-01 6.114315e+01 7.186300e-03 -6.648922e-03 -1.184839e-02 1.020589e-02 2.193466e-02 1.436244e-02 1.237200e-02 7.652355e-03 1.363152e-02 -4.088339e-03 6.014210e-03 1.417965e-02 -3.083920e-02 -1.690499e-03 7.356769e-04 3.391907e-04 6.319971e-05 7.466764e-04 6.469857e-04 1.398343e-04 -2.395278e-04 1.419909e-04 4.954537e-04 2.111813e-04 2.817942e-04 -1.848597e-04
<VARIANCE> 39
 4.607976e+01 3.026033e+01 4.578549e+01 6.589532e+01 7.889088e+01 6.164695e+01 6.291845e+01 4.900943e+01 4.632523e+01 4.092953e+01 3.935903e+01 3.817165e+01 9.126743e+01 1.973723e+00 1.788565e+00 2.272273e+00 2.908079e+00 3.326668e+00 2.836555e+00 2.951773e+00 2.957985e+00 2.686716e+00 2.489901e+00 2.283853e+00 2.136343e+00 1.859333e+00 2.892964e-01 2.749360e-01 3.640327e-01 4.812591e-01 5.510539e-01 5.133942e-01 5.235076e-01 5.311871e-01 4.721623e-01 4.470679e-01 4.272445e-01 3.850707e-01 2.604231e-01
<GCONST> 1.229742e+02
<TRANSP> 5
 0.000000e+00 1.000000e+00 0.000000e+00 0.000000e+00 0.000000e+00
 0.000000e+00 6.875458e-01 3.124543e-01 0.000000e+00 0.000000e+00
 0.000000e+00 0.000000e+00 6.875470e-01 3.124530e-01 0.000000e+00
 0.000000e+00 0.000000e+00 0.000000e+00 8.048930e-01 1.951071e-01
 0.000000e+00 0.000000e+00 0.000000e+00 0.000000e+00 0.000000e+00
<ENDHMM>
~h "ow"
<BEGINHMM>
<NUMSTATES> 5
<STATE> 2
<MEAN> 39
 -7.422168e+00 -4.764851e+00 3.071539e+00 -4.916368e+00 -2.798658e+00 -9.631034e-01 -1.302383e+00 -3.190473e-03 -4.614607e-01 6.489412e-01 3.280968e-01 5.533437e-01 6.131354e+01 -5.012000e-06 -1.045114e-04 -7.784280e-04 -2.047637e-03 3.234323e-04 -2.877582e-03 -2.339508e-03 -1.386265e-03 -4.020402e-04 6.826129e-04 -2.088139e-03 -8.228087e-04 2.905068e-03 1.874423e-04 1.715521e-05 1.038975e-04 1.500158e-05 -2.110547e-04 -6.975881e-05 -1.772448e-04 -1.993596e-04 1.917118e-05 -1.625414e-04 -2.875442e-04 -1.334781e-05 1.407640e-05
<VARIANCE> 39
 5.232845e+01 3.082263e+01 4.711547e+01 7.597279e+01 7.139365e+01 6.381944e+01 6.269978e+01 4.970781e+01 4.868863e+01 3.898864e+01 4.616852e+01 3.640832e+01 8.806380e+01 2.379236e+00 1.799746e+00 2.290098e+00 3.761216e+00 3.485479e+00 3.134064e+00 3.230026e+00 3.147383e+00 2.964366e+00 2.670077e+00 2.578549e+00 2.164800e+00 2.327961e+00 3.404308e-01 2.969978e-01 3.612449e-01 6.046826e-01 5.784924e-01 5.482327e-01 5.655825e-01 5.676363e-01 5.367352e-01 5.001690e-01 4.703848e-01 3.984329e-01 3.341002e-01
<GCONST> 1.259365e+02
<STATE> 3
<MEAN> 39
 -7.421330e+00 -4.765244e+00 3.069488e+00 -4.922121e+00 -2.798159e+00 -9.723200e-01 -1.310794e+00 -7.886931e-03 -4.622424e-01 6.504158e-01 3.203010e-01 5.507450e-01 6.132225e+01 5.892937e-04 -5.813487e-05 -3.822339e-04 -1.988564e-03 -2.358510e-04 -2.966379e-03 -2.833268e-03 -1.956000e-03 -5.051937e-04 1.294155e-04 -2.927431e-03 -8.504788e-04 2.826149e-03 1.995038e-04 -1.646842e-06 1.063586e-04 1.715434e-05 -1.622810e-04 -2.044189e-06 -1.292072e-04 -1.404619e-04 -5.642367e-05 -2.170740e-04 -2.936381e-04 -3.411623e-05 -1.010634e-05
<VARIANCE> 39
 5.232981e+01 3.085025e+01 4.717463e+01 7.607218e+01 7.141209e+01 6.395430e+01 6.271964e+01 4.977264e+01 4.868501e+01 3.903448e+01 4.613504e+01 3.645315e+01 8.807152e+01 2.380545e+00 1.801123e+00 2.290663e+00 3.764991e+00 3.486865e+00 3.136944e+00 3.230798e+00 3.149337e+00 2.965282e+00 2.672168e+00 2.578172e+00 2.165523e+00 2.329544e+00 3.406219e-01 2.972138e-01 3.611856e-01 6.052053e-01 5.785727e-01 5.486705e-01 5.655079e-01 5.679488e-01 5.368094e-01 5.004317e-01 4.702025e-01 3.984103e-01 3.343553e-01
<GCONST> 1.259567e+02
<STATE> 4
<MEAN> 39
 -7.412614e+00 -4.757096e+00 3.045270e+00 -4.903113e+00 -2.814629e+00 -9.355007e-01 -1.325713e+00 -6.730765e-03 -4.462906e-01 6.423990e-01 3.151356e-01 5.583428e-01 6.128833e+01 1.334350e-03 -1.264894e-04 3.315115e-05 -1.655584e-03 -5.611321e-04 -2.626997e-03 -3.202851e-03 -2.287828e-03 -7.604824e-04 -5.182683e-04 -3.654554e-03 -1.146266e-03 2.430280e-03 1.948188e-04 -5.168600e-05 4.290176e-05 4.080513e-05 -5.813635e-05 1.178083e-04 -7.727614e-05 -6.856403e-05 -2.726210e-05 -1.181366e-04 -1.638632e-04 -1.471613e-04 -6.148183e-05
<VARIANCE> 39
 5.218031e+01 3.079900e+01 4.753291e+01 7.590426e+01 7.170770e+01 6.392229e+01 6.290250e+01 4.985251e+01 4.873782e+01 3.895598e+01 4.608202e+01 3.648530e+01 8.810097e+01 2.355808e+00 1.787885e+00 2.284238e+00 3.737633e+00 3.479129e+00 3.125364e+00 3.221427e+00 3.137533e+00 2.955283e+00 2.662616e+00 2.568022e+00 2.161126e+00 2.324706e+00 3.364197e-01 2.944836e-01 3.591015e-01 5.989445e-01 5.757867e-01 5.457711e-01 5.627210e-01 5.650393e-01 5.341066e-01 4.980919e-01 4.678336e-01 3.972808e-01 3.322794e-01
<GCONST> 1.258274e+02
<TRANSP> 5
 0.000000e+00 1.000000e+00 0.000000e+00 0.000000e+00 0.000000e+00
 0.000000e+00 6.857712e-01 3.142288e-01 0.000000e+00 0.000000e+00
 0.000000e+00 0.000000e+00 6.857700e-01 3.142300e-01 0.000000e+00
 0.000000e+00 0.000000e+00 0.000000e+00 8.033026e-01 1.966974e-01
 0.000000e+00 0.000000e+00 0.000000e+00 0.000000e+00 0.000000e+00
<ENDHMM>
~h "rr"
<BEGINHMM>
<NUMSTATES> 5
<STATE> 2
<MEAN> 39
 -7.076849e+00 -5.503953e+00 2.910368e+00 -4.879152e+00 -3.716690e+00 -2.110787e+00 -1.659465e+00 3.857114e-01 -6.513547e-01 3.985122e-01 8.237995e-02 3.013811e-01 6.267798e+01 -4.632157e-03 -4.396053e-03 5.905057e-03 -3.871093e-05 -8.128933e-03 -5.812039e-03 -6.688019e-04 1.171718e-03 -4.891376e-03 -1.705436e-03 2.817544e-03 7.653946e-04 9.264627e-03 -3.003004e-04 4.459712e-05 5.096918e-05 4.263291e-04 -3.041431e-04 4.922505e-04 7.320346e-04 -1.213139e-04 1.374484e-04 -5.074696e-04 -6.647684e-04 6.527003e-05 -1.363998e-04
<VARIANCE> 39
 5.269850e+01 3.484954e+01 4.925943e+01 6.932591e+01 7.593234e+01 6.951879e+01 6.307071e+01 4.947225e+01 4.888354e+01 3.976725e+01 4.929574e+01 3.914719e+01 9.000355e+01 2.434520e+00 1.984745e+00 2.346062e+00 3.498184e+00 3.657916e+00 3.509221e+00 3.251939e+00 3.218806e+00 2.997959e+00 2.746773e+00 2.678554e+00 2.181754e+00 2.375356e+00 3.546836e-01 3.232124e-01 3.736416e-01 5.632577e-01 6.082157e-01 6.095830e-01 5.710177e-01 5.852525e-01 5.385177e-01 5.130693e-01 4.877445e-01 3.975883e-01 3.407220e-01
<GCONST> 1.270871e+02
<STATE> 3
<MEAN> 39
 -7.090073e+00 -5.520661e+00 2.927374e+00 -4.874535e+00 -3.741956e+00 -2.126282e+00 -1.657119e+00 3.890813e-01 -6.639742e-01 3.935469e-01 8.885488e-02 3.030362e-01 6.270444e+01 -4.993858e-03 -4.557391e-03 5.526029e-03 6.549574e-04 -8.650144e-03 -4.368622e-03 1.156461e-03 1.011791e-03 -4.484911e-03 -2.419889e-03 9.829253e-04 4.596435e-04 9.029843e-03 -4.168030e-05 -8.335672e-05 -2.395230e-04 2.215201e-04 -4.082503e-05 3.551228e-04 5.285415e-04 -5.956726e-05 1.329609e-04 -2.882595e-04 -6.047018e-04 -9.482433e-05 -6.448238e-05
<VARIANCE> 39
 5.295012e+01 3.494115e+01 4.936987e+01 6.905402e+01 7.601727e+01 6.943597e+01 6.313950e+01 4.959176e+01 4.890723e+01 3.972196e+01 4.936311e+01 3.925125e+01 8.989962e+01 2.444811e+00 1.985692e+00 2.347514e+00 3.491680e+00 3.661776e+00 3.504118e+00 3.251742e+00 3.226194e+00 3.001047e+00 2.746810e+00 2.683742e+00 2.182195e+00 2.373806e+00 3.559521e-01 3.228377e-01 3.737114e-01 5.634063e-01 6.089984e-01 6.084011e-01 5.706964e-01 5.861188e-01 5.387605e-01 5.127996e-01 4.881456e-01 3.977329e-01 3.405043e-01
<GCONST> 1.271098e+02
<STATE> 4
<MEAN> 39
 -7.106271e+00 -5.544560e+00 2.925073e+00 -4.805376e+00 -3.779949e+00 -2.080469e+00 -1.628353e+00 4.051176e-01 -6.430850e-01 3.910954e-01 1.140510e-01 3.123216e-01 6.265819e+01 -3.637376e-03 -5.144503e-03 4.238960e-03 1.104695e-03 -7.365801e-03 -2.305565e-03 2.472865e-03 5.594852e-04 -2.999981e-03 -1.968618e-03 -1.424405e-03 -8.994313e-04 7.861325e-03 2.664750e-04 -5.736818e-06 -3.655964e-04 -3.759989e-05 2.257401e-04 3.186328e-04 1.948535e-04 -1.241291e-04 2.077976e-04 -1.530887e-04 -6.258863e-04 -2.716813e-04 -9.018202e-05
<VARIANCE> 39
 5.287581e+01 3.493492e+01 4.967852e+01 6.818509e+01 7.653053e+01 6.936753e+01 6.316479e+01 4.959676e+01 4.878350e+01 3.949744e+01 4.938161e+01 3.938492e+01 9.010741e+01 2.424533e+00 1.966698e+00 2.338768e+00 3.433446e+00 3.653030e+00 3.469187e+00 3.233597e+00 3.220120e+00 2.986268e+00 2.733193e+00 2.677832e+00 2.180378e+00 2.363832e+00 3.525370e-01 3.184972e-01 3.711633e-01 5.540442e-01 6.063060e-01 6.013285e-01 5.664565e-01 5.839108e-01 5.354293e-01 5.095314e-01 4.856935e-01 3.971625e-01 3.374190e-01
<GCONST> 1.269281e+02
<TRANSP> 5
 0.000000e+00 1.000000e+00 0.000000e+00 0.000000e+00 0.000000e+00
 0.000000e+00 6.868173e-01 3.131827e-01 0.000000e+00 0.000000e+00
 0.000000e+00 0.000000e+00 6.868159e-01 3.131841e-01 0.000000e+00
 0.000000e+00 0.000000e+00 0.000000e+00 8.044849e-01 1.955151e-01
 0.000000e+00 0.000000e+00 0.000000e+00 0.000000e+00 0.000000e+00
<ENDHMM>
~h "rx"
<BEGINHMM>
<NUMSTATES> 5
<STATE> 2
<MEAN> 39
 -7.080906e+00 -5.184672e+00 3.103287e+00 -4.760617e+00 -3.730199e+00 -1.692479e+00 -1.465943e+00 2.989830e-01 -6.502568e-01 3.501801e-01 3.116083e-02 2.732449e-01 6.222145e+01 1.344924e-03 -6.482975e-04 -3.152231e-04 2.321636e-04 -8.585707e-04 8.853121e-04 -1.854012e-03 3.403553e-04 -3.310825e-03 -8.000729e-04 -2.698883e-03 -2.801300e-03 3.761383e-03 1.990971e-05 1.023533e-05 4.938507e-05 -4.215437e-05 1.594677e-04 1.166659e-04 8.094209e-05 -1.268114e-04 -2.520478e-05 3.961391e-05 -5.417205e-05 5.322830e-05 -1.238145e-04
<VARIANCE> 39
 5.153474e+01 3.549854e+01 4.796920e+01 7.047289e+01 7.761462e+01 6.704733e+01 6.199046e+01 5.068925e+01 4.923728e+01 4.011170e+01 4.704946e+01 3.812937e+01 8.997962e+01 2.409893e+00 2.025245e+00 2.322215e+00 3.693587e+00 3.739898e+00 3.294052e+00 3.314110e+00 3.227011e+00 3.010939e+00 2.754855e+00 2.641351e+00 2.246096e+00 2.618340e+00 3.518149e-01 3.297235e-01 3.695875e-01 6.085813e-01 6.222036e-01 5.735349e-01 5.829691e-01 5.822808e-01 5.453902e-01 5.151985e-01 4.812380e-01 4.115083e-01 3.795996e-01
<GCONST> 1.273642e+02
<STATE> 3
<MEAN> 39
 -7.076479e+00 -5.186305e+00 3.102883e+00 -4.759668e+00 -3.732159e+00 -1.688065e+00 -1.471076e+00 2.985010e-01 -6.607885e-01 3.480986e-01 2.198735e-02 2.642698e-01 6.223215e+01 1.390639e-03 -4.842212e-04 -1.686422e-04 1.929150e-04 -2.919527e-04 1.329156e-03 -1.524290e-03 -1.045938e-04 -3.179580e-03 -5.009492e-04 -2.742954e-03 -2.651853e-03 3.101029e-03 3.088770e-05 6.116296e-05 7.915501e-05 -2.208389e-05 1.586700e-04 1.003274e-04 1.062835e-04 -1.324707e-04 2.055307e-05 1.004506e-04 4.608714e-06 5.089979e-05 -2.197194e-04
<VARIANCE> 39
 5.155650e+01 3.556855e+01 4.802098e+01 7.043889e+01 7.772754e+01 6.707045e+01 6.198022e+01 5.066731e+01 4.924934e+01 4.016129e+01 4.706749e+01 3.811486e+01 9.008905e+01 2.409623e+00 2.028672e+00 2.324046e+00 3.691978e+00 3.737338e+00 3.293317e+00 3.314976e+00 3.228475e+00 3.012940e+00 2.756636e+00 2.641989e+00 2.246159e+00 2.619518e+00 3.515920e-01 3.301693e-01 3.697439e-01 6.084664e-01 6.213889e-01 5.732471e-01 5.829734e-01 5.825462e-01 5.457516e-01 5.154548e-01 4.812735e-01 4.114725e-01 3.797832e-01
<GCONST> 1.273761e+02
<STATE> 4
<MEAN> 39
 -7.069737e+00 -5.180241e+00 3.081699e+00 -4.709349e+00 -3.750786e+00 -1.626060e+00 -1.467425e+00 3.054552e-01 -6.561062e-01 3.391153e-01 1.985259e-02 2.611308e-01 6.218794e+01 1.434876e-03 1.371270e-04 2.529804e-04 5.820882e-04 4.009814e-04 2.215055e-03 -8.122206e-04 -9.562551e-04 -2.676536e-03 9.474810e-05 -2.520537e-03 -2.397467e-03 1.398356e-03 2.717585e-05 1.134663e-04 1.011314e-04 5.977447e-05 1.873795e-04 1.223318e-04 1.358748e-04 -1.478813e-04 8.523829e-05 1.456169e-04 6.510712e-05 3.580206e-05 -3.630367e-04
<VARIANCE> 39
 5.135517e+01 3.549818e+01 4.828891e+01 6.987092e+01 7.820780e+01 6.698109e+01 6.204292e+01 5.053038e+01 4.922851e+01 4.007229e+01 4.705666e+01 3.806998e+01 9.048659e+01 2.379798e+00 2.011043e+00 2.314855e+00 3.644422e+00 3.724565e+00 3.272831e+00 3.298136e+00 3.209579e+00 3.000989e+00 2.742575e+00 2.630769e+00 2.238592e+00 2.608266e+00 3.463731e-01 3.267542e-01 3.674640e-01 5.995623e-01 6.175609e-01 5.686628e-01 5.789580e-01 5.782912e-01 5.427866e-01 5.121287e-01 4.785964e-01 4.097640e-01 3.766317e-01
<GCONST> 1.271867e+02
<TRANSP> 5
 0.000000e+00 1.000000e+00 0.000000e+00 0.000000e+00 0.000000e+00
 0.000000e+00 6.845024e-01 3.154976e-01 0.000000e+00 0.000000e+00
 0.000000e+00 0.000000e+00 6.845064e-01 3.154936e-01 0.000000e+00
 0.000000e+00 0.000000e+00 0.000000e+00 8.018529e-01 1.981471e-01
 0.000000e+00 0.000000e+00 0.000000e+00 0.000000e+00 0.000000e+00
<ENDHMM>
~h "uw"
<BEGINHMM>
<NUMSTATES> 5
<STATE> 2
<MEAN> 39
 -6.927465e+00 -4.600641e+00 3.165600e+00 -5.226963e+00 -3.362257e+00 -1.510847e+00 -1.875982e+00 -2.098924e-01 -9.521632e-01 1.939097e-01 1.585244e-02 3.553349e-01 6.194914e+01 3.271719e-03 7.258654e-04 -7.345620e-04 -3.028988e-03 -1.180098e-03 1.201061e-04 1.089235e-03 -1.363075e-03 -8.516852e-04 -1.696631e-03 -9.038041e-04 -3.822948e-03 2.454538e-03 -4.957636e-04 5.376075e-04 -2.956950e-05 -1.545190e-05 1.542441e-04 -3.612117e-05 4.400703e-06 -7.191206e-05 1.449031e-04 -1.212486e-04 -2.290358e-04 2.789439e-05 6.479617e-05
<VARIANCE> 39
 5.461488e+01 3.359629e+01 4.757370e+01 7.305457e+01 7.412784e+01 6.421614e+01 6.509760e+01 5.384377e+01 5.159285e+01 4.196703e+01 4.719188e+01 3.762621e+01 8.259583e+01 2.479656e+00 1.877166e+00 2.319271e+00 3.708578e+00 3.576068e+00 3.240834e+00 3.457939e+00 3.401404e+00 3.111580e+00 2.784758e+00 2.694816e+00 2.247490e+00 2.300399e+00 3.517108e-01 3.027354e-01 3.652137e-01 6.062323e-01 5.941232e-01 5.689412e-01 6.047846e-01 6.077431e-01 5.584109e-01 5.197523e-01 4.931667e-01 4.157006e-01 3.308025e-01
<GCONST> 1.271887e+02
<STATE> 3
<MEAN> 39
 -6.919612e+00 -4.595299e+00 3.163033e+00 -5.234779e+00 -3.364065e+00 -1.511331e+00 -1.872948e+00 -2.144535e-01 -9.549851e-01 1.883150e-01 1.222113e-02 3.428700e-01 6.195676e+01 1.754984e-03 2.302066e-03 -9.885681e-04 -2.986006e-03 -8.089575e-04 -6.515757e-05 1.152894e-03 -1.642991e-03 -3.992794e-04 -1.798923e-03 -1.473894e-03 -3.487636e-03 2.676515e-03 -4.346135e-04 5.678081e-04 -1.043084e-04 -1.045837e-05 8.705058e-05 -4.576727e-05 -1.077986e-04 -1.491213e-04 9.684807e-05 -7.060627e-05 -2.502095e-04 1.055700e-04 1.279910e-04
<VARIANCE> 39
 5.470869e+01 3.362248e+01 4.749831e+01 7.315430e+01 7.412624e+01 6.417287e+01 6.504626e+01 5.389757e+01 5.148504e+01 4.193348e+01 4.714891e+01 3.770561e+01 8.243806e+01 2.483428e+00 1.880358e+00 2.320332e+00 3.720006e+00 3.576597e+00 3.238286e+00 3.459764e+00 3.406221e+00 3.113393e+00 2.784537e+00 2.701481e+00 2.248797e+00 2.303966e+00 3.518908e-01 3.031766e-01 3.654651e-01 6.078784e-01 5.941527e-01 5.684377e-01 6.047708e-01 6.080483e-01 5.589705e-01 5.195152e-01 4.944052e-01 4.156528e-01 3.311003e-01
<GCONST> 1.272089e+02
<STATE> 4
<MEAN> 39
 -6.911959e+00 -4.562181e+00 3.123620e+00 -5.214808e+00 -3.382993e+00 -1.475208e+00 -1.878467e+00 -2.204779e-01 -9.431795e-01 1.617073e-01 8.097321e-03 3.443712e-01 6.193005e+01 1.683082e-04 4.151417e-03 -1.470668e-03 -2.279525e-03 -1.459923e-04 -3.864159e-04 6.838891e-04 -2.515471e-03 -2.894372e-04 -1.014951e-03 -2.134715e-03 -2.994586e-03 2.705563e-03 -2.834372e-04 4.281042e-04 -1.457830e-04 3.600426e-05 7.339189e-05 1.134530e-05 -2.031768e-04 -2.543562e-04 3.481675e-05 1.433615e-04 -2.475021e-04 1.258890e-04 6.416062e-05
<VARIANCE> 39
 5.483104e+01 3.364774e+01 4.758978e+01 7.285777e+01 7.447075e+01 6.389687e+01 6.504758e+01 5.397015e+01 5.141296e+01 4.187909e+01 4.704592e+01 3.774762e+01 8.212608e+01 2.470085e+00 1.871449e+00 2.318746e+00 3.703587e+00 3.574108e+00 3.221831e+00 3.456084e+00 3.398002e+00 3.106627e+00 2.777336e+00 2.702419e+00 2.242414e+00 2.300852e+00 3.487885e-01 3.010720e-01 3.647349e-01 6.035561e-01 5.923424e-01 5.648202e-01 6.030789e-01 6.048367e-01 5.575109e-01 5.176035e-01 4.942283e-01 4.138726e-01 3.289817e-01
<GCONST> 1.271109e+02
<TRANSP> 5
 0.000000e+00 1.000000e+00 0.000000e+00 0.000000e+00 0.000000e+00
 0.000000e+00 6.853030e-01 3.146971e-01 0.000000e+00 0.000000e+00
 0.000000e+00 0.000000e+00 6.852975e-01 3.147026e-01 0.000000e+00
 0.000000e+00 0.000000e+00 0.000000e+00 8.025568e-01 1.974432e-01
 0.000000e+00 0.000000e+00 0.000000e+00 0.000000e+00 0.000000e+00
<ENDHMM>
~h "sil"
<BEGINHMM>
<NUMSTATES> 5
<STATE> 2
<MEAN> 39
 -1.096609e+01 -4.493281e+00 4.971745e+00 1.352831e+00 2.134542e+00 4.643072e+00 3.977570e+00 1.691690e+00 3.351219e+00 2.393808e+00 3.272192e+00 3.676891e+00 5.095418e+01 -2.208610e-03 -1.013683e-02 -2.559094e-03 -3.973671e-03 9.055920e-03 1.345583e-02 8.442443e-03 7.924259e-03 1.903017e-02 1.448711e-02 1.454169e-02 1.295500e-04 -1.142729e-02 2.780635e-04 1.309859e-03 1.547097e-03 4.646520e-04 -4.204766e-04 2.042988e-03 4.415273e-04 -3.997931e-03 -4.340854e-03 -2.032058e-03 -1.669890e-03 -2.673579e-03 4.516091e-05
<VARIANCE> 39
 3.564882e+00 4.153192e+00 6.565444e+00 7.757393e+00 1.003821e+01 1.068018e+01 1.325612e+01 1.449950e+01 1.557847e+01 1.598440e+01 1.431613e+01 1.181639e+01 7.881271e+00 2.122089e-01 2.887107e-01 4.093345e-01 5.659842e-01 8.103701e-01 9.402328e-01 1.140561e+00 1.241122e+00 1.337456e+00 1.367838e+00 1.184133e+00 1.049017e+00 1.262790e-01 3.603940e-02 4.969052e-02 7.078911e-02 9.949533e-02 1.428263e-01 1.658760e-01 1.997775e-01 2.169994e-01 2.342670e-01 2.397835e-01 2.090248e-01 1.843726e-01 2.009740e-02
<GCONST> 6.731683e+01
