~o
<STREAMINFO> 1 39
<VECSIZE> 39<NULLD><MFCC_D_A_0><DIAGC>
~h "proto"
<BEGINHMM>
<NUMSTATES> 5
<STATE> 2
<MEAN> 39
 -7.610974e+00 -4.806821e+00 3.343433e+00 -4.409355e+00 -3.260480e+00 -1.204260e+00 -1.027794e+00 1.860306e-01 -4.707220e-01 4.288275e-01 2.212801e-01 6.037189e-01 6.124250e+01 -3.317347e-04 3.268084e-04 -4.727385e-04 -1.007591e-04 5.489753e-04 4.647099e-04 -2.713568e-04 -2.864963e-05 -7.021078e-04 8.786040e-04 -6.662181e-05 -5.924962e-04 3.042009e-04 1.543497e-05 2.458398e-05 5.736296e-05 1.143585e-04 -1.902186e-05 -2.473906e-05 -6.246778e-05 -1.556336e-04 -6.903112e-05 -3.499112e-05 6.290520e-06 3.600436e-05 -6.744644e-05
<VARIANCE> 39
 4.913499e+01 3.202064e+01 4.591088e+01 6.980576e+01 7.528609e+01 6.553310e+01 6.031847e+01 4.898231e+01 4.816144e+01 3.927886e+01 4.543280e+01 3.637515e+01 1.044180e+02 2.270620e+00 1.836940e+00 2.205408e+00 3.440077e+00 3.509262e+00 3.124145e+00 3.141846e+00 3.095223e+00 2.873955e+00 2.636806e+00 2.526761e+00 2.136065e+00 2.365251e+00 3.281653e-01 2.993875e-01 3.485734e-01 5.573336e-01 5.800714e-01 5.454795e-01 5.530829e-01 5.583096e-01 5.185136e-01 4.902800e-01 4.588875e-01 3.916909e-01 3.383942e-01
<GCONST> 1.254512e+02
<STATE> 3
<MEAN> 39
 -7.610974e+00 -4.806821e+00 3.343433e+00 -4.409355e+00 -3.260480e+00 -1.204260e+00 -1.027794e+00 1.860306e-01 -4.707220e-01 4.288275e-01 2.212801e-01 6.037189e-01 6.124250e+01 -3.317347e-04 3.268084e-04 -4.727385e-04 -1.007591e-04 5.489753e-04 4.647099e-04 -2.713568e-04 -2.864963e-05 -7.021078e-04 8.786040e-04 -6.662181e-05 -5.924962e-04 3.042009e-04 1.543497e-05 2.458398e-05 5.736296e-05 1.143585e-04 -1.902186e-05 -2.473906e-05 -6.246778e-05 -1.556336e-04 -6.903112e-05 -3.499112e-05 6.290520e-06 3.600436e-05 -6.744644e-05
<VARIANCE> 39
 4.913499e+01 3.202064e+01 4.591088e+01 6.980576e+01 7.528609e+01 6.553310e+01 6.031847e+01 4.898231e+01 4.816144e+01 3.927886e+01 4.543280e+01 3.637515e+01 1.044180e+02 2.270620e+00 1.836940e+00 2.205408e+00 3.440077e+00 3.509262e+00 3.124145e+00 3.141846e+00 3.095223e+00 2.873955e+00 2.636806e+00 2.526761e+00 2.136065e+00 2.365251e+00 3.281653e-01 2.993875e-01 3.485734e-01 5.573336e-01 5.800714e-01 5.454795e-01 5.530829e-01 5.583096e-01 5.185136e-01 4.902800e-01 4.588875e-01 3.916909e-01 3.383942e-01
<GCONST> 1.254512e+02
<STATE> 4
<MEAN> 39
 -7.610974e+00 -4.806821e+00 3.343433e+00 -4.409355e+00 -3.260480e+00 -1.204260e+00 -1.027794e+00 1.860306e-01 -4.707220e-01 4.288275e-01 2.212801e-01 6.037189e-01 6.124250e+01 -3.317347e-04 3.268084e-04 -4.727385e-04 -1.007591e-04 5.489753e-04 4.647099e-04 -2.713568e-04 -2.864963e-05 -7.021078e-04 8.786040e-04 -6.662181e-05 -5.924962e-04 3.042009e-04 1.543497e-05 2.458398e-05 5.736296e-05 1.143585e-04 -1.902186e-05 -2.473906e-05 -6.246778e-05 -1.556336e-04 -6.903112e-05 -3.499112e-05 6.290520e-06 3.600436e-05 -6.744644e-05
<VARIANCE> 39
 4.913499e+01 3.202064e+01 4.591088e+01 6.980576e+01 7.528609e+01 6.553310e+01 6.031847e+01 4.898231e+01 4.816144e+01 3.927886e+01 4.543280e+01 3.637515e+01 1.044180e+02 2.270620e+00 1.836940e+00 2.205408e+00 3.440077e+00 3.509262e+00 3.124145e+00 3.141846e+00 3.095223e+00 2.873955e+00 2.636806e+00 2.526761e+00 2.136065e+00 2.365251e+00 3.281653e-01 2.993875e-01 3.485734e-01 5.573336e-01 5.800714e-01 5.454795e-01 5.530829e-01 5.583096e-01 5.185136e-01 4.902800e-01 4.588875e-01 3.916909e-01 3.383942e-01
<GCONST> 1.254512e+02
<TRANSP> 5
 0.000000e+00 1.000000e+00 0.000000e+00 0.000000e+00 0.000000e+00
 0.000000e+00 6.000000e-01 4.000000e-01 0.000000e+00 0.000000e+00
 0.000000e+00 0.000000e+00 6.000000e-01 4.000000e-01 0.000000e+00
 0.000000e+00 0.000000e+00 0.000000e+00 7.000000e-01 3.000000e-01
 0.000000e+00 0.000000e+00 0.000000e+00 0.000000e+00 0.000000e+00
<ENDHMM>
