~o
<STREAMINFO> 1 39
<VECSIZE> 39<NULLD><MFCC_D_A_0><DIAGC>
~h "b"
<BEGINHMM>
<NUMSTATES> 5
<STATE> 2
<MEAN> 39
 -2.588404e+00 -3.481258e+00 4.313504e+00 -5.324540e+00 -4.472710e+00 -3.492910e+00 -4.703658e+00 -4.071104e+00 -4.782492e+00 -9.676796e-01 -1.360394e+00 -2.467309e+00 6.322805e+01 -1.072300e-02 3.102655e-01 3.673041e-01 1.591370e-01 3.547051e-02 1.031743e-01 7.596707e-02 -2.317652e-01 -8.196057e-02 -5.343949e-02 -3.828554e-02 -5.496819e-03 -3.150534e-01 -3.326679e-02 -9.751076e-02 -3.065236e-02 -1.486370e-01 -8.101785e-02 -3.090359e-02 -1.826930e-03 1.019915e-01 6.500811e-02 -5.362862e-03 -2.594175e-02 1.660221e-02 1.539722e-01
<VARIANCE> 39
 3.839577e+01 3.548924e+01 5.045444e+01 8.691669e+01 5.463029e+01 5.904112e+01 5.690119e+01 6.241119e+01 5.874930e+01 4.238002e+01 4.922332e+01 4.128553e+01 5.031104e+01 9.955741e-01 1.789351e+00 2.178197e+00 4.032245e+00 2.783533e+00 2.486655e+00 2.514773e+00 3.085304e+00 2.795838e+00 2.628117e+00 2.278600e+00 2.205040e+00 2.089205e+00 1.554648e-01 3.030582e-01 3.588609e-01 6.659963e-01 5.058951e-01 4.583904e-01 4.756749e-01 5.554675e-01 5.241789e-01 4.870822e-01 4.338223e-01 4.077182e-01 3.154483e-01
<GCONST> 1.224384e+02
<STATE> 3
<MEAN> 39
 -2.488429e+00 -2.998777e+00 4.958991e+00 -5.359358e+00 -4.624063e+00 -3.426101e+00 -4.741012e+00 -4.528104e+00 -4.965636e+00 -1.122799e+00 -1.609880e+00 -2.625014e+00 6.304100e+01 -6.368373e-02 1.049575e-01 2.940647e-01 -1.031322e-01 -1.136219e-01 5.097920e-02 4.987874e-02 -4.761850e-02 4.217042e-02 -6.788211e-03 -5.187231e-02 3.166489e-02 -3.085839e-02 -3.845936e-02 -1.607968e-01 -6.313638e-02 -1.697912e-01 -1.126004e-01 -5.619892e-02 -1.330739e-02 1.281481e-01 7.084806e-02 3.404471e-02 -1.460260e-02 3.748358e-02 2.101136e-01
<VARIANCE> 39
 3.510741e+01 3.605023e+01 5.510150e+01 9.197858e+01 5.511837e+01 5.741203e+01 5.523058e+01 6.105019e+01 5.579823e+01 4.202401e+01 4.801342e+01 3.972930e+01 5.003411e+01 9.661125e-01 1.867482e+00 2.332165e+00 4.192535e+00 3.006351e+00 2.560984e+00 2.566192e+00 3.161982e+00 2.905948e+00 2.570204e+00 2.287102e+00 2.238575e+00 2.236041e+00 1.501770e-01 3.345723e-01 4.026946e-01 7.256775e-01 5.753826e-01 4.814434e-01 4.889452e-01 5.706133e-01 5.299994e-01 4.960499e-01 4.444332e-01 4.139439e-01 3.865735e-01
<GCONST> 1.234533e+02
<STATE> 4
<MEAN> 39
 -3.006988e+00 -3.005710e+00 5.494392e+00 -5.608835e+00 -4.705738e+00 -2.960014e+00 -4.413796e+00 -4.393843e+00 -4.568113e+00 -1.099179e+00 -1.619573e+00 -2.247143e+00 6.280231e+01 -1.130451e-01 -1.866112e-01 1.212241e-01 -3.367826e-01 -2.810861e-01 -4.508449e-02 2.474240e-02 1.661079e-01 1.588754e-01 9.334543e-02 -4.870944e-02 8.955659e-02 3.129482e-01 -2.289483e-02 -1.759270e-01 -8.976343e-02 -1.553825e-01 -1.251496e-01 -7.612708e-02 -2.104774e-02 1.168443e-01 4.447703e-02 3.884715e-02 -1.421273e-02 3.008407e-02 2.274554e-01
<VARIANCE> 39
 3.417083e+01 3.739030e+01 6.041228e+01 9.704073e+01 5.988262e+01 5.683073e+01 5.455665e+01 6.016886e+01 5.480245e+01 4.069021e+01 4.643789e+01 3.945355e+01 5.456532e+01 9.865659e-01 2.121977e+00 2.821997e+00 4.692528e+00 3.528282e+00 2.836574e+00 2.826272e+00 3.454437e+00 3.114695e+00 2.720943e+00 2.432332e+00 2.340520e+00 2.597324e+00 1.568553e-01 3.823900e-01 4.462799e-01 7.932608e-01 6.513272e-01 5.167099e-01 5.125076e-01 6.028345e-01 5.460274e-01 5.155587e-01 4.600814e-01 4.328397e-01 4.403608e-01
<GCONST> 1.258754e+02
<TRANSP> 5
 0.000000e+00 1.000000e+00 0.000000e+00 0.000000e+00 0.000000e+00
 0.000000e+00 4.547574e-01 5.452426e-01 0.000000e+00 0.000000e+00
 0.000000e+00 0.000000e+00 4.546282e-01 5.453717e-01 0.000000e+00
 0.000000e+00 0.000000e+00 0.000000e+00 5.820558e-01 4.179442e-01
 0.000000e+00 0.000000e+00 0.000000e+00 0.000000e+00 0.000000e+00
<ENDHMM>
~h "d"
<BEGINHMM>
<NUMSTATES> 5
<STATE> 2
<MEAN> 39
 -3.606054e+00 -3.358029e+00 4.321973e+00 -7.370143e+00 -7.630464e+00 -7.465833e+00 -6.100737e+00 -3.369779e+00 -2.923329e+00 -1.472381e+00 -3.652764e+00 -2.206069e+00 6.692599e+01 9.589688e-02 -8.696117e-03 2.645995e-01 -1.844405e-01 -4.121486e-01 -4.606977e-01 -2.792779e-01 -8.058587e-02 -1.264499e-01 -5.392261e-03 -2.097038e-02 -3.103361e-02 3.858565e-01 -4.903247e-02 -8.955320e-02 -2.970495e-02 -8.613394e-02 -4.450070e-02 4.761570e-02 5.434724e-02 6.165433e-02 1.105090e-03 4.145576e-02 4.736151e-02 3.653272e-02 8.053875e-02
<VARIANCE> 39
 2.434525e+01 3.998575e+01 5.814084e+01 9.168877e+01 7.924432e+01 7.400130e+01 6.800308e+01 6.735143e+01 4.926331e+01 5.301503e+01 5.367804e+01 4.259814e+01 5.702169e+01 2.017340e+00 3.107656e+00 3.538728e+00 7.175237e+00 6.589520e+00 5.436215e+00 4.972049e+00 4.846565e+00 3.848072e+00 3.767920e+00 3.653291e+00 3.101728e+00 5.127528e+00 3.154937e-01 4.875403e-01 5.391712e-01 1.128551e+00 1.144281e+00 9.733896e-01 8.814679e-01 8.489511e-01 6.904199e-01 6.739675e-01 6.396628e-01 5.659748e-01 7.787557e-01
<GCONST> 1.378765e+02
<STATE> 3
<MEAN> 39
 -3.585166e+00 -3.794216e+00 4.849762e+00 -8.135436e+00 -8.981102e+00 -8.333322e+00 -6.514542e+00 -3.164071e+00 -3.246621e+00 -1.254486e+00 -3.403702e+00 -2.134651e+00 6.825034e+01 -1.852534e-02 -1.853123e-01 1.469956e-01 -3.205177e-01 -4.368339e-01 -2.006455e-01 -6.023982e-02 5.563371e-02 -9.464689e-02 1.149504e-01 1.042367e-01 6.737594e-02 4.052902e-01 -2.474122e-02 -1.921884e-02 -3.487341e-02 -3.822967e-03 3.184779e-02 1.016581e-01 6.856367e-02 2.019422e-02 7.481121e-03 2.108075e-02 1.838943e-02 1.607458e-02 -3.996644e-02
<VARIANCE> 39
 2.166910e+01 3.862868e+01 6.115152e+01 8.814588e+01 8.147305e+01 7.069566e+01 6.811951e+01 6.891611e+01 5.004581e+01 5.476329e+01 5.367091e+01 4.189389e+01 4.704594e+01 1.669220e+00 3.036218e+00 3.628171e+00 6.994317e+00 6.992036e+00 5.276451e+00 4.929111e+00 4.763700e+00 3.824485e+00 3.828413e+00 3.490892e+00 3.072146e+00 4.804543e+00 2.976843e-01 5.048584e-01 5.487522e-01 1.148753e+00 1.223400e+00 9.520878e-01 8.841283e-01 8.614058e-01 6.943443e-01 6.892956e-01 6.450230e-01 5.745813e-01 7.881666e-01
<GCONST> 1.374004e+02
<STATE> 4
<MEAN> 39
 -3.577133e+00 -4.227871e+00 4.615755e+00 -8.951888e+00 -1.074823e+01 -7.954530e+00 -6.671812e+00 -3.113560e+00 -3.758256e+00 -1.238159e+00 -3.240174e+00 -2.274299e+00 6.921404e+01 -8.558409e-02 -5.712169e-02 3.276882e-02 -5.773140e-02 -7.378858e-02 1.188849e-01 1.412269e-01 7.757208e-02 -1.124126e-02 9.394594e-02 1.206708e-01 8.492927e-02 2.240776e-02 -4.285101e-02 2.673167e-02 -3.410326e-02 7.689885e-02 1.213871e-01 1.004984e-01 6.939220e-02 2.488218e-02 2.820539e-02 -3.542896e-04 1.686890e-02 1.191647e-02 -1.053965e-01
<VARIANCE> 39
 2.188573e+01 3.746157e+01 7.173597e+01 8.406831e+01 8.724253e+01 7.175678e+01 6.706157e+01 7.094961e+01 5.386351e+01 5.925947e+01 5.355353e+01 4.243925e+01 4.000076e+01 1.494709e+00 2.640109e+00 3.340650e+00 5.960676e+00 6.581975e+00 4.587194e+00 4.426755e+00 4.406390e+00 3.641252e+00 3.567578e+00 3.184532e+00 2.785032e+00 3.904011e+00 2.557310e-01 4.369636e-01 5.042028e-01 9.510292e-01 1.103376e+00 8.069695e-01 7.945509e-01 8.111759e-01 6.571003e-01 6.540860e-01 5.927403e-01 5.220612e-01 5.999959e-01
<GCONST> 1.346277e+02
<TRANSP> 5
 0.000000e+00 1.000000e+00 0.000000e+00 0.000000e+00 0.000000e+00
 0.000000e+00 7.386410e-01 2.613590e-01 0.000000e+00 0.000000e+00
 0.000000e+00 0.000000e+00 7.222303e-01 2.777697e-01 0.000000e+00
 0.000000e+00 0.000000e+00 0.000000e+00 8.299715e-01 1.700285e-01
 0.000000e+00 0.000000e+00 0.000000e+00 0.000000e+00 0.000000e+00
<ENDHMM>
~h "f"
<BEGINHMM>
<NUMSTATES> 5
<STATE> 2
<MEAN> 39
 -1.015967e+01 -4.314401e+00 2.620252e+00 -3.693493e+00 -1.761624e+00 -1.044801e+00 -1.235414e+00 4.974258e-01 -9.552440e-01 2.051388e-01 -2.094488e-01 6.234397e-01 6.388541e+01 -6.913747e-01 4.852800e-02 6.291221e-02 3.136277e-01 3.192108e-01 1.665335e-01 2.641330e-01 3.019337e-01 3.262162e-01 1.532128e-01 2.663138e-01 2.822819e-01 -1.852908e-01 1.485451e-01 -7.995327e-02 -4.151835e-03 -2.342993e-01 -2.254476e-01 -1.231347e-01 -7.855794e-02 -6.636376e-02 -8.596724e-02 1.598703e-02 -2.961181e-02 -5.522216e-02 1.704257e-01
<VARIANCE> 39
 7.015250e+01 2.469394e+01 4.014438e+01 6.128868e+01 4.675165e+01 4.295880e+01 3.626714e+01 4.508728e+01 4.177055e+01 3.164595e+01 3.747940e+01 2.826251e+01 3.063152e+01 7.970717e+00 3.083009e+00 3.585119e+00 7.021594e+00 5.363430e+00 4.351924e+00 3.754328e+00 4.784665e+00 4.712087e+00 3.228105e+00 3.563690e+00 2.993500e+00 2.746006e+00 1.146754e+00 5.181953e-01 5.573856e-01 1.019281e+00 7.754686e-01 7.239959e-01 6.623916e-01 8.613330e-01 8.104119e-01 6.132708e-01 6.163348e-01 5.185269e-01 3.245947e-01
<GCONST> 1.328973e+02
<STATE> 3
<MEAN> 39
 -1.129027e+01 -4.601402e+00 2.566012e+00 -3.887272e+00 -1.832737e+00 -1.086502e+00 -9.147158e-01 9.665225e-01 -4.717939e-01 6.838901e-01 3.375128e-01 1.167250e+00 6.408730e+01 3.063999e-01 -1.058589e-01 -3.062788e-02 -5.161249e-01 -4.074026e-01 -2.490484e-01 -1.316838e-01 -1.478496e-01 -1.832945e-01 6.506310e-02 3.118472e-03 -3.056899e-02 2.958846e-01 2.971589e-01 -3.857229e-02 -9.752833e-03 -2.314570e-01 -2.096939e-01 -1.169344e-01 -1.357998e-01 -1.492017e-01 -1.487131e-01 -1.587502e-02 -8.121061e-02 -1.043164e-01 1.469861e-01
<VARIANCE> 39
 6.842081e+01 2.212737e+01 3.937419e+01 6.350115e+01 4.506445e+01 4.253980e+01 3.401696e+01 4.465739e+01 4.012712e+01 2.872192e+01 3.397012e+01 2.436477e+01 2.594548e+01 9.576256e+00 2.773449e+00 3.625077e+00 7.891227e+00 5.556811e+00 4.462533e+00 3.965856e+00 5.206677e+00 5.318946e+00 3.439188e+00 4.008154e+00 3.101593e+00 2.443245e+00 1.156837e+00 5.120625e-01 5.471857e-01 1.130864e+00 8.218923e-01 7.437482e-01 6.724958e-01 8.569304e-01 8.535618e-01 6.603593e-01 6.494144e-01 5.163431e-01 3.237541e-01
<GCONST> 1.330834e+02
<STATE> 4
<MEAN> 39
 -9.119654e+00 -5.050356e+00 1.968778e+00 -6.017873e+00 -3.626340e+00 -2.013788e+00 -1.745990e+00 5.299734e-02 -1.573062e+00 6.653396e-01 9.368102e-02 7.139819e-01 6.529841e+01 1.179766e+00 -1.405550e-01 -4.294487e-02 -1.011809e+00 -8.653666e-01 -4.825895e-01 -4.870943e-01 -5.602626e-01 -5.842659e-01 -2.570330e-02 -2.620240e-01 -3.624609e-01 5.894983e-01 8.802357e-03 -3.242058e-02 2.640189e-02 1.967338e-02 -1.469189e-02 -7.016615e-03 -5.464070e-02 -2.101342e-02 2.032152e-02 3.348888e-02 -2.491117e-02 -4.058941e-02 3.623364e-02
<VARIANCE> 39
 8.395658e+01 2.507786e+01 5.661476e+01 8.266809e+01 5.816291e+01 5.127817e+01 3.920595e+01 5.148479e+01 4.845068e+01 3.127608e+01 3.791548e+01 2.625790e+01 2.700104e+01 8.045813e+00 2.795219e+00 3.824679e+00 7.874345e+00 5.595614e+00 4.516337e+00 4.057535e+00 5.094996e+00 5.264111e+00 3.641828e+00 4.098078e+00 3.015140e+00 2.279783e+00 1.308982e+00 4.981308e-01 5.663403e-01 1.324804e+00 9.333633e-01 7.804561e-01 7.152973e-01 9.014528e-01 9.582879e-01 6.867399e-01 6.850703e-01 5.304021e-01 3.255268e-01
<GCONST> 1.359585e+02
<TRANSP> 5
 0.000000e+00 1.000000e+00 0.000000e+00 0.000000e+00 0.000000e+00
 0.000000e+00 6.512166e-01 3.487833e-01 0.000000e+00 0.000000e+00
 0.000000e+00 0.000000e+00 6.580096e-01 3.419904e-01 0.000000e+00
 0.000000e+00 0.000000e+00 0.000000e+00 7.573443e-01 2.426556e-01
 0.000000e+00 0.000000e+00 0.000000e+00 0.000000e+00 0.000000e+00
<ENDHMM>
~h "g"
<BEGINHMM>
<NUMSTATES> 5
<STATE> 2
<MEAN> 39
 -1.785760e+00 -6.081531e+00 2.005078e+00 -8.152132e+00 -7.493889e+00 -4.555333e+00 -5.041991e+00 -1.402248e+00 -3.656906e+00 2.549276e-01 -1.950153e+00 -2.161806e+00 6.676974e+01 1.733734e-01 1.011160e-01 -5.451613e-02 -7.786107e-02 -8.083321e-02 -1.406745e-02 -9.612919e-02 -7.709642e-02 -1.517575e-01 5.234474e-02 3.109263e-02 -4.967300e-02 -2.877206e-02 -4.874735e-02 3.791520e-04 7.357903e-03 4.877808e-02 1.369852e-02 1.264446e-02 3.090300e-02 2.196223e-02 3.120532e-02 -2.180880e-02 1.846673e-02 2.902902e-03 -1.275620e-02
<VARIANCE> 39
 2.959523e+01 4.601390e+01 5.403749e+01 7.490082e+01 7.600077e+01 7.445409e+01 6.535181e+01 7.451667e+01 5.979067e+01 5.087373e+01 7.079398e+01 4.677414e+01 5.449421e+01 7.169808e-01 1.853824e+00 2.062793e+00 3.522353e+00 3.296942e+00 2.893798e+00 3.020468e+00 3.186454e+00 2.880457e+00 2.926613e+00 2.531224e+00 2.404267e+00 1.888843e+00 1.331562e-01 2.845698e-01 2.956275e-01 5.507330e-01 6.017630e-01 4.996955e-01 5.536968e-01 5.759638e-01 5.207570e-01 5.304987e-01 4.654705e-01 4.282465e-01 2.837461e-01
<GCONST> 1.242245e+02
<STATE> 3
<MEAN> 39
 -1.504021e+00 -5.830290e+00 1.850061e+00 -8.374223e+00 -7.704481e+00 -4.556011e+00 -5.219495e+00 -1.420878e+00 -3.962215e+00 3.306731e-01 -1.785423e+00 -2.280265e+00 6.675731e+01 8.599255e-02 8.350635e-02 -4.565750e-02 2.944377e-02 -3.581423e-02 -1.220820e-02 -3.729760e-02 -1.335050e-02 -5.315683e-02 3.625120e-04 6.124860e-02 -3.318152e-02 -6.427397e-02 -4.448539e-02 -1.824793e-02 3.863680e-03 3.755240e-02 3.316660e-02 -1.782590e-03 2.523297e-02 4.024796e-02 4.118792e-02 -2.594275e-02 1.612708e-02 8.061055e-03 -1.614191e-03
<VARIANCE> 39
 2.816703e+01 4.642418e+01 5.238787e+01 7.662093e+01 7.206126e+01 7.419963e+01 6.428273e+01 7.637621e+01 6.089307e+01 5.014245e+01 7.251765e+01 4.977582e+01 5.313734e+01 6.404059e-01 1.768024e+00 1.946826e+00 3.336402e+00 3.162283e+00 2.789275e+00 2.881304e+00 3.187988e+00 2.941104e+00 2.927570e+00 2.491875e+00 2.361451e+00 1.731836e+00 1.136833e-01 2.827837e-01 2.894907e-01 5.272830e-01 5.648900e-01 4.781002e-01 5.375368e-01 5.855796e-01 5.356779e-01 5.258877e-01 4.533416e-01 4.335853e-01 2.808267e-01
<GCONST> 1.233409e+02
<STATE> 4
<MEAN> 39
 -1.653596e+00 -5.867625e+00 1.444692e+00 -8.225479e+00 -7.297972e+00 -3.705526e+00 -5.249158e+00 -3.324707e-01 -3.368415e+00 2.230480e-01 -8.517477e-01 -2.250707e+00 6.589323e+01 -6.310815e-03 4.298444e-02 -2.702979e-02 1.222756e-01 7.124732e-02 -2.827432e-03 2.544052e-02 3.186582e-02 4.472479e-02 -4.387162e-02 9.099169e-02 1.438245e-02 -1.070178e-01 -3.682438e-02 -2.368809e-02 9.800272e-03 2.505918e-02 5.052001e-02 -5.215303e-03 1.574267e-02 2.702197e-02 2.599669e-02 -1.576045e-02 1.501867e-04 1.767126e-02 4.789969e-03
<VARIANCE> 39
 2.908130e+01 4.374604e+01 4.982251e+01 7.823891e+01 7.077725e+01 7.563219e+01 6.468050e+01 7.781499e+01 6.284828e+01 4.870776e+01 7.220131e+01 5.365181e+01 5.963088e+01 6.476403e-01 1.677575e+00 1.848300e+00 3.094606e+00 3.024651e+00 2.608042e+00 2.875132e+00 3.211350e+00 2.993877e+00 2.759844e+00 2.502585e+00 2.285894e+00 1.634600e+00 1.089884e-01 2.700508e-01 2.838035e-01 4.904969e-01 5.263894e-01 4.476145e-01 5.236748e-01 5.797338e-01 5.402890e-01 4.992971e-01 4.416081e-01 4.235069e-01 2.803536e-01
<GCONST> 1.226486e+02
<TRANSP> 5
 0.000000e+00 1.000000e+00 0.000000e+00 0.000000e+00 0.000000e+00
 0.000000e+00 5.249439e-01 4.750561e-01 0.000000e+00 0.000000e+00
 0.000000e+00 0.000000e+00 5.293320e-01 4.706680e-01 0.000000e+00
 0.000000e+00 0.000000e+00 0.000000e+00 6.933767e-01 3.066233e-01
 0.000000e+00 0.000000e+00 0.000000e+00 0.000000e+00 0.000000e+00
<ENDHMM>
~h "k"
<BEGINHMM>
<NUMSTATES> 5
<STATE> 2
<MEAN> 39
 -6.849235e+00 -4.760435e+00 3.155187e+00 -4.828957e+00 -3.274863e+00 -2.578732e+00 -1.105005e+00 1.697899e-01 -1.558685e+00 1.623300e+00 -1.609287e-01 6.621375e-01 6.156062e+01 -2.141430e-01 -6.502215e-02 -2.802815e-01 1.464843e-01 5.275024e-01 2.996050e-01 2.880896e-01 1.869628e-01 2.209004e-01 3.436818e-01 2.283432e-01 2.931899e-01 -4.365313e-01 2.458902e-02 -7.847498e-02 -1.231343e-01 -1.886004e-01 -1.050964e-01 -3.700291e-02 -5.714812e-02 1.066427e-03 -3.093677e-02 -3.689320e-02 -2.686820e-02 -3.047294e-02 2.510136e-01
<VARIANCE> 39
 3.591619e+01 3.149773e+01 5.934892e+01 8.323254e+01 7.654578e+01 7.106970e+01 5.590985e+01 5.549657e+01 5.798696e+01 4.583740e+01 5.132904e+01 3.649848e+01 7.402823e+01 3.116887e+00 3.749112e+00 5.074248e+00 8.655050e+00 6.962441e+00 6.191682e+00 5.133586e+00 4.903129e+00 6.018434e+00 4.102225e+00 4.462282e+00 3.338197e+00 8.671312e+00 5.115961e-01 6.656246e-01 8.542582e-01 1.337462e+00 1.155361e+00 1.083253e+00 9.167093e-01 9.288973e-01 1.122046e+00 8.041250e-01 8.145587e-01 6.247045e-01 1.144325e+00
<GCONST> 1.433539e+02
<STATE> 3
<MEAN> 39
 -7.247918e+00 -5.331859e+00 1.756005e+00 -5.365207e+00 -2.431231e+00 -2.029610e+00 -6.763926e-01 6.157963e-01 -1.241929e+00 2.355899e+00 3.276083e-01 1.314408e+00 6.168462e+01 1.135838e-01 -1.699849e-01 -4.914344e-01 -4.955687e-01 -5.596101e-02 -2.375689e-02 -6.505565e-02 4.429983e-02 -1.337384e-01 8.063704e-02 -4.655622e-03 1.807916e-02 4.505985e-01 1.478092e-01 7.725283e-05 7.231983e-03 -1.775740e-01 -2.267307e-01 -1.215519e-01 -1.182348e-01 -6.969155e-02 -1.200326e-01 -1.245657e-01 -8.951674e-02 -1.342139e-01 2.566492e-01
<VARIANCE> 39
 3.590471e+01 3.075830e+01 6.401676e+01 8.301678e+01 7.621961e+01 6.652116e+01 5.259255e+01 5.440940e+01 5.489415e+01 4.551655e+01 4.749932e+01 3.577457e+01 6.800730e+01 3.948272e+00 3.664541e+00 5.544226e+00 8.815342e+00 7.910384e+00 6.718976e+00 5.417281e+00 5.358478e+00 6.613996e+00 4.445886e+00 4.801496e+00 3.909077e+00 8.303308e+00 5.981575e-01 7.143000e-01 9.851277e-01 1.357129e+00 1.289480e+00 1.135156e+00 9.428119e-01 9.913014e-01 1.161600e+00 8.448242e-01 8.515319e-01 7.024085e-01 1.137502e+00
<GCONST> 1.449158e+02
<STATE> 4
<MEAN> 39
 -6.146349e+00 -5.680041e+00 3.481944e-01 -7.381937e+00 -3.662965e+00 -2.591883e+00 -1.488540e+00 3.908326e-01 -2.232663e+00 1.999886e+00 -1.658084e-01 6.835297e-01 6.394851e+01 5.154427e-01 -8.566286e-02 -2.440329e-01 -7.335514e-01 -6.146429e-01 -3.195437e-01 -3.141282e-01 -1.609498e-01 -4.019252e-01 -2.938092e-01 -2.715411e-01 -4.037766e-01 8.900675e-01 2.768278e-02 9.246931e-03 9.490919e-02 5.250363e-02 -4.768516e-02 1.392158e-03 -1.144959e-02 -3.701200e-02 1.575405e-02 -8.243068e-02 -1.800320e-02 -7.112303e-02 -1.456188e-03
<VARIANCE> 39
 4.315065e+01 3.297834e+01 6.953358e+01 9.100909e+01 8.354216e+01 6.857893e+01 5.722857e+01 5.916610e+01 5.834265e+01 4.757014e+01 5.020142e+01 3.949900e+01 6.791133e+01 4.138328e+00 3.372689e+00 5.063218e+00 7.792256e+00 7.906322e+00 6.116214e+00 5.228436e+00 5.276299e+00 5.988566e+00 4.443096e+00 4.553051e+00 4.130421e+00 6.241915e+00 6.202304e-01 6.451973e-01 9.108300e-01 1.243387e+00 1.374736e+00 1.086328e+00 9.157209e-01 9.738956e-01 1.077259e+00 8.167746e-01 8.043650e-01 7.239304e-01 9.257389e-01
<GCONST> 1.445133e+02
<TRANSP> 5
 0.000000e+00 1.000000e+00 0.000000e+00 0.000000e+00 0.000000e+00
 0.000000e+00 6.775979e-01 3.224021e-01 0.000000e+00 0.000000e+00
 0.000000e+00 0.000000e+00 6.793904e-01 3.206096e-01 0.000000e+00
 0.000000e+00 0.000000e+00 0.000000e+00 7.538211e-01 2.461789e-01
 0.000000e+00 0.000000e+00 0.000000e+00 0.000000e+00 0.000000e+00
<ENDHMM>
~h "l"
<BEGINHMM>
<NUMSTATES> 5
<STATE> 2
<MEAN> 39
 -6.403240e+00 -5.413409e+00 4.679760e+00 -4.908747e+00 -4.521040e+00 -2.658062e+00 -3.969340e+00 -3.211243e-01 2.814912e-01 -8.006671e-02 -4.945253e-01 4.679460e-01 6.268885e+01 -2.160407e-01 1.293419e-01 1.596228e-01 1.380657e-01 2.117387e-01 2.198272e-01 3.806799e-02 -3.745780e-02 1.148415e-01 6.217347e-02 9.929534e-02 1.618756e-01 -3.133211e-01 4.654270e-02 -5.573647e-02 -7.566997e-02 -8.188489e-02 -5.606982e-02 -3.722953e-02 3.001709e-02 2.883569e-02 -6.718602e-02 -1.374940e-02 -1.874344e-02 -4.686964e-02 1.027194e-01
<VARIANCE> 39
 3.923851e+01 2.889150e+01 4.003281e+01 6.026036e+01 6.884748e+01 6.491602e+01 8.408574e+01 5.510511e+01 4.353341e+01 4.131190e+01 4.848822e+01 3.857028e+01 7.468825e+01 1.116305e+00 1.776156e+00 2.176335e+00 2.504141e+00 2.620731e+00 2.922683e+00 3.962372e+00 3.539728e+00 2.732194e+00 2.566476e+00 2.359258e+00 2.127286e+00 1.595716e+00 1.881389e-01 3.204253e-01 3.708085e-01 4.694865e-01 4.870788e-01 5.482810e-01 7.440311e-01 6.617585e-01 5.092496e-01 4.896705e-01 4.577796e-01 4.031481e-01 2.531641e-01
<GCONST> 1.227337e+02
<STATE> 3
<MEAN> 39
 -6.876078e+00 -5.411383e+00 4.875648e+00 -4.683865e+00 -4.090161e+00 -2.192232e+00 -3.622784e+00 -2.005201e-01 3.988788e-01 4.673535e-02 -1.561540e-01 7.699913e-01 6.210219e+01 -8.248518e-02 3.284432e-02 3.129732e-02 2.731068e-02 9.200323e-02 1.273517e-01 8.133374e-02 1.590461e-03 -4.063514e-04 3.402943e-02 5.399288e-02 4.903623e-02 -1.414648e-01 5.945447e-02 -5.830509e-02 -8.654363e-02 -6.553893e-02 -5.584010e-02 -5.582023e-02 4.298894e-02 4.490933e-02 -6.595869e-02 -1.189116e-02 -2.788355e-02 -5.784554e-02 1.122930e-01
<VARIANCE> 39
 3.943061e+01 2.769945e+01 3.839602e+01 5.845092e+01 6.598877e+01 6.310550e+01 8.507143e+01 5.480964e+01 4.249372e+01 4.038861e+01 4.883178e+01 3.812262e+01 7.505947e+01 9.966053e-01 1.567484e+00 1.962337e+00 2.279119e+00 2.423927e+00 2.723207e+00 3.651817e+00 3.265865e+00 2.518014e+00 2.388609e+00 2.230310e+00 2.046142e+00 1.424636e+00 1.653689e-01 2.975766e-01 3.492804e-01 4.333608e-01 4.500313e-01 5.150734e-01 7.254767e-01 6.288502e-01 4.844679e-01 4.680605e-01 4.429384e-01 3.888027e-01 2.504188e-01
<GCONST> 1.206686e+02
<STATE> 4
<MEAN> 39
 -9.043786e+00 -5.967868e+00 4.914550e+00 -2.877745e+00 -1.664959e+00 2.670339e-01 -6.036226e-01 1.398373e+00 1.451834e+00 7.120339e-01 1.690868e+00 2.273302e+00 5.850707e+01 5.138289e-02 3.385273e-02 -5.764090e-02 1.969179e-03 -5.986514e-03 2.900952e-02 5.500488e-02 -3.265810e-02 -5.126415e-02 6.357470e-03 -5.683199e-02 -6.048649e-02 -9.863187e-03 4.322279e-02 -1.690001e-02 -4.578870e-02 -5.735689e-02 -4.707965e-02 -6.416802e-02 -9.206361e-03 8.706318e-03 -4.878353e-02 -1.584379e-02 -3.797725e-02 -4.215539e-02 1.067850e-01
<VARIANCE> 39
 3.130278e+01 2.269388e+01 2.667991e+01 4.340086e+01 5.049787e+01 5.159550e+01 6.567974e+01 4.421846e+01 3.540507e+01 3.242840e+01 4.094502e+01 3.155712e+01 6.457515e+01 7.988111e-01 1.208863e+00 1.481534e+00 1.828188e+00 1.988488e+00 2.269880e+00 2.866011e+00 2.559978e+00 2.153458e+00 2.091283e+00 1.942082e+00 1.745734e+00 1.167132e+00 1.394015e-01 2.244553e-01 2.599721e-01 3.420303e-01 3.744113e-01 4.217854e-01 5.328299e-01 4.864133e-01 4.157216e-01 4.057309e-01 3.732021e-01 3.371395e-01 2.123125e-01
<GCONST> 1.123734e+02
<TRANSP> 5
 0.000000e+00 1.000000e+00 0.000000e+00 0.000000e+00 0.000000e+00
 0.000000e+00 4.488734e-01 5.511266e-01 0.000000e+00 0.000000e+00
 0.000000e+00 0.000000e+00 4.562725e-01 5.437276e-01 0.000000e+00
 0.000000e+00 0.000000e+00 0.000000e+00 7.246342e-01 2.753658e-01
 0.000000e+00 0.000000e+00 0.000000e+00 0.000000e+00 0.000000e+00
<ENDHMM>
~h "m"
<BEGINHMM>
<NUMSTATES> 5
<STATE> 2
<MEAN> 39
 -4.333234e-01 -4.039602e+00 2.403299e+00 -5.339798e+00 -5.232754e+00 -4.225280e+00 -5.755237e+00 -6.201424e+00 -7.290168e+00 -1.855162e+00 -1.925712e+00 -4.148338e+00 6.553870e+01 9.372588e-02 4.002472e-01 3.329415e-01 6.833182e-01 2.369403e-01 -1.976616e-02 -1.034874e-01 -7.109063e-01 -6.279550e-01 -3.889515e-02 9.403050e-02 -2.281192e-01 -3.706586e-01 -9.684273e-02 -1.530054e-01 -4.952223e-02 -2.714136e-01 -1.131981e-01 2.730951e-02 6.281631e-02 2.560379e-01 1.608143e-01 -1.839243e-02 -4.247515e-02 7.060801e-02 1.860887e-01
<VARIANCE> 39
 2.292690e+01 2.928805e+01 4.254603e+01 7.138017e+01 5.694782e+01 6.180715e+01 6.047092e+01 7.355232e+01 5.887746e+01 5.075002e+01 4.619355e+01 3.913860e+01 3.210032e+01 1.122572e+00 2.221226e+00 3.080796e+00 5.477446e+00 3.302421e+00 3.332846e+00 3.781358e+00 5.353434e+00 4.432918e+00 3.679666e+00 2.733916e+00 2.658646e+00 1.977515e+00 1.761257e-01 3.456434e-01 5.024269e-01 8.705882e-01 5.410005e-01 5.562133e-01 6.591678e-01 9.395339e-01 8.041310e-01 6.593167e-01 5.041316e-01 5.010316e-01 2.645549e-01
<GCONST> 1.276997e+02
<STATE> 3
<MEAN> 39
 -3.858848e-01 -3.729595e+00 2.812959e+00 -4.868435e+00 -5.093436e+00 -4.204112e+00 -5.836402e+00 -6.874780e+00 -8.114660e+00 -2.066945e+00 -1.917553e+00 -4.536121e+00 6.541428e+01 -5.445571e-02 -1.934132e-02 5.864991e-02 -1.647190e-01 -3.965213e-02 8.133700e-02 4.824804e-02 9.854820e-02 -2.521066e-02 -8.323001e-02 -1.514265e-02 -5.818610e-02 7.257369e-02 -7.752917e-02 -1.799548e-01 -1.090290e-01 -3.585557e-01 -1.161078e-01 5.689992e-02 7.550913e-02 3.398950e-01 2.659548e-01 -1.455675e-02 -4.385323e-02 1.027948e-01 1.819930e-01
<VARIANCE> 39
 1.977789e+01 2.696563e+01 4.041846e+01 7.106959e+01 5.607413e+01 6.303778e+01 6.109010e+01 7.559288e+01 5.911870e+01 5.288227e+01 4.581329e+01 3.983356e+01 2.873391e+01 9.962183e-01 2.111035e+00 3.065422e+00 5.780866e+00 3.131580e+00 3.280427e+00 3.619277e+00 5.551099e+00 4.621916e+00 3.557431e+00 2.639582e+00 2.662239e+00 1.954358e+00 1.564048e-01 3.283270e-01 5.078902e-01 8.729718e-01 5.316072e-01 5.642211e-01 6.667723e-01 9.616628e-01 8.222150e-01 6.966501e-01 5.126666e-01 5.181065e-01 2.473931e-01
<GCONST> 1.270993e+02
<STATE> 4
<MEAN> 39
 -6.301188e-01 -4.265999e+00 2.276812e+00 -6.524054e+00 -5.566283e+00 -3.542915e+00 -5.575344e+00 -5.492297e+00 -7.403396e+00 -2.502333e+00 -2.045422e+00 -4.539039e+00 6.606264e+01 -2.162312e-01 -3.460473e-01 -1.697039e-01 -8.013715e-01 -1.894846e-01 2.081527e-01 1.707581e-01 7.434962e-01 5.427580e-01 -7.335456e-02 -7.914440e-02 1.616139e-01 3.568738e-01 -8.151086e-02 -6.952808e-02 -8.416921e-03 -1.031420e-01 -3.598386e-02 3.225876e-02 3.898681e-02 1.196575e-01 1.214216e-01 9.423366e-03 -1.727520e-02 9.259655e-02 6.477878e-02
<VARIANCE> 39
 2.017406e+01 3.113904e+01 5.276170e+01 8.085680e+01 6.302522e+01 6.486553e+01 6.057574e+01 7.573956e+01 6.099106e+01 5.344687e+01 4.545007e+01 3.990588e+01 3.445385e+01 1.001643e+00 2.180559e+00 3.408616e+00 5.527149e+00 3.535132e+00 3.398121e+00 3.785395e+00 5.384079e+00 4.602881e+00 3.833402e+00 2.844433e+00 2.806751e+00 1.962346e+00 1.511659e-01 3.444750e-01 5.231090e-01 9.373920e-01 5.663077e-01 5.808466e-01 6.544744e-01 9.443264e-01 8.047776e-01 6.629865e-01 5.123489e-01 5.058671e-01 2.489517e-01
<GCONST> 1.285677e+02
<TRANSP> 5
 0.000000e+00 1.000000e+00 0.000000e+00 0.000000e+00 0.000000e+00
 0.000000e+00 5.272862e-01 4.727138e-01 0.000000e+00 0.000000e+00
 0.000000e+00 0.000000e+00 5.365144e-01 4.634856e-01 0.000000e+00
 0.000000e+00 0.000000e+00 0.000000e+00 6.445008e-01 3.554992e-01
 0.000000e+00 0.000000e+00 0.000000e+00 0.000000e+00 0.000000e+00
<ENDHMM>
~h "n"
<BEGINHMM>
<NUMSTATES> 5
<STATE> 2
<MEAN> 39
 -1.640861e+00 -3.412417e+00 3.734236e+00 -7.262665e+00 -8.646193e+00 -5.936740e+00 -4.418078e+00 -3.158013e+00 -5.851892e+00 -1.910211e+00 -4.347104e+00 -2.971111e+00 6.643759e+01 1.711639e-01 5.182957e-01 3.003435e-01 6.141797e-01 5.308995e-02 -2.474263e-01 -3.694044e-02 -3.827225e-01 -2.531997e-01 -8.011225e-02 -3.150398e-01 -6.596021e-02 -4.465321e-01 -1.096529e-01 -6.717326e-02 -2.290978e-02 -6.806692e-02 7.157395e-02 1.074133e-01 1.007113e-02 8.665159e-02 8.720060e-02 1.711582e-03 8.934786e-02 4.426127e-02 3.302423e-02
<VARIANCE> 39
 2.275661e+01 3.492570e+01 4.943818e+01 7.951721e+01 7.528236e+01 6.692314e+01 5.714192e+01 6.998743e+01 5.361728e+01 5.542867e+01 5.765171e+01 4.536560e+01 4.049314e+01 1.434951e+00 2.428226e+00 2.870042e+00 4.485589e+00 3.940100e+00 3.979990e+00 3.725477e+00 4.398254e+00 3.604860e+00 3.461444e+00 3.269978e+00 2.670275e+00 2.322339e+00 2.213803e-01 3.858891e-01 4.400763e-01 7.245613e-01 6.390191e-01 6.881353e-01 6.398767e-01 7.880747e-01 6.456298e-01 6.205037e-01 5.820794e-01 4.801171e-01 3.062284e-01
<GCONST> 1.294214e+02
<STATE> 3
<MEAN> 39
 -1.484931e+00 -2.579729e+00 4.241096e+00 -6.270370e+00 -8.406265e+00 -6.183467e+00 -4.557850e+00 -3.747489e+00 -6.215817e+00 -2.138953e+00 -4.771479e+00 -3.009960e+00 6.572952e+01 -1.471584e-01 2.298927e-01 1.524045e-01 3.254926e-01 2.899395e-01 1.350846e-01 2.655013e-03 -1.709980e-02 3.570148e-02 -7.281759e-02 1.423986e-02 3.514420e-02 -3.127366e-01 -1.610287e-01 -1.449605e-01 -8.036767e-02 -1.345861e-01 1.080994e-01 1.723450e-01 3.693577e-02 1.738378e-01 1.473429e-01 2.363834e-02 1.569116e-01 5.811628e-02 6.178355e-02
<VARIANCE> 39
 2.094844e+01 3.471346e+01 4.461327e+01 7.473408e+01 6.986983e+01 6.480272e+01 5.462350e+01 6.933430e+01 5.215551e+01 5.557803e+01 5.636528e+01 4.547500e+01 3.687826e+01 1.604494e+00 2.637337e+00 2.785428e+00 4.518649e+00 3.952280e+00 4.076877e+00 3.676824e+00 4.573295e+00 3.683039e+00 3.421441e+00 3.321970e+00 2.646919e+00 2.312239e+00 2.304408e-01 4.046113e-01 4.348463e-01 6.966922e-01 6.354203e-01 6.781766e-01 6.416758e-01 7.944568e-01 6.547692e-01 6.347725e-01 5.771668e-01 4.895546e-01 2.829572e-01
<GCONST> 1.291008e+02
<STATE> 4
<MEAN> 39
 -2.130376e+00 -2.398222e+00 4.256884e+00 -5.903011e+00 -7.547646e+00 -5.116270e+00 -4.539677e+00 -3.311660e+00 -5.847968e+00 -2.450602e+00 -4.310621e+00 -2.830313e+00 6.506294e+01 -5.047178e-01 -1.148670e-01 -5.688939e-02 7.308502e-02 5.698820e-01 5.124466e-01 1.410866e-01 3.792440e-01 3.981127e-01 5.881620e-02 3.902091e-01 1.615169e-01 -2.434212e-01 -1.300222e-01 -1.217469e-01 -8.785111e-02 -8.495470e-02 5.977457e-02 9.088423e-02 6.055672e-02 1.109203e-01 1.247707e-01 6.852426e-02 1.173855e-01 6.967885e-02 4.665003e-02
<VARIANCE> 39
 2.391218e+01 3.800813e+01 4.488753e+01 7.426228e+01 7.181532e+01 6.337067e+01 5.573341e+01 6.796874e+01 5.174318e+01 5.437378e+01 5.458666e+01 4.374584e+01 4.467122e+01 1.767004e+00 2.541202e+00 2.636298e+00 4.207016e+00 3.882277e+00 3.793870e+00 3.604131e+00 4.202983e+00 3.668776e+00 3.425590e+00 3.228900e+00 2.664137e+00 2.183558e+00 2.454022e-01 4.045906e-01 4.115030e-01 6.381401e-01 6.235071e-01 6.358867e-01 6.157781e-01 7.481072e-01 6.330919e-01 6.027907e-01 5.560505e-01 4.722585e-01 2.795832e-01
<GCONST> 1.286414e+02
<TRANSP> 5
 0.000000e+00 1.000000e+00 0.000000e+00 0.000000e+00 0.000000e+00
 0.000000e+00 5.410646e-01 4.589355e-01 0.000000e+00 0.000000e+00
 0.000000e+00 0.000000e+00 5.433063e-01 4.566937e-01 0.000000e+00
 0.000000e+00 0.000000e+00 0.000000e+00 6.403721e-01 3.596279e-01
 0.000000e+00 0.000000e+00 0.000000e+00 0.000000e+00 0.000000e+00
<ENDHMM>
~h "p"
<BEGINHMM>
<NUMSTATES> 5
<STATE> 2
<MEAN> 39
 -7.101030e+00 -3.786054e+00 3.499662e+00 -2.480588e+00 -6.938961e-01 5.629231e-01 -1.659381e-02 1.520098e-01 1.021929e+00 1.155105e+00 7.528437e-01 5.348122e-01 5.760871e+01 -2.286596e-01 -1.375266e-02 5.941489e-02 2.358401e-01 2.232298e-01 1.487319e-01 2.494538e-01 2.487502e-01 4.082514e-01 1.961671e-01 2.142124e-01 2.384142e-01 -4.210825e-01 1.369103e-01 -1.319325e-01 -1.522033e-01 -3.421562e-01 -2.567987e-01 -2.223251e-01 -1.827529e-01 -3.931800e-02 -1.621152e-01 -7.398853e-02 -1.094115e-01 -9.436321e-02 5.145838e-01
<VARIANCE> 39
 3.785378e+01 2.266803e+01 3.122339e+01 5.754485e+01 3.774624e+01 4.207923e+01 4.125175e+01 3.294667e+01 3.569703e+01 3.105070e+01 3.524004e+01 2.930643e+01 6.243334e+01 3.457033e+00 2.673169e+00 3.280597e+00 7.166694e+00 4.108657e+00 4.325380e+00 4.315834e+00 3.514479e+00 4.024837e+00 3.226319e+00 3.352119e+00 2.788368e+00 8.123816e+00 6.166646e-01 4.597378e-01 5.535326e-01 1.146474e+00 6.823382e-01 7.553933e-01 7.663138e-01 6.762440e-01 7.400799e-01 6.425914e-01 6.298402e-01 5.355246e-01 9.555500e-01
<GCONST> 1.315561e+02
<STATE> 3
<MEAN> 39
 -7.202925e+00 -4.290101e+00 2.998344e+00 -3.287278e+00 -1.082095e+00 2.315542e-01 -1.145076e-01 5.223969e-01 1.400639e+00 1.374139e+00 9.356846e-01 8.189599e-01 5.847338e+01 4.004146e-01 -3.815174e-01 -3.993595e-01 -8.398860e-01 -5.367317e-01 -4.473734e-01 -3.767987e-01 -9.307227e-03 -1.702185e-01 -3.814031e-02 -1.461946e-01 -1.202219e-01 1.053683e+00 2.602944e-01 -1.363036e-01 -1.250730e-01 -3.370731e-01 -2.766598e-01 -1.945418e-01 -2.119734e-01 -1.101381e-01 -2.182270e-01 -7.325345e-02 -1.363102e-01 -1.440325e-01 4.612381e-01
<VARIANCE> 39
 3.514773e+01 2.063930e+01 3.163607e+01 6.248726e+01 3.869361e+01 4.389895e+01 4.100587e+01 3.171261e+01 3.441447e+01 3.006605e+01 3.228567e+01 2.665943e+01 6.483823e+01 4.846698e+00 2.759056e+00 3.942600e+00 8.951645e+00 5.063608e+00 5.549822e+00 5.193749e+00 3.816533e+00 4.688470e+00 3.566206e+00 3.988863e+00 3.331409e+00 9.624334e+00 7.327251e-01 4.895996e-01 6.161944e-01 1.364363e+00 7.950829e-01 8.906967e-01 8.358666e-01 7.234964e-01 8.176669e-01 6.999582e-01 6.971549e-01 5.858253e-01 1.137400e+00
<GCONST> 1.351086e+02
<STATE> 4
<MEAN> 39
 -5.469029e+00 -5.586268e+00 1.614735e+00 -6.174976e+00 -3.065653e+00 -1.220486e+00 -1.722717e+00 1.178678e-01 3.960834e-01 1.055822e+00 2.228927e-01 1.003636e-01 6.223693e+01 9.455469e-01 -6.361305e-01 -5.249285e-01 -1.300222e+00 -1.010311e+00 -7.435877e-01 -7.771189e-01 -2.709999e-01 -6.266976e-01 -1.773535e-01 -4.541523e-01 -4.536886e-01 1.766430e+00 2.995075e-02 -3.446974e-02 5.228987e-02 4.914793e-02 -6.884417e-02 5.688843e-04 -2.194724e-02 -3.562547e-02 -5.474225e-02 -7.023397e-03 -2.881685e-02 -3.400935e-02 -7.478874e-03
<VARIANCE> 39
 4.357045e+01 2.852174e+01 4.689386e+01 8.373495e+01 5.195008e+01 5.616082e+01 5.108997e+01 3.711463e+01 4.004673e+01 3.270105e+01 3.749710e+01 2.977474e+01 7.777010e+01 4.959615e+00 3.231367e+00 4.648629e+00 9.226110e+00 5.846936e+00 5.873569e+00 5.436387e+00 4.193745e+00 4.981444e+00 3.829787e+00 4.360626e+00 3.606144e+00 8.065112e+00 8.818642e-01 5.415995e-01 6.964117e-01 1.648061e+00 9.488018e-01 1.020767e+00 9.422634e-01 7.712948e-01 9.003569e-01 7.310641e-01 7.555329e-01 6.416126e-01 1.273094e+00
<GCONST> 1.402871e+02
<TRANSP> 5
 0.000000e+00 1.000000e+00 0.000000e+00 0.000000e+00 0.000000e+00
 0.000000e+00 5.865086e-01 4.134915e-01 0.000000e+00 0.000000e+00
 0.000000e+00 0.000000e+00 6.002735e-01 3.997265e-01 0.000000e+00
 0.000000e+00 0.000000e+00 0.000000e+00 6.934436e-01 3.065564e-01
 0.000000e+00 0.000000e+00 0.000000e+00 0.000000e+00 0.000000e+00
<ENDHMM>
~h "s"
<BEGINHMM>
<NUMSTATES> 5
<STATE> 2
<MEAN> 39
 -1.552532e+01 8.581619e-01 1.549284e+00 -2.971887e+00 -1.029882e-01 -2.601119e+00 -4.546710e-01 2.081792e+00 -2.013979e-01 -1.351119e-01 8.629437e-01 1.257069e+00 6.502470e+01 -2.258713e+00 5.790805e-01 -1.391823e-01 6.440390e-01 1.004029e+00 8.207114e-01 7.480096e-01 7.010531e-01 5.637214e-01 4.635698e-01 6.966537e-01 6.080730e-01 -4.490716e-01 2.702911e-01 -2.712125e-01 -3.501048e-02 -2.232240e-01 -2.595680e-01 -6.758721e-02 -9.320902e-02 -4.140790e-02 -4.146881e-02 3.839164e-02 -3.513276e-02 -3.583001e-02 7.291704e-02
<VARIANCE> 39
 7.594646e+01 2.907733e+01 3.041628e+01 4.351242e+01 5.275869e+01 5.506987e+01 4.781380e+01 4.103901e+01 3.450737e+01 3.385362e+01 3.316586e+01 2.589489e+01 3.259718e+01 6.267298e+00 2.966976e+00 2.602687e+00 3.555313e+00 4.060655e+00 4.095213e+00 3.884667e+00 3.683816e+00 3.033164e+00 3.272334e+00 3.030393e+00 2.564481e+00 1.373731e+00 1.002751e+00 4.492224e-01 4.170755e-01 5.093704e-01 6.021822e-01 6.936005e-01 6.376550e-01 6.506940e-01 5.328472e-01 5.910076e-01 5.150002e-01 4.548926e-01 1.925768e-01
<GCONST> 1.263542e+02
<STATE> 3
<MEAN> 39
 -1.951217e+01 1.137421e+00 1.046057e+00 -2.341529e+00 1.181799e+00 -1.044564e+00 8.554861e-01 3.467742e+00 8.896383e-01 1.016216e+00 2.296394e+00 2.514073e+00 6.416231e+01 -5.289876e-01 -1.268461e-01 -4.186900e-02 1.016292e-01 1.065928e-01 2.840748e-01 2.419203e-01 2.216549e-01 2.181329e-01 2.596734e-01 2.819552e-01 2.366208e-01 -2.873214e-01 6.397368e-01 -2.049778e-01 6.835171e-02 -1.849218e-01 -3.068227e-01 -2.232447e-01 -1.977036e-01 -2.018105e-01 -1.479235e-01 -1.038225e-01 -1.815069e-01 -1.528649e-01 7.837027e-02
<VARIANCE> 39
 5.441296e+01 2.578291e+01 2.842505e+01 3.664679e+01 4.270659e+01 4.474188e+01 4.138044e+01 3.521120e+01 2.939233e+01 2.703255e+01 2.690816e+01 2.195317e+01 3.094022e+01 7.047116e+00 1.966747e+00 1.917763e+00 2.534057e+00 3.253054e+00 3.533906e+00 3.282859e+00 3.186248e+00 2.686467e+00 2.762073e+00 2.752460e+00 2.273470e+00 1.489364e+00 7.253044e-01 3.533164e-01 3.611315e-01 4.399022e-01 5.028195e-01 6.046568e-01 5.817146e-01 5.700047e-01 4.853333e-01 5.274323e-01 4.874482e-01 4.115799e-01 2.096740e-01
<GCONST> 1.204117e+02
<STATE> 4
<MEAN> 39
 -1.782563e+01 -3.947568e-01 1.593110e+00 -2.330310e+00 7.242587e-01 -5.656892e-01 1.278612e+00 3.370194e+00 1.176744e+00 1.437877e+00 2.559546e+00 2.739727e+00 6.220012e+01 1.212242e+00 -4.522798e-01 2.521301e-01 -2.047577e-01 -6.063191e-01 -3.142619e-01 -2.793399e-01 -3.991345e-01 -2.273761e-01 -9.796740e-02 -2.618054e-01 -2.480476e-01 -9.043058e-02 3.268106e-01 -7.084904e-02 4.915923e-02 -1.214640e-01 -1.854483e-01 -1.326800e-01 -1.422802e-01 -1.312179e-01 -1.066581e-01 -6.437206e-02 -1.185443e-01 -9.724063e-02 1.045187e-01
<VARIANCE> 39
 5.843220e+01 2.497391e+01 2.907685e+01 3.525129e+01 4.364121e+01 4.644625e+01 4.156236e+01 3.488401e+01 2.949326e+01 2.592974e+01 2.645234e+01 2.192598e+01 4.258861e+01 5.385853e+00 1.572906e+00 1.935504e+00 2.507011e+00 3.304441e+00 3.453233e+00 3.368090e+00 3.067924e+00 2.579314e+00 2.468984e+00 2.686683e+00 2.145054e+00 1.721122e+00 7.188549e-01 2.651200e-01 3.184613e-01 3.908842e-01 5.036418e-01 5.637387e-01 5.842876e-01 5.419242e-01 4.602830e-01 4.643169e-01 4.786044e-01 3.808687e-01 2.328634e-01
<GCONST> 1.193220e+02
<TRANSP> 5
 0.000000e+00 1.000000e+00 0.000000e+00 0.000000e+00 0.000000e+00
 0.000000e+00 6.525969e-01 3.474031e-01 0.000000e+00 0.000000e+00
 0.000000e+00 0.000000e+00 6.541521e-01 3.458479e-01 0.000000e+00
 0.000000e+00 0.000000e+00 0.000000e+00 7.937032e-01 2.062968e-01
 0.000000e+00 0.000000e+00 0.000000e+00 0.000000e+00 0.000000e+00
<ENDHMM>
~h "t"
<BEGINHMM>
<NUMSTATES> 5
<STATE> 2
<MEAN> 39
 -8.539001e+00 -2.534471e+00 4.516386e+00 -1.086345e+00 -1.131653e+00 -3.084297e-01 1.218235e-01 4.706449e-01 9.699106e-01 1.245759e+00 9.245601e-01 9.178224e-01 5.735548e+01 -5.422897e-01 -3.820329e-01 -1.068385e-01 8.325974e-02 4.682640e-01 4.769230e-01 4.829669e-01 4.300391e-01 5.634658e-01 2.995209e-01 4.375787e-01 3.839055e-01 -4.138136e-01 7.871626e-02 -1.310142e-01 -1.551480e-01 -3.950451e-01 -3.307352e-01 -2.925880e-01 -1.800519e-01 -4.347911e-02 -1.746106e-01 -9.328461e-02 -1.208804e-01 -8.307417e-02 6.431029e-01
<VARIANCE> 39
 2.981199e+01 2.052797e+01 2.825357e+01 4.816298e+01 4.496038e+01 4.984961e+01 4.270955e+01 3.442414e+01 3.470058e+01 3.130709e+01 3.408880e+01 3.018802e+01 5.863584e+01 2.626680e+00 2.466265e+00 2.809484e+00 5.532054e+00 4.867970e+00 5.272533e+00 4.237648e+00 3.293955e+00 3.555039e+00 3.103009e+00 3.406543e+00 2.763766e+00 8.407530e+00 4.427238e-01 4.215463e-01 4.662166e-01 7.549299e-01 7.955890e-01 9.446453e-01 7.761431e-01 6.081831e-01 6.349168e-01 5.990363e-01 6.240861e-01 5.304840e-01 1.070002e+00
<GCONST> 1.298178e+02
<STATE> 3
<MEAN> 39
 -9.695852e+00 -3.775069e+00 3.670419e+00 -2.234613e+00 -1.118567e+00 -2.006264e-01 6.183728e-01 1.316850e+00 1.651804e+00 1.621437e+00 1.595976e+00 1.585239e+00 5.860862e+01 -2.307469e-02 -5.211322e-01 -4.983208e-01 -9.749959e-01 -5.518664e-01 -5.603750e-01 -2.990670e-01 1.411071e-01 -5.809701e-02 -9.179281e-02 -1.017812e-01 -4.954937e-02 1.446047e+00 3.213390e-01 -1.126457e-02 -6.687210e-02 -3.198532e-01 -3.821012e-01 -3.652427e-01 -3.112780e-01 -1.604234e-01 -2.514628e-01 -1.533684e-01 -2.532831e-01 -2.171565e-01 5.516247e-01
<VARIANCE> 39
 2.586118e+01 1.810656e+01 2.640862e+01 4.654081e+01 4.300177e+01 4.619317e+01 3.908860e+01 3.095020e+01 3.015046e+01 2.877338e+01 3.058772e+01 2.664259e+01 7.055532e+01 3.718690e+00 2.158374e+00 3.066391e+00 5.478908e+00 5.681129e+00 6.594524e+00 5.321881e+00 3.666073e+00 3.852209e+00 3.593331e+00 4.250483e+00 3.449692e+00 1.007948e+01 5.913355e-01 4.280500e-01 5.549570e-01 7.997257e-01 8.890638e-01 1.109246e+00 8.597963e-01 6.861807e-01 6.687105e-01 6.604943e-01 7.306710e-01 6.089795e-01 1.386918e+00
<GCONST> 1.324520e+02
<STATE> 4
<MEAN> 39
 -8.912753e+00 -4.814168e+00 2.227890e+00 -5.154856e+00 -3.528954e+00 -2.469501e+00 -9.265329e-01 1.219535e+00 8.590863e-01 9.343145e-01 6.430117e-01 8.925635e-01 6.340346e+01 8.998600e-01 -4.389117e-01 -4.480186e-01 -1.401992e+00 -1.303004e+00 -1.188273e+00 -9.753430e-01 -3.013317e-01 -6.251043e-01 -4.190741e-01 -7.455442e-01 -6.283574e-01 2.199186e+00 2.487622e-01 1.302891e-02 1.095640e-01 1.803260e-02 -7.375097e-02 2.550496e-02 -8.632950e-02 -1.241683e-01 -1.228738e-01 -3.400147e-02 -1.094960e-01 -1.134540e-01 -1.211142e-01
<VARIANCE> 39
 3.237574e+01 2.055036e+01 3.443230e+01 5.585418e+01 6.056384e+01 5.799416e+01 5.107794e+01 3.545739e+01 3.423191e+01 3.371135e+01 3.841813e+01 3.014064e+01 8.642859e+01 4.192159e+00 2.492249e+00 3.875431e+00 4.955590e+00 6.358363e+00 6.710202e+00 5.728679e+00 4.338090e+00 4.116916e+00 3.989272e+00 4.751757e+00 3.815958e+00 7.952105e+00 7.169361e-01 4.066159e-01 5.873669e-01 7.924184e-01 1.084796e+00 1.283483e+00 1.006081e+00 7.349266e-01 6.817455e-01 6.854249e-01 8.053952e-01 6.646454e-01 1.507496e+00
<GCONST> 1.370637e+02
<TRANSP> 5
 0.000000e+00 1.000000e+00 0.000000e+00 0.000000e+00 0.000000e+00
 0.000000e+00 5.986104e-01 4.013896e-01 0.000000e+00 0.000000e+00
 0.000000e+00 0.000000e+00 6.017896e-01 3.982105e-01 0.000000e+00
 0.000000e+00 0.000000e+00 0.000000e+00 6.805649e-01 3.194351e-01
 0.000000e+00 0.000000e+00 0.000000e+00 0.000000e+00 0.000000e+00
<ENDHMM>
~h "w"
<BEGINHMM>
<NUMSTATES> 5
<STATE> 2
<MEAN> 39
 -1.169706e+00 -5.155610e+00 -1.852145e+00 -1.349248e+01 -4.875693e+00 -2.218441e+00 -4.599421e+00 -1.938957e+00 -3.486069e+00 1.693328e+00 -1.027211e+00 -1.137085e+00 6.612356e+01 8.567964e-01 -3.620752e-01 -4.925572e-01 -1.094168e+00 -2.367687e-01 -4.290040e-01 -8.573022e-01 -4.913889e-01 -4.048464e-01 4.091334e-01 -1.849988e-01 -3.615291e-01 9.490898e-01 -2.379881e-01 -1.155399e-01 1.909432e-01 4.263419e-01 6.869111e-02 -1.059006e-01 6.978948e-02 1.199472e-01 1.989403e-01 -1.614051e-02 -4.653064e-02 -1.769165e-02 -6.174835e-02
<VARIANCE> 39
 4.473347e+01 3.622335e+01 4.314883e+01 9.278787e+01 5.954914e+01 6.182642e+01 6.148896e+01 5.761486e+01 6.403878e+01 5.706032e+01 6.135412e+01 3.851940e+01 4.414960e+01 3.877540e+00 3.780193e+00 3.352598e+00 8.165085e+00 4.899598e+00 5.260234e+00 5.281230e+00 5.581367e+00 6.942286e+00 5.897205e+00 5.254077e+00 3.683762e+00 3.051054e+00 6.938442e-01 6.074189e-01 5.526414e-01 1.406174e+00 9.104646e-01 9.107345e-01 9.841614e-01 1.117884e+00 1.409232e+00 1.192081e+00 9.110543e-01 6.637399e-01 3.694178e-01
<GCONST> 1.417353e+02
<STATE> 3
<MEAN> 39
 9.726048e-03 -6.352204e+00 -2.475186e+00 -1.463570e+01 -5.115869e+00 -3.432499e+00 -6.364289e+00 -2.699591e+00 -3.735669e+00 2.583971e+00 -1.624258e+00 -2.080132e+00 6.809905e+01 1.372904e-01 -6.140113e-01 8.134847e-02 1.155353e-01 -1.944297e-01 -7.413575e-01 -5.341275e-01 1.461139e-02 2.159057e-01 1.433967e-01 -3.528154e-01 -3.833183e-01 7.635928e-01 -3.071526e-01 1.112785e-02 2.707639e-01 4.540923e-01 -5.232108e-02 -7.377690e-02 2.548780e-01 2.261662e-01 1.684634e-01 -2.011271e-01 -3.241178e-02 6.414646e-02 -1.483770e-01
<VARIANCE> 39
 3.227906e+01 3.758530e+01 4.400428e+01 8.511816e+01 5.854968e+01 7.221993e+01 6.655887e+01 5.832890e+01 6.699128e+01 6.609727e+01 7.746147e+01 4.217292e+01 3.815791e+01 3.316917e+00 3.819292e+00 3.602270e+00 7.776452e+00 4.991087e+00 5.905872e+00 5.975948e+00 6.040602e+00 7.326318e+00 6.366040e+00 5.509047e+00 3.871055e+00 2.649709e+00 5.170996e-01 5.972841e-01 5.209070e-01 1.236583e+00 9.551845e-01 1.007088e+00 1.089186e+00 1.165234e+00 1.481248e+00 1.292012e+00 1.058945e+00 7.409933e-01 3.066626e-01
<GCONST> 1.422772e+02
<STATE> 4
<MEAN> 39
 -4.668255e-01 -7.778517e+00 -1.731172e+00 -1.296816e+01 -5.805919e+00 -5.183767e+00 -6.918625e+00 -1.908643e+00 -2.554825e+00 2.052628e+00 -2.575845e+00 -2.807079e+00 6.942140e+01 -4.520859e-01 -3.502613e-01 6.488354e-01 8.573771e-01 -4.194951e-01 -7.342619e-01 1.916594e-01 4.388318e-01 3.129672e-01 -4.380072e-01 -3.149801e-01 -8.452100e-02 3.369457e-01 -1.661359e-01 1.951690e-01 1.524958e-01 1.350954e-01 -4.966167e-02 1.182022e-01 2.578222e-01 3.332020e-02 -8.749121e-02 -1.448065e-01 9.569816e-02 1.413493e-01 -1.965691e-01
<VARIANCE> 39
 2.897033e+01 4.025131e+01 4.929778e+01 7.805670e+01 6.253329e+01 7.976767e+01 7.021575e+01 6.047505e+01 6.189358e+01 6.375167e+01 8.287877e+01 4.440490e+01 3.776018e+01 2.490435e+00 3.279473e+00 3.415841e+00 5.924131e+00 5.282095e+00 5.641600e+00 5.858207e+00 5.535396e+00 6.057105e+00 5.435134e+00 5.036929e+00 3.677416e+00 2.232455e+00 3.828935e-01 5.163647e-01 4.786875e-01 9.928684e-01 8.660685e-01 9.717737e-01 1.023546e+00 1.099792e+00 1.242552e+00 1.084433e+00 1.004820e+00 7.046574e-01 2.700111e-01
<GCONST> 1.394072e+02
<TRANSP> 5
 0.000000e+00 1.000000e+00 0.000000e+00 0.000000e+00 0.000000e+00
 0.000000e+00 5.546730e-01 4.453270e-01 0.000000e+00 0.000000e+00
 0.000000e+00 0.000000e+00 5.719241e-01 4.280759e-01 0.000000e+00
 0.000000e+00 0.000000e+00 0.000000e+00 6.353731e-01 3.646269e-01
 0.000000e+00 0.000000e+00 0.000000e+00 0.000000e+00 0.000000e+00
<ENDHMM>
~h "y"
<BEGINHMM>
<NUMSTATES> 5
<STATE> 2
<MEAN> 39
 -7.660409e+00 -2.610734e+00 1.108270e+01 -8.344816e+00 -1.180913e+01 -6.333291e+00 -4.721865e+00 -3.242163e+00 -5.917094e+00 1.462897e-01 -1.300474e+00 -1.066103e+00 6.776798e+01 9.181114e-01 -2.547124e-01 7.484184e-01 -7.254829e-01 -1.234042e+00 -6.263955e-01 -7.057656e-01 -3.694744e-01 -4.949576e-01 2.358860e-02 -3.343970e-01 -1.175420e-01 4.809122e-01 -8.133611e-02 -1.212884e-01 -3.938633e-01 8.267133e-03 2.588409e-01 1.102925e-01 1.186429e-01 2.349283e-01 2.167666e-01 3.595344e-02 5.387297e-02 3.238767e-02 -3.722736e-03
<VARIANCE> 39
 4.908962e+01 3.437863e+01 6.368974e+01 7.827659e+01 8.146068e+01 6.328978e+01 6.485162e+01 7.086652e+01 5.258974e+01 4.154869e+01 4.684795e+01 2.864176e+01 3.393283e+01 4.495546e+00 2.478647e+00 5.167962e+00 4.327509e+00 6.207419e+00 4.411383e+00 5.056672e+00 5.025390e+00 4.369477e+00 3.374306e+00 3.389694e+00 2.451077e+00 1.696742e+00 4.641913e-01 3.212840e-01 6.323923e-01 6.230556e-01 9.790155e-01 7.200373e-01 8.153187e-01 8.615701e-01 7.488709e-01 6.103164e-01 5.577334e-01 4.336132e-01 2.230848e-01
<GCONST> 1.331794e+02
<STATE> 3
<MEAN> 39
 -6.088809e+00 -3.634874e+00 1.134595e+01 -9.845903e+00 -1.351229e+01 -7.248841e+00 -5.688952e+00 -3.144293e+00 -6.223224e+00 3.465286e-01 -1.777807e+00 -1.188082e+00 6.880626e+01 6.135778e-01 -5.214533e-01 -4.316463e-01 -4.915242e-01 -3.181494e-01 -2.845455e-01 -2.257690e-01 2.628658e-01 1.666837e-01 3.525727e-02 -1.840029e-01 -8.399848e-02 3.927161e-01 -1.185434e-01 -5.926934e-02 -4.249636e-01 1.222088e-01 4.055731e-01 1.764978e-01 1.754738e-01 1.866932e-01 2.341968e-01 -3.130285e-02 3.188374e-02 -1.509374e-02 -7.142673e-02
<VARIANCE> 39
 3.329646e+01 3.332717e+01 6.513441e+01 7.835698e+01 7.902904e+01 6.525202e+01 6.270807e+01 7.261160e+01 5.373138e+01 4.412424e+01 4.900076e+01 2.993709e+01 3.216584e+01 2.628503e+00 2.248445e+00 4.954684e+00 3.493062e+00 5.729620e+00 3.992567e+00 4.345599e+00 4.585775e+00 4.129255e+00 3.320212e+00 2.798506e+00 2.210167e+00 1.439302e+00 3.605829e-01 2.979760e-01 5.740980e-01 5.507061e-01 8.800026e-01 7.122169e-01 7.417380e-01 8.199860e-01 7.256694e-01 6.124136e-01 5.235464e-01 4.263243e-01 1.768472e-01
<GCONST> 1.298958e+02
<STATE> 4
<MEAN> 39
 -4.922032e+00 -4.964169e+00 8.976117e+00 -1.022235e+01 -1.309271e+01 -6.956596e+00 -5.624013e+00 -1.873204e+00 -5.084369e+00 1.193576e-01 -2.013416e+00 -1.396414e+00 6.918135e+01 3.902542e-01 -5.241531e-01 -1.204429e+00 -9.126137e-02 5.881894e-01 1.124483e-01 1.238336e-01 4.865415e-01 5.364732e-01 -1.219915e-01 -1.495741e-01 -1.544093e-01 1.350433e-01 -6.279591e-02 4.957058e-02 -1.321891e-01 1.207179e-01 2.600864e-01 1.505822e-01 6.988791e-02 -1.521682e-02 3.712019e-02 -5.763930e-02 9.026036e-03 -2.796515e-02 -1.097182e-01
<VARIANCE> 39
 2.892609e+01 3.327135e+01 7.222284e+01 7.281387e+01 8.718977e+01 6.684277e+01 6.611816e+01 7.048885e+01 5.404549e+01 4.506820e+01 5.152640e+01 3.160295e+01 3.783121e+01 1.422593e+00 1.836381e+00 3.586290e+00 2.770481e+00 4.653618e+00 3.636491e+00 3.665067e+00 3.957869e+00 3.688498e+00 3.278209e+00 2.586393e+00 2.183826e+00 1.215555e+00 2.172787e-01 2.614849e-01 4.893716e-01 4.262676e-01 7.148952e-01 6.256186e-01 6.410317e-01 7.058165e-01 6.571226e-01 5.574691e-01 4.798906e-01 4.037921e-01 1.493021e-01
<GCONST> 1.256568e+02
<TRANSP> 5
 0.000000e+00 1.000000e+00 0.000000e+00 0.000000e+00 0.000000e+00
 0.000000e+00 5.524619e-01 4.475381e-01 0.000000e+00 0.000000e+00
 0.000000e+00 0.000000e+00 5.540518e-01 4.459481e-01 0.000000e+00
 0.000000e+00 0.000000e+00 0.000000e+00 6.610859e-01 3.389141e-01
 0.000000e+00 0.000000e+00 0.000000e+00 0.000000e+00 0.000000e+00
<ENDHMM>
~h "z"
<BEGINHMM>
<NUMSTATES> 5
<STATE> 2
<MEAN> 39
 -9.161036e+00 -2.269196e+00 5.356965e+00 -4.894168e+00 -4.765712e+00 -2.832588e+00 -6.110489e-01 -5.759727e-01 -2.622562e+00 -7.134811e-01 4.380972e-01 6.729553e-01 6.359131e+01 -1.377596e-01 -1.700961e-02 -2.421082e-01 1.461532e-01 2.629078e-01 2.084157e-01 1.514535e-01 1.151246e-01 7.954637e-02 5.980169e-02 1.417159e-01 8.151520e-02 -2.869990e-01 1.324819e-01 -1.248822e-02 5.489201e-02 2.421414e-02 -5.840621e-02 -5.213760e-02 -7.726370e-02 -5.188919e-02 -2.247514e-02 -1.300069e-02 -2.235127e-02 -5.342039e-02 -1.114686e-02
<VARIANCE> 39
 6.938280e+01 3.216116e+01 4.857763e+01 6.049622e+01 7.184314e+01 5.677055e+01 5.644606e+01 6.887934e+01 5.237553e+01 4.017305e+01 4.445337e+01 2.801804e+01 4.339307e+01 1.467618e+00 1.193472e+00 1.444223e+00 1.870371e+00 2.231908e+00 2.193781e+00 2.213587e+00 2.492725e+00 2.009727e+00 2.147631e+00 1.674213e+00 1.657764e+00 6.470920e-01 2.815305e-01 1.977588e-01 2.763263e-01 3.421589e-01 4.224866e-01 4.022784e-01 4.306514e-01 5.040470e-01 4.151652e-01 4.055843e-01 3.263637e-01 3.162121e-01 1.249611e-01
<GCONST> 1.147213e+02
<STATE> 3
<MEAN> 39
 -9.236308e+00 -2.430176e+00 5.231525e+00 -4.356713e+00 -4.175806e+00 -2.587266e+00 -4.445292e-01 -3.502123e-01 -2.340108e+00 -5.738437e-01 7.854217e-01 8.089775e-01 6.268628e+01 8.332117e-02 -5.981006e-02 -1.116634e-01 2.086631e-01 2.405085e-01 1.174421e-01 2.245631e-02 2.165468e-02 4.608020e-02 2.179869e-02 5.900247e-02 -1.551957e-02 -2.969923e-01 1.184503e-01 -2.496069e-02 3.801548e-02 1.053359e-02 -2.581337e-02 -4.428953e-02 -5.605190e-02 -3.304396e-02 1.254062e-03 -8.632055e-03 -4.314983e-02 -5.233946e-02 -5.178200e-03
<VARIANCE> 39
 6.492442e+01 3.330447e+01 4.300972e+01 5.716144e+01 6.539437e+01 5.911528e+01 5.497366e+01 6.610253e+01 5.081440e+01 4.096744e+01 4.840649e+01 2.745066e+01 4.562910e+01 1.127380e+00 9.793896e-01 1.263952e+00 1.607740e+00 1.859181e+00 1.727966e+00 1.976954e+00 2.201791e+00 1.805211e+00 2.039742e+00 1.746541e+00 1.479110e+00 5.775728e-01 2.088841e-01 1.748308e-01 2.416842e-01 3.012244e-01 3.375066e-01 3.467953e-01 3.830765e-01 4.251856e-01 3.534328e-01 3.939680e-01 3.403500e-01 3.065414e-01 1.079174e-01
<GCONST> 1.110767e+02
<STATE> 4
<MEAN> 39
 -9.628990e+00 -3.693719e+00 5.104198e+00 -2.059139e+00 -1.798845e+00 2.154080e-01 1.492336e+00 6.091576e-01 1.005020e-01 4.167379e-01 2.051384e+00 2.176728e+00 5.787060e+01 1.498282e-01 -7.849457e-03 -1.221304e-02 1.802541e-01 1.641190e-01 1.353778e-01 -4.375281e-02 -5.792488e-02 8.121169e-02 2.508513e-02 -8.373757e-02 -6.436515e-02 -2.461795e-01 6.027943e-02 -2.229571e-03 3.325483e-03 -3.210279e-02 -3.241821e-02 -4.999085e-02 -4.425349e-02 -5.629744e-03 -1.605863e-03 -4.647531e-03 -4.162572e-02 -4.156870e-02 3.654378e-02
<VARIANCE> 39
 3.914917e+01 2.650670e+01 2.764992e+01 4.105756e+01 4.833459e+01 5.983311e+01 4.315600e+01 4.873687e+01 3.990225e+01 3.130516e+01 4.168505e+01 2.470422e+01 5.228495e+01 8.747479e-01 8.360922e-01 1.117650e+00 1.351665e+00 1.604180e+00 1.575109e+00 1.840034e+00 2.007777e+00 1.728073e+00 1.792929e+00 1.796711e+00 1.380583e+00 5.271751e-01 1.481864e-01 1.495098e-01 2.047415e-01 2.510300e-01 2.906166e-01 3.107321e-01 3.492221e-01 3.741881e-01 3.196652e-01 3.429046e-01 3.510257e-01 2.697096e-01 9.030098e-02
<GCONST> 1.048440e+02
<TRANSP> 5
 0.000000e+00 1.000000e+00 0.000000e+00 0.000000e+00 0.000000e+00
 0.000000e+00 5.351173e-01 4.648826e-01 0.000000e+00 0.000000e+00
 0.000000e+00 0.000000e+00 5.449266e-01 4.550734e-01 0.000000e+00
 0.000000e+00 0.000000e+00 0.000000e+00 7.885515e-01 2.114485e-01
 0.000000e+00 0.000000e+00 0.000000e+00 0.000000e+00 0.000000e+00
<ENDHMM>
~h "aa"
<BEGINHMM>
<NUMSTATES> 5
<STATE> 2
<MEAN> 39
 -3.053203e+00 -1.103688e+01 -2.604614e+00 -8.861132e+00 -5.468860e+00 -4.160488e+00 -3.341882e+00 1.946540e+00 -1.807948e+00 -3.443669e+00 -4.462754e+00 -2.834146e+00 7.115397e+01 2.747945e-01 -6.821269e-01 -6.029283e-01 -1.266756e-01 2.747204e-01 5.147650e-02 1.606393e-02 1.875579e-01 -4.150663e-02 -4.824840e-01 -3.763341e-01 -2.090523e-01 5.487942e-01 -1.500624e-01 2.490938e-01 1.919059e-01 1.838284e-01 4.402336e-02 4.625216e-02 9.720430e-03 -1.112578e-01 6.443265e-03 1.226066e-01 1.512088e-01 1.121974e-01 -2.618515e-01
<VARIANCE> 39
 2.549896e+01 4.724390e+01 5.712357e+01 5.837065e+01 6.660356e+01 6.411968e+01 6.287231e+01 5.068868e+01 4.967636e+01 6.158793e+01 5.622415e+01 5.412269e+01 6.143432e+01 1.910327e+00 3.302254e+00 2.936467e+00 3.398719e+00 3.348893e+00 3.408839e+00 3.945816e+00 3.499384e+00 3.131774e+00 3.404868e+00 3.129627e+00 2.917451e+00 3.106104e+00 3.337262e-01 5.098498e-01 4.651318e-01 5.719241e-01 5.664079e-01 6.018891e-01 6.899419e-01 6.191378e-01 5.475144e-01 5.969936e-01 5.659057e-01 5.134842e-01 4.778407e-01
<GCONST> 1.302741e+02
<STATE> 3
<MEAN> 39
 -2.821374e+00 -1.179724e+01 -3.387635e+00 -8.674729e+00 -4.843374e+00 -4.000798e+00 -3.326695e+00 2.033236e+00 -1.880327e+00 -4.101777e+00 -4.848271e+00 -3.007270e+00 7.170945e+01 3.243624e-02 7.767567e-02 -6.167545e-02 1.869007e-01 1.694807e-01 2.752285e-02 -1.295133e-02 -4.910250e-02 7.510219e-04 -1.024650e-01 -2.604479e-02 -1.202513e-02 -9.914253e-02 -1.191437e-01 3.351380e-01 2.519358e-01 1.399622e-01 -3.957562e-02 -3.686506e-03 -1.993621e-02 -1.060082e-01 1.275759e-02 1.632955e-01 1.499432e-01 9.137078e-02 -2.859209e-01
<VARIANCE> 39
 2.341744e+01 4.616675e+01 5.449722e+01 5.550056e+01 6.305064e+01 6.261219e+01 6.089373e+01 4.853756e+01 4.990482e+01 6.345221e+01 5.557305e+01 5.543045e+01 5.649849e+01 1.453104e+00 3.413593e+00 2.924608e+00 2.976873e+00 3.059901e+00 3.069871e+00 3.578041e+00 3.217014e+00 2.796690e+00 3.102098e+00 2.752883e+00 2.564970e+00 3.030443e+00 2.820561e-01 4.829063e-01 4.300711e-01 5.066527e-01 4.999799e-01 5.461334e-01 6.485522e-01 5.868378e-01 5.224400e-01 5.672739e-01 5.086507e-01 4.771200e-01 3.846106e-01
<GCONST> 1.273808e+02
<STATE> 4
<MEAN> 39
 -3.141799e+00 -1.075405e+01 -3.009434e+00 -7.513279e+00 -4.564865e+00 -3.495837e+00 -3.254798e+00 1.793772e+00 -1.591243e+00 -4.006529e+00 -4.392227e+00 -2.650591e+00 7.015289e+01 -1.657263e-01 8.007501e-01 5.112863e-01 3.626141e-01 -8.663221e-03 -4.303931e-02 -5.414300e-02 -2.106164e-01 5.929790e-02 2.925704e-01 2.677806e-01 1.446701e-01 -7.075213e-01 -1.152835e-01 1.908249e-01 1.709949e-01 7.587430e-02 -8.545485e-03 1.796548e-02 2.605512e-03 -5.939488e-02 5.635616e-03 1.158104e-01 9.953944e-02 6.494436e-02 -1.672750e-01
<VARIANCE> 39
 2.603710e+01 4.762845e+01 5.445841e+01 5.632417e+01 6.516986e+01 6.245844e+01 6.012044e+01 4.726490e+01 4.996139e+01 6.108871e+01 5.624343e+01 5.392474e+01 6.727834e+01 1.666841e+00 3.004792e+00 2.694418e+00 2.881352e+00 3.045813e+00 3.052670e+00 3.386335e+00 3.128693e+00 2.797368e+00 3.047177e+00 2.670881e+00 2.484794e+00 2.556960e+00 2.756746e-01 4.430561e-01 4.161215e-01 4.660675e-01 4.827968e-01 5.166689e-01 5.848006e-01 5.535581e-01 4.964255e-01 5.344338e-01 4.689772e-01 4.314049e-01 3.629264e-01
<GCONST> 1.263695e+02
<TRANSP> 5
 0.000000e+00 1.000000e+00 0.000000e+00 0.000000e+00 0.000000e+00
 0.000000e+00 5.632966e-01 4.367034e-01 0.000000e+00 0.000000e+00
 0.000000e+00 0.000000e+00 5.608351e-01 4.391649e-01 0.000000e+00
 0.000000e+00 0.000000e+00 0.000000e+00 6.780943e-01 3.219058e-01
 0.000000e+00 0.000000e+00 0.000000e+00 0.000000e+00 0.000000e+00
<ENDHMM>
~h "bb"
<BEGINHMM>
<NUMSTATES> 5
<STATE> 2
<MEAN> 39
 -4.279552e-01 -7.318484e+00 1.983905e+00 -1.090886e+01 -8.131789e+00 -5.408773e+00 -7.210804e+00 -3.004554e+00 -4.063735e+00 -2.221088e-01 -2.594234e+00 -2.795152e+00 6.880408e+01 2.393106e-01 -4.427000e-02 -5.963578e-03 -1.756467e-01 -6.480201e-02 -1.339848e-01 -2.645567e-01 -9.773047e-02 2.276287e-02 1.477517e-01 4.808769e-02 -9.165855e-02 -6.111308e-03 -9.007733e-02 1.572004e-02 3.095435e-02 1.736245e-02 -1.138610e-02 3.042965e-02 6.665488e-02 4.139993e-02 1.226373e-02 -2.613257e-02 -3.814565e-03 2.648681e-02 8.584890e-03
<VARIANCE> 39
 2.318028e+01 4.961309e+01 9.914943e+01 7.968106e+01 6.435175e+01 7.220831e+01 6.073860e+01 5.622044e+01 5.116176e+01 5.108009e+01 6.105996e+01 3.869611e+01 3.659752e+01 1.149410e+00 2.469799e+00 3.580675e+00 4.867569e+00 4.498574e+00 3.629188e+00 3.575878e+00 3.937686e+00 3.225132e+00 3.197587e+00 2.981151e+00 2.487119e+00 2.643639e+00 1.706468e-01 3.957444e-01 4.482672e-01 7.885799e-01 7.546266e-01 6.405668e-01 6.425775e-01 7.071331e-01 5.717638e-01 5.860876e-01 5.480466e-01 4.419264e-01 3.858446e-01
<GCONST> 1.294488e+02
<STATE> 3
<MEAN> 39
 -1.537681e-01 -7.394115e+00 2.000789e+00 -1.143321e+01 -8.331153e+00 -5.548653e+00 -7.616993e+00 -3.069885e+00 -4.063505e+00 -1.074737e-02 -2.565374e+00 -2.969222e+00 6.889905e+01 -1.541011e-02 -1.823166e-02 7.374246e-02 -1.154525e-01 -9.815860e-02 -3.151052e-02 -2.439138e-02 4.448549e-02 2.405582e-02 2.610846e-02 -1.088398e-02 -1.719578e-02 4.089090e-02 -9.629104e-02 1.215886e-02 2.651059e-02 4.308380e-02 -1.259453e-02 3.285666e-02 9.275708e-02 5.306093e-02 5.548294e-03 -5.326417e-02 -2.392774e-02 3.165486e-02 1.509024e-02
<VARIANCE> 39
 2.140999e+01 4.707348e+01 1.007457e+02 8.036856e+01 6.300486e+01 7.306654e+01 6.177454e+01 5.607836e+01 5.248834e+01 5.320677e+01 6.214145e+01 3.947340e+01 3.253343e+01 9.863721e-01 2.403912e+00 3.486142e+00 4.843493e+00 4.249131e+00 3.629966e+00 3.515725e+00 3.943594e+00 3.288350e+00 3.347708e+00 2.997527e+00 2.549799e+00 2.357949e+00 1.445859e-01 3.802349e-01 4.355939e-01 7.829554e-01 7.269303e-01 6.330755e-01 6.269165e-01 7.105177e-01 5.868474e-01 6.141177e-01 5.546121e-01 4.570912e-01 3.576109e-01
<GCONST> 1.287617e+02
<STATE> 4
<MEAN> 39
 -4.721589e-01 -7.626820e+00 1.336570e+00 -1.226093e+01 -8.912784e+00 -4.850919e+00 -7.447901e+00 -2.734128e+00 -4.130170e+00 -4.105554e-01 -3.187970e+00 -3.300318e+00 6.948190e+01 -2.089018e-01 4.162402e-02 1.156714e-01 1.077600e-01 -4.929367e-02 1.606769e-02 1.919451e-01 1.378181e-01 4.735238e-02 -9.035518e-02 -3.856019e-02 8.292221e-02 -2.017303e-02 -6.298620e-02 2.659407e-02 1.877836e-02 8.544338e-02 2.348031e-02 8.593658e-03 6.070213e-02 2.755144e-02 1.670792e-02 -2.739630e-02 1.179060e-02 3.233168e-02 -3.302769e-02
<VARIANCE> 39
 2.158428e+01 4.962576e+01 1.098876e+02 8.148362e+01 6.851033e+01 7.347841e+01 6.372399e+01 5.785160e+01 5.297374e+01 5.695875e+01 6.527960e+01 4.219232e+01 3.250212e+01 8.879229e-01 2.115042e+00 3.011256e+00 4.209394e+00 3.802607e+00 3.309876e+00 3.342975e+00 3.584790e+00 3.116328e+00 3.229146e+00 2.822273e+00 2.491691e+00 2.004698e+00 1.372125e-01 3.357998e-01 4.006105e-01 6.606762e-01 6.356189e-01 5.636858e-01 5.811158e-01 6.461360e-01 5.440202e-01 5.788460e-01 5.145325e-01 4.440227e-01 2.938207e-01
<GCONST> 1.267759e+02
<TRANSP> 5
 0.000000e+00 1.000000e+00 0.000000e+00 0.000000e+00 0.000000e+00
 0.000000e+00 6.142583e-01 3.857416e-01 0.000000e+00 0.000000e+00
 0.000000e+00 0.000000e+00 6.285740e-01 3.714260e-01 0.000000e+00
 0.000000e+00 0.000000e+00 0.000000e+00 7.782573e-01 2.217427e-01
 0.000000e+00 0.000000e+00 0.000000e+00 0.000000e+00 0.000000e+00
<ENDHMM>
~h "ch"
<BEGINHMM>
<NUMSTATES> 5
<STATE> 2
<MEAN> 39
 -1.353795e+01 -2.506512e+00 8.169707e+00 -4.005711e+00 -4.719880e-01 8.288829e-01 -1.022348e+00 1.444589e+00 1.182013e+00 1.499287e+00 2.412224e+00 2.080505e+00 5.987057e+01 -1.738641e+00 -3.533652e-01 -1.189869e-01 -3.995580e-01 5.912308e-01 8.150492e-01 6.169430e-01 6.996217e-01 7.272389e-01 2.250792e-01 5.269181e-01 4.283181e-01 2.513761e-01 7.297771e-02 -6.005104e-02 -6.525840e-02 -3.889365e-01 -3.409549e-01 -3.248735e-01 -2.322846e-01 -1.478850e-01 -2.433833e-01 -1.010841e-01 -1.631868e-01 -1.617916e-01 6.096637e-01
<VARIANCE> 39
 5.598634e+01 2.332724e+01 2.748814e+01 4.153756e+01 3.770831e+01 4.342728e+01 3.540986e+01 3.191021e+01 3.216920e+01 2.546927e+01 2.725224e+01 2.145970e+01 5.116072e+01 5.156807e+00 2.681491e+00 3.207069e+00 5.341183e+00 4.912662e+00 4.954101e+00 4.194030e+00 3.195445e+00 3.647173e+00 3.295129e+00 3.120643e+00 2.479220e+00 7.736704e+00 1.130912e+00 5.800442e-01 6.918922e-01 1.077565e+00 8.011312e-01 8.691804e-01 8.045551e-01 5.701235e-01 6.424158e-01 6.725232e-01 5.833588e-01 4.417264e-01 1.242871e+00
<GCONST> 1.313369e+02
<STATE> 3
<MEAN> 39
 -1.766704e+01 -3.365789e+00 7.853646e+00 -6.467978e+00 -6.969376e-01 1.033034e+00 -6.694612e-01 2.489340e+00 1.784332e+00 1.280537e+00 2.744436e+00 2.256646e+00 6.360857e+01 -5.323485e-01 -2.044295e-01 -1.728397e-01 -6.423709e-01 -4.396194e-01 -4.310265e-01 -1.210199e-01 1.013637e-01 -9.272787e-02 -2.546968e-01 -1.802365e-01 -1.361700e-01 1.255100e+00 5.986158e-01 1.803356e-02 -6.225565e-02 2.074913e-02 -2.711031e-01 -3.507356e-01 -2.256857e-01 -2.023572e-01 -2.232164e-01 -1.155371e-01 -2.164295e-01 -1.680860e-01 7.568004e-02
<VARIANCE> 39
 6.696799e+01 2.223301e+01 2.751446e+01 3.990859e+01 4.050974e+01 4.493735e+01 3.346943e+01 2.849612e+01 2.772823e+01 2.408832e+01 2.550489e+01 1.915901e+01 5.592174e+01 1.115212e+01 2.202984e+00 2.876674e+00 4.359986e+00 4.605343e+00 5.779619e+00 4.069189e+00 3.173359e+00 3.294470e+00 3.029254e+00 3.125383e+00 2.285477e+00 5.199636e+00 1.716928e+00 4.963555e-01 5.878316e-01 9.772317e-01 7.984457e-01 9.522030e-01 7.893477e-01 5.820543e-01 5.987256e-01 6.177015e-01 5.611137e-01 4.336324e-01 1.126369e+00
<GCONST> 1.305017e+02
<STATE> 4
<MEAN> 39
 -1.572219e+01 -3.814334e+00 6.949195e+00 -7.509859e+00 -2.754184e+00 -1.265237e+00 -1.633025e+00 2.029936e+00 7.257215e-01 6.937778e-02 1.529815e+00 1.267992e+00 6.620527e+01 1.565831e+00 -2.436056e-01 -4.492711e-01 -3.300113e-01 -8.517402e-01 -9.492469e-01 -6.023142e-01 -4.106483e-01 -4.896150e-01 -3.510026e-01 -6.253066e-01 -4.625503e-01 5.906945e-01 3.116767e-01 -6.078209e-02 -9.153602e-02 -2.403147e-02 1.972627e-02 3.164028e-02 -6.046835e-02 -7.658498e-02 -2.931722e-02 5.196159e-02 -4.795060e-02 -5.921694e-02 -1.529747e-01
<VARIANCE> 39
 9.128609e+01 2.193227e+01 3.131652e+01 3.666660e+01 4.965615e+01 5.620333e+01 4.394762e+01 3.210394e+01 3.300906e+01 2.828355e+01 3.183413e+01 2.032751e+01 4.478346e+01 1.089516e+01 2.291243e+00 3.229700e+00 3.723013e+00 4.647702e+00 5.364910e+00 4.494743e+00 3.332968e+00 3.268506e+00 3.436504e+00 3.521499e+00 2.358910e+00 2.937919e+00 1.746526e+00 4.304238e-01 4.973487e-01 7.540663e-01 7.736526e-01 9.766325e-01 8.308282e-01 6.149183e-01 6.001767e-01 6.396052e-01 6.055921e-01 4.414376e-01 5.131598e-01
<GCONST> 1.307037e+02
<TRANSP> 5
 0.000000e+00 1.000000e+00 0.000000e+00 0.000000e+00 0.000000e+00
 0.000000e+00 6.883451e-01 3.116549e-01 0.000000e+00 0.000000e+00
 0.000000e+00 0.000000e+00 7.024962e-01 2.975037e-01 0.000000e+00
 0.000000e+00 0.000000e+00 0.000000e+00 8.152034e-01 1.847966e-01
 0.000000e+00 0.000000e+00 0.000000e+00 0.000000e+00 0.000000e+00
<ENDHMM>
~h "dd"
<BEGINHMM>
<NUMSTATES> 5
<STATE> 2
<MEAN> 39
 -2.289168e+00 -6.745388e+00 -6.673572e-01 -1.071987e+01 -7.284119e+00 -6.487050e+00 -6.236427e+00 -1.909593e+00 -2.540325e-01 -1.610843e+00 -3.129955e+00 -2.406393e+00 7.012794e+01 5.274777e-02 1.738409e-01 -1.614604e-01 -2.416319e-01 1.294820e-01 4.580810e-02 -1.049347e-01 -6.480237e-02 2.839188e-01 1.514673e-01 7.285555e-02 2.194623e-02 -1.488532e-01 -2.357364e-02 -1.332858e-02 4.517645e-02 9.853480e-03 3.106077e-03 7.137623e-02 5.740362e-02 1.414852e-02 -7.589346e-02 3.195586e-03 3.317783e-03 -7.117066e-04 -2.109452e-02
<VARIANCE> 39
 1.941702e+01 3.874789e+01 7.435551e+01 7.995258e+01 7.504424e+01 7.289325e+01 6.867017e+01 6.284499e+01 5.355108e+01 6.056170e+01 6.196304e+01 4.781518e+01 3.988565e+01 5.699266e-01 1.507316e+00 1.672401e+00 2.804989e+00 2.402992e+00 2.335261e+00 2.412637e+00 2.506237e+00 2.410190e+00 2.121400e+00 2.063787e+00 1.727346e+00 1.407435e+00 9.118677e-02 1.858648e-01 1.990300e-01 4.251111e-01 3.987543e-01 3.636358e-01 3.875713e-01 3.806762e-01 3.727753e-01 3.478124e-01 3.382607e-01 2.803609e-01 2.248026e-01
<GCONST> 1.156118e+02
<STATE> 3
<MEAN> 39
 -2.251678e+00 -6.292906e+00 -7.941060e-01 -1.120236e+01 -6.970363e+00 -6.115589e+00 -6.212020e+00 -2.028820e+00 8.268240e-02 -1.214280e+00 -2.850477e+00 -2.268558e+00 6.957587e+01 -1.513304e-03 9.886898e-02 -6.480261e-02 -1.896585e-01 1.370966e-01 2.120034e-01 5.670558e-02 -1.983810e-02 5.288446e-02 1.119260e-01 8.523668e-02 3.125878e-02 -1.719083e-01 -1.796484e-02 -2.915833e-02 3.916354e-02 3.355455e-02 -4.324693e-03 5.951278e-02 5.783287e-02 2.204668e-02 -9.451964e-02 -1.787514e-02 6.604679e-03 3.853051e-03 -1.048311e-02
<VARIANCE> 39
 2.055298e+01 3.496545e+01 6.876125e+01 8.392345e+01 7.416327e+01 7.387393e+01 7.221303e+01 6.321322e+01 5.343109e+01 5.946514e+01 6.165985e+01 4.572848e+01 4.245505e+01 5.326283e-01 1.333966e+00 1.534467e+00 2.653378e+00 2.209083e+00 2.218208e+00 2.232771e+00 2.283559e+00 2.239193e+00 2.047859e+00 1.971575e+00 1.693980e+00 1.231300e+00 8.181775e-02 1.750730e-01 1.864132e-01 3.928240e-01 3.576256e-01 3.415412e-01 3.638901e-01 3.555706e-01 3.541964e-01 3.306745e-01 3.237172e-01 2.701971e-01 2.026021e-01
<GCONST> 1.137388e+02
<STATE> 4
<MEAN> 39
 -2.582079e+00 -5.987202e+00 -1.076578e+00 -1.099284e+01 -6.018971e+00 -4.315372e+00 -5.330897e+00 -1.772299e+00 3.419556e-01 -1.157208e+00 -2.327718e+00 -1.824528e+00 6.796543e+01 -5.824076e-02 5.067054e-02 5.856420e-02 -2.419838e-03 1.462583e-01 2.804978e-01 1.696248e-01 3.129434e-02 -1.569602e-01 5.776678e-02 1.153260e-01 6.846990e-02 -2.461979e-01 -1.812850e-02 -2.173372e-03 4.327268e-02 8.225730e-02 -4.496174e-03 7.263388e-03 2.312207e-02 1.877674e-02 -4.963261e-02 -1.263815e-02 9.423845e-03 9.207371e-03 -3.274139e-02
<VARIANCE> 39
 2.423648e+01 3.183488e+01 6.561340e+01 9.063929e+01 7.629317e+01 7.478126e+01 7.422332e+01 6.298767e+01 5.252628e+01 5.593949e+01 5.807045e+01 4.352161e+01 5.561886e+01 5.426461e-01 1.129071e+00 1.402207e+00 2.379519e+00 2.024840e+00 2.056700e+00 2.021338e+00 2.049538e+00 2.062227e+00 1.966078e+00 1.844246e+00 1.620268e+00 1.098213e+00 8.870479e-02 1.648123e-01 1.865849e-01 3.644688e-01 3.304336e-01 3.279559e-01 3.396021e-01 3.306597e-01 3.419191e-01 3.235607e-01 3.070541e-01 2.636484e-01 1.785443e-01
<GCONST> 1.123449e+02
<TRANSP> 5
 0.000000e+00 1.000000e+00 0.000000e+00 0.000000e+00 0.000000e+00
 0.000000e+00 5.713725e-01 4.286275e-01 0.000000e+00 0.000000e+00
 0.000000e+00 0.000000e+00 5.612004e-01 4.387996e-01 0.000000e+00
 0.000000e+00 0.000000e+00 0.000000e+00 6.997239e-01 3.002761e-01
 0.000000e+00 0.000000e+00 0.000000e+00 0.000000e+00 0.000000e+00
<ENDHMM>
~h "ey"
<BEGINHMM>
<NUMSTATES> 5
<STATE> 2
<MEAN> 39
 -5.286576e+00 -5.905593e+00 5.412532e+00 -7.521693e+00 -1.171154e+01 -7.879395e+00 -2.556791e+00 2.247748e-02 -3.040850e+00 3.752729e-02 -1.347504e+00 -7.052531e-01 6.821249e+01 2.146089e-01 -5.432164e-02 1.872188e-01 -2.134351e-01 -6.463218e-01 -3.362753e-01 1.001685e-01 -1.633216e-02 -1.960896e-01 -4.429602e-02 -8.917883e-02 -6.424052e-02 2.944450e-01 -1.190277e-01 1.088926e-01 -6.745792e-02 1.103834e-01 2.634833e-01 1.920917e-01 -1.600263e-03 -3.235586e-02 4.475927e-02 1.182158e-02 3.328292e-02 1.566035e-02 -1.509686e-01
<VARIANCE> 39
 3.015073e+01 3.110400e+01 3.835249e+01 7.186512e+01 9.480817e+01 8.391618e+01 6.148347e+01 5.877833e+01 4.861794e+01 4.172271e+01 4.536792e+01 3.274950e+01 6.594340e+01 2.749703e+00 2.489858e+00 2.232610e+00 4.351428e+00 6.378861e+00 4.973494e+00 3.996366e+00 3.823109e+00 3.244023e+00 2.922770e+00 2.863748e+00 2.323469e+00 3.465205e+00 4.214578e-01 4.000068e-01 3.484830e-01 7.026918e-01 1.023265e+00 8.615639e-01 6.891365e-01 6.877558e-01 5.891230e-01 5.423270e-01 4.983670e-01 4.126695e-01 5.528985e-01
<GCONST> 1.311173e+02
<STATE> 3
<MEAN> 39
 -5.094029e+00 -5.820024e+00 5.649918e+00 -7.844586e+00 -1.251683e+01 -8.208983e+00 -2.504145e+00 -1.347532e-01 -3.399621e+00 -5.272132e-02 -1.509783e+00 -8.620631e-01 6.871114e+01 -4.358430e-03 1.905200e-01 2.625081e-02 1.076399e-01 2.515858e-02 4.483212e-02 3.323790e-02 -7.064538e-02 -9.276060e-02 -8.144403e-02 -2.603404e-02 -3.021023e-02 -5.053421e-02 -1.274292e-01 1.174471e-01 -7.427786e-02 1.575044e-01 3.389710e-01 2.041340e-01 -1.688134e-02 -2.454210e-02 6.155799e-02 5.788370e-03 3.777386e-02 2.557982e-02 -1.887507e-01
<VARIANCE> 39
 2.796548e+01 3.152601e+01 3.772134e+01 7.184357e+01 9.415017e+01 8.157070e+01 6.012033e+01 6.092779e+01 4.829244e+01 4.248048e+01 4.521013e+01 3.233497e+01 5.955058e+01 2.321681e+00 2.562975e+00 2.162919e+00 4.414673e+00 6.196097e+00 4.556084e+00 3.780811e+00 3.643857e+00 3.115053e+00 2.851183e+00 2.687327e+00 2.235736e+00 3.640914e+00 3.930787e-01 4.130056e-01 3.439647e-01 6.873162e-01 9.493765e-01 7.909920e-01 6.721402e-01 6.773773e-01 5.640291e-01 5.374759e-01 4.831620e-01 4.035690e-01 4.984654e-01
<GCONST> 1.299313e+02
<STATE> 4
<MEAN> 39
 -5.409163e+00 -5.165576e+00 5.584977e+00 -7.114024e+00 -1.194538e+01 -7.459753e+00 -2.436490e+00 -3.832925e-01 -3.451499e+00 -2.802548e-01 -1.404359e+00 -8.056657e-01 6.800051e+01 -2.236909e-01 3.809328e-01 -1.377387e-01 4.486649e-01 7.352850e-01 3.853584e-01 2.063775e-02 -6.627742e-02 4.881821e-02 -8.941308e-02 4.933383e-02 4.576611e-02 -4.455043e-01 -1.169184e-01 4.862444e-02 -6.124622e-02 7.311075e-02 2.278548e-01 1.451714e-01 1.257392e-02 6.205763e-03 6.100625e-02 3.472163e-02 3.512682e-02 3.043105e-02 -1.159004e-01
<VARIANCE> 39
 3.080327e+01 3.362553e+01 3.717087e+01 6.983720e+01 9.842164e+01 7.958604e+01 5.827570e+01 6.105521e+01 4.813256e+01 4.211585e+01 4.530734e+01 3.283145e+01 6.084792e+01 2.480402e+00 2.481608e+00 2.122110e+00 3.999606e+00 5.505264e+00 4.119410e+00 3.655088e+00 3.598927e+00 3.099385e+00 2.902000e+00 2.671818e+00 2.230509e+00 3.081020e+00 3.681039e-01 4.037135e-01 3.403897e-01 6.325681e-01 8.726130e-01 6.962844e-01 6.284699e-01 6.459081e-01 5.435385e-01 5.312352e-01 4.678430e-01 3.959696e-01 4.468478e-01
<GCONST> 1.288378e+02
<TRANSP> 5
 0.000000e+00 1.000000e+00 0.000000e+00 0.000000e+00 0.000000e+00
 0.000000e+00 4.783561e-01 5.216439e-01 0.000000e+00 0.000000e+00
 0.000000e+00 0.000000e+00 4.796342e-01 5.203658e-01 0.000000e+00
 0.000000e+00 0.000000e+00 0.000000e+00 5.784508e-01 4.215492e-01
 0.000000e+00 0.000000e+00 0.000000e+00 0.000000e+00 0.000000e+00
<ENDHMM>
~h "gg"
<BEGINHMM>
<NUMSTATES> 5
<STATE> 2
<MEAN> 39
 -1.673904e+00 -3.808697e+00 1.347597e+00 -1.212496e+01 -7.739414e+00 -4.071887e+00 -3.016681e+00 -2.951499e+00 -5.443452e+00 1.017815e+00 -1.906758e+00 3.195391e-01 6.597018e+01 1.073747e-01 -4.363977e-02 -4.286693e-01 -4.633442e-01 -1.135116e-02 5.051441e-01 4.784577e-01 1.856576e-01 -1.342603e-01 -2.888570e-01 -4.442950e-02 1.109519e-01 -5.054162e-04 -3.679650e-02 -4.941818e-02 2.312139e-02 1.215020e-01 3.954458e-03 -6.884085e-02 -5.752867e-02 4.729656e-02 8.021225e-02 -2.656901e-02 -3.489556e-03 -5.228301e-02 2.510075e-02
<VARIANCE> 39
 3.932174e+01 4.412964e+01 7.554939e+01 9.523051e+01 6.970650e+01 6.628452e+01 5.449020e+01 6.825497e+01 5.671474e+01 5.257632e+01 6.576767e+01 3.511754e+01 4.840794e+01 5.963830e-01 1.469035e+00 1.669704e+00 3.337455e+00 2.671906e+00 2.381815e+00 2.425415e+00 2.631696e+00 2.602216e+00 2.732781e+00 2.335259e+00 1.916609e+00 1.414297e+00 9.300067e-02 1.989526e-01 2.207715e-01 4.583362e-01 4.315176e-01 3.939558e-01 4.241274e-01 4.624729e-01 4.451852e-01 4.726058e-01 4.366551e-01 3.524711e-01 2.086090e-01
<GCONST> 1.187195e+02
<STATE> 3
<MEAN> 39
 -1.759879e+00 -3.999987e+00 7.324705e-01 -1.239694e+01 -7.600700e+00 -3.118418e+00 -2.065100e+00 -2.406768e+00 -5.383900e+00 2.930971e-01 -2.064629e+00 4.927504e-01 6.576617e+01 3.049679e-02 -1.202555e-01 -3.416154e-01 -1.202253e-01 9.275346e-02 3.131931e-01 2.826712e-01 2.044993e-01 4.792866e-02 -2.274866e-01 -2.144646e-02 -1.712884e-02 -9.542787e-03 -2.664216e-02 -3.795460e-02 1.853626e-02 1.085277e-01 5.683463e-02 -7.070955e-02 -1.047998e-01 -1.381091e-02 7.296917e-02 3.666978e-02 3.532231e-02 -6.062349e-02 1.942775e-02
<VARIANCE> 39
 4.193645e+01 4.810730e+01 7.737466e+01 1.016662e+02 6.850565e+01 6.612898e+01 5.134738e+01 6.784117e+01 5.734458e+01 5.008957e+01 6.288879e+01 3.570920e+01 5.335558e+01 5.179268e-01 1.165756e+00 1.412795e+00 2.734610e+00 2.175866e+00 1.979511e+00 2.028307e+00 2.202725e+00 2.204424e+00 2.357757e+00 1.975111e+00 1.746789e+00 1.141710e+00 7.928038e-02 1.916213e-01 2.010458e-01 3.895622e-01 3.526169e-01 3.296774e-01 3.546529e-01 3.890630e-01 3.816055e-01 4.188809e-01 3.794734e-01 3.157494e-01 1.807266e-01
<GCONST> 1.147787e+02
<STATE> 4
<MEAN> 39
 -4.497775e+00 -4.592289e+00 1.068351e+00 -8.285758e+00 -4.397128e+00 -4.498028e-01 -5.399704e-03 -6.937984e-01 -2.584740e+00 2.588931e-01 -5.844188e-01 1.507778e+00 6.170595e+01 -7.722662e-02 -8.550823e-02 -1.398178e-01 1.773311e-01 2.052032e-01 1.169697e-01 6.531762e-02 1.037140e-01 1.018670e-01 -7.743625e-02 3.480630e-02 -8.450244e-02 -4.785239e-02 -2.180462e-02 -2.042178e-02 1.736823e-02 5.765745e-02 3.665248e-02 -4.142573e-02 -7.375251e-02 -2.287919e-02 3.944867e-02 3.465069e-02 2.574541e-02 -3.286796e-02 1.749364e-02
<VARIANCE> 39
 5.075608e+01 3.787179e+01 6.099592e+01 1.081032e+02 6.790004e+01 5.829276e+01 4.387424e+01 5.797734e+01 5.994779e+01 4.150319e+01 5.364493e+01 3.436722e+01 7.455167e+01 5.621484e-01 9.986645e-01 1.238168e+00 2.070238e+00 1.698894e+00 1.610571e+00 1.799077e+00 1.931817e+00 1.959763e+00 2.111170e+00 1.809763e+00 1.536728e+00 9.393931e-01 8.525690e-02 1.704520e-01 1.854708e-01 3.146065e-01 3.019685e-01 2.831796e-01 3.123329e-01 3.458538e-01 3.568012e-01 3.782391e-01 3.548991e-01 2.896809e-01 1.383482e-01
<GCONST> 1.107912e+02
<TRANSP> 5
 0.000000e+00 1.000000e+00 0.000000e+00 0.000000e+00 0.000000e+00
 0.000000e+00 5.537366e-01 4.462633e-01 0.000000e+00 0.000000e+00
 0.000000e+00 0.000000e+00 5.396317e-01 4.603683e-01 0.000000e+00
 0.000000e+00 0.000000e+00 0.000000e+00 7.463890e-01 2.536110e-01
 0.000000e+00 0.000000e+00 0.000000e+00 0.000000e+00 0.000000e+00
<ENDHMM>
~h "hh"
<BEGINHMM>
<NUMSTATES> 5
<STATE> 2
<MEAN> 39
 -7.113283e+00 -5.180583e+00 2.807072e+00 -6.680556e+00 -1.487496e+00 -8.964187e-02 -1.049025e+00 -6.418669e-02 -2.841894e+00 4.817913e-01 -1.722024e+00 6.126550e-02 6.493107e+01 -2.901261e-01 -1.440335e-02 -2.655504e-01 -4.767843e-02 5.399978e-01 5.108008e-01 3.127003e-01 1.315408e-01 1.111501e-01 1.957920e-01 2.053086e-01 1.595234e-01 -3.378153e-01 1.298612e-01 1.730996e-02 7.649899e-03 -1.209743e-01 -2.817787e-01 -1.198732e-01 -3.631635e-02 -8.843490e-02 -7.326994e-02 -7.437818e-02 4.439116e-03 -4.492166e-02 9.541043e-02
<VARIANCE> 39
 3.674765e+01 3.065652e+01 6.293415e+01 7.050297e+01 9.906699e+01 5.641528e+01 5.345509e+01 5.486971e+01 4.883245e+01 5.587913e+01 4.419057e+01 2.840137e+01 4.082841e+01 1.971671e+00 1.894469e+00 3.168358e+00 3.698972e+00 6.131037e+00 3.527420e+00 3.458456e+00 3.944391e+00 3.737517e+00 3.630023e+00 2.843270e+00 2.506455e+00 1.247778e+00 2.825628e-01 3.243482e-01 4.195734e-01 5.830881e-01 8.593170e-01 5.701119e-01 6.222414e-01 7.120787e-01 7.008558e-01 6.735470e-01 5.368502e-01 4.628529e-01 1.672149e-01
<GCONST> 1.274724e+02
<STATE> 3
<MEAN> 39
 -7.390464e+00 -5.089406e+00 2.368951e+00 -6.986487e+00 -1.187280e+00 6.194159e-01 -4.390653e-01 1.551750e-02 -2.794787e+00 6.060631e-01 -1.306032e+00 2.688428e-01 6.442637e+01 7.777177e-03 7.203795e-02 -2.024858e-01 -2.044007e-01 -6.825959e-02 2.144867e-01 2.076253e-01 -4.991691e-02 -2.928963e-02 -2.116266e-02 1.541344e-01 5.294945e-02 -1.559543e-01 1.734911e-01 3.772135e-02 3.372274e-02 -7.672827e-02 -2.881212e-01 -1.575163e-01 -7.244442e-02 -9.791026e-02 -7.650413e-02 -1.088307e-01 -3.450033e-02 -6.542910e-02 9.555922e-02
<VARIANCE> 39
 3.894634e+01 3.026455e+01 6.250837e+01 6.984501e+01 9.730616e+01 5.409919e+01 5.142855e+01 5.302435e+01 4.739725e+01 5.508327e+01 4.370134e+01 2.858604e+01 4.183906e+01 1.764876e+00 1.628296e+00 2.518760e+00 3.192335e+00 5.409475e+00 3.152467e+00 3.092134e+00 3.413779e+00 3.302988e+00 3.295607e+00 2.650412e+00 2.307757e+00 1.109557e+00 2.685294e-01 2.846169e-01 3.796103e-01 5.318510e-01 7.784140e-01 5.201201e-01 5.669144e-01 6.325103e-01 6.288881e-01 6.253070e-01 5.056618e-01 4.421507e-01 1.606238e-01
<GCONST> 1.246164e+02
<STATE> 4
<MEAN> 39
 -7.418061e+00 -4.693848e+00 2.419237e+00 -6.343057e+00 -1.789996e+00 1.486738e+00 5.285225e-01 1.129696e-01 -2.413185e+00 3.433086e-01 -6.182107e-01 6.146066e-01 6.235663e+01 2.528694e-01 1.067388e-01 -8.096596e-02 -2.080925e-01 -4.382287e-01 -7.612579e-02 1.485428e-02 -1.732542e-01 -9.932503e-02 -1.740142e-01 2.261486e-02 -6.970859e-02 -3.267937e-03 1.298597e-01 9.130393e-03 2.683016e-02 -3.465742e-02 -1.558208e-01 -1.284445e-01 -9.122557e-02 -6.061414e-02 -5.086217e-02 -5.552105e-02 -4.219671e-02 -6.135702e-02 8.049455e-02
<VARIANCE> 39
 3.832215e+01 2.827512e+01 5.606454e+01 6.859415e+01 9.432768e+01 4.873344e+01 4.639089e+01 4.748449e+01 4.583002e+01 4.751799e+01 4.152086e+01 2.854735e+01 5.750038e+01 1.598587e+00 1.389330e+00 1.974682e+00 2.748173e+00 4.317732e+00 2.619728e+00 2.621473e+00 2.788325e+00 2.692728e+00 2.694155e+00 2.300410e+00 2.037843e+00 1.048605e+00 2.498757e-01 2.414840e-01 3.097981e-01 4.396089e-01 6.643044e-01 4.437760e-01 4.849064e-01 5.187342e-01 5.019172e-01 5.071486e-01 4.404368e-01 3.909353e-01 1.628767e-01
<GCONST> 1.199992e+02
<TRANSP> 5
 0.000000e+00 1.000000e+00 0.000000e+00 0.000000e+00 0.000000e+00
 0.000000e+00 4.847137e-01 5.152863e-01 0.000000e+00 0.000000e+00
 0.000000e+00 0.000000e+00 4.837433e-01 5.162567e-01 0.000000e+00
 0.000000e+00 0.000000e+00 0.000000e+00 6.469221e-01 3.530780e-01
 0.000000e+00 0.000000e+00 0.000000e+00 0.000000e+00 0.000000e+00
<ENDHMM>
~h "iy"
<BEGINHMM>
<NUMSTATES> 5
<STATE> 2
<MEAN> 39
 -7.078869e+00 -7.799571e-01 1.189903e+01 -7.223139e+00 -1.209832e+01 -5.153295e+00 -5.266496e+00 -5.932104e+00 -6.156332e+00 -2.955946e-01 -2.156725e+00 -9.078753e-01 6.650497e+01 3.880062e-01 2.729996e-01 9.869289e-01 -5.103996e-01 -9.254476e-01 -1.163717e-01 -5.278847e-01 -7.394492e-01 -5.284961e-01 -3.918947e-02 -3.689653e-01 -1.442444e-01 2.513089e-01 -8.817729e-02 -4.719649e-02 -2.737384e-01 1.151957e-01 2.820334e-01 9.991542e-02 1.083709e-01 2.009072e-01 1.705335e-01 2.786930e-02 6.427750e-02 4.101957e-02 -1.183336e-01
<VARIANCE> 39
 3.284983e+01 2.765914e+01 5.651588e+01 8.527428e+01 7.925523e+01 5.975393e+01 5.974336e+01 6.757769e+01 5.403748e+01 3.999238e+01 4.535564e+01 3.221425e+01 3.347384e+01 3.185360e+00 1.885696e+00 4.416884e+00 5.749380e+00 7.182932e+00 4.371434e+00 5.064646e+00 5.270468e+00 4.265461e+00 3.157534e+00 3.508095e+00 2.632162e+00 2.329850e+00 3.990118e-01 3.245489e-01 6.230392e-01 9.518481e-01 1.187549e+00 7.566113e-01 8.254398e-01 8.874418e-01 7.102681e-01 5.803144e-01 5.875534e-01 4.691702e-01 3.869952e-01
<GCONST> 1.335304e+02
<STATE> 3
<MEAN> 39
 -6.611642e+00 -3.266311e-01 1.306192e+01 -7.871183e+00 -1.307869e+01 -5.089655e+00 -5.979779e+00 -6.794511e+00 -6.711626e+00 -3.042111e-01 -2.690343e+00 -1.069492e+00 6.669779e+01 1.015746e-01 9.475310e-02 -4.554331e-03 5.886711e-02 4.542388e-02 4.805569e-02 -1.432107e-02 -3.314526e-02 -1.110075e-02 -1.150978e-02 -5.471936e-02 -3.789807e-02 -9.891062e-02 -1.098138e-01 -7.982135e-02 -3.697885e-01 1.919414e-01 3.666171e-01 6.149909e-02 1.843354e-01 2.604105e-01 1.989311e-01 9.168358e-03 1.082498e-01 4.260127e-02 -1.224548e-01
<VARIANCE> 39
 2.459817e+01 2.736024e+01 5.300273e+01 8.946924e+01 7.912063e+01 5.972203e+01 5.754118e+01 6.755707e+01 5.442218e+01 4.125995e+01 4.653990e+01 3.278856e+01 3.236481e+01 2.298113e+00 1.841915e+00 4.116239e+00 5.616838e+00 6.927906e+00 3.944355e+00 4.529118e+00 4.630328e+00 3.818148e+00 2.876268e+00 3.023971e+00 2.331717e+00 2.240313e+00 3.471156e-01 3.102992e-01 5.518118e-01 9.462304e-01 1.145542e+00 7.275734e-01 7.641910e-01 8.187986e-01 6.701058e-01 5.569687e-01 5.465779e-01 4.431123e-01 3.410984e-01
<GCONST> 1.309858e+02
<STATE> 4
<MEAN> 39
 -6.637034e+00 -2.758610e-01 1.178076e+01 -6.928947e+00 -1.214350e+01 -4.682290e+00 -5.406069e+00 -6.096510e+00 -5.946678e+00 -4.705323e-01 -2.326770e+00 -9.440379e-01 6.597174e+01 -6.467233e-02 -2.006121e-01 -8.615217e-01 4.044638e-01 7.554528e-01 5.768937e-02 4.298758e-01 5.863712e-01 4.042713e-01 -1.391356e-03 1.952398e-01 7.574870e-02 -2.710651e-01 -5.451587e-02 -9.647650e-02 -1.969278e-01 9.430496e-03 1.590445e-01 4.249730e-02 7.088678e-02 1.418016e-01 1.057544e-01 1.346436e-02 3.516781e-02 2.854796e-02 -1.275076e-02
<VARIANCE> 39
 2.890056e+01 2.802353e+01 5.427186e+01 8.432378e+01 8.795720e+01 6.056092e+01 5.893848e+01 6.747697e+01 5.310012e+01 3.982547e+01 4.519683e+01 3.197543e+01 3.931757e+01 2.134312e+00 1.818944e+00 3.195056e+00 4.652452e+00 6.046409e+00 3.766832e+00 3.976381e+00 4.215339e+00 3.563097e+00 2.827380e+00 2.775342e+00 2.245827e+00 2.119785e+00 2.819797e-01 2.864912e-01 4.673541e-01 7.792044e-01 1.028348e+00 6.583131e-01 6.705995e-01 7.175863e-01 6.106645e-01 5.230951e-01 4.894267e-01 4.094080e-01 3.175032e-01
<GCONST> 1.286236e+02
<TRANSP> 5
 0.000000e+00 1.000000e+00 0.000000e+00 0.000000e+00 0.000000e+00
 0.000000e+00 6.036370e-01 3.963630e-01 0.000000e+00 0.000000e+00
 0.000000e+00 0.000000e+00 6.033168e-01 3.966832e-01 0.000000e+00
 0.000000e+00 0.000000e+00 0.000000e+00 7.191485e-01 2.808516e-01
 0.000000e+00 0.000000e+00 0.000000e+00 0.000000e+00 0.000000e+00
<ENDHMM>
~h "ny"
<BEGINHMM>
<NUMSTATES> 5
<STATE> 2
<MEAN> 39
 -3.948280e+00 -2.305892e+00 6.576038e+00 -1.022418e+01 -9.308624e+00 -1.872827e+00 -4.322930e+00 -2.010679e-01 -4.571433e+00 -3.194470e+00 -6.030027e-01 -2.942550e+00 6.647174e+01 -6.638834e-02 8.113340e-02 -2.443028e-03 2.381091e-02 9.671342e-02 2.328350e-01 5.073132e-02 1.103052e-02 -1.758909e-02 -1.190059e-01 1.715171e-01 7.163333e-02 -1.969486e-01 9.196759e-04 -1.377910e-01 -9.615186e-02 7.753329e-02 6.708447e-02 -1.207429e-01 -8.399703e-03 9.606246e-02 6.075428e-02 1.709600e-02 -6.864893e-02 3.051181e-02 7.208440e-02
<VARIANCE> 39
 4.111350e+01 3.665965e+01 4.808819e+01 6.919382e+01 8.902982e+01 5.042958e+01 5.457354e+01 5.510975e+01 4.892588e+01 4.634939e+01 3.483548e+01 3.878436e+01 3.890246e+01 1.098930e+00 2.512067e+00 2.829113e+00 2.846793e+00 3.597018e+00 2.595067e+00 2.721651e+00 2.663747e+00 2.538155e+00 2.523428e+00 1.933490e+00 1.939341e+00 1.332462e+00 1.805818e-01 2.717128e-01 5.148574e-01 5.649117e-01 6.585448e-01 5.048790e-01 4.913600e-01 4.772594e-01 4.209875e-01 4.062214e-01 3.458444e-01 3.308982e-01 1.574456e-01
<GCONST> 1.203185e+02
<STATE> 3
<MEAN> 39
 -4.234550e+00 -2.913371e+00 6.294638e+00 -9.737700e+00 -8.719320e+00 -1.618555e+00 -3.979445e+00 2.635827e-01 -4.098581e+00 -3.358896e+00 -3.605905e-01 -2.438954e+00 6.610480e+01 -3.782023e-02 -2.068423e-01 -2.004707e-01 1.901369e-01 2.059207e-01 -6.241353e-03 2.921186e-02 2.009952e-01 1.774535e-01 -8.117692e-02 -7.588625e-03 1.389853e-01 -5.949389e-02 6.878552e-03 -7.262067e-02 -5.952824e-02 3.705435e-02 5.359980e-02 -6.147564e-02 -2.235940e-02 4.722214e-02 6.903253e-02 4.733994e-02 -6.434507e-02 3.642407e-03 3.747289e-02
<VARIANCE> 39
 4.352715e+01 3.513650e+01 4.892762e+01 6.559846e+01 9.191291e+01 4.934715e+01 5.824994e+01 5.219694e+01 5.038736e+01 4.587468e+01 3.396387e+01 3.895376e+01 4.550692e+01 8.403445e-01 2.125479e+00 2.701702e+00 2.531818e+00 3.280208e+00 2.432388e+00 2.575912e+00 2.433281e+00 2.376278e+00 2.344207e+00 1.742532e+00 1.954002e+00 1.049576e+00 1.406147e-01 2.551686e-01 4.729246e-01 5.036172e-01 6.278317e-01 4.900224e-01 4.772840e-01 4.349673e-01 4.032690e-01 4.017392e-01 3.237746e-01 3.211623e-01 1.370158e-01
<GCONST> 1.180961e+02
<STATE> 4
<MEAN> 39
 -6.709096e+00 -3.748755e+00 4.798180e+00 -5.792604e+00 -4.263338e+00 4.347405e-01 -1.677160e+00 1.549191e+00 -8.955420e-01 -1.610167e+00 6.182382e-01 -3.157121e-01 6.177819e+01 -4.794189e-02 -1.536345e-01 -1.998261e-01 1.962896e-01 1.962982e-01 -3.312837e-02 -1.277551e-02 1.125365e-01 2.202954e-01 9.244571e-02 -7.842749e-02 7.734953e-02 -3.847496e-02 5.400845e-03 -4.458217e-03 1.943972e-03 -2.124587e-02 1.315138e-02 -7.569973e-03 -1.789168e-02 -9.171477e-03 2.497296e-02 4.456436e-02 -1.845836e-02 -1.858707e-02 1.077027e-02
<VARIANCE> 39
 4.916012e+01 2.688927e+01 3.912823e+01 6.220640e+01 8.792510e+01 4.579184e+01 5.755321e+01 4.040786e+01 4.768755e+01 4.206821e+01 3.218127e+01 3.521146e+01 6.572721e+01 6.872552e-01 1.320498e+00 1.834801e+00 1.733065e+00 2.413296e+00 1.939341e+00 2.026365e+00 1.972546e+00 1.994355e+00 1.921756e+00 1.613212e+00 1.723327e+00 7.092978e-01 1.098783e-01 1.901852e-01 3.107496e-01 3.369006e-01 4.311311e-01 3.817399e-01 3.875101e-01 3.617587e-01 3.485052e-01 3.359427e-01 3.084536e-01 3.042640e-01 1.021813e-01
<GCONST> 1.108611e+02
<TRANSP> 5
 0.000000e+00 1.000000e+00 0.000000e+00 0.000000e+00 0.000000e+00
 0.000000e+00 5.765040e-01 4.234960e-01 0.000000e+00 0.000000e+00
 0.000000e+00 0.000000e+00 5.659572e-01 4.340428e-01 0.000000e+00
 0.000000e+00 0.000000e+00 0.000000e+00 7.913081e-01 2.086919e-01
 0.000000e+00 0.000000e+00 0.000000e+00 0.000000e+00 0.000000e+00
<ENDHMM>
~h "ow"
<BEGINHMM>
<NUMSTATES> 5
<STATE> 2
<MEAN> 39
 -1.891648e+00 -5.161962e+00 -1.393878e+00 -1.285087e+01 -3.361885e+00 -8.887214e-01 -5.649551e+00 -2.293418e+00 -2.105989e+00 9.544482e-01 -3.861862e-01 -1.619568e+00 6.584029e+01 1.745086e-01 3.107682e-02 -2.089271e-01 -2.972398e-01 2.271809e-01 3.726329e-01 2.874495e-02 -1.166185e-01 -4.080688e-02 6.450653e-03 9.552209e-02 -7.411217e-02 -9.704769e-02 -2.063393e-01 4.387946e-02 1.796973e-01 3.095639e-01 3.484100e-02 -6.626893e-02 1.175821e-01 5.905514e-02 9.974982e-03 -3.330853e-02 2.555356e-04 6.417442e-02 -1.141913e-01
<VARIANCE> 39
 4.255247e+01 2.539176e+01 5.025204e+01 1.045681e+02 5.445938e+01 5.996122e+01 7.495095e+01 4.926576e+01 5.302319e+01 4.532979e+01 5.566511e+01 3.626387e+01 5.015776e+01 2.584517e+00 1.650007e+00 2.891980e+00 6.089429e+00 3.489813e+00 3.380290e+00 3.960628e+00 3.394615e+00 3.568173e+00 3.170157e+00 2.976064e+00 2.521738e+00 1.874107e+00 3.840429e-01 2.892236e-01 4.324248e-01 9.503267e-01 5.857172e-01 5.857818e-01 6.906193e-01 6.249186e-01 6.552283e-01 5.775980e-01 5.559461e-01 4.598622e-01 2.760766e-01
<GCONST> 1.286797e+02
<STATE> 3
<MEAN> 39
 -2.090645e+00 -5.052519e+00 -1.363987e+00 -1.267733e+01 -2.816529e+00 -3.389606e-01 -5.280632e+00 -2.296143e+00 -2.140583e+00 8.459158e-01 -2.184300e-01 -1.580733e+00 6.537688e+01 -1.717876e-01 9.545323e-02 1.298673e-01 3.290918e-01 2.450295e-01 1.128542e-01 1.468738e-01 -9.355931e-03 2.607098e-02 -4.481727e-02 2.615641e-02 1.299389e-02 -2.556138e-01 -1.770573e-01 5.207825e-02 1.701422e-01 3.084099e-01 -9.650515e-03 -1.254370e-01 7.030677e-02 5.186144e-02 2.087872e-02 -2.968267e-02 -2.845893e-02 5.042527e-02 -7.866811e-02
<VARIANCE> 39
 4.285687e+01 2.482191e+01 4.921228e+01 1.109645e+02 5.353299e+01 5.863987e+01 7.621240e+01 4.884812e+01 5.209708e+01 4.473397e+01 5.495763e+01 3.617593e+01 5.429664e+01 2.176791e+00 1.632196e+00 2.606369e+00 5.809447e+00 3.045273e+00 3.078357e+00 3.508101e+00 3.125472e+00 3.387276e+00 2.991231e+00 2.760276e+00 2.336880e+00 1.709143e+00 3.588195e-01 2.805491e-01 4.219069e-01 9.516357e-01 5.459343e-01 5.402982e-01 6.431017e-01 5.955622e-01 6.176555e-01 5.604716e-01 5.265484e-01 4.437892e-01 2.577328e-01
<GCONST> 1.269436e+02
<STATE> 4
<MEAN> 39
 -3.663800e+00 -4.788957e+00 -2.864511e-01 -1.011551e+01 -1.675097e+00 4.416420e-01 -3.875153e+00 -1.623971e+00 -1.346169e+00 8.696229e-01 2.445065e-01 -8.401103e-01 6.306678e+01 -4.027930e-01 1.424441e-01 3.720991e-01 7.446995e-01 1.644500e-01 -1.552905e-01 1.836220e-01 6.875227e-02 9.699486e-02 -4.984400e-02 -4.816764e-02 7.147146e-02 -3.132647e-01 -1.060464e-01 3.649222e-02 9.437615e-02 1.385524e-01 -4.526518e-02 -9.511284e-02 3.705201e-02 4.289342e-02 4.444397e-03 -2.034219e-02 -2.082436e-02 3.101585e-02 -4.188362e-03
<VARIANCE> 39
 4.715964e+01 2.344916e+01 4.650607e+01 1.134516e+02 5.114430e+01 5.561327e+01 7.697440e+01 4.792499e+01 5.006989e+01 4.096447e+01 5.049582e+01 3.623008e+01 6.657185e+01 2.173268e+00 1.645668e+00 2.295401e+00 5.006644e+00 2.814759e+00 2.824006e+00 3.308423e+00 3.017982e+00 3.170171e+00 2.803547e+00 2.617014e+00 2.244600e+00 1.598174e+00 3.407765e-01 2.558030e-01 3.836017e-01 8.306683e-01 4.852779e-01 4.952001e-01 5.838387e-01 5.562658e-01 5.639932e-01 5.178311e-01 4.860875e-01 4.148389e-01 2.532828e-01
<GCONST> 1.249339e+02
<TRANSP> 5
 0.000000e+00 1.000000e+00 0.000000e+00 0.000000e+00 0.000000e+00
 0.000000e+00 4.770938e-01 5.229062e-01 0.000000e+00 0.000000e+00
 0.000000e+00 0.000000e+00 4.780051e-01 5.219949e-01 0.000000e+00
 0.000000e+00 0.000000e+00 0.000000e+00 6.188896e-01 3.811105e-01
 0.000000e+00 0.000000e+00 0.000000e+00 0.000000e+00 0.000000e+00
<ENDHMM>
~h "rr"
<BEGINHMM>
<NUMSTATES> 5
<STATE> 2
<MEAN> 39
 -2.321981e+00 -9.302354e+00 -2.062266e-01 -6.088275e+00 -6.688496e+00 -6.186125e+00 -5.722369e+00 8.114876e-01 -6.736935e-01 -7.594210e-01 -1.993546e+00 -3.094620e+00 6.921084e+01 3.339791e-01 -3.090469e-01 3.987510e-02 7.051736e-02 -1.556378e-01 -3.613069e-01 -3.183581e-01 1.235880e-01 8.760135e-02 1.249194e-01 7.632189e-02 -1.787522e-01 1.177186e-01 -3.024652e-02 2.923414e-02 3.892921e-02 -6.013798e-02 -6.215247e-02 -3.059758e-02 7.600752e-02 -1.175036e-02 -8.052517e-02 -9.366847e-04 -1.202248e-03 3.609361e-02 2.317161e-02
<VARIANCE> 39
 3.324140e+01 3.242266e+01 5.539023e+01 5.132002e+01 6.051577e+01 6.625857e+01 6.172214e+01 4.998194e+01 4.408060e+01 4.672102e+01 6.703574e+01 4.336376e+01 4.256540e+01 2.829101e+00 2.753002e+00 3.466527e+00 3.586869e+00 4.216457e+00 5.296190e+00 4.258315e+00 4.261794e+00 3.808950e+00 3.556664e+00 3.722632e+00 2.745075e+00 2.530262e+00 5.272716e-01 4.787901e-01 5.773691e-01 5.940333e-01 6.765461e-01 8.932952e-01 7.760068e-01 7.945364e-01 6.824666e-01 6.329623e-01 6.672038e-01 5.055664e-01 3.704128e-01
<GCONST> 1.323826e+02
<STATE> 3
<MEAN> 39
 -1.630987e+00 -9.980375e+00 2.781272e-02 -6.114637e+00 -7.263141e+00 -7.076658e+00 -6.178830e+00 1.079855e+00 -7.666659e-01 -4.640443e-01 -1.833602e+00 -3.470499e+00 6.959722e+01 2.306118e-01 -2.059991e-01 1.332704e-01 -9.015569e-02 -3.366606e-01 -4.202033e-01 -5.132499e-02 1.178945e-01 -1.600921e-01 9.567180e-02 8.637765e-04 -5.224860e-02 1.650523e-01 -7.325780e-02 9.190076e-02 3.878421e-02 -4.507688e-02 -4.103211e-02 1.478303e-02 1.089662e-01 -2.843319e-02 -8.406115e-02 -1.939199e-02 -2.792709e-02 5.830013e-02 -7.571706e-03
<VARIANCE> 39
 3.354440e+01 3.246371e+01 5.784054e+01 4.972448e+01 5.967071e+01 6.760463e+01 6.087233e+01 5.033292e+01 4.519594e+01 4.529820e+01 7.097259e+01 4.498110e+01 3.415744e+01 2.727908e+00 2.744043e+00 3.395126e+00 3.216625e+00 4.002728e+00 5.168467e+00 4.236911e+00 4.339437e+00 3.890476e+00 3.479396e+00 3.523615e+00 2.688962e+00 2.071177e+00 5.314354e-01 5.126311e-01 5.609592e-01 5.595664e-01 6.711777e-01 8.879060e-01 7.607092e-01 8.143749e-01 6.988199e-01 6.274357e-01 6.484425e-01 4.962240e-01 3.289786e-01
<GCONST> 1.315894e+02
<STATE> 4
<MEAN> 39
 -8.620305e-01 -1.061629e+01 -1.363959e-01 -6.333208e+00 -8.689194e+00 -8.128287e+00 -6.057592e+00 1.545723e+00 -1.465450e+00 -2.229843e-01 -1.931768e+00 -3.822896e+00 7.026463e+01 -1.718128e-02 1.105703e-01 2.501410e-01 -1.608840e-01 -3.725747e-01 -2.690538e-01 1.993593e-01 2.307498e-02 -3.234827e-01 6.781313e-03 -7.930574e-02 1.500021e-01 7.056226e-02 -1.294858e-01 1.677473e-01 5.280731e-02 1.404412e-02 7.567750e-02 1.240152e-01 7.893141e-02 -7.852584e-02 -1.477808e-02 -2.952242e-02 1.578320e-03 6.476269e-02 -8.507066e-02
<VARIANCE> 39
 2.932708e+01 3.267806e+01 6.610969e+01 5.014399e+01 6.667842e+01 7.538893e+01 6.210674e+01 5.268248e+01 4.841421e+01 4.244926e+01 7.374995e+01 4.843512e+01 3.063259e+01 2.326103e+00 2.733273e+00 3.060100e+00 3.028136e+00 3.960265e+00 4.778632e+00 3.909087e+00 4.188299e+00 3.836832e+00 3.245317e+00 3.168859e+00 2.604233e+00 1.790809e+00 4.073120e-01 4.710876e-01 4.853139e-01 5.068019e-01 6.767122e-01 8.102713e-01 6.949780e-01 7.760375e-01 6.877809e-01 5.848881e-01 5.873254e-01 4.805153e-01 2.868211e-01
<GCONST> 1.298262e+02
<TRANSP> 5
 0.000000e+00 1.000000e+00 0.000000e+00 0.000000e+00 0.000000e+00
 0.000000e+00 6.078700e-01 3.921300e-01 0.000000e+00 0.000000e+00
 0.000000e+00 0.000000e+00 6.129409e-01 3.870591e-01 0.000000e+00
 0.000000e+00 0.000000e+00 0.000000e+00 7.148870e-01 2.851130e-01
 0.000000e+00 0.000000e+00 0.000000e+00 0.000000e+00 0.000000e+00
<ENDHMM>
~h "rx"
<BEGINHMM>
<NUMSTATES> 5
<STATE> 2
<MEAN> 39
 -2.335489e+00 -8.568778e+00 1.908701e+00 -7.084981e+00 -8.334629e+00 -6.171820e+00 -5.702216e+00 5.433071e-01 -1.218743e+00 -3.608930e-01 -1.777640e+00 -2.288232e+00 6.853161e+01 2.523620e-01 -1.198895e-01 2.309422e-01 2.702462e-01 -8.529977e-02 -2.029141e-01 -3.793608e-01 6.025182e-02 3.955236e-02 -9.730448e-02 -1.147786e-02 -9.012111e-02 -6.539593e-02 -9.825604e-02 6.680275e-02 4.621254e-04 -6.847843e-02 8.816539e-02 1.230255e-01 1.457943e-01 -4.446025e-02 -8.816744e-02 2.533697e-02 2.289457e-02 4.798600e-02 -5.961409e-02
<VARIANCE> 39
 3.213690e+01 4.039249e+01 5.708344e+01 6.561290e+01 7.424900e+01 6.578757e+01 6.440244e+01 5.729834e+01 4.980031e+01 4.453664e+01 5.243780e+01 4.057780e+01 4.816051e+01 2.613398e+00 3.425105e+00 3.534066e+00 5.821909e+00 6.010890e+00 4.730031e+00 4.794055e+00 4.577426e+00 4.211525e+00 3.782314e+00 3.534056e+00 3.036742e+00 4.131739e+00 4.218993e-01 5.584111e-01 5.575834e-01 1.044698e+00 1.057487e+00 8.373526e-01 8.626996e-01 8.207950e-01 7.667636e-01 7.141812e-01 6.733400e-01 5.655554e-01 7.061617e-01
<GCONST> 1.368667e+02
<STATE> 3
<MEAN> 39
 -2.108531e+00 -8.678188e+00 2.292278e+00 -6.760705e+00 -8.281257e+00 -6.259339e+00 -6.046863e+00 5.930285e-01 -1.338809e+00 -4.839456e-01 -1.730430e+00 -2.324368e+00 6.830916e+01 2.032059e-04 4.796899e-02 1.578333e-01 2.355941e-03 7.665077e-02 4.728952e-02 -2.620135e-03 -3.942724e-02 -1.998655e-01 -3.241505e-02 1.336788e-02 1.482443e-03 -8.147062e-02 -1.228682e-01 8.380499e-02 -4.791530e-02 -1.075121e-01 6.799557e-02 1.148905e-01 1.730912e-01 -6.228610e-02 -8.821309e-02 3.240361e-02 4.824968e-03 4.275820e-02 -6.824464e-03
<VARIANCE> 39
 3.170340e+01 4.226934e+01 5.781669e+01 6.402763e+01 7.408771e+01 6.418135e+01 6.561065e+01 5.858215e+01 5.113801e+01 4.468958e+01 5.343026e+01 4.042434e+01 4.593223e+01 2.498823e+00 3.696686e+00 3.704954e+00 5.845969e+00 5.957430e+00 4.677692e+00 4.861825e+00 4.779575e+00 4.334301e+00 3.894988e+00 3.582672e+00 3.060989e+00 3.855291e+00 3.962806e-01 5.879681e-01 5.628457e-01 1.074270e+00 1.075099e+00 8.343907e-01 8.700767e-01 8.486473e-01 7.988468e-01 7.360768e-01 6.831223e-01 5.680091e-01 6.544802e-01
<GCONST> 1.371237e+02
<STATE> 4
<MEAN> 39
 -2.342712e+00 -8.406031e+00 2.283423e+00 -6.929423e+00 -7.975282e+00 -5.723874e+00 -5.577382e+00 5.158221e-01 -1.909727e+00 -4.839746e-01 -1.654190e+00 -2.260731e+00 6.801828e+01 -2.303973e-01 2.426737e-01 5.347005e-02 -1.449495e-01 2.016159e-01 2.376016e-01 2.996531e-01 -1.787816e-01 -3.113512e-01 1.637903e-02 8.578751e-03 8.321886e-02 -1.120503e-01 -9.576909e-02 7.234473e-02 -3.956975e-02 -1.271452e-02 4.507838e-02 6.425177e-02 9.379985e-02 -5.063129e-02 -2.178491e-04 1.045987e-02 4.602379e-03 3.756652e-02 -2.311662e-02
<VARIANCE> 39
 3.340968e+01 4.549955e+01 6.142669e+01 6.489374e+01 7.792689e+01 6.661863e+01 6.784806e+01 6.183354e+01 5.356529e+01 4.599892e+01 5.480041e+01 4.172278e+01 5.172224e+01 2.201430e+00 3.240224e+00 3.436371e+00 5.065290e+00 5.372291e+00 4.171958e+00 4.497582e+00 4.423239e+00 4.094883e+00 3.674889e+00 3.388255e+00 2.847953e+00 3.306271e+00 3.364038e-01 5.281787e-01 5.142805e-01 9.131080e-01 9.497903e-01 7.490318e-01 7.980745e-01 7.889823e-01 7.371091e-01 6.830437e-01 6.301568e-01 5.254176e-01 5.381256e-01
<GCONST> 1.350787e+02
<TRANSP> 5
 0.000000e+00 1.000000e+00 0.000000e+00 0.000000e+00 0.000000e+00
 0.000000e+00 5.022389e-01 4.977612e-01 0.000000e+00 0.000000e+00
 0.000000e+00 0.000000e+00 5.053270e-01 4.946730e-01 0.000000e+00
 0.000000e+00 0.000000e+00 0.000000e+00 5.735716e-01 4.264284e-01
 0.000000e+00 0.000000e+00 0.000000e+00 0.000000e+00 0.000000e+00
<ENDHMM>
~h "uw"
<BEGINHMM>
<NUMSTATES> 5
<STATE> 2
<MEAN> 39
 -1.502022e+00 -2.142226e+00 8.230400e-01 -1.131292e+01 -5.180794e+00 -2.556190e+00 -7.531792e+00 -4.326457e+00 -4.456668e+00 -6.545451e-01 -1.252558e+00 -1.222053e+00 6.523596e+01 9.271418e-01 2.955408e-01 -1.792730e-01 -5.962441e-01 -3.878669e-01 -1.473850e-02 -6.887221e-01 -8.232808e-01 -5.012280e-01 -7.913786e-02 -4.870725e-02 -1.933744e-01 1.905915e-01 -2.218363e-01 -3.627694e-02 9.643588e-02 1.997514e-01 6.616006e-02 2.748878e-02 1.761178e-01 1.145254e-01 9.547962e-02 8.560688e-03 2.134201e-03 3.797535e-02 -6.396318e-02
<VARIANCE> 39
 4.557477e+01 2.987031e+01 4.654561e+01 7.355778e+01 5.984365e+01 5.576390e+01 7.797372e+01 7.052871e+01 6.098371e+01 5.019636e+01 5.030872e+01 3.666703e+01 3.002188e+01 3.945115e+00 2.252748e+00 2.926840e+00 5.633036e+00 4.470268e+00 4.159555e+00 6.189607e+00 6.048664e+00 5.155582e+00 4.029886e+00 3.993107e+00 3.077010e+00 1.716663e+00 5.190563e-01 3.673795e-01 4.648662e-01 9.431944e-01 7.562171e-01 7.783358e-01 1.074488e+00 1.039831e+00 9.336087e-01 7.767887e-01 7.444915e-01 5.815160e-01 2.721412e-01
<GCONST> 1.349606e+02
<STATE> 3
<MEAN> 39
 -3.002501e-01 -1.694634e+00 7.468116e-01 -1.194686e+01 -5.776809e+00 -2.582140e+00 -8.477376e+00 -5.640196e+00 -5.184146e+00 -8.337442e-01 -1.346101e+00 -1.549846e+00 6.554704e+01 1.909184e-01 9.499224e-02 1.600196e-01 1.389267e-01 -1.159111e-01 -8.200962e-02 -1.769305e-01 -2.787816e-01 -8.023254e-02 -8.118941e-02 -1.425571e-01 -1.186284e-01 2.707848e-02 -2.993040e-01 -6.709493e-02 1.299898e-01 2.835878e-01 9.757405e-02 -2.194903e-02 2.256183e-01 2.461905e-01 1.669859e-01 -4.529295e-04 -3.750634e-02 3.648926e-02 -7.895640e-02
<VARIANCE> 39
 3.165234e+01 2.828492e+01 4.728982e+01 7.309001e+01 5.748407e+01 5.426843e+01 7.650150e+01 6.922945e+01 6.029330e+01 5.276320e+01 5.257635e+01 3.700307e+01 2.558283e+01 3.108894e+00 2.111541e+00 3.022256e+00 6.145874e+00 4.320651e+00 4.066296e+00 5.994919e+00 5.778854e+00 5.261869e+00 4.178427e+00 4.001860e+00 3.024824e+00 1.659345e+00 4.253093e-01 3.379444e-01 4.892071e-01 9.601610e-01 7.430020e-01 7.546388e-01 1.083588e+00 1.036231e+00 9.558977e-01 8.140805e-01 7.808163e-01 5.937073e-01 2.400702e-01
<GCONST> 1.338234e+02
<STATE> 4
<MEAN> 39
 -6.651521e-01 -1.659948e+00 1.368612e+00 -1.067504e+01 -5.876574e+00 -2.836460e+00 -8.493111e+00 -5.572236e+00 -4.791412e+00 -1.268521e+00 -1.899973e+00 -1.819116e+00 6.534464e+01 -4.455675e-01 -9.043036e-02 4.147803e-01 7.341572e-01 1.222625e-01 -1.582881e-01 3.046034e-01 3.121728e-01 2.961956e-01 -5.323968e-02 -2.192161e-01 -3.080628e-02 -1.467206e-01 -1.779096e-01 -5.370804e-02 3.611665e-02 8.444554e-02 3.927507e-02 1.490081e-02 1.682721e-01 1.808457e-01 7.427905e-02 1.412021e-02 1.756052e-02 4.628953e-02 -4.068781e-02
<VARIANCE> 39
 3.367668e+01 2.876181e+01 5.105775e+01 7.634703e+01 6.197162e+01 5.459694e+01 7.529762e+01 6.907837e+01 5.835923e+01 5.334354e+01 5.335445e+01 3.690215e+01 2.742256e+01 2.544246e+00 2.017379e+00 3.088273e+00 5.568390e+00 4.074893e+00 4.007619e+00 5.756692e+00 5.523870e+00 4.910557e+00 4.071564e+00 4.021412e+00 2.957316e+00 1.751357e+00 3.334265e-01 3.222829e-01 5.119981e-01 9.385318e-01 7.013683e-01 7.235112e-01 9.880084e-01 9.642951e-01 9.163960e-01 7.885624e-01 7.643419e-01 5.684596e-01 2.457131e-01
<GCONST> 1.329568e+02
<TRANSP> 5
 0.000000e+00 1.000000e+00 0.000000e+00 0.000000e+00 0.000000e+00
 0.000000e+00 5.882064e-01 4.117936e-01 0.000000e+00 0.000000e+00
 0.000000e+00 0.000000e+00 5.943130e-01 4.056870e-01 0.000000e+00
 0.000000e+00 0.000000e+00 0.000000e+00 7.101197e-01 2.898803e-01
 0.000000e+00 0.000000e+00 0.000000e+00 0.000000e+00 0.000000e+00
<ENDHMM>
~h "sil"
<BEGINHMM>
<NUMSTATES> 5
<STATE> 2
<MEAN> 39
 -9.533482e+00 -5.128600e+00 4.203773e+00 -1.471616e+00 -2.922626e-01 1.763849e+00 1.575986e+00 1.274095e+00 1.716773e+00 1.226849e+00 2.378372e+00 2.450782e+00 5.605906e+01 -8.878738e-03 3.667492e-03 1.647192e-02 8.322518e-03 -1.967027e-02 -1.466105e-03 -2.475911e-03 -1.159910e-02 2.085697e-02 1.622784e-02 1.658652e-02 1.526722e-02 -2.831392e-02 1.183517e-03 4.658523e-03 1.116016e-03 -7.446809e-04 4.105192e-03 1.494217e-03 -2.572918e-03 -1.300639e-03 -5.540676e-03 -5.462322e-03 -6.865855e-03 -7.816592e-03 7.318067e-03
<VARIANCE> 39
